-1.501331776380538940e-01,4.999334737658500671e-02,6.953199952840805054e-02,3.979608789086341858e-02,-1.341012716293334961e-01,-3.953025862574577332e-02,-1.103306338191032410e-01,2.056993730366230011e-02,-9.282528609037399292e-02,1.591788977384567261e-01,-3.654886782169342041e-02,-1.458240952342748642e-02,-1.382126957178115845e-01,-7.594936527311801910e-03,6.958539038896560669e-02,1.986287981271743774e-01,2.585561480373144150e-03,-5.516695603728294373e-02,1.887732744216918945e-02,1.220193225890398026e-02,9.997789748013019562e-03,1.100049018859863281e-01,-1.791254132986068726e-01,2.987654320895671844e-02,4.383057355880737305e-02,4.581299796700477600e-02,2.682831883430480957e-02,-6.826632469892501831e-02,-2.404549531638622284e-02,-1.615315093658864498e-03,-2.454892918467521667e-02,-1.933070719242095947e-01,-9.015244990587234497e-02,1.754609942436218262e-01,-1.607188023626804352e-02,1.296365112066268921e-01,5.991212651133537292e-02,3.415744006633758545e-02,1.075111180543899536e-01,1.356273889541625977e-02,-5.566471815109252930e-02,-1.005477234721183777e-01,-3.686109557747840881e-03,-1.422984618693590164e-02,2.580221556127071381e-02,1.829801946878433228e-01,-3.032015636563301086e-02,1.547968667000532150e-02,-8.280708640813827515e-02,1.637294292449951172e-01,1.377911865711212158e-01,1.352680921554565430e-01,2.905416488647460938e-02,-7.963607460260391235e-02,-5.338026210665702820e-02,-3.444248065352439880e-02,7.068964093923568726e-02,5.327050015330314636e-02,-1.606278307735919952e-02,1.354654282331466675e-01,1.178580150008201599e-02,-6.696697324514389038e-02,1.529309898614883423e-02,1.376446336507797241e-01,-1.034964248538017273e-01,-1.947728246450424194e-01,1.106146350502967834e-01,-2.267720364034175873e-02,-1.361614763736724854e-01,7.869302481412887573e-02,2.932900004088878632e-02,2.807392738759517670e-02,1.433705538511276245e-01,3.213617950677871704e-02,-8.059598505496978760e-02,3.594390302896499634e-02,5.812909826636314392e-02,8.830463886260986328e-02,2.126395516097545624e-02,1.174728870391845703e-01,8.093816041946411133e-02,-1.763320118188858032e-01,1.848917007446289062e-01,5.754600837826728821e-02,-1.391748338937759399e-02,-1.086166277527809143e-01,-1.326903998851776123e-01,-8.806587196886539459e-03,1.227842178195714951e-02,-1.654934287071228027e-01,1.116479784250259399e-01,-3.747379407286643982e-02,1.329491287469863892e-01,2.763705514371395111e-02,-4.647903144359588623e-02,4.227118194103240967e-02,7.733085006475448608e-02,-1.085634157061576843e-01,-1.798632591962814331e-01,9.285748004913330078e-03,-1.333271712064743042e-01,-1.616360545158386230e-01,-9.134194813668727875e-03,-1.635513305664062500e-01,-2.095980755984783173e-02,3.537234291434288025e-02,-1.566868089139461517e-02,-6.498886644840240479e-02,-8.770485967397689819e-02,-2.722881175577640533e-02,1.831459105014801025e-01,-9.205448441207408905e-03,-2.124624140560626984e-02,-1.339209824800491333e-01,-1.291579660028219223e-02,1.739587634801864624e-01,-2.295642346143722534e-02,7.853297144174575806e-02,-7.978483289480209351e-02,-2.065360918641090393e-02,-3.285225480794906616e-02,-3.972571715712547302e-02,1.465106606483459473e-01,7.815716415643692017e-02,2.566266618669033051e-02,1.557153761386871338e-01,8.540316671133041382e-02,1.233396213501691818e-02,-1.476359814405441284e-01,4.303884506225585938e-02,1.958913914859294891e-02,-1.236666589975357056e-01,6.533094495534896851e-02,-4.995299130678176880e-02,1.087544206529855728e-02,1.250473558902740479e-01,1.523964572697877884e-02,-1.065916568040847778e-02,4.774915799498558044e-02,-5.150102451443672180e-02,-7.802487164735794067e-02,-5.004988983273506165e-02,-4.297756776213645935e-02,3.492738679051399231e-02,7.681114226579666138e-02,-8.878877758979797363e-02,-3.002171777188777924e-02,4.036518558859825134e-02,6.506325304508209229e-02,-8.701786398887634277e-03,-1.638150364160537720e-01,-2.291164360940456390e-02,5.280559137463569641e-02,9.475510567426681519e-02,4.598878696560859680e-02,-3.461620362941175699e-04,4.771448671817779541e-02,9.096642583608627319e-02,-1.264009904116392136e-02,-1.738964170217514038e-01,2.274925448000431061e-02,-4.202422278467565775e-04,-7.603952288627624512e-02,-6.300501525402069092e-02,-4.268872737884521484e-02,-3.314788639545440674e-02,2.057594992220401764e-02,5.799021944403648376e-02,1.565255373716354370e-01,1.166574135422706604e-01,5.981245636940002441e-02,-8.932957053184509277e-02,1.652328222990036011e-01,5.215694662183523178e-03,1.600137650966644287e-01,-1.387001872062683105e-01,9.873976558446884155e-02,3.519922494888305664e-02,5.917831137776374817e-02,7.257577776908874512e-02,1.420193761587142944e-01,8.683931082487106323e-02,9.960230439901351929e-02,-5.851865932345390320e-02,1.257226467132568359e-01,2.201356738805770874e-02,-4.716889467090368271e-03,-2.596800588071346283e-02,-9.577314369380474091e-03,1.556438654661178589e-01,4.742305353283882141e-02,2.782712876796722412e-02,1.089437007904052734e-01,-4.487262666225433350e-02,2.554470859467983246e-02,-4.589835181832313538e-03,-1.217025145888328552e-01,-1.214280258864164352e-02,7.670276612043380737e-02,2.431108430027961731e-02,6.035376712679862976e-02,1.500437706708908081e-01,-1.418155282735824585e-01,2.157105319201946259e-02,9.294277429580688477e-02,-5.105396732687950134e-02,1.338946074247360229e-02,2.448771521449089050e-02,-1.009744331240653992e-01,4.140328615903854370e-02,1.147676035761833191e-01,-4.202710115350782871e-04,-7.781585305929183960e-02,-4.619886353611946106e-02,1.772561669349670410e-01,-1.520313508808612823e-02,9.888141602277755737e-02,6.175912544131278992e-02,-7.446232438087463379e-02,-1.882009021937847137e-02,-6.918422877788543701e-02,7.494910061359405518e-02,2.366180717945098877e-02,-4.034312441945075989e-02,4.333583638072013855e-02,1.298439204692840576e-01,3.217017743736505508e-03,-1.763531267642974854e-01,-1.042458340525627136e-01,-1.374622732400894165e-01,6.001114845275878906e-02,2.478263527154922485e-02,7.144545763731002808e-02,-5.189527198672294617e-02,-3.061622940003871918e-02,1.301514357328414917e-01,-2.740342356264591217e-02,-9.480120241641998291e-02,4.995185881853103638e-02,-2.244827337563037872e-02,9.957074373960494995e-02,-3.430990129709243774e-02,2.461153641343116760e-02,-6.463482230901718140e-02,5.861527845263481140e-02,2.246804535388946533e-02,-8.328890427947044373e-03,5.781127884984016418e-02,-5.864293128252029419e-02,9.949687868356704712e-02,-2.381081320345401764e-02,1.889706216752529144e-02,-1.633021682500839233e-01,1.174808517098426819e-01,-1.159262582659721375e-01,5.105254054069519043e-02,-2.165010012686252594e-02,-1.386514753103256226e-01,3.758976608514785767e-02,-7.648070901632308960e-02,-3.675270825624465942e-02,-1.342835277318954468e-01,-1.351301521062850952e-01,4.030693694949150085e-02,7.459986209869384766e-02,4.252952337265014648e-02,-2.291312627494335175e-02,5.859538912773132324e-02,3.488020226359367371e-02,6.406959146261215210e-02,1.142723485827445984e-01,-1.322114914655685425e-01,-7.697707414627075195e-02,1.067410334944725037e-01,4.474556446075439453e-02,2.965455316007137299e-02,-1.297627240419387817e-01,9.997570514678955078e-02,-1.505453288555145264e-01,4.129074886441230774e-02,1.057511121034622192e-01,-4.267637059092521667e-02,6.966579705476760864e-02,6.178827956318855286e-02,1.008079648017883301e-01,-1.529562175273895264e-01,-8.556802058592438698e-04,-1.986121945083141327e-02,-6.607155501842498779e-02,-8.815326541662216187e-02,1.131750568747520447e-01,-1.282262057065963745e-01,-3.633093088865280151e-02,1.415608525276184082e-01,-5.277706775814294815e-03,-1.157802343368530273e-01,1.743949800729751587e-01,3.616807237267494202e-02,-4.133495688438415527e-02,1.706846803426742554e-02,6.927938759326934814e-02,9.397323243319988251e-03,3.373551741242408752e-02,2.101966366171836853e-02,-9.091974794864654541e-02,6.204536557197570801e-02,-1.135844513773918152e-01,4.758842661976814270e-02,3.463101340457797050e-03,1.465379446744918823e-01,1.507420539855957031e-01,-5.055652465671300888e-03,-1.783635839819908142e-02,8.761392533779144287e-02,9.852748364210128784e-02,1.357357949018478394e-01,6.447617709636688232e-02,5.834522843360900879e-02,-6.817006319761276245e-02,3.445606306195259094e-02,3.094730712473392487e-02,6.930326670408248901e-02,-1.121392357163131237e-03,-7.467695325613021851e-02,6.511642131954431534e-03,5.547698214650154114e-02,-1.294453591108322144e-01,1.607879064977169037e-02,-9.938214719295501709e-02,1.091393157839775085e-01,1.238528490066528320e-01,-1.569167338311672211e-02,5.778893828392028809e-02,-3.116842173039913177e-02,-9.397161006927490234e-02,3.506182506680488586e-02,3.989728912711143494e-02,4.591520875692367554e-02,1.172213554382324219e-01,4.583434388041496277e-02,6.291716545820236206e-02,-9.026595950126647949e-02,-1.638536602258682251e-01,-7.534632086753845215e-02,-1.788012236356735229e-01,-4.947073757648468018e-02,3.159838542342185974e-02,-1.408962458372116089e-01,-1.485870219767093658e-02,5.455049499869346619e-02,1.039506569504737854e-01,7.523507624864578247e-02,-1.374367028474807739e-01,3.461145982146263123e-02,-2.961040474474430084e-02,-1.980969011783599854e-01,1.192606911063194275e-01,1.879499480128288269e-02,-1.954263746738433838e-01,-6.584594398736953735e-02,6.941893696784973145e-02,-2.609311416745185852e-02,1.185626629739999771e-02,-2.961780503392219543e-02,7.761814445257186890e-02,6.695579737424850464e-02,3.744904324412345886e-02,-1.126322709023952484e-02,-8.963122218847274780e-02,8.091539889574050903e-02,-1.352469027042388916e-01,9.067992120981216431e-02,-1.601026058197021484e-01,2.718832157552242279e-02,1.257192641496658325e-01,1.611970923840999603e-02,1.000791937112808228e-01,7.075578719377517700e-02,1.267836708575487137e-02,1.635790169239044189e-01,-1.629499904811382294e-02,3.344384580850601196e-02,1.011318191885948181e-01,-6.700395140796899796e-03,-5.725425481796264648e-02,4.053189884871244431e-03,-1.371423006057739258e-01,1.156698092818260193e-01,-1.162668466567993164e-01,1.216787025332450867e-01,4.974011704325675964e-02,-7.883534580469131470e-02,-7.729335874319076538e-02,9.925146400928497314e-02,1.172641292214393616e-01,2.752219513058662415e-02,-2.536912262439727783e-02,-2.138477191329002380e-02,1.118794679641723633e-01,-5.909467861056327820e-02,-2.121197246015071869e-02,-7.610628847032785416e-03,-3.500206768512725830e-02,1.467231363058090210e-01,3.936694469302892685e-03,8.728626370429992676e-02,1.538917720317840576e-01,8.011867851018905640e-02,5.303942039608955383e-02,-2.512558829039335251e-03,-1.030312702059745789e-01,8.972187526524066925e-03,8.894034475088119507e-02,-3.868584707379341125e-02,-7.619208097457885742e-02,-1.895723342895507812e-01,-1.173910051584243774e-01,1.113230455666780472e-02,1.049687042832374573e-01,-7.604380697011947632e-02,6.737532466650009155e-02,-1.398943713866174221e-03,1.892025396227836609e-02,-1.425521969795227051e-01,2.273133210837841034e-02,-1.220306474715471268e-02,3.746336326003074646e-02,1.704752892255783081e-01,7.639338821172714233e-02,-7.706876844167709351e-03,-3.457383438944816589e-02,-3.853018209338188171e-02,-1.650970280170440674e-01,-1.887463331222534180e-01,7.196338474750518799e-02,-1.714318096637725830e-01,6.721723359078168869e-03,4.186179116368293762e-02,-2.356092445552349091e-03,-1.491020619869232178e-01,2.002526074647903442e-02,-1.214646846055984497e-01,-3.644768521189689636e-02,-8.785820566117763519e-03,1.858044043183326721e-02,6.735181063413619995e-02,4.294223152101039886e-03,-2.707513980567455292e-02,-2.043375372886657715e-02,9.249363094568252563e-03,-1.253584213554859161e-02,4.535884782671928406e-02,-8.007588237524032593e-02,2.596334926784038544e-02,1.248949789442121983e-03,-3.642919287085533142e-02,1.120029687881469727e-01,-1.297118812799453735e-01,-1.338221579790115356e-01,-9.571257047355175018e-03,1.406499594449996948e-01,-1.103491932153701782e-01,-4.954183846712112427e-02,1.778843998908996582e-01,6.851520389318466187e-02,3.750447556376457214e-02,-1.282926183193922043e-02,6.152252107858657837e-02,-3.732131049036979675e-02,-1.924289464950561523e-01,-6.260135024785995483e-02,-6.534629315137863159e-02,1.391754020005464554e-02,-4.190556332468986511e-02,-3.331232070922851562e-02,-7.077103853225708008e-02,4.061122611165046692e-02,7.989930361509323120e-02,-1.999213360249996185e-02,3.652980551123619080e-02,-9.009226411581039429e-02,1.042598113417625427e-01,6.100355461239814758e-02,-1.263127177953720093e-01,1.205726638436317444e-01,9.251273423433303833e-02,6.084681674838066101e-02,-1.604624688625335693e-01,-7.907915860414505005e-02,-3.876177221536636353e-02,3.832524642348289490e-02,1.282541602849960327e-01,1.840797960758209229e-01,1.840331219136714935e-02,6.998880952596664429e-02,3.757306560873985291e-02,8.588360995054244995e-02,7.492438703775405884e-02,6.401979178190231323e-02,1.148791089653968811e-01,4.390470311045646667e-02,-1.478463262319564819e-01,4.880480933934450150e-03,-4.569405689835548401e-03,-2.052583545446395874e-02,-1.048553511500358582e-01,-1.121619902551174164e-02,-6.358041614294052124e-02,-4.586334154009819031e-02,-3.329947218298912048e-02,1.647337712347507477e-02,-8.599429577589035034e-02
6.453789025545120239e-02,9.378973394632339478e-02,7.341440301388502121e-03,-2.204574458301067352e-02,2.096704207360744476e-02,-3.670776262879371643e-02,-8.926867693662643433e-02,-5.779902264475822449e-02,-1.570918262004852295e-01,1.221875920891761780e-01,-1.809136010706424713e-02,1.597111672163009644e-01,9.062822908163070679e-03,-2.591198496520519257e-02,6.281007081270217896e-02,-4.805105552077293396e-02,1.077129021286964417e-01,1.347888112068176270e-01,1.885891519486904144e-02,-4.118692502379417419e-02,6.808286160230636597e-02,1.751450300216674805e-01,-4.502009972929954529e-02,-1.003026291728019714e-01,-8.207860589027404785e-02,-6.525466591119766235e-02,3.343081474304199219e-02,-7.246996974572539330e-04,3.801191225647926331e-02,1.224689483642578125e-01,1.218250170350074768e-01,-1.057478599250316620e-02,-1.314749009907245636e-02,7.242371886968612671e-02,-4.228074103593826294e-02,-1.069798395037651062e-01,7.634657621383666992e-02,-7.154528051614761353e-03,1.878941059112548828e-01,1.170735284686088562e-01,-5.107288435101509094e-02,-8.192651718854904175e-02,4.564022645354270935e-02,6.366636604070663452e-02,-5.826479196548461914e-02,6.987333297729492188e-03,1.227717846632003784e-02,1.345247924327850342e-01,-1.665789484977722168e-01,-1.073958277702331543e-01,1.809262335300445557e-01,-7.580874953418970108e-04,1.203652173280715942e-01,-4.384052380919456482e-02,4.498462006449699402e-02,-9.576945751905441284e-02,7.524804025888442993e-02,8.975990861654281616e-02,-1.512953639030456543e-02,2.356167137622833252e-02,-1.210992485284805298e-01,3.331492096185684204e-02,7.603523880243301392e-02,-1.449262350797653198e-01,-1.914674788713455200e-02,8.188694715499877930e-02,1.478726863861083984e-01,1.523917447775602341e-02,-1.366920918226242065e-01,1.481162905693054199e-01,7.270316034555435181e-02,-4.459575936198234558e-02,6.686876714229583740e-02,-1.844157837331295013e-02,5.887914821505546570e-02,1.559292059391736984e-02,-1.065912172198295593e-01,1.129822507500648499e-01,5.624060705304145813e-02,8.271112293004989624e-02,-1.397353410720825195e-02,8.163098245859146118e-03,5.081810057163238525e-03,-6.972740869969129562e-03,-1.923521310091018677e-01,-6.779526919126510620e-02,-1.556960195302963257e-01,1.775514930486679077e-01,9.901697188615798950e-02,-2.835308946669101715e-02,-1.015237942337989807e-01,6.450487673282623291e-02,-1.149891540408134460e-01,1.400855779647827148e-01,7.183475792407989502e-02,1.052214726805686951e-01,7.649561017751693726e-02,1.329201906919479370e-01,-1.146728321909904480e-01,-4.935202747583389282e-02,1.504685450345277786e-02,9.542359039187431335e-03,-1.072061210870742798e-01,-1.378948092460632324e-01,-1.014862582087516785e-01,-4.976293444633483887e-02,1.162507086992263794e-01,-2.713186852633953094e-02,-1.291149109601974487e-01,8.785855025053024292e-02,-1.996936649084091187e-02,-8.382837474346160889e-02,-1.014821529388427734e-01,8.997858315706253052e-02,5.537327751517295837e-02,8.287708461284637451e-02,-7.150097936391830444e-02,-7.888289541006088257e-02,6.555964797735214233e-02,3.306768462061882019e-02,1.667893528938293457e-01,8.729440718889236450e-02,-2.810218743979930878e-02,-3.447595750913023949e-03,5.058578774333000183e-02,-7.729309052228927612e-02,4.364022985100746155e-02,1.041831150650978088e-01,7.935765385627746582e-02,-1.110892519354820251e-01,-1.015153303742408752e-01,-1.611579209566116333e-03,-1.122146993875503540e-01,3.399501368403434753e-02,4.299461096525192261e-02,2.691632881760597229e-02,7.343790028244256973e-03,1.740579120814800262e-02,-4.716530814766883850e-02,8.078980259597301483e-03,-5.340478569269180298e-02,-3.485247120261192322e-02,6.069836765527725220e-02,-6.102407351136207581e-04,-1.765805929899215698e-01,1.016794983297586441e-02,-3.117089532315731049e-02,8.376768790185451508e-03,-1.233849897980690002e-01,-3.218818828463554382e-02,-1.572111807763576508e-02,-1.219588797539472580e-02,3.944668918848037720e-02,1.684506610035896301e-02,2.802468277513980865e-02,-1.653214544057846069e-01,5.842330679297447205e-02,-1.364498436450958252e-01,1.361151486635208130e-01,-1.539125945419073105e-02,3.553621470928192139e-02,-3.608480095863342285e-02,-8.266042917966842651e-03,1.844499446451663971e-02,7.060113549232482910e-02,-1.206508651375770569e-01,-9.834279865026473999e-02,-1.022654995322227478e-01,9.007255733013153076e-02,7.285135239362716675e-02,-7.261031866073608398e-02,8.623727411031723022e-02,1.081006154417991638e-01,-7.517825812101364136e-02,-5.456224083900451660e-02,1.632623672485351562e-01,-1.063968241214752197e-02,-4.689356312155723572e-02,1.696780174970626831e-01,-1.245985273271799088e-02,-8.839058689773082733e-03,-6.739978492259979248e-02,1.204255595803260803e-01,-9.284200519323348999e-02,1.646424271166324615e-02,3.787662833929061890e-02,2.505172975361347198e-03,-8.375210314989089966e-02,5.947102978825569153e-02,1.065055131912231445e-01,5.396633222699165344e-02,6.055618450045585632e-02,1.862961053848266602e-01,1.383860558271408081e-01,1.795888543128967285e-01,4.902833700180053711e-02,1.063755154609680176e-01,-4.240556433796882629e-02,1.255248188972473145e-01,7.771143317222595215e-02,-3.540616855025291443e-02,1.993878185749053955e-01,7.124215364456176758e-02,-6.589852273464202881e-02,-1.492495834827423096e-01,-4.619227349758148193e-02,1.048857122659683228e-01,4.412128776311874390e-02,-6.672257930040359497e-02,9.447383135557174683e-02,1.787664741277694702e-01,-6.150225922465324402e-02,-9.350962936878204346e-02,4.783785715699195862e-02,1.251209229230880737e-01,1.114954128861427307e-01,-2.374847792088985443e-02,-8.713539573363959789e-04,5.231403931975364685e-02,-3.394335135817527771e-02,-1.022482886910438538e-01,-1.053230166435241699e-01,4.550417512655258179e-02,-5.129794031381607056e-02,5.332487449049949646e-02,1.711067855358123779e-01,-3.893450647592544556e-02,-9.344267658889293671e-03,-1.946568721905350685e-03,9.706639498472213745e-02,-7.306428998708724976e-02,-3.693475201725959778e-02,-2.321661822497844696e-02,2.803789451718330383e-02,4.434456583112478256e-03,-1.540136635303497314e-01,-2.389858849346637726e-02,-7.706104964017868042e-02,-1.801704168319702148e-01,4.042047634720802307e-02,5.330587550997734070e-02,9.249075502157211304e-02,1.824911870062351227e-02,1.432577986270189285e-02,8.096870034933090210e-02,-1.806424558162689209e-02,8.714651316404342651e-02,-1.976546272635459900e-02,-1.563512980937957764e-01,3.818817809224128723e-02,1.540772616863250732e-01,2.384275197982788086e-02,3.719528019428253174e-02,4.690493270754814148e-02,-1.099806204438209534e-01,-5.964595824480056763e-02,-1.161868199706077576e-01,6.018375232815742493e-02,-1.027230024337768555e-01,-9.350459277629852295e-02,-7.262063771486282349e-02,7.202949374914169312e-02,1.485927551984786987e-01,-3.790685161948204041e-02,7.177158445119857788e-02,2.407537307590246201e-03,-9.431527554988861084e-02,-9.015481919050216675e-03,1.745174378156661987e-01,-4.910406842827796936e-02,-7.545728981494903564e-02,-1.413390971720218658e-02,2.060517296195030212e-02,-6.620464380830526352e-03,1.208440028131008148e-02,6.110463663935661316e-02,2.803853712975978851e-02,-4.080440104007720947e-02,-1.232664510607719421e-01,2.571704424917697906e-02,-1.470736712217330933e-01,1.071307286620140076e-01,1.070645228028297424e-01,-2.230610698461532593e-02,-6.952042132616043091e-02,-1.139906272292137146e-01,-1.466019153594970703e-01,1.191286221146583557e-01,-1.084722205996513367e-01,-1.365955919027328491e-01,6.421329826116561890e-02,-1.559792738407850266e-02,1.834617704153060913e-01,-1.488051265478134155e-01,-2.402418060228228569e-03,-2.089246921241283417e-02,-6.357844918966293335e-02,-4.501342028379440308e-02,9.847983717918395996e-02,-1.366396099328994751e-01,9.482287801802158356e-03,-9.404131770133972168e-02,-9.507804363965988159e-02,-5.956398323178291321e-02,-1.106629520654678345e-01,-9.063159674406051636e-02,4.553959239274263382e-03,-3.115582838654518127e-02,-1.252313554286956787e-01,-6.262085586786270142e-02,1.673063188791275024e-01,1.976848952472209930e-02,-8.665561676025390625e-02,6.345114111900329590e-02,1.298593580722808838e-01,2.985629020258784294e-03,-7.013940811157226562e-02,5.387712642550468445e-02,2.081353776156902313e-02,4.499990120530128479e-02,1.845387816429138184e-01,-1.018267422914505005e-01,3.716060146689414978e-02,8.433222025632858276e-02,1.429138779640197754e-01,7.324062171392142773e-04,8.175290189683437347e-03,5.310110375285148621e-02,1.419235318899154663e-01,5.636982247233390808e-02,1.243024095892906189e-01,-4.926074668765068054e-02,-1.113374605774879456e-01,1.794715672731399536e-01,-1.605418473482131958e-01,1.338917016983032227e-01,-7.659114431589841843e-03,9.052554517984390259e-02,2.340771257877349854e-02,1.068365350365638733e-01,1.094610095024108887e-01,2.223096229135990143e-02,1.050338074564933777e-01,3.655481338500976562e-02,8.397984504699707031e-02,-6.887459009885787964e-02,-9.538054466247558594e-02,-7.513662427663803101e-02,-2.606764808297157288e-02,-3.873270377516746521e-02,1.121158003807067871e-01,8.193158358335494995e-02,-1.510730385780334473e-01,-7.503791153430938721e-02,6.072807591408491135e-03,-3.278040513396263123e-02,1.248592734336853027e-01,9.375421702861785889e-02,9.799788147211074829e-02,1.487625986337661743e-01,-5.887071415781974792e-02,1.264229267835617065e-01,-1.051720902323722839e-01,5.641026422381401062e-02,-3.308220207691192627e-02,1.205176115036010742e-01,-2.410919964313507080e-02,4.096152633428573608e-02,-7.035921514034271240e-02,-4.159381985664367676e-02,4.669326543807983398e-02,1.465588510036468506e-01,-1.576079726219177246e-01,-1.263061314821243286e-01,-1.007570996880531311e-01,-7.699552178382873535e-02,-9.876713901758193970e-02,7.095455378293991089e-02,3.447900712490081787e-02,-2.003920264542102814e-02,1.451770402491092682e-02,1.550501585006713867e-01,7.873436436057090759e-03,9.883868694305419922e-02,4.764620214700698853e-02,-3.928755596280097961e-02,9.423384070396423340e-02,-9.478696621954441071e-03,1.081851348280906677e-01,1.694548875093460083e-02,-4.892316088080406189e-02,4.752297885715961456e-03,-6.818088144063949585e-02,1.989091001451015472e-02,-7.750775665044784546e-02,8.146775513887405396e-02,-1.513907779008150101e-02,-1.068036723881959915e-02,7.300205528736114502e-02,1.713249459862709045e-02,1.322647333145141602e-01,-3.817225992679595947e-02,-5.676724389195442200e-02,-9.081829339265823364e-02,-4.288873635232448578e-03,9.786751121282577515e-03,4.762200638651847839e-02,1.630787700414657593e-01,-1.132556721568107605e-01,-1.404402125626802444e-02,-6.647370010614395142e-02,-1.016163602471351624e-01,-4.522754251956939697e-02,9.181139618158340454e-02,-3.096588887274265289e-02,-4.820598289370536804e-02,2.707748115062713623e-02,1.093877777457237244e-01,1.169828101992607117e-01,-2.665197290480136871e-02,1.580385863780975342e-02,6.040166597813367844e-03,9.505172073841094971e-02,5.593551322817802429e-02,8.017476648092269897e-02,-8.995800465345382690e-02,9.032573550939559937e-02,9.754691272974014282e-02,-1.262358129024505615e-01,5.512009933590888977e-02,1.729193627834320068e-01,1.184998527169227600e-01,-7.150955498218536377e-02,-1.720009297132492065e-01,-3.503919113427400589e-03,-1.957383602857589722e-01,1.679461300373077393e-01,7.768539339303970337e-02,-5.767687037587165833e-02,-1.765541881322860718e-01,-1.933118700981140137e-01,-7.000941783189773560e-02,7.657122611999511719e-02,-4.428417980670928955e-02,-1.112464442849159241e-01,5.061338096857070923e-02,1.961597651243209839e-01,-1.115534305572509766e-01,-3.470530733466148376e-02,-1.053665205836296082e-01,3.748330101370811462e-02,2.946384251117706299e-02,-7.199712097644805908e-02,-6.197623535990715027e-02,1.142059341073036194e-01,5.531884357333183289e-02,-2.246665768325328827e-02,2.599815838038921356e-02,2.910259924829006195e-02,1.063037738204002380e-01,9.617769718170166016e-02,2.032680809497833252e-02,-1.045236140489578247e-01,-1.289895474910736084e-01,-6.749050319194793701e-02,1.443954855203628540e-01,9.999270737171173096e-02,-1.524557322263717651e-01,-3.261898085474967957e-02,-2.556183317210525274e-04,-4.447197541594505310e-02,1.024580970406532288e-01,1.386425346136093140e-01,1.744817942380905151e-01,-1.123150810599327087e-01,1.036042943596839905e-01,6.709162145853042603e-02,9.472494572401046753e-02,-1.060176417231559753e-01,-7.179826498031616211e-02,-6.167898699641227722e-02,-4.570751264691352844e-02,1.004613563418388367e-01,4.537942260503768921e-02,-4.160160943865776062e-02,-1.278662532567977905e-01,-1.174981966614723206e-01,5.023222789168357849e-02,1.435154527425765991e-01,8.312735706567764282e-03,4.318384453654289246e-02,-8.329790085554122925e-02,8.639663457870483398e-02,4.018738493323326111e-02,-1.071171686053276062e-01,-3.303268924355506897e-02,4.817767068743705750e-02,-9.916671365499496460e-02,1.665403842926025391e-01,-1.206571385264396667e-01,-1.494641136378049850e-02,9.426530450582504272e-02,-1.769322343170642853e-02,-3.364231064915657043e-02,-4.595480393618345261e-03,-1.219164952635765076e-02,-1.865520477294921875e-01,-4.253653809428215027e-02,5.192538723349571228e-02,-9.047211706638336182e-02,-5.772441253066062927e-02,5.404305644333362579e-03
-1.226040348410606384e-01,-2.750533260405063629e-02,1.464742422103881836e-02,2.317648939788341522e-02,-8.561681956052780151e-02,2.747983299195766449e-02,1.815854571759700775e-03,1.245520934462547302e-01,1.562572568655014038e-01,7.882749289274215698e-02,-6.868758797645568848e-02,1.314926445484161377e-01,-1.840277463197708130e-01,1.171117462217807770e-02,2.398545853793621063e-02,2.404388226568698883e-02,8.749309927225112915e-02,-6.409605592489242554e-02,8.607020974159240723e-02,5.718753891414962709e-05,-1.084805727005004883e-01,5.970206577330827713e-03,-1.143786832690238953e-01,-9.755450300872325897e-03,-1.086457967758178711e-01,-1.291361358016729355e-02,5.292654782533645630e-02,-7.178112119436264038e-02,-8.801221102476119995e-02,3.371519222855567932e-02,-1.054503545165061951e-01,7.478681951761245728e-02,2.739631943404674530e-02,-4.903576150536537170e-02,-6.858357042074203491e-02,4.226033017039299011e-02,7.757238298654556274e-02,-5.965804215520620346e-03,-4.946453031152486801e-03,1.416862010955810547e-01,5.721531435847282410e-02,-1.773422509431838989e-01,8.656811714172363281e-02,1.125659234821796417e-02,1.026403531432151794e-01,5.120657756924629211e-02,-5.085171386599540710e-02,-1.104048043489456177e-01,3.097348089795559645e-04,-2.815996669232845306e-02,-2.756454423069953918e-02,-7.498634606599807739e-02,-6.892936676740646362e-02,3.340834006667137146e-02,2.870111539959907532e-02,3.135894611477851868e-02,1.070652827620506287e-01,-4.305329918861389160e-02,7.218503952026367188e-02,1.375157088041305542e-01,-1.805992126464843750e-01,3.316004946827888489e-02,6.102594733238220215e-02,-2.558786049485206604e-02,1.227652430534362793e-01,-7.900929450988769531e-02,-1.741758137941360474e-01,1.840579211711883545e-01,2.722942829132080078e-02,-1.067500263452529907e-01,-8.506940305233001709e-02,2.486166357994079590e-02,9.857212007045745850e-02,-4.253868386149406433e-02,7.542319595813751221e-02,-1.800360828638076782e-01,1.938149146735668182e-02,1.139466390013694763e-01,-1.938212960958480835e-01,-3.280217945575714111e-02,-5.464728549122810364e-02,1.878448575735092163e-02,1.279795765876770020e-01,4.004706442356109619e-02,-3.195033594965934753e-02,1.367051005363464355e-01,1.419358998537063599e-01,-3.080944158136844635e-02,1.118456274271011353e-01,-1.955683082342147827e-01,-6.475795060396194458e-02,1.481905858963727951e-02,8.537733927369117737e-03,6.038059480488300323e-03,1.317656785249710083e-01,-6.684079766273498535e-02,-5.452898144721984863e-02,2.186184003949165344e-02,-7.954301312565803528e-03,1.698674708604812622e-01,-1.812172979116439819e-01,-8.446501940488815308e-02,1.350261420011520386e-01,-1.243583932518959045e-01,6.565675139427185059e-02,4.601285979151725769e-02,-1.464225351810455322e-01,-3.360567614436149597e-02,1.373574733734130859e-01,9.846748411655426025e-02,1.476121600717306137e-02,1.239918358623981476e-02,9.035681188106536865e-02,1.224126741290092468e-01,3.079704754054546356e-02,9.244044870138168335e-02,5.230239778757095337e-02,-8.486790955066680908e-02,-2.229623310267925262e-02,-6.199959665536880493e-02,6.087326630949974060e-02,1.949801594018936157e-01,4.384316131472587585e-02,-5.824130959808826447e-03,6.562439259141683578e-03,3.290080279111862183e-02,1.078495383262634277e-01,4.676271975040435791e-02,3.552050516009330750e-02,7.506586611270904541e-02,-8.851686865091323853e-02,1.434876769781112671e-01,1.657958514988422394e-02,-2.428010664880275726e-02,9.526494145393371582e-02,-3.103667497634887695e-02,4.446863604243844748e-04,-1.574409157037734985e-01,7.069855928421020508e-02,8.485972881317138672e-02,-8.819801360368728638e-02,-3.433280810713768005e-02,-1.598761044442653656e-02,1.231687888503074646e-02,-1.129841525107622147e-02,2.647836320102214813e-02,3.170965611934661865e-02,-8.862689882516860962e-02,-8.699050545692443848e-02,5.330399796366691589e-02,-8.027449250221252441e-02,4.404777195304632187e-03,-4.440223053097724915e-02,-7.038618624210357666e-02,3.737327083945274353e-02,-9.526056796312332153e-02,-1.216521412134170532e-01,-3.982433676719665527e-02,1.044824272394180298e-01,1.337462197989225388e-02,4.462173208594322205e-02,-6.568011641502380371e-02,-9.003769606351852417e-02,4.193895682692527771e-02,3.908976167440414429e-02,-6.740079075098037720e-02,4.340255632996559143e-02,2.676809765398502350e-02,-6.003351137042045593e-02,8.557502180337905884e-03,9.655752032995223999e-02,5.497184023261070251e-02,1.564025729894638062e-01,4.548011813312768936e-03,-3.409299254417419434e-02,-1.815671771764755249e-01,-1.065663024783134460e-01,8.508547395467758179e-02,-1.426030844449996948e-01,-1.640756875276565552e-01,6.915663927793502808e-02,1.798384189605712891e-01,3.828589245676994324e-02,-7.324114441871643066e-02,1.792419207049533725e-04,3.762018680572509766e-02,-8.336222916841506958e-02,-1.694883592426776886e-02,1.803839802742004395e-01,-1.488708257675170898e-01,-3.613395988941192627e-02,-5.540078878402709961e-02,-4.047812148928642273e-02,4.211852326989173889e-02,-6.546904891729354858e-02,-9.844580665230751038e-03,-1.386812329292297363e-01,1.705862954258918762e-02,-1.060917414724826813e-02,-9.004741162061691284e-02,-7.765767723321914673e-02,-2.924504317343235016e-02,9.910423308610916138e-02,1.225420162081718445e-01,4.324076324701309204e-02,1.274185031652450562e-01,-9.531285613775253296e-02,9.940679371356964111e-02,7.719592191278934479e-03,4.428036138415336609e-02,2.120854100212454796e-03,7.079176139086484909e-03,-6.176991388201713562e-02,-1.160038113594055176e-01,9.550204128026962280e-02,6.527932733297348022e-02,3.749892814084887505e-03,-7.082544267177581787e-02,6.572722643613815308e-02,-1.095120683312416077e-01,-4.183730110526084900e-02,-1.965650767087936401e-01,-5.770260095596313477e-02,-1.593511700630187988e-01,-7.562751322984695435e-02,2.402103133499622345e-02,-7.260113209486007690e-02,1.223550438880920410e-01,1.918116956949234009e-02,1.081968378275632858e-02,5.766924098134040833e-02,3.735212609171867371e-02,-5.225954204797744751e-02,1.239967867732048035e-01,3.894790634512901306e-02,-1.142560467123985291e-01,2.810865640640258789e-02,-1.912089139223098755e-01,6.830444186925888062e-02,1.679811626672744751e-01,-1.076785251498222351e-01,3.664745017886161804e-02,3.632882609963417053e-02,-1.341127455234527588e-01,4.971459135413169861e-02,-3.605228662490844727e-02,-1.968852430582046509e-02,-2.435747720301151276e-02,6.122988462448120117e-02,-5.470526218414306641e-02,1.575034298002719879e-02,4.251012951135635376e-02,9.927902370691299438e-02,-9.408538788557052612e-02,-9.901959449052810669e-02,4.018718376755714417e-03,-8.841630071401596069e-02,-5.554831027984619141e-02,1.244334951043128967e-01,1.566439494490623474e-02,-3.434107452630996704e-02,-1.875300332903862000e-02,4.125494882464408875e-02,1.175669357180595398e-01,2.161523327231407166e-02,3.160135075449943542e-02,-1.615727543830871582e-01,7.475568354129791260e-02,-8.048953860998153687e-02,4.041044786572456360e-02,-1.163871511816978455e-01,6.641680002212524414e-02,7.078993599861860275e-03,3.829241916537284851e-02,8.382401429116725922e-03,-1.430882364511489868e-01,1.843643784523010254e-01,-1.397682167589664459e-02,-5.711876973509788513e-02,6.228112801909446716e-02,1.715053617954254150e-01,-2.985217049717903137e-02,3.855209797620773315e-02,4.903241619467735291e-02,1.141490265727043152e-01,-1.287372559309005737e-01,1.470850664190948009e-03,-8.762656897306442261e-02,-5.630416423082351685e-02,-4.272761568427085876e-02,8.853336423635482788e-02,7.704319804906845093e-02,-1.623260602355003357e-02,1.649912446737289429e-02,1.557481735944747925e-01,5.740389972925186157e-02,-3.425783663988113403e-02,9.658339619636535645e-02,-4.314342886209487915e-02,1.439959257841110229e-01,-1.832069605588912964e-01,5.516276881098747253e-02,9.735415130853652954e-02,-1.490552872419357300e-01,-8.019860833883285522e-02,5.148199200630187988e-02,-2.479023858904838562e-02,-4.574584588408470154e-02,1.021273508667945862e-01,8.898682892322540283e-02,-8.712068200111389160e-02,-9.325218945741653442e-02,3.367174416780471802e-02,-9.768030047416687012e-02,3.400588035583496094e-02,-8.252356201410293579e-02,2.552840672433376312e-02,-7.979905605316162109e-02,1.088811978697776794e-01,-1.537962001748383045e-03,-7.214953005313873291e-02,1.995111629366874695e-02,1.576972156763076782e-01,2.080295234918594360e-03,6.024016067385673523e-02,-6.582288444042205811e-02,-3.913034126162528992e-02,-1.793302893638610840e-01,-1.454338580369949341e-01,9.298148006200790405e-02,-3.971712663769721985e-02,-4.935668036341667175e-02,-2.997753955423831940e-02,-5.059966444969177246e-02,-8.628579229116439819e-02,-3.851865977048873901e-02,9.667118638753890991e-02,-1.870673298835754395e-01,7.046460360288619995e-02,-1.803292036056518555e-01,-5.087416991591453552e-02,-1.414335966110229492e-01,-4.259259998798370361e-02,1.003980562090873718e-01,-7.985450327396392822e-02,4.618919268250465393e-02,5.106503888964653015e-02,4.977505654096603394e-02,1.012335345149040222e-01,4.256115353200584650e-04,-1.942643225193023682e-01,3.235064819455146790e-02,1.304750144481658936e-01,-6.813884526491165161e-02,4.805094003677368164e-02,1.448743231594562531e-02,-1.310191005468368530e-01,2.130200527608394623e-02,-1.202302351593971252e-01,7.753630727529525757e-02,-1.608429551124572754e-01,-1.433526873588562012e-01,-8.081544190645217896e-02,-6.174328923225402832e-02,6.038265302777290344e-02,2.208250947296619415e-02,8.198832720518112183e-02,1.262649744749069214e-01,-9.732721745967864990e-02,-4.496997967362403870e-02,-7.955699414014816284e-02,-2.731277607381343842e-02,1.569162309169769287e-02,6.622442603111267090e-02,-1.233058329671621323e-02,-1.088667288422584534e-01,8.810891211032867432e-02,-1.100667864084243774e-01,2.947321534156799316e-02,1.182168871164321899e-01,1.003005728125572205e-01,4.973846301436424255e-02,1.283873021602630615e-01,5.208577588200569153e-02,-9.574344009160995483e-02,-8.230190724134445190e-03,-6.425937265157699585e-02,-3.550971671938896179e-02,1.621022224426269531e-01,1.547650247812271118e-01,3.780737984925508499e-03,4.043599590659141541e-02,-9.835013747215270996e-02,-1.569046638906002045e-02,1.220898777246475220e-01,1.379918903112411499e-01,5.282675381749868393e-03,6.039739772677421570e-02,2.196468226611614227e-02,-3.573407232761383057e-02,1.811217963695526123e-01,7.053644210100173950e-02,-6.123485043644905090e-02,1.862509101629257202e-01,-7.724388968199491501e-03,-1.078908964991569519e-01,4.586328193545341492e-02,1.287362277507781982e-01,4.096630029380321503e-03,-8.376771211624145508e-02,2.924244664609432220e-02,8.257142454385757446e-02,1.037988290190696716e-01,1.224688291549682617e-01,5.673790723085403442e-02,1.175496205687522888e-01,-2.218842320144176483e-02,1.557146310806274414e-01,1.577571593225002289e-02,4.216206446290016174e-02,3.512490913271903992e-02,-6.403889507055282593e-02,2.881480753421783447e-02,1.532092969864606857e-02,-5.264523625373840332e-02,1.459089815616607666e-01,-3.849762305617332458e-02,-1.504524797201156616e-01,-8.180679753422737122e-03,-3.414006903767585754e-02,5.436865612864494324e-02,-2.530527673661708832e-02,4.816147312521934509e-02,-2.364560402929782867e-02,-1.892338544130325317e-01,5.990391969680786133e-02,-1.291989684104919434e-01,7.393595576286315918e-02,-6.402847915887832642e-02,6.869418174028396606e-02,-1.578610986471176147e-01,1.682460457086563110e-01,-1.949392408132553101e-01,-7.480047643184661865e-02,3.881780430674552917e-02,7.999894767999649048e-02,-1.853824965655803680e-02,1.682934351265430450e-02,9.730988740921020508e-02,-5.982115492224693298e-02,-4.507197532802820206e-03,1.319863088428974152e-02,5.303681641817092896e-02,-5.749524384737014771e-02,4.459520429372787476e-02,8.024337887763977051e-02,-1.456714421510696411e-01,1.961061805486679077e-01,1.027147695422172546e-01,-7.373303174972534180e-02,1.244962736964225769e-01,-1.167762652039527893e-01,-3.256109729409217834e-02,-3.942906111478805542e-02,3.102831542491912842e-02,8.293458074331283569e-02,3.136008605360984802e-02,-1.147965937852859497e-01,8.636315166950225830e-02,8.057273179292678833e-02,9.761803084984421730e-04,-2.643479965627193451e-03,-3.586721420288085938e-02,-2.432864718139171600e-02,-1.342313587665557861e-01,-1.315599977970123291e-01,-1.169468685984611511e-01,-1.241449713706970215e-01,1.136768460273742676e-01,1.855178475379943848e-01,-5.592062696814537048e-02,-1.323971599340438843e-01,-2.266365475952625275e-02,-1.980917006731033325e-01,-1.433307379484176636e-01,1.253285910934209824e-02,1.366146095097064972e-02,1.752773649059236050e-03,-1.398110538721084595e-01,2.994592860341072083e-02,-7.905541919171810150e-03,8.778772503137588501e-02,2.469667000696063042e-03,-2.427611127495765686e-02,9.226059168577194214e-02,-3.798748180270195007e-02,8.157389611005783081e-02,1.310891360044479370e-01,4.070348292589187622e-02,-1.055383905768394470e-01,-9.609218104742467403e-04,1.032577753067016602e-01,1.794754117727279663e-01,1.051970869302749634e-01,2.292875573039054871e-02,-8.714701980352401733e-02,-1.986761204898357391e-02,-1.085787639021873474e-01,1.695473045110702515e-01,-5.561772733926773071e-02,-8.109337091445922852e-02,2.218809723854064941e-02
-1.307849436998367310e-01,1.607607118785381317e-02,-1.072538420557975769e-01,-9.145162999629974365e-02,-2.793155051767826080e-02,-1.446294933557510376e-01,-1.358470600098371506e-02,2.904871664941310883e-02,-3.616326674818992615e-02,6.078409031033515930e-02,1.203274056315422058e-01,-1.538461912423372269e-02,3.572096675634384155e-02,-6.789599359035491943e-02,-3.225008770823478699e-02,1.931548118591308594e-02,-2.746943570673465729e-02,1.164764314889907837e-01,-1.894827038049697876e-01,7.507056742906570435e-02,-9.087219834327697754e-02,-3.249323368072509766e-02,-1.510775238275527954e-01,-2.421235851943492889e-02,6.844155490398406982e-02,1.656177453696727753e-02,6.648330390453338623e-02,-4.689639434218406677e-02,-7.886849343776702881e-02,-1.739013642072677612e-01,7.393863052129745483e-02,-1.759824715554714203e-02,1.380228251218795776e-01,-4.327413067221641541e-02,8.056390285491943359e-02,9.371808171272277832e-02,1.556899398565292358e-01,1.718805879354476929e-01,-2.405262552201747894e-03,-8.071151375770568848e-02,5.231232848018407822e-03,-9.827504307031631470e-02,-5.814395472407341003e-02,-2.012835070490837097e-02,1.071269139647483826e-01,1.101540327072143555e-01,-4.105138406157493591e-02,7.171442359685897827e-02,7.847168296575546265e-02,1.599731743335723877e-01,2.532294020056724548e-03,7.890540361404418945e-02,3.407263755798339844e-02,7.471105456352233887e-02,-4.618728905916213989e-02,1.271740347146987915e-01,-4.721596091985702515e-02,-7.965371012687683105e-02,-1.001311540603637695e-01,8.096135407686233521e-02,8.765988796949386597e-02,6.427285075187683105e-02,-1.255497187376022339e-01,1.138008758425712585e-01,-4.502937942743301392e-02,-5.351100489497184753e-02,1.510793119668960571e-01,7.282382249832153320e-02,1.660342961549758911e-01,8.718474954366683960e-02,-3.043549694120883942e-02,-6.240010261535644531e-02,1.348858624696731567e-01,1.744901947677135468e-02,3.563783690333366394e-02,-5.977416038513183594e-02,-1.832143366336822510e-01,4.037811234593391418e-02,4.710520431399345398e-02,5.759511515498161316e-02,-1.799539178609848022e-01,-9.503521770238876343e-02,9.370750188827514648e-02,6.650557368993759155e-02,3.350302204489707947e-02,-8.185337297618389130e-03,-7.742001209408044815e-03,1.053624525666236877e-01,6.705512851476669312e-02,7.649611681699752808e-02,1.097151041030883789e-01,1.485709100961685181e-01,5.154263693839311600e-03,9.586380794644355774e-03,6.357719749212265015e-02,3.816368803381919861e-02,-7.451479882001876831e-02,-9.628111124038696289e-02,1.542410701513290405e-01,-9.987273812294006348e-02,-1.622783020138740540e-02,3.334935009479522705e-02,1.289970278739929199e-01,2.689797058701515198e-02,-5.765474960207939148e-02,9.905639104545116425e-03,-4.061660170555114746e-02,7.676716893911361694e-02,-8.384402841329574585e-02,1.779433526098728180e-02,-1.677936911582946777e-01,-7.016178220510482788e-02,-1.415644437074661255e-01,2.492679515853524208e-03,5.956860259175300598e-02,7.788421958684921265e-02,-1.133622508496046066e-02,2.845792844891548157e-02,-7.371611893177032471e-02,-5.680041387677192688e-02,1.089606210589408875e-01,3.778197616338729858e-02,2.811093069612979889e-02,-6.902135163545608521e-02,-1.081626787781715393e-01,1.573374122381210327e-01,1.684335470199584961e-01,1.134672164916992188e-01,-4.013789817690849304e-02,-5.235457327216863632e-03,2.942268364131450653e-02,1.104810386896133423e-01,9.925853461027145386e-02,-9.939882904291152954e-02,-4.369814693927764893e-02,5.831558723002672195e-03,-1.107445638626813889e-02,-3.536624461412429810e-02,3.690033778548240662e-02,1.115974131971597672e-02,1.177831888198852539e-01,-8.131809532642364502e-02,-1.330727189779281616e-01,1.160080209374427795e-01,1.292604506015777588e-01,-1.096259579062461853e-01,2.494306769222021103e-03,-4.893127828836441040e-02,1.224653050303459167e-01,-9.925256017595529556e-04,-1.257408689707517624e-02,-1.492691189050674438e-01,-1.572580784559249878e-01,-5.342365242540836334e-03,8.975259959697723389e-02,4.775254800915718079e-02,-7.365969568490982056e-02,-5.728636309504508972e-02,2.826853469014167786e-02,2.320881374180316925e-02,9.775148332118988037e-02,1.395063996315002441e-01,-2.405644394457340240e-02,1.417146772146224976e-01,-2.670474164187908173e-02,3.625373169779777527e-02,-1.565354466438293457e-01,1.668660491704940796e-01,-5.067671090364456177e-02,-7.310122996568679810e-02,4.968690499663352966e-02,-7.505683600902557373e-02,4.146359395235776901e-03,1.254845559597015381e-01,5.127117782831192017e-02,-1.502762883901596069e-01,9.757611900568008423e-02,3.405652940273284912e-02,-1.707885563373565674e-01,-9.834915399551391602e-03,5.869121477007865906e-02,1.057782098650932312e-01,-8.511399477720260620e-02,-6.246982607990503311e-03,-1.598008163273334503e-02,1.232886686921119690e-01,-1.240582615137100220e-01,-1.256746053695678711e-01,-4.242172464728355408e-02,8.853553980588912964e-02,-7.836979627609252930e-02,-1.344317477196455002e-02,3.253918886184692383e-02,-3.142793849110603333e-02,-1.511117666959762573e-01,1.346610039472579956e-01,1.371838450431823730e-01,8.566769212484359741e-02,-6.727859377861022949e-02,-1.762036085128784180e-01,6.362081319093704224e-02,-1.533320248126983643e-01,-1.818675547838211060e-01,3.594363480806350708e-02,-1.709558628499507904e-02,-5.678041651844978333e-02,1.931865140795707703e-02,8.165246993303298950e-02,1.528503298759460449e-01,-1.445801705121994019e-01,6.207094527781009674e-03,-2.158247865736484528e-03,-1.308580935001373291e-01,6.100636720657348633e-02,-6.118426471948623657e-02,5.645261332392692566e-02,3.101759962737560272e-02,1.064736843109130859e-01,2.997491694986820221e-02,-1.280502695590257645e-02,3.726874664425849915e-02,2.609319053590297699e-02,-1.502742916345596313e-01,-6.240843608975410461e-02,-7.200383394956588745e-02,4.865306615829467773e-02,1.583873853087425232e-02,9.802230447530746460e-02,6.613069027662277222e-02,-1.711479574441909790e-01,-1.058143526315689087e-01,-4.713631793856620789e-02,1.425426602363586426e-01,6.467307358980178833e-02,-2.763639390468597412e-02,-2.589592151343822479e-02,8.651329576969146729e-02,-1.717202365398406982e-01,-6.075870618224143982e-02,-1.261610835790634155e-01,-2.331015467643737793e-02,6.385623663663864136e-02,4.682930931448936462e-02,4.438842087984085083e-02,5.792773887515068054e-02,-5.183706432580947876e-02,1.978013478219509125e-02,1.342676486819982529e-02,-1.868387907743453979e-01,-3.219205141067504883e-02,-7.139222323894500732e-02,-1.872890815138816833e-02,-1.053478121757507324e-01,1.058713183738291264e-03,3.211260959506034851e-02,-7.447944581508636475e-02,-7.699819654226303101e-02,9.235526667907834053e-04,1.330585181713104248e-01,1.323367208242416382e-01,-7.798828184604644775e-02,1.155651360750198364e-01,5.525350570678710938e-02,5.409088358283042908e-02,2.523521147668361664e-02,-1.190723106265068054e-01,1.603828221559524536e-01,-7.392195053398609161e-03,-1.242486014962196350e-01,9.762892127037048340e-02,-2.623382024466991425e-02,-1.840680539608001709e-01,1.189373731613159180e-01,-6.466331426054239273e-03,1.433722227811813354e-01,4.662280436605215073e-03,-4.203818365931510925e-02,5.705484654754400253e-03,1.968982666730880737e-01,-1.468366831541061401e-01,-7.823168486356735229e-02,-1.044963151216506958e-01,-8.725775033235549927e-02,2.698885835707187653e-02,-7.183548063039779663e-02,-6.968341022729873657e-02,-6.044649705290794373e-02,3.625547513365745544e-02,-7.710617780685424805e-02,6.000775843858718872e-02,-1.030757576227188110e-01,1.330056190490722656e-01,-9.664785116910934448e-02,-3.112230263650417328e-02,8.029623329639434814e-02,-4.131593182682991028e-02,1.559548527002334595e-01,-6.949500739574432373e-02,-1.666500419378280640e-01,-2.516061440110206604e-02,4.011220857501029968e-02,-9.726160019636154175e-02,-1.703265756368637085e-01,5.219641327857971191e-02,8.055672049522399902e-02,6.737249437719583511e-03,-1.125325262546539307e-02,-3.112990409135818481e-03,1.006680503487586975e-01,-1.524577941745519638e-02,-9.954335540533065796e-02,-1.391281187534332275e-01,1.053799390792846680e-01,1.010883785784244537e-02,-5.617395788431167603e-02,-3.759670630097389221e-02,-1.184764727950096130e-01,-1.627870947122573853e-01,1.251900345087051392e-01,-2.698335563763976097e-03,-2.203197218477725983e-02,-9.447190165519714355e-02,-5.727813392877578735e-02,1.075523206964135170e-03,-1.367428600788116455e-01,1.152110919356346130e-01,4.934519901871681213e-02,1.082736626267433167e-02,1.495324075222015381e-02,9.996604919433593750e-02,2.163390628993511200e-02,-7.221239060163497925e-02,1.142897605895996094e-01,1.131746172904968262e-01,1.798382773995399475e-02,-3.280645236372947693e-02,1.404488682746887207e-01,7.298775762319564819e-02,-6.000694260001182556e-02,-1.694842427968978882e-01,-1.276221871376037598e-01,6.686455011367797852e-02,1.217877399176359177e-02,2.991177840158343315e-03,-3.328105062246322632e-02,5.406476929783821106e-02,4.302877187728881836e-02,1.596230082213878632e-02,9.096413850784301758e-02,-1.685106009244918823e-01,1.400313228368759155e-01,1.088658827939070761e-04,1.897772215306758881e-02,7.649165391921997070e-02,7.597640901803970337e-02,2.543297782540321350e-02,-7.647421211004257202e-02,-8.933398127555847168e-02,8.422092348337173462e-02,1.665880829095840454e-01,1.335873175412416458e-02,-5.947930738329887390e-02,-7.759617269039154053e-02,-1.948306709527969360e-01,2.324458025395870209e-02,3.890881780534982681e-03,-5.008557438850402832e-02,8.391643315553665161e-02,-9.048425406217575073e-02,3.883470490109175444e-04,-1.211697086691856384e-01,-1.395235508680343628e-01,1.198753714561462402e-01,-6.314747780561447144e-02,-1.271309680305421352e-03,-1.369884163141250610e-01,5.557599291205406189e-02,4.531369730830192566e-02,3.830236615613102913e-03,6.404861807823181152e-02,-6.426113843917846680e-02,4.990539327263832092e-02,1.498762816190719604e-01,2.946311049163341522e-02,-6.846400350332260132e-02,-3.398838685825467110e-03,-5.475142598152160645e-02,7.896558195352554321e-02,5.026258155703544617e-02,-8.310791850090026855e-02,-3.422161191701889038e-02,-8.787091821432113647e-02,1.384047567844390869e-01,3.760812804102897644e-02,-8.996633440256118774e-02,1.289318054914474487e-01,4.222394272801466286e-05,-1.118314638733863831e-01,4.296600352972745895e-03,8.757039159536361694e-02,9.951423853635787964e-02,-1.485312450677156448e-02,-3.812222927808761597e-02,-2.378261648118495941e-03,1.215975806117057800e-01,-1.577015370130538940e-01,-2.056680433452129364e-02,1.675123125314712524e-01,1.129838638007640839e-02,-9.844433516263961792e-02,1.272173821926116943e-01,1.634364724159240723e-01,-1.342716068029403687e-01,-1.011399999260902405e-01,-8.655563741922378540e-02,4.144380241632461548e-02,-1.616091653704643250e-02,3.837171196937561035e-02,2.406186237931251526e-02,-8.103217929601669312e-02,-2.922956459224224091e-02,-8.904172107577323914e-03,-6.053748726844787598e-02,-1.019817963242530823e-01,4.401535913348197937e-02,7.418166846036911011e-02,-1.353230923414230347e-01,1.321477890014648438e-01,1.679142564535140991e-01,-2.919988147914409637e-02,7.151173055171966553e-02,-1.519082635641098022e-01,8.293216675519943237e-02,-8.344411104917526245e-02,-5.528401583433151245e-03,1.155376061797142029e-01,-3.789054974913597107e-02,5.869689211249351501e-02,1.672026813030242920e-01,-7.958807051181793213e-02,1.018047556281089783e-01,8.065682649612426758e-02,2.731641009449958801e-02,4.789369180798530579e-02,4.406446591019630432e-03,-5.966858193278312683e-02,2.861229889094829559e-02,-6.746952980756759644e-02,-4.936037212610244751e-02,-3.216236084699630737e-02,-1.024540662765502930e-01,-1.844447702169418335e-01,-1.286529935896396637e-02,-1.658282130956649780e-01,-2.633902244269847870e-02,-8.601891249418258667e-02,1.087269335985183716e-01,1.265651583671569824e-01,2.096560224890708923e-02,-1.628293395042419434e-01,-1.354663670063018799e-01,1.785260885953903198e-01,-1.648559235036373138e-02,-3.473252430558204651e-02,5.132283549755811691e-03,4.148509725928306580e-02,1.178179979324340820e-01,-4.546815063804388046e-03,-6.875129789113998413e-02,-9.069038182497024536e-02,-1.552490610629320145e-02,-1.616196036338806152e-01,1.261476725339889526e-01,-8.970427513122558594e-02,-1.501611322164535522e-01,-8.329025655984878540e-02,2.636556886136531830e-02,1.285777837038040161e-01,7.104394491761922836e-03,-1.513330042362213135e-01,1.096382960677146912e-01,-8.618266135454177856e-02,-2.722324430942535400e-02,-5.164833739399909973e-02,-9.002008289098739624e-02,-6.305223703384399414e-02,-5.035331845283508301e-02,-3.795291855931282043e-02,-5.374944210052490234e-02,-5.290066823363304138e-02,1.418896168470382690e-01,5.042755976319313049e-03,1.145654246211051941e-01,-1.404283475130796432e-02,9.430820494890213013e-02,1.499835122376680374e-02,2.340186387300491333e-02,4.892734438180923462e-02,8.261259645223617554e-02,2.953147329390048981e-02,-7.129745930433273315e-02,-2.390514500439167023e-02,5.771879106760025024e-02,2.239088527858257294e-02,1.498519163578748703e-02,-6.272149831056594849e-02,-1.320087164640426636e-01,-2.247096272185444832e-03,-9.345754235982894897e-02,1.252873092889785767e-01,1.080606207251548767e-01,-7.355468720197677612e-02
-5.225014686584472656e-02,7.218869775533676147e-02,3.264707745984196663e-03,-1.540679950267076492e-02,-2.200249349698424339e-03,-1.138163954019546509e-01,7.419484108686447144e-02,-7.744811475276947021e-02,-5.446975305676460266e-02,-3.611399605870246887e-02,-2.421891875565052032e-02,-6.411805748939514160e-02,-2.846852317452430725e-02,1.892108768224716187e-01,5.970157310366630554e-02,-7.017754949629306793e-03,1.766314171254634857e-02,1.683521121740341187e-01,1.284145265817642212e-01,-9.633991122245788574e-02,8.730286359786987305e-02,-1.886481493711471558e-01,6.691088527441024780e-02,2.391944825649261475e-02,1.255271881818771362e-01,-6.222277507185935974e-02,8.925503492355346680e-02,-8.068940043449401855e-02,-1.721477210521697998e-01,-4.035305604338645935e-02,-6.927080452442169189e-02,-1.558738797903060913e-01,-7.391836494207382202e-03,-7.230494171380996704e-02,-7.907187193632125854e-02,2.398321218788623810e-02,8.297286182641983032e-02,-1.461069285869598389e-02,-1.670703105628490448e-02,9.527098387479782104e-02,2.352794818580150604e-02,1.071351766586303711e-01,-1.342421676963567734e-02,1.075356751680374146e-01,2.530370652675628662e-02,7.055663317441940308e-02,-6.599997729063034058e-02,-3.325697407126426697e-02,-8.273956179618835449e-02,1.572788953781127930e-01,9.188824146986007690e-02,-3.321679681539535522e-02,2.673649601638317108e-02,-1.326087266206741333e-01,8.485352247953414917e-02,-3.729993104934692383e-02,1.159823462367057800e-01,1.623798906803131104e-01,1.631879508495330811e-01,-9.735411405563354492e-02,1.715597324073314667e-02,-6.775620579719543457e-02,1.280385851860046387e-01,-6.304447352886199951e-02,1.804371178150177002e-01,-1.971628516912460327e-02,-1.165945529937744141e-01,-6.681776046752929688e-02,-1.311663389205932617e-01,-3.218342736363410950e-02,3.228796645998954773e-02,1.119858212769031525e-02,-8.046601712703704834e-02,-6.288340780884027481e-03,3.950149193406105042e-02,-1.695026159286499023e-01,-4.258935153484344482e-02,-3.575976938009262085e-02,9.330280125141143799e-02,1.166909486055374146e-01,-2.250908315181732178e-02,4.979611560702323914e-02,5.176380276679992676e-02,-8.078928291797637939e-02,-3.175735101103782654e-02,-1.230724677443504333e-01,-1.502517312765121460e-01,1.123484522104263306e-01,-3.069078363478183746e-02,2.544744871556758881e-02,9.003853797912597656e-02,4.319876804947853088e-02,7.693774253129959106e-02,1.349404901266098022e-01,7.000160217285156250e-02,-4.113129153847694397e-02,-1.161245703697204590e-01,-7.484319061040878296e-02,-1.529139932245016098e-02,-1.519909799098968506e-01,-5.900971218943595886e-02,-1.715681888163089752e-02,1.789603084325790405e-01,9.614679962396621704e-02,5.705766007304191589e-02,-5.894546583294868469e-02,6.460169702768325806e-02,1.339956670999526978e-01,-5.086651444435119629e-02,-5.801938101649284363e-02,1.409906297922134399e-01,1.732423342764377594e-02,5.719230324029922485e-02,9.285912662744522095e-02,1.360538899898529053e-01,-1.064936444163322449e-01,-5.618119984865188599e-02,-9.725835174322128296e-02,-3.592503070831298828e-02,2.290409617125988007e-02,5.085744336247444153e-02,1.901018619537353516e-02,-4.069947078824043274e-02,-1.599475555121898651e-02,1.620074957609176636e-01,6.371957808732986450e-02,-2.065661363303661346e-02,1.572518795728683472e-01,-5.506921559572219849e-02,5.042267590761184692e-02,-2.829104661941528320e-02,-2.604856900870800018e-02,-3.397585079073905945e-02,-1.596607081592082977e-02,-3.599660843610763550e-02,-1.040584444999694824e-01,2.861327864229679108e-02,-5.461470037698745728e-02,-1.299804002046585083e-01,1.329207122325897217e-01,1.251906603574752808e-01,8.795180916786193848e-02,-1.150454878807067871e-01,1.008997485041618347e-01,1.798027604818344116e-01,-2.033261768519878387e-02,5.884363874793052673e-02,3.313905373215675354e-02,-1.548311561346054077e-01,-4.985949024558067322e-02,4.482812806963920593e-02,1.173126623034477234e-01,-9.877467900514602661e-02,2.115586586296558380e-02,7.113976031541824341e-02,-2.269154228270053864e-02,8.134869486093521118e-02,-8.378350734710693359e-02,1.999446749687194824e-02,-1.365678012371063232e-02,2.777218818664550781e-02,1.454038429073989391e-03,-5.687632039189338684e-02,4.266191646456718445e-02,-6.405698508024215698e-02,-7.972479611635208130e-02,-1.459143310785293579e-01,-7.499101012945175171e-02,1.692268401384353638e-01,1.158869192004203796e-01,1.046706959605216980e-01,2.941360510885715485e-02,1.564830392599105835e-01,2.819332852959632874e-02,6.133804470300674438e-02,5.602686479687690735e-02,2.306394279003143311e-02,4.752872884273529053e-02,-7.306859828531742096e-03,6.327605247497558594e-02,-1.143312677741050720e-01,-1.863959282636642456e-01,1.560787763446569443e-02,-3.003019094467163086e-02,-9.488876909017562866e-02,4.147036001086235046e-03,5.403380468487739563e-02,-5.693262442946434021e-02,1.154013071209192276e-02,1.906405985355377197e-01,1.238148957490921021e-01,6.143501400947570801e-02,6.118007376790046692e-02,-1.230472922325134277e-01,-1.310663074254989624e-01,1.632006093859672546e-02,9.178316593170166016e-02,5.973595380783081055e-02,1.594827137887477875e-02,-1.879253797233104706e-02,1.893740147352218628e-02,8.875908702611923218e-02,1.580919325351715088e-01,-1.389140933752059937e-01,8.168906718492507935e-02,1.629752665758132935e-01,-9.414888918399810791e-02,-3.311015432700514793e-03,1.106286887079477310e-02,-2.451494894921779633e-02,-2.386856637895107269e-02,-4.632927104830741882e-02,-6.552451103925704956e-02,-2.493952866643667221e-03,-3.202528227120637894e-03,6.489854305982589722e-02,-7.721495628356933594e-02,-7.444842904806137085e-02,-3.148254379630088806e-02,4.471656400710344315e-03,3.488926915451884270e-03,-1.575424820184707642e-01,5.002119019627571106e-02,1.056918874382972717e-01,-1.034452468156814575e-01,-1.708316653966903687e-01,3.631727024912834167e-02,7.586899399757385254e-02,-1.138196140527725220e-01,6.528109312057495117e-02,-6.008842214941978455e-02,1.113293226808309555e-02,-1.043988019227981567e-01,2.663830295205116272e-02,-5.256812646985054016e-02,-6.692090537399053574e-04,-1.372971981763839722e-01,7.461735606193542480e-02,-3.937348350882530212e-02,1.197862401604652405e-01,8.746080100536346436e-03,-3.711078688502311707e-02,1.383493691682815552e-01,1.151258274912834167e-01,-5.084570962935686111e-03,2.743570075836032629e-04,-2.487664483487606049e-02,4.509203601628541946e-03,7.092895358800888062e-02,-1.416383832693099976e-01,-3.510339558124542236e-02,6.818290054798126221e-02,3.001295961439609528e-02,-1.325567960739135742e-01,1.007639765739440918e-01,1.577567495405673981e-02,1.124640479683876038e-01,1.068728342652320862e-01,-6.263240426778793335e-02,2.859500050544738770e-02,4.039252921938896179e-02,-9.034867584705352783e-02,-9.491791948676109314e-03,-3.058348037302494049e-02,2.740865014493465424e-02,5.730605870485305786e-02,-1.491242647171020508e-02,4.303846880793571472e-02,-2.429621294140815735e-02,6.436758488416671753e-02,-8.592578768730163574e-02,-5.821060761809349060e-02,-5.764087662100791931e-02,-8.472051471471786499e-02,4.082275927066802979e-02,7.570164650678634644e-02,-1.640008836984634399e-01,5.267836526036262512e-02,2.615144662559032440e-02,-3.609604761004447937e-02,-5.676138401031494141e-02,1.223892495036125183e-01,-8.488427102565765381e-02,8.965345472097396851e-02,1.673930510878562927e-02,-1.742386668920516968e-01,7.005605846643447876e-02,-5.851861461997032166e-02,1.036581620573997498e-01,-1.544821448624134064e-02,1.552669107913970947e-01,5.868403241038322449e-02,7.469695061445236206e-02,-4.225943982601165771e-02,-1.552851218730211258e-02,-5.247517302632331848e-02,1.211356651037931442e-02,5.112279206514358521e-02,-1.221237406134605408e-01,5.323475599288940430e-02,4.645603150129318237e-02,1.614662855863571167e-01,-1.466575711965560913e-01,1.133724004030227661e-01,-1.533792167901992798e-02,-9.543477743864059448e-02,-3.166604042053222656e-02,-1.160129234194755554e-01,-4.452657699584960938e-02,-2.257015369832515717e-02,-1.476341933012008667e-01,1.274913828819990158e-02,-5.673151090741157532e-02,1.414183527231216431e-01,1.421737521886825562e-01,-1.089166924357414246e-01,9.373001009225845337e-02,6.329726427793502808e-02,1.252847816795110703e-02,6.239063292741775513e-02,-1.893230341374874115e-02,-7.266455143690109253e-02,-5.876953154802322388e-02,-9.795816987752914429e-02,-7.307743281126022339e-02,4.949790611863136292e-02,2.257418446242809296e-02,-3.209235146641731262e-02,1.285365670919418335e-01,1.441139578819274902e-01,-6.408612430095672607e-02,-3.653619438409805298e-02,-2.796058310195803642e-03,7.530926913022994995e-02,1.874935999512672424e-02,-8.648452162742614746e-02,-5.087067373096942902e-03,1.263645738363265991e-01,3.734364733099937439e-02,-4.205333441495895386e-02,1.708714663982391357e-02,4.419476166367530823e-02,-9.727635234594345093e-02,-1.937773823738098145e-02,-3.864319249987602234e-02,1.631152629852294922e-02,2.323800139129161835e-02,-7.886672392487525940e-03,-1.508183926343917847e-01,-1.255027502775192261e-01,-4.953498765826225281e-02,9.059948474168777466e-02,1.224441155791282654e-01,3.654023632407188416e-02,9.028580039739608765e-02,6.938415765762329102e-02,1.369919534772634506e-02,-3.109460230916738510e-03,1.995718851685523987e-02,-1.085529327392578125e-01,3.316568210721015930e-02,1.320169027894735336e-02,-6.042682006955146790e-02,1.370254307985305786e-01,-1.391967535018920898e-01,-1.847095042467117310e-01,-3.453725948929786682e-03,-1.266878750175237656e-02,6.906975805759429932e-02,9.491121023893356323e-02,1.208511218428611755e-01,1.424339860677719116e-01,-1.451358795166015625e-01,4.344594478607177734e-02,9.711240231990814209e-02,1.105445399880409241e-01,-5.352922156453132629e-02,-9.143977612257003784e-02,-3.780070319771766663e-02,5.321469530463218689e-02,1.484272629022598267e-02,-1.550470292568206787e-02,1.010413914918899536e-01,-3.493894264101982117e-02,-6.497149914503097534e-02,7.977294735610485077e-03,-1.149345785379409790e-01,1.630945480428636074e-03,-4.439378157258033752e-02,-2.383382618427276611e-02,-1.754101216793060303e-01,6.266520917415618896e-02,-4.170948639512062073e-02,1.208448559045791626e-01,-1.758000105619430542e-01,4.376536607742309570e-02,9.737799316644668579e-02,1.150582954287528992e-01,9.005406498908996582e-02,-5.612627789378166199e-02,-1.335866153240203857e-01,9.969516657292842865e-03,6.444722414016723633e-02,1.088077053427696228e-01,2.009707689285278320e-02,1.495025306940078735e-02,-5.417893454432487488e-02,-9.633537381887435913e-02,-1.932076923549175262e-02,-8.503647148609161377e-02,1.368592232465744019e-01,-8.279544115066528320e-02,6.783876568078994751e-02,-8.041817694902420044e-02,3.750637173652648926e-02,1.283515542745590210e-01,4.278081282973289490e-02,2.190624922513961792e-02,6.067863665521144867e-03,7.742147892713546753e-03,1.023015752434730530e-01,7.008820772171020508e-02,-9.226034581661224365e-02,-4.028968513011932373e-02,2.087255753576755524e-02,-6.160035356879234314e-02,4.524479061365127563e-02,1.121083423495292664e-01,-4.338366165757179260e-02,3.450399264693260193e-02,5.586547777056694031e-02,-4.788406193256378174e-02,-1.705797016620635986e-01,6.129354238510131836e-02,-1.010655518621206284e-02,-6.038511544466018677e-02,-6.281268596649169922e-02,4.284744337201118469e-02,1.416551619768142700e-01,1.352288573980331421e-01,-5.506179481744766235e-02,1.799924671649932861e-01,-1.200906094163656235e-02,-5.025687441229820251e-02,1.188959833234548569e-02,5.371136125177145004e-03,8.726867288351058960e-02,-1.260105073451995850e-01,3.563395887613296509e-02,-1.070786863565444946e-01,-7.924395799636840820e-02,3.200628980994224548e-02,-2.145171724259853363e-02,2.277279458940029144e-02,5.919637158513069153e-02,1.703084856271743774e-01,-1.807175129652023315e-01,-4.643033072352409363e-02,-8.403662592172622681e-02,7.871143519878387451e-02,8.571915328502655029e-02,-3.730712458491325378e-02,-3.209465369582176208e-02,-1.361248046159744263e-01,8.994401246309280396e-02,-1.447182148694992065e-01,-1.185545045882463455e-02,3.774044662714004517e-02,1.130463480949401855e-01,9.413113445043563843e-02,-8.385179936885833740e-02,-1.655450463294982910e-02,8.802066743373870850e-02,7.574611157178878784e-02,-5.884921550750732422e-02,-7.508111745119094849e-02,3.529516234993934631e-02,2.115365350618958473e-03,7.631539553403854370e-02,-4.557315260171890259e-02,2.089253440499305725e-02,-1.313408138230443001e-03,-1.561776250600814819e-01,-8.362837135791778564e-03,-1.882178783416748047e-01,1.030154759064316750e-03,3.116946481168270111e-02,1.506115049123764038e-01,-1.166341640055179596e-02,-1.051266342401504517e-01,-1.743719428777694702e-01,-6.847950071096420288e-02,7.153768837451934814e-02,1.280456036329269409e-01,7.868700474500656128e-02,-1.801960319280624390e-01,-6.495786365121603012e-03,-1.494719982147216797e-01,1.443354226648807526e-02,-1.037806868553161621e-01,-1.402719914913177490e-01,1.260146349668502808e-01,1.485693156719207764e-01,-5.031808745115995407e-03,3.908088803291320801e-02,-2.323408424854278564e-02,-1.253251582384109497e-01,-4.862672835588455200e-02,9.037079662084579468e-02,-4.465160146355628967e-02,2.929553203284740448e-02,-9.222174435853958130e-02
7.005339115858078003e-02,-9.277841448783874512e-02,-6.889004260301589966e-02,-1.929045170545578003e-01,1.879304647445678711e-02,3.322059661149978638e-02,-2.952520921826362610e-02,-1.025568842887878418e-01,-7.458414137363433838e-02,-2.319989539682865143e-02,1.223134323954582214e-01,-4.109872877597808838e-02,-1.009350344538688660e-01,8.319898694753646851e-02,8.651884645223617554e-02,-5.971217155456542969e-02,1.614649444818496704e-01,-8.172332495450973511e-02,-9.277986735105514526e-02,8.010341227054595947e-02,-2.336727455258369446e-02,-3.278431296348571777e-02,-5.396137130446732044e-04,5.595434457063674927e-02,6.086919456720352173e-02,-1.256838887929916382e-01,-3.329179435968399048e-02,2.160060964524745941e-02,-6.672223657369613647e-02,1.923697441816329956e-01,1.853534951806068420e-02,1.394064258784055710e-02,-2.830912359058856964e-03,1.421655267477035522e-01,-2.786791138350963593e-02,-5.267980694770812988e-02,3.030841611325740814e-02,-1.991224475204944611e-02,4.399296268820762634e-02,-1.062978282570838928e-01,-7.845174521207809448e-02,-3.909126669168472290e-02,-1.479630321264266968e-01,1.326237767934799194e-01,-7.665923982858657837e-02,6.433918327093124390e-02,-4.355902969837188721e-02,-6.485795229673385620e-02,-8.899547904729843140e-02,9.498707950115203857e-03,6.357447057962417603e-02,8.638077229261398315e-02,2.438607811927795410e-02,3.267968446016311646e-02,-1.184994578361511230e-01,-7.244292180985212326e-03,-6.116182357072830200e-02,-1.656446605920791626e-01,6.921092420816421509e-02,-4.802830982953310013e-03,1.976006627082824707e-01,1.186602860689163208e-01,4.704975523054599762e-03,2.149130776524543762e-02,6.958085577934980392e-03,-2.351732365787029266e-02,-3.848114609718322754e-02,-4.187340661883354187e-02,5.871673300862312317e-02,6.897708773612976074e-02,-1.087601929903030396e-01,2.556369267404079437e-02,8.256468176841735840e-02,1.180854588747024536e-01,2.832761406898498535e-02,-8.538607507944107056e-02,9.497558325529098511e-02,4.766118526458740234e-02,1.723842769861221313e-01,7.690495997667312622e-02,-4.989198595285415649e-02,-1.341357082128524780e-01,5.213608220219612122e-02,-1.218959596008062363e-02,-4.953147098422050476e-02,-2.495069243013858795e-02,-5.946878343820571899e-02,-5.399444326758384705e-02,-4.488749895244836807e-03,-1.060655042529106140e-01,5.094419792294502258e-02,-3.186036646366119385e-02,-5.459498614072799683e-03,1.696620583534240723e-01,-7.398435473442077637e-02,1.132107060402631760e-02,7.696133106946945190e-02,3.849836811423301697e-02,-6.802885234355926514e-02,5.588266253471374512e-02,-2.778356708586215973e-02,-8.252210170030593872e-02,-1.119392067193984985e-01,1.261625555343925953e-03,-4.585107043385505676e-02,-8.638909459114074707e-02,-3.440516814589500427e-02,-7.980370521545410156e-02,-5.171922384761273861e-04,-1.151015982031822205e-01,-3.806487843394279480e-02,-1.084294468164443970e-01,1.957123428583145142e-01,1.542910784482955933e-01,9.382120333611965179e-03,-1.790702193975448608e-01,-1.087521836161613464e-01,-2.118496038019657135e-02,-4.979152977466583252e-02,6.090847402811050415e-02,-1.051857024431228638e-01,-1.105013713240623474e-01,6.673351861536502838e-03,1.788876503705978394e-01,-9.995055943727493286e-02,5.602256208658218384e-02,1.559886336326599121e-02,5.406164005398750305e-02,5.512131005525588989e-02,-6.561847776174545288e-02,1.795721426606178284e-02,-6.420563906431198120e-02,-2.589683793485164642e-02,-3.003577888011932373e-02,4.226641356945037842e-02,7.155032455921173096e-02,9.471777081489562988e-02,7.157231122255325317e-02,-1.415438354015350342e-01,-1.106619462370872498e-01,-1.648412644863128662e-01,1.250717639923095703e-01,-1.278901547193527222e-01,-5.998205766081809998e-02,1.828344166278839111e-02,3.303889650851488113e-03,8.117250353097915649e-02,6.457308679819107056e-02,8.815354853868484497e-02,-9.645288437604904175e-02,6.117778643965721130e-02,3.471916168928146362e-02,5.414756014943122864e-02,-3.356703743338584900e-02,-6.854362040758132935e-02,3.835817426443099976e-02,8.611770719289779663e-02,-2.465155534446239471e-02,1.109416037797927856e-01,-3.055325010791420937e-03,-5.831414368003606796e-03,1.114459037780761719e-01,1.516446471214294434e-02,8.533681929111480713e-02,1.204563528299331665e-01,-6.501161307096481323e-02,3.291830420494079590e-02,-1.430618464946746826e-01,-1.199555173516273499e-01,1.462445855140686035e-01,1.390133947134017944e-01,6.298955529928207397e-03,-7.911633700132369995e-02,9.958273172378540039e-02,-4.911963269114494324e-02,-1.701652109622955322e-01,5.520154256373643875e-03,6.826097518205642700e-02,-1.357211172580718994e-02,2.952792448922991753e-03,-3.197233378887176514e-02,4.018970951437950134e-02,1.795647665858268738e-02,-1.989220269024372101e-02,1.018010526895523071e-01,-8.166857808828353882e-02,1.869875378906726837e-02,1.993954367935657501e-02,1.562624610960483551e-02,-1.298832744359970093e-01,-1.449739094823598862e-02,-1.609607785940170288e-01,-1.973263770341873169e-01,2.622364833950996399e-02,1.272258013486862183e-01,9.885004162788391113e-02,1.064431667327880859e-02,-1.204882375895977020e-02,1.344049163162708282e-02,-7.398610562086105347e-02,-1.457778066396713257e-01,-7.846721261739730835e-02,4.013571143150329590e-02,-7.220201194286346436e-02,7.859214395284652710e-02,-1.067305356264114380e-01,4.489642009139060974e-02,-3.942455723881721497e-02,4.636423289775848389e-02,-7.580188661813735962e-02,-3.982052579522132874e-02,-1.863068789243698120e-01,-3.813194110989570618e-02,1.162985712289810181e-01,4.012556001543998718e-02,-6.820521503686904907e-02,1.553176045417785645e-01,-9.067039191722869873e-02,1.900218874216079712e-01,-2.831743471324443817e-02,-3.518976271152496338e-02,-2.664550207555294037e-02,5.407071858644485474e-02,1.952453702688217163e-01,1.863780617713928223e-02,-2.023141458630561829e-02,-6.431847065687179565e-02,-4.323313757777214050e-02,7.133221626281738281e-02,3.571049496531486511e-02,-1.211449056863784790e-01,-5.528545379638671875e-02,-7.040327042341232300e-02,-1.094529405236244202e-01,-8.513519167900085449e-02,-3.715128824114799500e-02,-1.439060419797897339e-01,-1.218320503830909729e-01,-1.030472144484519958e-01,2.463362365961074829e-02,-1.107752695679664612e-01,-1.551374234259128571e-02,7.389178127050399780e-02,9.792190045118331909e-02,-6.739696860313415527e-02,-1.597373634576797485e-01,9.333128482103347778e-02,-1.345769017934799194e-01,-1.230505853891372681e-01,-6.563603132963180542e-02,-6.131464987993240356e-02,4.902054741978645325e-02,-2.634048834443092346e-02,-1.297079771757125854e-01,1.036020144820213318e-01,-1.652317196130752563e-01,1.040941476821899414e-01,6.570943444967269897e-02,-7.547777891159057617e-02,-1.476835012435913086e-01,3.266183659434318542e-02,3.711948171257972717e-02,-7.037779781967401505e-03,2.120540011674165726e-03,-5.066101904958486557e-03,4.476247821003198624e-03,-1.959889233112335205e-01,-4.100722074508666992e-02,6.399764865636825562e-02,-6.475643813610076904e-02,9.595247916877269745e-03,-8.922231197357177734e-02,-9.538732469081878662e-02,1.031148955225944519e-01,5.315373465418815613e-02,7.327008992433547974e-02,-6.349373608827590942e-02,5.388497933745384216e-02,1.628779806196689606e-02,1.280070394277572632e-01,-7.874279469251632690e-02,2.957868948578834534e-02,-6.418386846780776978e-02,9.496887773275375366e-02,7.471285294741392136e-03,1.614871434867382050e-02,8.981880545616149902e-02,5.905551463365554810e-02,5.665869265794754028e-02,-2.482183836400508881e-02,1.310607939958572388e-01,-9.363489598035812378e-02,1.185016985982656479e-02,2.784733287990093231e-02,-7.086672633886337280e-02,-1.229034885764122009e-01,-1.765670627355575562e-01,1.857571862637996674e-02,8.637519925832748413e-02,-3.282802924513816833e-02,1.545269340276718140e-01,1.037143096327781677e-01,-1.189209707081317902e-02,8.911777287721633911e-02,-8.332905918359756470e-02,1.052296087145805359e-01,-5.033808946609497070e-02,1.531943958252668381e-02,-1.631880253553390503e-01,1.390160769224166870e-01,-3.422734141349792480e-02,-5.333892256021499634e-02,1.323435604572296143e-01,-2.480765804648399353e-02,-3.973142709583044052e-03,-5.197774991393089294e-02,-1.073422655463218689e-01,-9.488344937562942505e-02,2.462421776726841927e-03,-3.540898486971855164e-02,-9.702723473310470581e-02,-1.578531265258789062e-01,5.447561293840408325e-02,2.689837850630283356e-02,-3.083770349621772766e-02,4.180302470922470093e-02,-1.669624745845794678e-01,-6.801457703113555908e-02,1.021819934248924255e-01,-9.166335314512252808e-02,-4.461501166224479675e-02,-2.125921659171581268e-02,-1.045273318886756897e-01,-1.158042177557945251e-01,-1.474939584732055664e-01,-4.806511104106903076e-02,1.177032589912414551e-01,1.850455813109874725e-02,3.595184907317161560e-02,-9.781532734632492065e-02,8.331973850727081299e-02,-5.823540315032005310e-02,2.971095405519008636e-02,-2.117442153394222260e-02,-5.353036150336265564e-02,-1.255244463682174683e-01,4.562828317284584045e-02,1.036007031798362732e-01,-1.572257094085216522e-02,1.981641203165054321e-01,-6.423334777355194092e-02,6.321639567613601685e-02,-8.636973798274993896e-02,5.923252925276756287e-02,1.421424597501754761e-01,1.767511814832687378e-01,5.717739462852478027e-02,5.022295750677585602e-03,-3.487696498632431030e-02,-1.014451012015342712e-01,-1.439546942710876465e-01,-1.509069651365280151e-01,-1.857171058654785156e-01,1.474584788084030151e-01,9.885803610086441040e-02,-1.502332687377929688e-01,1.056550070643424988e-01,-1.136830449104309082e-01,2.767862193286418915e-02,-1.002080217003822327e-01,1.522685736417770386e-01,-1.269360631704330444e-01,1.002300977706909180e-01,-1.090144515037536621e-01,-1.752684125676751137e-03,3.589114174246788025e-02,8.645509928464889526e-02,-8.394452929496765137e-02,-9.224327653646469116e-02,-4.985610768198966980e-02,-5.369890481233596802e-02,-2.796593122184276581e-02,7.543060183525085449e-02,6.879507750272750854e-02,-1.582040935754776001e-01,-2.804329805076122284e-02,9.830626845359802246e-02,1.160916090011596680e-01,5.860675498843193054e-02,1.361802369356155396e-01,-6.364995241165161133e-02,-9.970059990882873535e-02,6.992255896329879761e-02,-1.034262180328369141e-01,-2.513222768902778625e-02,-1.505077481269836426e-01,1.056696847081184387e-02,5.299115926027297974e-02,-2.192078344523906708e-02,-2.830743603408336639e-02,6.984694302082061768e-02,-1.589433848857879639e-01,-5.341360718011856079e-02,-9.088220447301864624e-02,9.862659871578216553e-02,6.087079271674156189e-02,-4.928435012698173523e-02,5.079800635576248169e-02,-5.282128974795341492e-02,-3.470162674784660339e-02,-5.333095416426658630e-02,1.384312566369771957e-02,-1.758671551942825317e-02,3.094855323433876038e-02,7.582864165306091309e-02,-4.690207913517951965e-02,8.223139494657516479e-02,9.629396349191665649e-02,1.330682486295700073e-01,1.125776395201683044e-02,5.399553105235099792e-02,-2.934210561215877533e-02,2.414665371179580688e-02,2.720996737480163574e-02,6.123020872473716736e-02,-1.992001831531524658e-01,8.665256947278976440e-02,-1.645588576793670654e-01,2.428271248936653137e-02,-5.881745740771293640e-02,3.000037372112274170e-02,1.418766379356384277e-02,1.315399855375289917e-01,1.010320112109184265e-01,1.177861839532852173e-01,9.251263737678527832e-02,-3.927811980247497559e-02,1.048065572977066040e-01,-6.695604324340820312e-02,-8.926483243703842163e-02,1.889612758532166481e-04,-9.574717283248901367e-02,1.071325540542602539e-01,3.068798594176769257e-02,4.195250198245048523e-02,1.285186260938644409e-01,1.023661866784095764e-01,1.627147942781448364e-01,5.088628455996513367e-02,-8.688639849424362183e-02,-4.893455654382705688e-02,-1.244613304734230042e-01,-8.440903574228286743e-02,-8.202031254768371582e-02,-4.460417851805686951e-02,1.194991245865821838e-01,-5.631083995103836060e-02,6.877686083316802979e-02,-6.680320948362350464e-02,-6.981482356786727905e-02,-1.718720942735671997e-01,1.104202419519424438e-01,1.764563098549842834e-02,4.405001644045114517e-03,-9.579709917306900024e-02,-1.130396649241447449e-01,4.756375774741172791e-02,2.873460389673709869e-02,3.835852071642875671e-02,-3.540564328432083130e-02,-1.012785583734512329e-01,1.632311195135116577e-01,-9.775501489639282227e-02,-3.231901675462722778e-02,-2.067905478179454803e-02,2.782873809337615967e-02,-1.319383680820465088e-01,-3.549670428037643433e-02,-1.296954602003097534e-01,-1.765563338994979858e-01,-5.386955663561820984e-02,-1.033522859215736389e-01,-1.989351212978363037e-01,-5.154771357774734497e-02,4.624878987669944763e-02,9.483017772436141968e-02,-4.687471315264701843e-02,3.335341438651084900e-02,1.719356165267527103e-03,8.127302676439285278e-02,-2.507798932492733002e-02,6.747486442327499390e-02,-5.442294105887413025e-02,-6.429000198841094971e-02,-6.629054993391036987e-02,-1.093983799219131470e-01,-1.813461780548095703e-01,1.066212579607963562e-01,9.374178946018218994e-02,-1.140501350164413452e-02,-8.405565470457077026e-02,8.237802237272262573e-02,-1.875453442335128784e-02,-6.209788471460342407e-02,-6.467156857252120972e-02,1.557351183146238327e-02,-1.476452797651290894e-01,2.900337614119052887e-02,-2.103806473314762115e-02,-4.114137217402458191e-02,-1.333488672971725464e-01,-1.899594813585281372e-01
-3.713675960898399353e-02,-3.342711925506591797e-02,8.502691239118576050e-02,9.375613927841186523e-02,1.133846864104270935e-01,9.525334089994430542e-02,3.915425390005111694e-02,-1.469138413667678833e-01,-7.932724058628082275e-02,-8.351218700408935547e-02,4.706741496920585632e-02,1.802278012037277222e-01,-8.903154730796813965e-02,-1.223200336098670959e-01,3.102411888539791107e-02,2.585028111934661865e-02,-3.821150586009025574e-02,6.626411527395248413e-02,6.245792657136917114e-02,2.983334474265575409e-02,8.296896517276763916e-02,2.101619541645050049e-02,1.206152215600013733e-01,8.286778628826141357e-02,1.097220703959465027e-01,-5.062156543135643005e-02,-6.043447181582450867e-02,-8.522175997495651245e-02,6.395433843135833740e-02,-1.434548050165176392e-01,9.668160974979400635e-02,-3.548747301101684570e-02,1.059828996658325195e-01,6.162157654762268066e-02,-1.083991453051567078e-01,1.518498510122299194e-01,-1.020990684628486633e-02,3.443025425076484680e-02,5.981871113181114197e-02,-2.468894980847835541e-02,1.649139672517776489e-01,1.539863497018814087e-01,-1.533247679471969604e-01,-1.794497855007648468e-02,1.527876108884811401e-01,7.066321372985839844e-02,9.640742838382720947e-02,-7.901167124509811401e-02,1.189210191369056702e-01,6.707891076803207397e-02,-8.667593449354171753e-02,8.305193483829498291e-02,-2.264792472124099731e-02,5.971698835492134094e-02,-4.031441640108823776e-03,-1.479922384023666382e-01,-8.189509063959121704e-02,-1.435709148645401001e-01,1.560785342007875443e-02,1.273253411054611206e-01,4.462252929806709290e-02,2.033693157136440277e-02,6.599142402410507202e-02,-7.189042866230010986e-03,-1.158250793814659119e-01,8.422701805830001831e-02,-3.251850232481956482e-02,9.006957709789276123e-02,-1.554893106222152710e-01,2.226763591170310974e-02,-4.528716579079627991e-02,-3.343532234430313110e-02,1.094630882143974304e-01,-5.491381511092185974e-02,-1.854963973164558411e-02,-7.807173579931259155e-02,-1.025175601243972778e-01,2.018415182828903198e-02,-1.562152989208698273e-02,1.466162055730819702e-01,-4.636887460947036743e-02,4.111609980463981628e-02,8.767651766538619995e-02,3.008524514734745026e-02,3.125008568167686462e-02,9.869962930679321289e-02,-7.205930538475513458e-03,-4.031917080283164978e-02,-1.011234298348426819e-01,-3.355342894792556763e-02,1.990532726049423218e-01,-5.734781175851821899e-02,-9.286793321371078491e-02,1.003430262207984924e-01,1.270113326609134674e-02,7.984772324562072754e-02,-1.156809106469154358e-01,1.541624814271926880e-01,5.777367576956748962e-02,-8.103227615356445312e-02,1.710231453180313110e-01,-4.255938529968261719e-02,9.935220330953598022e-02,-1.998758912086486816e-01,1.184198260307312012e-02,-6.965549290180206299e-02,-8.980818092823028564e-02,8.430138113908469677e-04,1.223445460200309753e-01,3.793481737375259399e-02,3.004498779773712158e-02,-8.126018196344375610e-02,2.828995324671268463e-02,3.408814221620559692e-02,-6.017494946718215942e-02,-1.207109838724136353e-01,-6.437107175588607788e-02,1.007235646247863770e-01,-1.354462504386901855e-01,-6.256232410669326782e-02,3.373529762029647827e-02,-1.098588109016418457e-01,-4.597706720232963562e-02,-4.034157376736402512e-03,-1.442487090826034546e-01,6.751129031181335449e-02,-6.498380750417709351e-02,3.221606835722923279e-02,-1.394084244966506958e-01,1.299077868461608887e-01,6.567387282848358154e-02,7.973331026732921600e-03,-1.380070345476269722e-03,4.950859770178794861e-02,-1.628036350011825562e-01,-1.657893881201744080e-02,-1.252722591161727905e-01,4.093828052282333374e-02,-2.348591387271881104e-02,1.229763999581336975e-01,1.461969036608934402e-02,9.571976214647293091e-02,-3.769193217158317566e-02,4.806697368621826172e-02,-1.641814410686492920e-01,-1.075302287936210632e-01,-1.063907667994499207e-01,-4.166364297270774841e-02,-3.323118761181831360e-02,-4.168515279889106750e-02,3.086426062509417534e-03,-2.675562538206577301e-02,-5.111808329820632935e-02,-8.908234536647796631e-02,1.550637930631637573e-01,-5.770597979426383972e-02,-4.600675776600837708e-02,1.257046964019536972e-02,-7.391913235187530518e-02,1.046212092041969299e-01,-9.293325990438461304e-02,1.009185239672660828e-01,1.381476372480392456e-01,1.656169891357421875e-01,7.957014255225658417e-03,9.835118427872657776e-03,-1.203651949763298035e-01,-6.736186146736145020e-02,-4.597336798906326294e-02,7.878174073994159698e-03,-7.595466077327728271e-02,1.084003970026969910e-01,-4.937329515814781189e-02,-3.255350515246391296e-02,-1.640353351831436157e-01,9.542103856801986694e-02,-1.313412189483642578e-01,8.198095113039016724e-02,1.223482713103294373e-01,2.504612086340785027e-03,-1.311866790056228638e-01,1.272188425064086914e-01,-1.633075438439846039e-02,-2.754319645464420319e-02,-9.681817889213562012e-02,3.301955061033368111e-03,-1.015286669135093689e-01,-1.311100423336029053e-01,-8.665001392364501953e-02,5.025374889373779297e-02,2.623011171817779541e-02,-9.861011058092117310e-02,-1.057407036423683167e-01,-6.289293617010116577e-02,1.530246585607528687e-01,-2.355922944843769073e-03,7.542929798364639282e-02,6.282175332307815552e-02,-9.278398007154464722e-02,-9.112910926342010498e-02,-2.574157528579235077e-02,1.580975800752639771e-01,-1.399880498647689819e-01,-2.493234537541866302e-02,-6.498267501592636108e-02,1.173631921410560608e-01,1.775139719247817993e-01,-1.833742409944534302e-01,1.046653613448143005e-01,9.033938497304916382e-02,4.626156017184257507e-02,1.326634883880615234e-01,7.914792746305465698e-02,8.742889016866683960e-02,-7.332171499729156494e-02,1.045800074934959412e-01,3.132811561226844788e-02,-1.625556945800781250e-01,3.707692399621009827e-02,2.450600638985633850e-02,-3.624828532338142395e-02,5.199944600462913513e-02,1.282796710729598999e-01,-2.791505865752696991e-02,-1.046042069792747498e-01,5.422977264970541000e-03,-2.202900685369968414e-02,-1.531157363206148148e-02,-5.626678466796875000e-02,-1.262104660272598267e-01,1.223458275198936462e-01,1.315270811319351196e-01,-1.631918400526046753e-01,6.427260581403970718e-03,-1.869765110313892365e-02,5.869264155626296997e-02,-1.516603082418441772e-01,-5.727867037057876587e-02,1.711056679487228394e-01,9.154639393091201782e-02,-9.760805219411849976e-02,2.384363301098346710e-02,-1.400938481092453003e-01,3.491109237074851990e-02,-5.511303618550300598e-02,7.794687151908874512e-02,5.934244953095912933e-03,8.228740654885768890e-03,5.414488911628723145e-02,1.649819016456604004e-01,-3.400481864809989929e-02,1.604260951280593872e-01,-4.888350889086723328e-02,5.692571401596069336e-02,-1.004783436655998230e-01,-6.654962152242660522e-02,8.706789463758468628e-02,-3.797817230224609375e-02,-1.319775432348251343e-01,-1.141169071197509766e-01,2.369274944067001343e-02,1.517247706651687622e-01,-6.879477947950363159e-02,-1.283784490078687668e-02,5.862608179450035095e-02,-4.134745150804519653e-02,-1.279284805059432983e-01,1.957472413778305054e-01,-5.960996821522712708e-02,-1.214792486280202866e-03,-1.852678321301937103e-02,6.999415904283523560e-02,-1.146500036120414734e-01,-5.550169572234153748e-02,1.758375763893127441e-02,7.668227702379226685e-02,8.116906881332397461e-02,-1.895475834608078003e-01,-1.113272830843925476e-01,-1.252605020999908447e-02,-1.555903404951095581e-01,4.437441378831863403e-02,4.441487416625022888e-02,4.576309397816658020e-02,-8.913403004407882690e-02,-1.719946227967739105e-02,-8.822544664144515991e-02,1.112288981676101685e-01,1.333834975957870483e-01,7.647924870252609253e-02,-7.875096052885055542e-02,-1.707748770713806152e-01,-7.702709641307592392e-03,-1.518691629171371460e-01,-1.656623929738998413e-01,1.648148894309997559e-02,1.980146206915378571e-02,1.379871089011430740e-02,1.337261218577623367e-02,9.656517952680587769e-02,-3.162787482142448425e-02,-2.623586729168891907e-02,-7.614562660455703735e-02,5.424819514155387878e-02,-1.212406978011131287e-01,-1.637138575315475464e-01,-9.778161346912384033e-02,5.842087417840957642e-02,-1.688533127307891846e-01,9.345119446516036987e-02,3.226573392748832703e-02,-1.219267621636390686e-01,-1.262844353914260864e-01,-7.467687875032424927e-02,-1.833368539810180664e-01,1.549943536520004272e-01,-5.861164256930351257e-02,9.131737053394317627e-02,-1.142460033297538757e-01,8.974193036556243896e-02,-5.553009733557701111e-02,1.505658030509948730e-01,-6.517315655946731567e-02,4.777323920279741287e-03,8.460061252117156982e-02,1.627490669488906860e-01,5.611311271786689758e-02,1.047675590962171555e-02,6.393846124410629272e-02,7.022026926279067993e-03,-2.616477897390723228e-03,1.103942394256591797e-01,-1.645539514720439911e-02,5.722399428486824036e-02,7.041572127491235733e-03,4.254929721355438232e-02,6.557814031839370728e-02,-8.354624360799789429e-02,1.082226857542991638e-01,1.978353224694728851e-02,-8.165694773197174072e-02,3.004715405404567719e-02,6.040974333882331848e-02,-4.878100380301475525e-02,-2.218575961887836456e-02,1.233031507581472397e-02,1.467719953507184982e-02,8.630429208278656006e-02,1.589502952992916107e-02,-4.144538566470146179e-02,1.913111060857772827e-01,2.035264484584331512e-02,-1.157706007361412048e-01,-2.080946229398250580e-02,7.622894644737243652e-02,-6.555434316396713257e-02,3.349318355321884155e-02,1.454655732959508896e-02,-1.374265253543853760e-01,6.700692325830459595e-02,2.390578761696815491e-02,1.214240342378616333e-01,6.453021778725087643e-04,-1.035520434379577637e-02,9.119238704442977905e-02,-2.345815533772110939e-03,-1.009092703461647034e-01,-8.941354602575302124e-02,6.514116376638412476e-02,-1.450612992048263550e-01,-2.992033027112483978e-02,1.373114883899688721e-01,-1.443131417036056519e-01,4.826531931757926941e-02,-6.710677593946456909e-02,-1.402814965695142746e-02,1.208387017250061035e-01,5.592805147171020508e-02,6.627985090017318726e-02,-1.109701916575431824e-01,-8.347658067941665649e-02,-5.480147525668144226e-02,-1.198095604777336121e-01,-1.903612725436687469e-02,6.189103052020072937e-02,-4.860064014792442322e-02,-1.231829300522804260e-01,-1.859554648399353027e-01,-9.672196954488754272e-02,-2.688267827033996582e-02,3.077562141697853804e-04,8.191383630037307739e-02,-4.033326730132102966e-02,5.955361947417259216e-02,1.259342879056930542e-01,-5.916934087872505188e-02,-4.225262627005577087e-02,-1.095373034477233887e-01,-7.652278989553451538e-02,1.706293672323226929e-01,-1.528249979019165039e-01,-4.873878881335258484e-02,1.816565692424774170e-01,2.833764627575874329e-02,-1.825052648782730103e-01,2.884463779628276825e-02,1.468500960618257523e-02,8.162575215101242065e-02,-3.532524034380912781e-02,-1.002063304185867310e-01,-1.118791848421096802e-01,-3.052558004856109619e-02,1.019963622093200684e-01,4.091657325625419617e-02,-4.960582777857780457e-02,1.276650130748748779e-01,-1.942859739065170288e-01,-1.290004886686801910e-02,1.418491452932357788e-01,3.020057454705238342e-02,8.092280477285385132e-02,-5.539553984999656677e-02,-2.569562057033181190e-03,-4.581234976649284363e-02,-2.564885281026363373e-02,4.534218832850456238e-02,9.107047691941261292e-03,-9.582581371068954468e-02,-5.823490023612976074e-02,9.024090319871902466e-02,7.138090580701828003e-02,-2.650904469192028046e-03,4.478441178798675537e-02,-1.249002944678068161e-02,8.092744648456573486e-02,2.342614345252513885e-02,-1.142594590783119202e-01,-1.655741780996322632e-02,1.275481749325990677e-02,1.120102331042289734e-01,-1.225373297929763794e-01,-9.754168242216110229e-02,5.690825730562210083e-02,-1.469924002885818481e-01,-1.069411262869834900e-01,-9.482220560312271118e-02,1.221342012286186218e-01,-2.798502100631594658e-03,-1.779667474329471588e-02,2.320212684571743011e-02,-3.736671432852745056e-02,1.322191655635833740e-01,8.927989006042480469e-02,-4.231710731983184814e-02,8.142177015542984009e-03,6.136488541960716248e-02,-4.250805452466011047e-02,1.519166082143783569e-01,2.129035815596580505e-02,1.647502630949020386e-01,-3.239893168210983276e-02,-1.295413225889205933e-01,4.666991159319877625e-02,1.782554201781749725e-02,6.396674364805221558e-02,-1.741680353879928589e-01,-1.146523747593164444e-02,2.000633999705314636e-02,7.052261382341384888e-02,5.754769966006278992e-02,4.142295569181442261e-02,-8.728189021348953247e-02,-1.307829469442367554e-01,-8.048436790704727173e-02,1.143444213084876537e-03,1.566839665174484253e-01,-1.763208061456680298e-01,6.407479941844940186e-02,1.038126349449157715e-01,3.952908795326948166e-03,1.559195965528488159e-01,5.295315384864807129e-02,-8.731283247470855713e-02,1.820102185010910034e-01,5.496005341410636902e-02,5.194738507270812988e-02,1.781685203313827515e-01,-6.554854568094015121e-03,1.672608852386474609e-01,-1.380807757377624512e-01,-9.401973336935043335e-02,3.770352900028228760e-02,-1.597854495048522949e-01,1.651520133018493652e-01,-1.113307010382413864e-02,7.683519273996353149e-02,1.090471372008323669e-01,1.775587052106857300e-01,4.590291902422904968e-02,3.418007120490074158e-02,5.255515500903129578e-02,-9.053386747837066650e-03,-5.470411852002143860e-02,2.133503556251525879e-02,1.689874380826950073e-01,-1.339417397975921631e-01,1.059383749961853027e-01,1.606019213795661926e-02,-5.041883140802383423e-02,-1.615239232778549194e-01,1.238638088107109070e-01,-2.023251028731465340e-03
