8.865784108638763428e-02 -1.609217226505279541e-01 -4.785608872771263123e-02 5.049692466855049133e-03 -1.494585126638412476e-01 -8.756745606660842896e-02 -1.348194330930709839e-01 -7.292762165889143944e-04 1.933719813823699951e-01 1.339775770902633667e-01 -9.590459614992141724e-02 -7.216134574264287949e-03 1.647622287273406982e-01 -1.986059397459030151e-01 6.733795162290334702e-03 -2.116340026259422302e-02 1.218477860093116760e-01 1.639175787568092346e-02 -1.596711724996566772e-01 8.738552033901214600e-02 7.740995381027460098e-03 -9.701109677553176880e-02 1.084311306476593018e-02 -9.271907061338424683e-02 -1.410343050956726074e-01 -3.332018479704856873e-02 6.280123442411422729e-02 1.745275408029556274e-01 4.851974546909332275e-02 -9.031632542610168457e-02 2.374594472348690033e-02 -1.068100109696388245e-01 -1.942661963403224945e-02 -1.020197644829750061e-01 -5.918288230895996094e-02 -1.455572992563247681e-01 -1.181659474968910217e-02 -7.027908414602279663e-02 -2.054182253777980804e-02 6.108044460415840149e-02 3.360393643379211426e-02 -3.746167197823524475e-02 -5.191486701369285583e-02 -8.296673744916915894e-02 6.850870698690414429e-02 -2.029946260154247284e-02 3.850023448467254639e-02 1.849016547203063965e-02 1.648290008306503296e-01 7.681486010551452637e-02 3.070650994777679443e-02 1.606127806007862091e-02 -2.601366676390171051e-02 -1.199575662612915039e-01 -4.556739330291748047e-02 -4.301211982965469360e-02 -1.377149671316146851e-02 6.747129559516906738e-02 -8.905330905690789223e-04 6.031099706888198853e-02 4.385570809245109558e-02 5.247147008776664734e-02 1.250624060630798340e-01 -9.354384988546371460e-02 9.195558726787567139e-02 -6.213977932929992676e-02 -3.821767121553421021e-02 -9.124455600976943970e-02 1.025936752557754517e-01 -1.806687116622924805e-01 9.266734123229980469e-02 -1.411758363246917725e-01 8.345246315002441406e-02 1.952826231718063354e-01 1.317051122896373272e-03 -6.021930649876594543e-02 1.661583632230758667e-01 1.764516532421112061e-01 -9.578693658113479614e-02 5.529353022575378418e-02 -1.242737323045730591e-01 5.810633301734924316e-02 1.251833885908126831e-01 -3.650762513279914856e-02 3.933638706803321838e-02 7.258458528667688370e-03 -1.612129993736743927e-02 5.546710453927516937e-03 3.430133685469627380e-02 -5.822728201746940613e-02 -4.651717469096183777e-02 -6.057851389050483704e-02 -4.778980091214179993e-02 -4.174827411770820618e-02 -6.178539991378784180e-02 -7.957470417022705078e-02 1.207837387919425964e-01 1.158783361315727234e-01 -1.102421060204505920e-01 -3.684348613023757935e-02 -2.570224180817604065e-02 2.178503945469856262e-02 -3.812826797366142273e-02 2.996911108493804932e-02 -1.169977127574384212e-03 5.115759000182151794e-02 -9.846363961696624756e-02 1.057933717966079712e-01 -4.307646676898002625e-02 -9.497576951980590820e-02 1.247855741530656815e-02 5.006867274641990662e-02 5.271553527563810349e-03 -1.380214560776948929e-02 2.163360081613063812e-02 2.745717577636241913e-02 6.312386691570281982e-02 -6.757856160402297974e-02 1.079971194267272949e-01 -3.906940110027790070e-03 2.882071398198604584e-02 -1.365694403648376465e-01 -1.306273229420185089e-02 -5.650751665234565735e-02 -8.028935641050338745e-02 5.049742385745048523e-02 4.930601269006729126e-02 -1.341655403375625610e-01 3.857721760869026184e-02 1.615301221609115601e-01 -6.412073224782943726e-02 -1.171471104025840759e-01 4.286500066518783569e-02 1.005665585398674011e-01 -3.389567835256457329e-03 5.943458899855613708e-02 -8.747399598360061646e-02 -4.104427620768547058e-02 -1.794667094945907593e-01 7.384328544139862061e-02 -1.175870522856712341e-01 -5.767007544636726379e-02 -5.084289237856864929e-02 -4.555093497037887573e-02 -1.131542548537254333e-01 -9.908232837915420532e-02 8.130848407745361328e-02 -9.217151254415512085e-02 7.621218264102935791e-02 -6.882453802973031998e-03 4.959406331181526184e-02 5.966390483081340790e-03 -8.154178410768508911e-02 -7.828281819820404053e-02 -3.452895581722259521e-02 1.839975714683532715e-01 -7.101217750459909439e-03 -4.994043335318565369e-02 -5.958281829953193665e-02 7.368645071983337402e-02 1.556363999843597412e-01 -3.861149027943611145e-02 -5.336877331137657166e-02 -1.239828020334243774e-01 -1.785550415515899658e-01 6.926312297582626343e-02 1.359899640083312988e-01 3.621430369094014168e-03 -1.099376231431961060e-01 3.480626642704010010e-02 6.715035438537597656e-02 -4.399333521723747253e-02 1.587216928601264954e-02 -2.791892550885677338e-02 1.848481297492980957e-01 1.544320732355117798e-01 5.151142552495002747e-02 8.832781761884689331e-02 1.047824174165725708e-01 -1.612335294485092163e-01 3.639718890190124512e-02 -8.911675214767456055e-02 -6.824563443660736084e-02 -1.165546327829360962e-01 -3.229349479079246521e-02 9.447491727769374847e-03 -1.216817870736122131e-01 -1.138627305626869202e-01 -4.788055270910263062e-02 -5.828696116805076599e-02 2.582450769841670990e-02 -1.302379667758941650e-01 -7.758226245641708374e-02 5.950077995657920837e-02 1.154304370284080505e-01 1.132241114974021912e-01 3.932663425803184509e-02 -9.825868159532546997e-02 -6.843814998865127563e-02 1.186293363571166992e-01 -4.550693929195404053e-02 9.825500100851058960e-02 -1.859726570546627045e-02 8.955206722021102905e-02 3.853936120867729187e-02 -1.128258481621742249e-01 1.536341011524200439e-02 -1.113358065485954285e-01 7.162209600210189819e-02 -1.557412147521972656e-01 -1.082067266106605530e-01 1.250203605741262436e-02 -1.552523225545883179e-01 9.685236215591430664e-02 -7.540115155279636383e-03 3.356306254863739014e-02 3.603049740195274353e-02 -1.292763948440551758e-01 -4.118144139647483826e-02 -2.564663998782634735e-02 -1.441077888011932373e-01 2.585494518280029297e-02 1.159883886575698853e-01 1.942192465066909790e-01 -1.225277706980705261e-01 -2.014235779643058777e-02 -1.253045536577701569e-02 7.609315961599349976e-02 4.249197617173194885e-02 -1.056975275278091431e-01 4.452785849571228027e-02 -5.025490745902061462e-02 -3.376148641109466553e-03 -1.073708906769752502e-01 -1.065469533205032349e-01 -1.392595469951629639e-01 -1.483551114797592163e-01 -5.335961654782295227e-02 -3.324778378009796143e-02 -4.698114842176437378e-02 7.343795150518417358e-02 -3.624094417318701744e-03 1.803502291440963745e-01 -2.868679724633693695e-02 -1.242502331733703613e-01 5.809831246733665466e-02 -9.623387455940246582e-02 1.060455106198787689e-03 -6.404429674148559570e-02 -6.049661710858345032e-02 4.069992899894714355e-02 5.772918462753295898e-02 3.967748023569583893e-03 6.672505289316177368e-02 1.037716493010520935e-01 9.822880476713180542e-02 2.401432255282998085e-03 -4.705816879868507385e-02 1.107367500662803650e-01 1.959645003080368042e-02 2.468522638082504272e-02 -7.691974937915802002e-02 8.914024382829666138e-02 -6.579128559678792953e-03 -1.883487701416015625e-01 1.955336518585681915e-02 3.907250985503196716e-02 -4.311285540461540222e-02 1.198506355285644531e-01 -1.308959275484085083e-01 7.483047991991043091e-02 1.290151327848434448e-01 -1.930190622806549072e-01 -5.287935212254524231e-02 6.624908745288848877e-02 1.467469781637191772e-01 -1.582255959510803223e-02 -8.479713648557662964e-02 1.035358831286430359e-01 4.465567693114280701e-02 1.099558845162391663e-01 1.656801253557205200e-01 1.020241156220436096e-01 1.476181447505950928e-01 -2.309258095920085907e-02 -2.799899689853191376e-02 -9.304846823215484619e-02 -3.798137977719306946e-02 9.165084920823574066e-03 -5.621619150042533875e-02 -1.111094951629638672e-01 -1.261605322360992432e-01 1.579723805189132690e-01 1.506995558738708496e-01 7.853675633668899536e-02 1.495222747325897217e-01 -9.771232306957244873e-02 -1.568692922592163086e-01 -7.256771624088287354e-02 -4.044442996382713318e-02 7.060900330543518066e-02 -4.266503825783729553e-02 -1.351736187934875488e-01 -6.155452877283096313e-02 1.016677077859640121e-02 2.455583773553371429e-02 -9.111947729252278805e-04 7.782572507858276367e-02 -1.549512334167957306e-02 -6.374529749155044556e-02 -4.746928438544273376e-02 -1.000902056694030762e-01 2.811394073069095612e-02 -5.276754125952720642e-02 -2.958025410771369934e-02 6.435879319906234741e-02 -6.117891892790794373e-02 -6.568785756826400757e-02 -1.275782138109207153e-01 1.739397495985031128e-01 5.694924667477607727e-02 6.128509715199470520e-02 1.107861921191215515e-01 1.273005455732345581e-01 -8.227341622114181519e-02 3.490517660975456238e-02 -2.223237976431846619e-02 -1.117107421159744263e-01 -1.740907728672027588e-01 -3.202122868970036507e-03 2.667241729795932770e-02 1.015238314867019653e-01 -1.275214403867721558e-01 7.880875468254089355e-02 -7.090675830841064453e-02 -1.806988567113876343e-01 -5.669609829783439636e-02 9.044739603996276855e-02 2.962527610361576080e-02 -1.260046213865280151e-01 3.891557827591896057e-02 -4.282957687973976135e-02 -4.871146287769079208e-03 -1.406406611204147339e-01 5.200490355491638184e-02 -8.954038470983505249e-02 -8.915378153324127197e-02 -1.625819504261016846e-01 2.720005251467227936e-02 9.854646772146224976e-02 2.854014933109283447e-02 7.356027513742446899e-02 -3.599229082465171814e-02 5.344416573643684387e-02 2.069644071161746979e-02 8.303084224462509155e-02 1.162152439355850220e-01 -1.174001302570104599e-02 -8.685313910245895386e-02 -8.527810126543045044e-02 3.695449978113174438e-02 2.660976350307464600e-02 5.172349978238344193e-03 -7.565322518348693848e-02 1.389116942882537842e-01 -8.930557966232299805e-02 4.901747032999992371e-02 2.386469952762126923e-02 -1.188654452562332153e-01 9.851057827472686768e-02 7.736417930573225021e-03 -3.255593031644821167e-02 -8.767346292734146118e-02 1.355048269033432007e-01 1.112185302190482616e-03 -1.005819663405418396e-01 1.080447956919670105e-01 -8.874039351940155029e-02 -5.050571635365486145e-02 3.007756173610687256e-02 4.777440428733825684e-02 -1.990787684917449951e-01 -7.042842358350753784e-02 -1.270443433895707130e-03 1.152733489871025085e-01 -1.219710037112236023e-01 1.210509091615676880e-01 6.501347571611404419e-02 -6.435107439756393433e-02 -7.291982322931289673e-02 3.691159654408693314e-03 4.465842619538307190e-02 -1.230087652802467346e-01 -4.366447031497955322e-02 1.170084252953529358e-01 1.682295650243759155e-01 -2.605125866830348969e-02 -7.007082551717758179e-02 -2.157817780971527100e-02 -7.904819212853908539e-03 6.221677176654338837e-03 1.111117228865623474e-01 -2.037168666720390320e-02 1.111130490899085999e-01 -1.347707509994506836e-01 -3.378406167030334473e-03 -1.607651263475418091e-01 6.921910494565963745e-02 5.516600608825683594e-02 -8.975893259048461914e-02 -4.944799095392227173e-02 9.854763001203536987e-02 2.811068110167980194e-02 3.087173774838447571e-02 -8.907105773687362671e-02 -1.649492383003234863e-01 1.906260102987289429e-01 1.164389848709106445e-01 -9.217222034931182861e-02 1.121537685394287109e-01 2.171082608401775360e-02 -7.191000878810882568e-02 -3.930194675922393799e-02 -9.426779299974441528e-02 1.958195678889751434e-02 -8.372759073972702026e-02 7.186307758092880249e-02 -9.487382322549819946e-02 3.625043854117393494e-02 4.284754768013954163e-02 6.364839524030685425e-02 8.752640336751937866e-02 2.488535828888416290e-02 -4.553663730621337891e-02 1.092583760619163513e-01 1.148039940744638443e-03 9.795405715703964233e-02 -1.480014920234680176e-01 4.562182351946830750e-03 1.233887020498514175e-02 -1.084165554493665695e-02 -1.145325675606727600e-01 1.700199693441390991e-01 -7.036505639553070068e-02 -9.526890516281127930e-02 3.493362665176391602e-02 -1.536903083324432373e-01 4.163544997572898865e-02 -5.808749794960021973e-02 7.634356617927551270e-02 9.708469361066818237e-02 1.759701222181320190e-01 1.216310188174247742e-01 1.789771765470504761e-01 -3.303506597876548767e-02 -7.513256371021270752e-02 1.013667508959770203e-02 1.301957070827484131e-01 -1.993251740932464600e-01 4.383540898561477661e-02 -7.962080091238021851e-02 -9.421782568097114563e-03 9.528613835573196411e-02 -7.722315192222595215e-02 -2.865767851471900940e-02 7.446757704019546509e-02 3.849584609270095825e-02 -1.134562417864799500e-01 -9.088173508644104004e-02 9.541670233011245728e-02 1.466039866209030151e-01 -7.941555231809616089e-02 -2.742030285298824310e-02 1.104166433215141296e-01 -8.611684292554855347e-02 -1.684878207743167877e-02 -2.413453347980976105e-02 5.316420271992683411e-02 -1.932577639818191528e-01 -1.284720003604888916e-01 -3.173272311687469482e-02 -1.676403544843196869e-02 -1.038065105676651001e-01 -5.983585119247436523e-02 2.090571448206901550e-02 6.734114140272140503e-02 -8.041393756866455078e-02 8.887834101915359497e-02 -1.938500106334686279e-01 1.478465050458908081e-01 4.509459063410758972e-02 8.181320130825042725e-02 -9.707130491733551025e-02 2.395618706941604614e-03 -8.358832448720932007e-02 -1.407538354396820068e-02 -3.180805593729019165e-02 1.102043595165014267e-02 2.852136828005313873e-02 4.558673873543739319e-02 4.416724666953086853e-03 -8.979999274015426636e-02 -9.597745537757873535e-02 -1.251860857009887695e-01 -3.905500471591949463e-02 -7.955686748027801514e-02 1.393719166517257690e-01 1.170778200030326843e-01 -5.762325599789619446e-02 4.942502081394195557e-02 -7.053596526384353638e-02 1.152528151869773865e-01
-8.168067783117294312e-02 -2.830212749540805817e-02 -2.209843322634696960e-02 1.411973685026168823e-01 -1.282380670309066772e-01 -2.425999194383621216e-02 -1.098745409399271011e-02 -4.456734657287597656e-02 -1.971850693225860596e-01 -3.471222892403602600e-02 1.853287369012832642e-01 3.495396301150321960e-02 1.994727253913879395e-01 3.103457204997539520e-02 -3.629500046372413635e-02 -9.982823580503463745e-02 -6.890713423490524292e-02 -1.292278151959180832e-02 4.625541716814041138e-02 -9.125592559576034546e-02 1.106624677777290344e-02 7.189131528139114380e-02 1.864681206643581390e-02 9.649882465600967407e-02 -1.893230676651000977e-01 -3.658184409141540527e-02 -1.145172119140625000e-01 5.579689517617225647e-03 4.947305843234062195e-02 1.574462093412876129e-02 4.658711608499288559e-03 1.116232052445411682e-01 -1.647252142429351807e-01 -1.807028055191040039e-01 -1.896158307790756226e-01 -1.934599690139293671e-02 -6.426452845335006714e-02 -1.293845325708389282e-01 6.604494992643594742e-03 -1.876267604529857635e-02 5.012145265936851501e-02 2.893214300274848938e-02 1.315681822597980499e-02 -2.504304051399230957e-02 -1.170303225517272949e-01 -6.624829024076461792e-02 -1.282801479101181030e-01 7.054749876260757446e-02 -4.996220022439956665e-02 -1.414533853530883789e-01 -3.351692482829093933e-02 -4.698682948946952820e-02 -1.432387232780456543e-01 9.388620406389236450e-02 1.213487759232521057e-01 -3.578814864158630371e-02 2.106598950922489166e-02 -6.865757983177900314e-03 1.806528307497501373e-02 1.210599951446056366e-02 8.662744611501693726e-02 -9.942346811294555664e-02 1.344109475612640381e-01 -1.269763242453336716e-02 -1.109113246202468872e-01 -4.528255388140678406e-02 -4.403912648558616638e-02 -4.181769862771034241e-02 -2.156581357121467590e-02 4.965852573513984680e-02 5.943888425827026367e-02 1.383773400448262691e-03 -1.711152046918869019e-01 -6.709581613540649414e-02 -5.937393382191658020e-02 6.278354674577713013e-02 -4.112708941102027893e-02 7.870540022850036621e-03 -4.252494126558303833e-02 5.733484774827957153e-02 1.577023044228553772e-02 1.300842165946960449e-01 -1.215723529458045959e-02 -7.375914603471755981e-02 1.404803246259689331e-02 -1.068153008818626404e-01 1.699821949005126953e-01 1.935169994831085205e-01 9.939727187156677246e-02 1.965774744749069214e-01 -3.579672798514366150e-02 1.232787743210792542e-01 1.193885039538145065e-02 -6.844969838857650757e-02 1.033448204398155212e-01 -5.341534689068794250e-02 7.265647500753402710e-02 -2.958557941019535065e-02 2.009558677673339844e-02 3.355171158909797668e-02 5.281279236078262329e-02 4.492612183094024658e-02 5.454065278172492981e-02 2.998399734497070312e-02 -3.519921097904443741e-03 -1.429319679737091064e-01 1.164782419800758362e-01 3.699164837598800659e-02 3.486694023013114929e-02 5.351238325238227844e-02 4.158755019307136536e-02 4.769864305853843689e-02 -8.668185770511627197e-02 -3.502844646573066711e-02 1.591695547103881836e-01 2.276623062789440155e-02 1.276957243680953979e-01 8.060672134160995483e-02 -1.187284365296363831e-01 7.882831245660781860e-02 4.733163490891456604e-02 -1.065217480063438416e-01 -1.143972277641296387e-01 -5.871098861098289490e-02 1.288328617811203003e-01 -1.337632387876510620e-01 -4.130497574806213379e-02 -1.241655498743057251e-01 1.070763394236564636e-01 -1.649925559759140015e-01 -6.075784191489219666e-02 -6.998873502016067505e-02 1.882972270250320435e-01 6.448432058095932007e-02 9.791798889636993408e-02 5.805636197328567505e-02 -1.149689108133316040e-01 -3.947399184107780457e-02 -9.202541410923004150e-02 1.323342472314834595e-01 -6.983279436826705933e-02 -4.699910432100296021e-02 1.581483036279678345e-01 -1.278215944766998291e-01 2.473442442715167999e-02 -1.031811386346817017e-01 -2.230173535645008087e-02 1.692394018173217773e-01 1.298682242631912231e-01 4.481831192970275879e-02 7.004357874393463135e-02 1.193864494562149048e-01 3.514806553721427917e-02 7.568781822919845581e-02 -1.397826969623565674e-01 3.149317950010299683e-02 3.639541938900947571e-02 1.288437098264694214e-02 -5.127525329589843750e-02 1.099026128649711609e-01 -6.981879007071256638e-03 -2.631438151001930237e-02 6.773738563060760498e-02 6.670679152011871338e-02 -6.431763619184494019e-02 -5.788613110780715942e-02 1.384961754083633423e-01 -4.662304744124412537e-02 5.295851454138755798e-02 -1.007207389920949936e-02 -1.245224196463823318e-02 1.291249543428421021e-01 -1.212942972779273987e-01 4.823765158653259277e-02 -4.280522093176841736e-02 -4.465407133102416992e-02 -1.893143653869628906e-01 3.133821487426757812e-02 -3.291235864162445068e-02 -9.688386693596839905e-03 -3.546726331114768982e-02 4.329053685069084167e-02 -5.878517776727676392e-02 3.684043884277343750e-02 1.229479312896728516e-01 9.928895533084869385e-02 -8.173232525587081909e-02 -1.925004459917545319e-02 6.328808516263961792e-02 -4.281029105186462402e-02 -3.612076118588447571e-02 9.006498008966445923e-02 -8.178800344467163086e-03 -3.017011843621730804e-02 4.752025473862886429e-03 1.024685502052307129e-01 1.860948465764522552e-02 4.343258216977119446e-02 -1.576277464628219604e-01 -1.498900502920150757e-01 -1.240451335906982422e-01 8.796908706426620483e-02 -2.940123900771141052e-03 -5.109475925564765930e-03 -1.069263964891433716e-01 7.048523426055908203e-02 8.142308145761489868e-02 -1.069866865873336792e-02 1.513841450214385986e-01 -1.387270539999008179e-01 2.126868627965450287e-02 4.394157603383064270e-02 -1.974910944700241089e-01 1.666480600833892822e-01 -1.125110015273094177e-01 4.999332875013351440e-02 -3.898889943957328796e-02 -4.436383768916130066e-02 1.419371962547302246e-01 -6.764250993728637695e-02 -3.003322146832942963e-02 7.405175268650054932e-02 -4.259233921766281128e-02 -9.644999227020889521e-05 1.054977327585220337e-01 -1.172285079956054688e-01 3.586751595139503479e-02 -7.650081068277359009e-02 -6.476568430662155151e-02 6.934330612421035767e-02 5.956482514739036560e-02 7.386518269777297974e-02 -6.794838607311248779e-02 5.766120180487632751e-02 -5.011936649680137634e-02 1.110643669962882996e-01 4.302257299423217773e-02 -8.364641666412353516e-02 -9.067924320697784424e-02 -3.271562978625297546e-02 7.018751651048660278e-02 -1.798214167356491089e-01 -1.479303091764450073e-01 -1.411816328763961792e-01 9.334710240364074707e-02 1.281369924545288086e-01 5.406053736805915833e-02 -1.735516041517257690e-01 4.101942107081413269e-02 4.811940714716911316e-02 -5.965630058199167252e-03 -8.943746238946914673e-02 4.403801262378692627e-02 2.777256630361080170e-02 5.095633096061646938e-04 3.422184288501739502e-02 -9.285508841276168823e-02 7.073863595724105835e-02 5.689937993884086609e-02 -1.495170593261718750e-01 -6.566374748945236206e-02 9.104707837104797363e-02 1.961847245693206787e-01 -1.847268939018249512e-01 1.131020188331604004e-01 -5.384366586804389954e-02 -9.962802380323410034e-02 1.071446686983108521e-01 9.617273509502410889e-02 4.432114586234092712e-02 -1.138239055871963501e-01 4.703447222709655762e-02 6.872283667325973511e-02 -1.292093284428119659e-02 1.370884627103805542e-01 1.356335729360580444e-01 1.057270392775535583e-01 3.761735185980796814e-02 -1.346591114997863770e-01 -1.387207359075546265e-01 3.564244136214256287e-02 -1.739357113838195801e-01 -1.209953948855400085e-01 -1.077050790190696716e-01 -1.290903538465499878e-01 -1.759550161659717560e-02 9.105072915554046631e-02 1.552811916917562485e-02 -8.774381875991821289e-02 7.660235464572906494e-02 -4.945089668035507202e-02 -1.221847683191299438e-01 -1.507971733808517456e-01 1.030174270272254944e-01 4.573605954647064209e-03 -6.307427585124969482e-02 -2.533952472731471062e-03 -3.925825282931327820e-02 -2.608544193208217621e-02 -1.482045799493789673e-01 7.883620448410511017e-03 5.045550689101219177e-02 8.181633311323821545e-04 9.086625277996063232e-02 1.895110309123992920e-02 6.498493254184722900e-02 -4.684039205312728882e-02 -7.152088731527328491e-02 4.056545346975326538e-02 1.023105308413505554e-01 4.549808800220489502e-02 -9.373582154512405396e-02 9.836693108081817627e-02 1.089035496115684509e-01 6.987890601158142090e-02 3.956905100494623184e-03 -6.332518998533487320e-03 -3.895327821373939514e-02 -1.324977427721023560e-01 -4.419107455760240555e-03 -8.917575702071189880e-03 -8.310360461473464966e-02 3.580248355865478516e-02 -1.049658562988042831e-02 -5.064138770103454590e-02 -5.244559049606323242e-02 3.647264465689659119e-02 1.903126835823059082e-01 -8.377581834793090820e-02 -8.050843141973018646e-03 1.111291572451591492e-01 -4.359395056962966919e-02 4.389153793454170227e-02 -4.436287283897399902e-02 2.641064487397670746e-02 5.794382840394973755e-02 -9.151370078325271606e-02 -2.590001188218593597e-02 -7.575044874101877213e-03 1.784946024417877197e-01 1.028356328606605530e-01 1.520156022161245346e-02 -3.836276382207870483e-02 -8.863371610641479492e-02 -1.600633412599563599e-01 -1.968500316143035889e-01 -1.676007956266403198e-01 -8.326171897351741791e-03 -9.682785719633102417e-02 -1.309559047222137451e-01 3.102205507457256317e-02 6.872734520584344864e-03 -1.222986504435539246e-01 3.474552556872367859e-02 2.614650689065456390e-02 1.921533197164535522e-01 -5.148369818925857544e-02 8.636558055877685547e-02 -1.417388170957565308e-01 1.462481468915939331e-01 -1.223425101488828659e-02 -5.945853143930435181e-02 4.090691730380058289e-02 -1.520507782697677612e-01 -6.290169060230255127e-02 6.669399887323379517e-02 -9.929813444614410400e-02 -9.056905657052993774e-02 -1.095941662788391113e-01 8.380734361708164215e-03 -3.784246370196342468e-02 9.043110162019729614e-02 1.054418087005615234e-01 -1.098632141947746277e-01 -1.045968458056449890e-01 3.109346330165863037e-02 1.179417967796325684e-01 9.280423074960708618e-02 -1.259894520044326782e-01 8.229526877403259277e-02 1.622554808855056763e-01 -1.144496351480484009e-01 4.522347822785377502e-02 9.660138189792633057e-02 1.818792521953582764e-01 1.839350908994674683e-01 4.943295847624540329e-03 -1.079025864601135254e-01 9.836184233427047729e-02 1.898010820150375366e-01 6.597702950239181519e-02 -4.655482620000839233e-02 1.151359453797340393e-01 -2.480946481227874756e-02 4.122398793697357178e-02 -3.671918064355850220e-02 -1.025761757045984268e-02 7.004419714212417603e-02 -2.424476481974124908e-02 5.531463772058486938e-02 -4.489982128143310547e-02 3.614452108740806580e-02 4.980763792991638184e-02 1.075954213738441467e-01 -1.050115562975406647e-02 8.452783524990081787e-02 7.500328868627548218e-02 -2.746208570897579193e-02 -5.122333765029907227e-03 9.396649897098541260e-02 7.587713003158569336e-02 -3.258651122450828552e-02 -3.778989240527153015e-02 -6.263913959264755249e-02 -1.033782362937927246e-01 -2.340774051845073700e-02 -1.694877296686172485e-01 1.508635729551315308e-01 9.175553917884826660e-02 6.940241903066635132e-02 5.154080316424369812e-02 8.814560621976852417e-02 -7.468993216753005981e-02 8.654900640249252319e-02 1.894715614616870880e-02 6.273262947797775269e-02 1.067542359232902527e-01 -1.379052735865116119e-02 -4.464772716164588928e-02 -1.385361235588788986e-02 8.493664860725402832e-02 -1.336244642734527588e-01 1.035640463232994080e-01 -3.121540509164333344e-02 2.799008600413799286e-02 -3.224860876798629761e-02 3.904237970709800720e-02 8.061560243368148804e-02 -7.382079958915710449e-03 -1.554931253194808960e-01 1.124153658747673035e-01 -6.386638432741165161e-02 7.123265415430068970e-02 8.374422788619995117e-02 7.690931111574172974e-02 -2.304570004343986511e-02 -9.865375235676765442e-03 1.376101523637771606e-01 1.853491365909576416e-01 1.189966034144163132e-02 7.109299302101135254e-02 3.101051785051822662e-02 1.132946833968162537e-01 1.275909133255481720e-02 4.222431778907775879e-02 -4.400575067847967148e-03 1.262226849794387817e-01 4.648169502615928650e-02 -3.045102581381797791e-03 -5.915610864758491516e-02 -2.339800633490085602e-02 -2.590897493064403534e-02 1.458678394556045532e-02 -9.042909741401672363e-02 -1.921575516462326050e-01 1.182785555720329285e-01 -4.194688424468040466e-02 -7.128952443599700928e-02 -8.381856977939605713e-02 5.681710317730903625e-03 3.741533681750297546e-02 4.457451030611991882e-02 -1.652034968137741089e-01 4.751917719841003418e-02 -1.003684028983116150e-01 5.559189245104789734e-02 -1.026104465126991272e-01 1.291744560003280640e-01 4.805340245366096497e-02 5.063039064407348633e-02 -1.240090653300285339e-01 -4.695045575499534607e-02 4.331968724727630615e-02 -1.091562490910291672e-02 3.301168605685234070e-02 2.128947712481021881e-02 6.824115663766860962e-02 1.342356391251087189e-02 1.589423865079879761e-01 -3.010181710124015808e-03 5.752813443541526794e-02 5.653814598917961121e-02 -3.683752566576004028e-02 -1.225827485322952271e-01 -1.025011092424392700e-01 -5.960723757743835449e-02 -8.277966082096099854e-02 9.807350486516952515e-02 -6.143266707658767700e-02 3.685140237212181091e-02 5.004928261041641235e-02 -4.467220231890678406e-02 -6.564509868621826172e-02 -2.550070919096469879e-02 8.582370728254318237e-02 1.487435549497604370e-01 1.930664293467998505e-02 -1.816500276327133179e-01 2.558043040335178375e-02 2.782959118485450745e-02 4.525341838598251343e-02 -4.221187904477119446e-02
-1.486131399869918823e-01 -1.081145182251930237e-01 -6.069238763302564621e-03 4.726952314376831055e-02 6.071863230317831039e-03 -1.308056265115737915e-01 -9.807103127241134644e-02 7.446848601102828979e-02 -1.161660160869359970e-02 -5.345198139548301697e-02 -1.063863039016723633e-01 9.537895768880844116e-02 -1.652985364198684692e-01 1.877564787864685059e-01 -3.367004916071891785e-02 -1.662318110466003418e-01 1.452156454324722290e-01 -4.407052323222160339e-02 -5.635240301489830017e-02 5.851597711443901062e-02 -1.471171155571937561e-03 8.645341545343399048e-02 -5.581988021731376648e-02 1.553422063589096069e-01 1.628073118627071381e-02 2.095393463969230652e-02 5.275393277406692505e-02 -3.075221180915832520e-02 1.040762886404991150e-01 -1.526111513376235962e-01 1.332265585660934448e-01 9.944115579128265381e-02 -1.632054001092910767e-01 1.312069743871688843e-01 -1.272938102483749390e-01 6.764706224203109741e-02 5.331713706254959106e-02 7.164683192968368530e-02 4.669359326362609863e-02 -3.142060711979866028e-02 -1.209506392478942871e-01 -8.870034664869308472e-02 3.599463030695915222e-02 8.509487658739089966e-02 7.249746005982160568e-03 -8.240187168121337891e-02 -3.525168402120471001e-03 -1.944333761930465698e-01 1.035162359476089478e-01 -4.411374405026435852e-02 -5.838663503527641296e-02 -1.181777119636535645e-01 1.808020919561386108e-01 5.077273771166801453e-02 -2.638873271644115448e-02 3.022721782326698303e-02 5.892537906765937805e-02 -4.192840680480003357e-02 -1.149944290518760681e-01 -6.882045418024063110e-02 -9.860072284936904907e-02 -4.366729035973548889e-02 2.079712413251399994e-02 -3.154280409216880798e-02 -3.788723796606063843e-02 5.083930492401123047e-02 -6.756694614887237549e-02 1.332274526357650757e-01 -3.543301299214363098e-02 7.205919176340103149e-02 -1.437171548604965210e-01 4.699646681547164917e-02 3.393393382430076599e-02 3.567802906036376953e-02 -1.082860752940177917e-01 2.502963319420814514e-02 -8.128227293491363525e-02 3.810397908091545105e-02 -8.514729142189025879e-02 6.077961996197700500e-02 8.143790811300277710e-02 7.062213122844696045e-02 -1.684037968516349792e-02 5.407999828457832336e-02 -7.065097987651824951e-02 -1.093719620257616043e-02 -1.057165861129760742e-01 -5.019810795783996582e-02 -1.324161738157272339e-01 8.198763430118560791e-02 -7.697565108537673950e-02 4.747392144054174423e-03 5.214847996830940247e-02 1.923315078020095825e-01 1.101583391427993774e-01 -9.222794324159622192e-02 7.081820070743560791e-02 1.084093227982521057e-01 1.149804219603538513e-01 1.556811928749084473e-01 8.326873928308486938e-02 -8.693005889654159546e-02 -1.007438898086547852e-01 5.646116286516189575e-02 4.382766410708427429e-02 -1.196361612528562546e-02 2.214257605373859406e-02 -8.921042829751968384e-02 7.254650350660085678e-03 -1.399331837892532349e-01 -1.313223391771316528e-01 -6.223728880286216736e-02 4.857739899307489395e-03 1.629288643598556519e-01 -5.981050804257392883e-02 2.922640554606914520e-02 7.383051514625549316e-02 7.214543223381042480e-02 -5.743183568120002747e-02 -3.653940185904502869e-02 -4.512028396129608154e-02 1.323583275079727173e-01 4.271551221609115601e-02 -6.620111316442489624e-02 -5.136746913194656372e-02 1.071334853768348694e-01 1.270583570003509521e-01 1.838323920965194702e-01 -4.739495366811752319e-02 5.702580790966749191e-03 -2.428585663437843323e-02 -8.392936736345291138e-02 7.081091403961181641e-02 6.240401882678270340e-03 1.552261132746934891e-02 -7.864156365394592285e-02 1.872706264257431030e-01 9.431668370962142944e-02 9.197308868169784546e-02 -7.814983278512954712e-02 5.020312592387199402e-02 4.056119918823242188e-02 6.799124181270599365e-02 -1.802511364221572876e-01 1.536768823862075806e-01 -1.857367604970932007e-01 1.129842400550842285e-01 1.330764591693878174e-01 -9.850283712148666382e-02 6.308834999799728394e-02 -2.967040240764617920e-02 1.106135398149490356e-01 2.652969397604465485e-02 4.965091496706008911e-02 -1.567880213260650635e-01 -1.493915319442749023e-01 -1.974487863481044769e-02 1.554109901189804077e-02 -7.184273097664117813e-03 -9.597804397344589233e-02 -9.826221317052841187e-02 -6.032332777976989746e-02 1.671464294195175171e-01 6.564754247665405273e-02 -8.024740219116210938e-02 -7.412522286176681519e-02 3.575810417532920837e-02 -1.037077903747558594e-01 5.455674603581428528e-02 3.441420570015907288e-02 6.822755187749862671e-02 -2.021103911101818085e-02 6.295355409383773804e-02 -1.925525441765785217e-02 -1.408574134111404419e-01 1.108008623123168945e-01 4.355303943157196045e-02 5.197701510041952133e-03 1.396421045064926147e-01 -1.703902930021286011e-01 -1.377034038305282593e-01 -6.379700452089309692e-02 -5.387834832072257996e-02 1.050950661301612854e-01 6.690969318151473999e-02 2.052509784698486328e-02 -1.090223416686058044e-01 -5.568834021687507629e-03 5.729822441935539246e-02 -2.234243322163820267e-03 -9.302394837141036987e-02 6.400626152753829956e-03 1.352147012948989868e-01 1.154817566275596619e-01 -1.218731403350830078e-01 1.872398555278778076e-01 5.699297413229942322e-02 -2.545195259153842926e-02 7.739604264497756958e-02 -5.851534008979797363e-02 -8.868172019720077515e-02 -2.219628309831023216e-03 -3.680795058608055115e-02 -2.297567389905452728e-02 -7.950700074434280396e-02 -1.924568228423595428e-02 2.400538139045238495e-02 -1.088344082236289978e-01 6.634304672479629517e-02 1.487522479146718979e-02 7.234063930809497833e-03 8.917130529880523682e-02 8.687004446983337402e-02 -9.058983623981475830e-02 -1.122737154364585876e-01 7.588180154561996460e-02 -2.303200960159301758e-02 2.777378261089324951e-02 1.930679678916931152e-01 6.697999686002731323e-02 2.760421112179756165e-02 -2.329928241670131683e-02 1.998475044965744019e-01 7.186458259820938110e-02 3.961871191859245300e-02 1.123102828860282898e-01 2.902346663177013397e-02 -1.671162396669387817e-01 1.481095552444458008e-01 7.231106609106063843e-02 1.093253716826438904e-01 -1.415369510650634766e-01 -6.568957120180130005e-02 -1.312509477138519287e-01 3.810395253822207451e-03 8.145604282617568970e-02 -2.951825223863124847e-02 1.484638303518295288e-01 -2.650847099721431732e-02 5.178639292716979980e-02 1.019595414400100708e-01 1.830567568540573120e-01 6.804002821445465088e-02 2.578114345669746399e-02 -2.619381062686443329e-02 4.113717004656791687e-02 6.950491666793823242e-02 6.050299480557441711e-02 5.149576067924499512e-02 1.040836945176124573e-01 -4.802141804248094559e-03 1.412878977134823799e-03 4.317566752433776855e-02 -1.566794663667678833e-01 3.185581415891647339e-02 -9.624903649091720581e-02 -1.756336539983749390e-01 -2.489872090518474579e-02 1.052673682570457458e-01 7.522053550928831100e-03 -1.215834170579910278e-02 -1.883494667708873749e-02 2.308007329702377319e-02 -1.262885928153991699e-01 2.541764453053474426e-02 1.697389036417007446e-01 3.601700440049171448e-02 -1.044796854257583618e-01 1.113442778587341309e-01 9.659682214260101318e-02 -9.397835470736026764e-03 6.264434778131544590e-04 2.302710525691509247e-02 -6.521397083997726440e-02 -1.519071310758590698e-01 -4.667093604803085327e-02 1.877652853727340698e-02 2.329762279987335205e-02 8.716776035726070404e-03 -4.113347455859184265e-02 -1.803471446037292480e-01 9.873881936073303223e-02 -3.838860196992754936e-03 1.487514525651931763e-01 8.103886246681213379e-02 -2.167498692870140076e-02 2.279124222695827484e-02 -1.050526499748229980e-01 6.242364272475242615e-02 6.364795565605163574e-02 -1.266708374023437500e-01 1.228385940194129944e-01 -9.360642731189727783e-02 5.212187767028808594e-02 -3.875331580638885498e-02 -7.676240056753158569e-02 -6.303746998310089111e-02 -9.352237731218338013e-02 -1.389832701534032822e-02 -1.181232258677482605e-01 -8.605908602476119995e-02 -6.381824612617492676e-02 -6.942474097013473511e-02 -5.526239797472953796e-02 1.433039754629135132e-01 -5.522887036204338074e-02 1.382323950529098511e-01 -1.055290475487709045e-01 1.342986226081848145e-01 1.812019012868404388e-02 -2.245177701115608215e-02 7.933513075113296509e-02 6.058719754219055176e-02 3.264094516634941101e-02 -2.302758954465389252e-02 -1.220796704292297363e-01 -8.615864813327789307e-02 3.987547010183334351e-03 4.785675555467605591e-02 -7.436911016702651978e-02 1.239020563662052155e-02 2.932149218395352364e-03 1.697544306516647339e-01 -2.628498338162899017e-02 -3.610791265964508057e-02 -3.980183228850364685e-02 -1.098552122712135315e-01 -8.517624437808990479e-02 -7.185735553503036499e-02 1.320499926805496216e-01 -1.078616306185722351e-01 6.034340243786573410e-03 7.891885936260223389e-02 -4.299841448664665222e-02 1.349618434906005859e-01 4.178641363978385925e-02 -5.726748704910278320e-02 1.865097135305404663e-01 -1.846617669798433781e-03 -7.658356428146362305e-02 1.447252482175827026e-01 1.449426170438528061e-02 -4.481472820043563843e-02 -1.203846111893653870e-01 -1.048144418746232986e-02 8.155924081802368164e-02 -1.200724840164184570e-01 -1.508763581514358521e-01 -1.310092359781265259e-01 -5.424957349896430969e-02 9.558698534965515137e-02 7.395322620868682861e-02 7.418616861104965210e-02 -5.272604059427976608e-03 4.519509524106979370e-02 3.720296174287796021e-02 -5.711225094273686409e-04 -5.309665948152542114e-02 1.761096413247287273e-03 1.589455902576446533e-01 1.263431161642074585e-01 4.336014017462730408e-02 9.085846692323684692e-02 2.239634777652099729e-04 9.595687501132488251e-03 5.017514154314994812e-02 2.600702457129955292e-02 8.495663851499557495e-02 1.689099818468093872e-01 1.769936531782150269e-01 -6.098033115267753601e-02 -1.240928992629051208e-01 1.056979820132255554e-01 3.988865762948989868e-02 -7.746600359678268433e-02 -1.848109513521194458e-01 -1.295251995325088501e-01 -5.133790522813796997e-02 -1.696717517916113138e-04 9.879603236913681030e-02 1.973496936261653900e-02 -7.030349224805831909e-02 5.903331562876701355e-02 4.465574398636817932e-02 -1.317132115364074707e-01 1.290297359228134155e-01 -7.537641376256942749e-02 6.026583258062601089e-03 1.181556098163127899e-02 -3.272233158349990845e-02 6.539298687130212784e-03 -3.053832799196243286e-03 1.828675121068954468e-01 -7.061327248811721802e-02 8.292913436889648438e-02 1.383184790611267090e-01 1.047628447413444519e-01 6.333409994840621948e-02 -8.646681904792785645e-02 -1.268635839223861694e-01 1.904268190264701843e-02 1.753683015704154968e-02 1.276360899209976196e-01 -8.489333838224411011e-02 -2.152247540652751923e-02 -8.198036812245845795e-03 -6.080720946192741394e-02 -1.506357491016387939e-01 4.659808427095413208e-02 -1.055568223819136620e-03 6.567060202360153198e-02 6.806410849094390869e-02 -1.139744669198989868e-01 9.806463867425918579e-02 -2.432014606893062592e-02 -9.293480217456817627e-02 -1.001475453376770020e-01 1.565424054861068726e-01 5.676427390426397324e-04 -1.241731047630310059e-01 -9.559504105709493160e-04 1.892773360013961792e-01 1.756091229617595673e-02 7.929200679063796997e-02 -8.390424400568008423e-02 -5.033999681472778320e-02 -6.672125309705734253e-02 -4.577276483178138733e-02 -2.946445718407630920e-02 -1.422520577907562256e-01 8.181183040142059326e-02 -2.224379591643810272e-02 7.454451173543930054e-02 -7.958023995161056519e-02 -5.254502873867750168e-03 -4.374492540955543518e-02 -5.257955193519592285e-02 1.350444275885820389e-02 -2.956165932118892670e-03 -1.895774304866790771e-01 5.264413356781005859e-02 -6.247502565383911133e-02 -1.019035950303077698e-01 -1.971871405839920044e-02 -1.572908759117126465e-01 -4.146179556846618652e-02 -1.367114633321762085e-01 1.047655567526817322e-01 6.256193667650222778e-02 3.068962693214416504e-02 -1.699998974800109863e-01 1.356119960546493530e-01 -1.277489401400089264e-02 9.817785024642944336e-02 -1.572103351354598999e-01 1.250002235174179077e-01 7.606221735477447510e-02 -1.117212921380996704e-01 -1.486137360334396362e-01 6.832845509052276611e-02 1.652110219001770020e-01 -6.933106482028961182e-02 -1.320333033800125122e-01 -1.434722989797592163e-01 9.806992858648300171e-02 -2.457476034760475159e-02 -1.285871025174856186e-02 1.271596457809209824e-02 -1.495006680488586426e-02 4.337375611066818237e-02 -1.587673872709274292e-01 -5.957621335983276367e-02 -1.871995627880096436e-01 8.802766352891921997e-02 6.035440042614936829e-02 7.827331870794296265e-02 -5.092406179755926132e-03 1.160444319248199463e-02 3.806971758604049683e-02 -2.809583954513072968e-02 -5.599527433514595032e-02 6.075461581349372864e-02 2.622304856777191162e-02 -5.477660521864891052e-02 1.179813668131828308e-01 -6.255155056715011597e-02 -3.706425428390502930e-02 1.010936498641967773e-01 1.235902681946754456e-01 1.296998113393783569e-01 -1.304271668195724487e-01 -4.286909475922584534e-02 8.122861385345458984e-03 -8.274398744106292725e-02 -6.427064072340726852e-03 -1.007087156176567078e-01 7.654073089361190796e-02 -6.570278108119964600e-02 2.632341720163822174e-02 -1.361914277076721191e-01 8.803871460258960724e-03 -1.098471786826848984e-02 7.185755670070648193e-02 -7.045662403106689453e-02 1.719686090946197510e-01 9.459580294787883759e-03 -4.660607781261205673e-03 -1.196020841598510742e-01 -1.410239841789007187e-02 2.163757104426622391e-03 -9.522470645606517792e-03 -3.763826191425323486e-02
-1.819673329591751099e-01 -1.141046881675720215e-01 7.254067808389663696e-02 -1.047676727175712585e-01 -8.347032219171524048e-02 -8.008034527301788330e-02 -1.561265289783477783e-01 -4.067059978842735291e-02 -7.594401389360427856e-02 -9.439224004745483398e-02 -1.485328823328018188e-01 -1.241002455353736877e-01 8.825475722551345825e-02 8.307236246764659882e-03 5.235221609473228455e-02 1.750728860497474670e-02 1.760938912630081177e-01 -6.353858858346939087e-03 -5.229621008038520813e-02 1.696929037570953369e-01 1.592371761798858643e-01 -8.786834031343460083e-02 -7.471369206905364990e-02 1.379986852407455444e-01 -6.972138583660125732e-02 5.665997415781021118e-02 8.000586181879043579e-03 -4.747056216001510620e-02 -1.354820132255554199e-01 -4.332838114351034164e-03 -1.253247540444135666e-02 2.221175841987133026e-02 5.436132475733757019e-02 -5.225286632776260376e-02 -3.306929767131805420e-02 1.329900622367858887e-01 9.034534916281700134e-03 -5.789276584982872009e-02 -1.104137487709522247e-02 -1.174629554152488708e-01 -3.142987936735153198e-02 1.113738566637039185e-01 9.305845946073532104e-02 1.066402122378349304e-01 6.047390028834342957e-02 -8.133750408887863159e-02 -8.989069610834121704e-02 -1.964561641216278076e-03 -1.073106154799461365e-01 -1.834193319082260132e-01 2.998738549649715424e-02 -4.365427792072296143e-02 -6.525036878883838654e-03 3.957276046276092529e-02 -3.016714565455913544e-02 1.388706713914871216e-01 8.074582368135452271e-02 -1.744756698608398438e-01 1.283993870019912720e-01 -6.759755313396453857e-02 -1.413440145552158356e-02 -1.036780420690774918e-02 -2.761812880635261536e-02 -1.851705759763717651e-01 -1.833431795239448547e-02 -5.818757414817810059e-02 -4.998324438929557800e-02 2.316629327833652496e-02 8.192999660968780518e-02 -5.593320727348327637e-02 9.077583998441696167e-02 -5.740546807646751404e-02 2.803700603544712067e-02 -1.509685367345809937e-01 -9.159555658698081970e-03 -4.478953033685684204e-02 -1.145345345139503479e-01 5.401320382952690125e-02 4.013066738843917847e-02 -6.450326647609472275e-03 -4.863712936639785767e-02 -8.961480110883712769e-02 -1.816604100167751312e-02 -3.083033254370093346e-03 -1.633205078542232513e-02 -2.602927619591355324e-03 -3.874970972537994385e-02 1.003892254084348679e-02 -5.108821019530296326e-02 -7.733245939016342163e-02 1.034509912133216858e-01 -9.663597494363784790e-02 1.702359467744827271e-01 4.409021511673927307e-02 1.480211913585662842e-01 -7.154117524623870850e-02 2.473615482449531555e-02 -1.273514479398727417e-01 4.252280667424201965e-02 5.781711079180240631e-03 4.064114019274711609e-02 1.231785789132118225e-01 -9.762693196535110474e-02 -4.121347516775131226e-02 -3.105595707893371582e-02 -1.058411970734596252e-01 -1.589330285787582397e-01 1.793823763728141785e-02 4.842834919691085815e-02 5.009623244404792786e-02 -1.367628574371337891e-02 2.997348085045814514e-02 -1.687570661306381226e-01 6.832464784383773804e-02 -3.555848449468612671e-02 -9.212826937437057495e-02 1.046633273363113403e-01 -5.559927225112915039e-02 -5.194124206900596619e-02 -8.735524863004684448e-02 3.723675385117530823e-02 3.429406508803367615e-02 7.875879853963851929e-02 7.568340003490447998e-02 1.269890554249286652e-02 7.592322770506143570e-03 1.889414489269256592e-01 -8.247303217649459839e-02 -4.627373814582824707e-02 -1.530503481626510620e-01 2.323321066796779633e-02 -4.164570569992065430e-02 5.733779072761535645e-02 7.831644266843795776e-02 8.760601282119750977e-03 -4.924647137522697449e-02 5.047361925244331360e-02 2.444816753268241882e-02 6.183152273297309875e-02 -1.125606894493103027e-01 4.048684984445571899e-02 -3.381202369928359985e-02 9.280186146497726440e-02 9.699471294879913330e-02 -4.123031720519065857e-02 9.198641777038574219e-02 1.085089817643165588e-01 3.365710005164146423e-02 -6.588048487901687622e-02 -9.899406880140304565e-02 3.582303225994110107e-02 6.112005189061164856e-02 1.116809397935867310e-01 -5.416396260261535645e-02 1.264456957578659058e-01 4.693175852298736572e-02 3.546774014830589294e-02 4.909033700823783875e-02 -8.864795416593551636e-02 -1.691214293241500854e-01 1.062152609229087830e-01 1.134282574057579041e-01 1.070016846060752869e-01 -1.699100993573665619e-02 -5.447189882397651672e-02 2.644562162458896637e-02 -2.617332339286804199e-02 -6.520347297191619873e-02 -5.941072106361389160e-02 5.451870709657669067e-02 7.667605578899383545e-02 2.608622191473841667e-03 -8.057213574647903442e-02 9.264871478080749512e-02 -3.198917582631111145e-02 -3.356805816292762756e-02 -1.531130075454711914e-01 2.846065722405910492e-02 -1.846747659146785736e-02 8.387889713048934937e-02 1.252003461122512817e-01 1.052137836813926697e-01 -6.704638153314590454e-02 -4.446089267730712891e-02 -6.723748147487640381e-02 3.219696879386901855e-02 -4.616804048418998718e-02 -3.772690519690513611e-02 -1.087918281555175781e-01 8.974450081586837769e-02 -1.005258932709693909e-01 -3.531739814206957817e-03 1.760152727365493774e-01 4.211262613534927368e-02 7.182030379772186279e-02 -1.267592608928680420e-02 6.080899760127067566e-02 -7.766913622617721558e-02 1.632022708654403687e-01 -5.233849957585334778e-02 -6.285151001065969467e-03 -1.517904847860336304e-01 2.820776216685771942e-02 -8.067977428436279297e-02 1.713089644908905029e-02 -1.786283403635025024e-01 -2.631773985922336578e-02 -8.662434667348861694e-02 -3.728191182017326355e-02 6.485249847173690796e-02 9.372254461050033569e-02 -1.012802645564079285e-01 -2.691307105123996735e-02 9.092956781387329102e-02 5.290847644209861755e-02 -5.293583497405052185e-02 3.705565258860588074e-02 7.976621389389038086e-02 2.858965098857879639e-02 1.020807996392250061e-01 -5.702509358525276184e-02 -5.725656077265739441e-02 -1.774345636367797852e-01 -1.071144714951515198e-01 1.296461224555969238e-01 -1.951471716165542603e-02 -1.046665310859680176e-01 1.658744215965270996e-01 1.198215261101722717e-01 7.706985622644424438e-02 1.182641535997390747e-01 -2.485371008515357971e-02 -2.252042479813098907e-02 6.807062309235334396e-03 1.133810635656118393e-02 -3.721529617905616760e-02 1.140892133116722107e-02 7.797787431627511978e-03 -2.578808367252349854e-02 -1.811694502830505371e-01 1.178237423300743103e-01 -7.706880569458007812e-02 -7.309978455305099487e-02 4.978102073073387146e-02 -3.619336709380149841e-02 -1.253114193677902222e-01 1.881875842809677124e-01 1.668826788663864136e-01 -1.487518548965454102e-01 -2.622544765472412109e-02 3.984822705388069153e-02 1.577752828598022461e-01 -1.232736706733703613e-01 1.508563756942749023e-01 -6.880413740873336792e-02 5.772120202891528606e-04 -5.508785322308540344e-02 5.366038903594017029e-02 3.912568464875221252e-02 -8.483253419399261475e-02 -5.146424099802970886e-02 -8.411531895399093628e-02 1.122438088059425354e-01 5.380196031183004379e-03 -6.231868267059326172e-02 -4.910836368799209595e-02 -1.180852651596069336e-01 -6.727637350559234619e-02 5.845868214964866638e-02 1.022154018282890320e-01 -1.678824983537197113e-02 -2.709333412349224091e-02 4.794267937541007996e-02 1.253708750009536743e-01 7.506940513849258423e-02 -3.662081062793731689e-02 -1.371659487485885620e-01 -1.023639068007469177e-01 1.032734736800193787e-01 4.899492487311363220e-02 1.194034889340400696e-02 6.774078309535980225e-02 9.682299196720123291e-02 5.707448348402976990e-02 3.479916602373123169e-02 -1.196151301264762878e-01 -2.151550911366939545e-02 -5.035106092691421509e-02 -7.850598543882369995e-02 2.777098119258880615e-02 -1.201422736048698425e-01 4.088010173290967941e-03 8.254741877317428589e-02 -1.039397343993186951e-01 -5.071309208869934082e-02 -4.227719083428382874e-02 -1.315008252859115601e-01 1.144673004746437073e-01 6.800680607557296753e-02 -1.120166555047035217e-01 1.196172237396240234e-01 7.194312661886215210e-02 6.749638170003890991e-02 -4.827999696135520935e-02 -1.738823764026165009e-02 2.398305200040340424e-02 -1.332290321588516235e-01 6.945708394050598145e-02 -1.314096450805664062e-01 -9.188163280487060547e-02 -2.962532453238964081e-04 -1.348518282175064087e-01 8.284263312816619873e-03 -2.763208560645580292e-02 1.179954409599304199e-02 9.517816454172134399e-02 6.870637834072113037e-02 5.794170498847961426e-02 1.036663055419921875e-01 2.332301810383796692e-02 5.612867698073387146e-02 -4.861421510577201843e-02 -1.498099118471145630e-01 -5.576204136013984680e-02 7.150807231664657593e-02 2.417486160993576050e-02 8.212038874626159668e-02 -4.549073800444602966e-02 -6.040107831358909607e-02 2.795254252851009369e-02 -6.952659785747528076e-02 6.522020697593688965e-02 2.054765075445175171e-02 -5.053762719035148621e-02 9.518814831972122192e-02 1.582106053829193115e-01 6.819470226764678955e-02 -1.564990133047103882e-01 2.889140509068965912e-02 -1.165543943643569946e-01 9.661530144512653351e-03 -6.459496170282363892e-02 -2.305970154702663422e-02 -1.061343681067228317e-02 -6.306517124176025391e-02 3.404575632885098457e-03 2.821013890206813812e-02 -1.062806993722915649e-01 -1.717148870229721069e-01 5.744937062263488770e-02 5.598394200205802917e-02 1.669123652391135693e-03 1.110471636056900024e-01 6.007211282849311829e-02 -2.133607678115367889e-02 1.419246047735214233e-01 7.909271121025085449e-02 1.767992228269577026e-02 -4.159106314182281494e-02 -3.809738531708717346e-02 2.942683733999729156e-02 2.230525389313697815e-02 9.700124152004718781e-03 -9.449133649468421936e-03 -3.848791867494583130e-02 6.333459168672561646e-02 -4.868119210004806519e-02 -9.577150642871856689e-02 -2.019650116562843323e-02 -3.900119801983237267e-03 -1.420964449644088745e-01 9.401642531156539917e-02 -3.530890867114067078e-02 -1.706513017416000366e-02 -8.432675898075103760e-02 -3.811514005064964294e-02 -6.999371200799942017e-02 9.014202654361724854e-02 -6.027132272720336914e-02 -2.149012312293052673e-02 2.055536210536956787e-02 5.116451531648635864e-02 -4.679363593459129333e-02 1.247544288635253906e-01 2.126780105754733086e-03 -1.152897626161575317e-01 -5.081753060221672058e-02 1.254555583000183105e-02 -1.669467985630035400e-01 -1.415824741125106812e-01 -1.081551909446716309e-01 -7.855924218893051147e-02 3.384706750512123108e-02 7.167024910449981689e-02 1.018540784716606140e-01 8.044920116662979126e-02 1.276025176048278809e-01 -1.523928996175527573e-02 -6.454052031040191650e-02 -6.210061535239219666e-02 -1.493024080991744995e-01 -3.990825265645980835e-02 -7.950451225042343140e-03 1.221218928694725037e-01 1.091763302683830261e-01 1.977959647774696350e-02 1.683868765830993652e-01 -1.416142471134662628e-02 -3.720347210764884949e-02 -1.130941137671470642e-01 -5.247241258621215820e-02 -2.118509029969573021e-03 -6.969585269689559937e-02 1.548379063606262207e-01 -3.838097304105758667e-02 -1.274251192808151245e-01 1.317798346281051636e-02 1.765474304556846619e-02 -5.597738176584243774e-02 -6.548260152339935303e-02 -7.253558933734893799e-02 1.383317857980728149e-01 2.758318744599819183e-02 -9.159467369318008423e-02 -1.342504471540451050e-01 5.000600963830947876e-02 3.148410096764564514e-02 5.037921667098999023e-02 -1.650992780923843384e-01 -4.886957257986068726e-02 -5.551765114068984985e-02 -1.306967437267303467e-02 -4.678322002291679382e-02 -1.682223938405513763e-02 6.952463835477828979e-02 1.955788284540176392e-01 5.263549741357564926e-03 -2.675826847553253174e-02 -9.470245987176895142e-02 -1.080492660403251648e-01 -6.804053485393524170e-02 -1.006954088807106018e-01 -9.342437237501144409e-02 -6.301701813936233521e-02 -9.656200557947158813e-02 -1.010949537158012390e-02 6.845127791166305542e-02 -1.398621797561645508e-01 -1.201789528131484985e-01 1.667413860559463501e-02 4.687377437949180603e-02 1.187570914626121521e-01 -2.596868015825748444e-02 -7.915319874882698059e-03 5.154985189437866211e-02 -1.401161849498748779e-01 -2.318709716200828552e-02 2.366114221513271332e-02 -2.005575038492679596e-02 1.874691098928451538e-01 -2.048853551968932152e-03 -5.586687847971916199e-02 -1.084651127457618713e-01 -3.474440798163414001e-02 -2.887075021862983704e-02 1.002762466669082642e-01 9.952242486178874969e-03 1.735818572342395782e-02 -7.332462817430496216e-02 -7.249950617551803589e-02 1.184175238013267517e-01 -3.141325339674949646e-02 9.026210010051727295e-02 3.413866087794303894e-02 -8.463076315820217133e-03 1.673337519168853760e-01 3.162094950675964355e-02 1.324752718210220337e-02 -1.209372878074645996e-01 -3.696436807513237000e-02 -7.646432518959045410e-02 -4.266140982508659363e-02 1.132280752062797546e-01 -1.311199367046356201e-01 -9.791155904531478882e-02 -3.291090950369834900e-02 -2.670948021113872528e-02 5.076405405998229980e-02 -7.284789532423019409e-02 -7.440666854381561279e-02 -2.195360325276851654e-02 4.071364179253578186e-02 2.299990318715572357e-02 1.645565591752529144e-02 -8.219688385725021362e-02 1.676782518625259399e-01 -3.800377622246742249e-02 1.894706673920154572e-02 -8.655758947134017944e-02 4.444335028529167175e-02 6.660073995590209961e-02 1.010892391204833984e-01 -6.124768778681755066e-02 -5.091028288006782532e-02 -1.456660032272338867e-01 1.108176484704017639e-01 3.810503333806991577e-02 -1.540749520063400269e-01 -4.317863285541534424e-02 -4.987084493041038513e-02 -1.090006902813911438e-02 7.481482625007629395e-02
-5.708285793662071228e-02 1.404601782560348511e-01 1.255406588315963745e-01 -1.101310253143310547e-01 5.025659222155809402e-03 2.731249295175075531e-02 -2.378558926284313202e-02 8.966078609228134155e-02 -1.071185842156410217e-01 1.752982586622238159e-01 -1.708127930760383606e-02 -9.910820052027702332e-03 9.155873954296112061e-02 -3.240506350994110107e-02 -1.578587889671325684e-01 4.625244066119194031e-02 7.763665914535522461e-02 3.126440197229385376e-02 -2.457499271258711815e-03 -1.007254123687744141e-01 -4.248100146651268005e-02 -8.098684996366500854e-02 7.557465136051177979e-02 -6.331984698772430420e-02 -1.257458776235580444e-01 -9.775018692016601562e-02 -1.785347051918506622e-02 -4.600261896848678589e-02 6.030629947781562805e-02 -2.540929010137915611e-03 -8.222451061010360718e-02 -1.130914241075515747e-01 -1.781909465789794922e-01 6.550058722496032715e-02 1.017210111021995544e-01 -4.244286566972732544e-02 1.710016131401062012e-01 -5.035885050892829895e-02 1.048673316836357117e-01 2.913166023790836334e-02 -8.068820834159851074e-02 -3.729883953928947449e-02 -4.171324521303176880e-02 -8.346422761678695679e-02 -7.588499039411544800e-02 -1.942144632339477539e-01 1.092924252152442932e-01 1.153544187545776367e-01 -2.304040268063545227e-02 1.109701320528984070e-01 6.218428164720535278e-02 -1.780469901859760284e-02 -5.889415740966796875e-02 1.214442495256662369e-02 5.186527967453002930e-02 -1.586842238903045654e-01 -3.918537124991416931e-02 -7.975070923566818237e-02 1.920646987855434418e-02 -1.086225286126136780e-01 1.139150187373161316e-01 1.014863997697830200e-01 -1.442355103790760040e-02 1.258748620748519897e-01 1.425532158464193344e-02 1.271877884864807129e-01 -6.563737243413925171e-02 1.063959952443838120e-02 -4.645058419555425644e-03 -2.051595412194728851e-02 2.235208172351121902e-03 -4.087185859680175781e-02 -1.473441626876592636e-02 -5.865921452641487122e-02 1.954589784145355225e-02 -1.550055891275405884e-01 7.791001349687576294e-03 -1.528720110654830933e-01 8.179718255996704102e-02 -3.644029796123504639e-02 -1.066467538475990295e-01 2.978598885238170624e-02 1.119175553321838379e-01 1.975327879190444946e-01 2.004629932343959808e-02 -5.332827568054199219e-02 1.213530302047729492e-01 1.018781121820211411e-02 6.327731907367706299e-02 -2.317142672836780548e-02 -2.125968597829341888e-02 -2.603608369827270508e-02 -1.077998504042625427e-01 4.171520844101905823e-02 -1.630061306059360504e-02 3.653370216488838196e-02 5.305818468332290649e-02 -1.091653257608413696e-01 4.369355738162994385e-02 3.128893300890922546e-02 1.661409437656402588e-01 8.323268592357635498e-02 1.042725667357444763e-01 -4.018845781683921814e-02 6.844244152307510376e-02 2.452321909368038177e-02 -8.631911128759384155e-02 -1.067564543336629868e-02 1.609237678349018097e-02 -3.160878270864486694e-02 -4.250874742865562439e-02 -1.139980647712945938e-02 -3.808800131082534790e-03 -7.996299117803573608e-02 1.741723157465457916e-02 2.500647120177745819e-02 -1.404062658548355103e-01 1.635245792567729950e-02 -1.021552458405494690e-01 4.209586977958679199e-02 -8.542593568563461304e-02 -1.883152127265930176e-01 -8.273600041866302490e-02 -2.452822774648666382e-02 4.482451826333999634e-02 -2.733086608350276947e-02 1.026887074112892151e-01 1.641333103179931641e-02 4.126891121268272400e-02 -1.940672099590301514e-01 5.519527941942214966e-02 -3.110956586897373199e-02 1.062299758195877075e-01 -3.445329517126083374e-02 3.591519221663475037e-02 1.090603619813919067e-01 -9.418568015098571777e-02 -1.038642674684524536e-01 1.156615242362022400e-01 -7.238917052745819092e-02 3.375014662742614746e-02 1.127220224589109421e-02 -2.765033952891826630e-02 1.076762825250625610e-01 -8.034872263669967651e-02 -1.801901906728744507e-01 -5.376749858260154724e-02 -1.111245155334472656e-01 -1.911746524274349213e-02 -1.600897014141082764e-01 9.173669666051864624e-02 6.223338842391967773e-02 -5.907707288861274719e-02 -7.600485533475875854e-02 1.611720323562622070e-01 4.541252180933952332e-02 5.215616151690483093e-02 2.863852493464946747e-02 -2.979381941258907318e-02 1.796242408454418182e-02 -8.121161907911300659e-02 1.032320037484169006e-01 -1.376030445098876953e-01 1.926300115883350372e-02 1.222218275070190430e-01 -5.554246902465820312e-02 5.152932554483413696e-02 1.533151865005493164e-01 -5.473826453089714050e-02 -6.145935133099555969e-02 1.656691730022430420e-01 1.875923946499824524e-02 -1.527261883020401001e-01 -3.339283913373947144e-02 8.588138967752456665e-02 -5.121869593858718872e-02 -5.998719856142997742e-02 -1.594396657310426235e-03 -1.270754355937242508e-02 6.169600039720535278e-02 4.391508549451828003e-02 -2.978753857314586639e-02 1.613196730613708496e-01 -6.016285158693790436e-03 -8.802260272204875946e-03 1.333433389663696289e-01 9.130752086639404297e-02 3.740732325240969658e-03 -1.468231528997421265e-01 -4.771775379776954651e-02 -6.895184516906738281e-02 -1.006476432085037231e-01 1.248006969690322876e-01 -1.373242586851119995e-01 -1.908086612820625305e-02 -4.550476372241973877e-02 -1.178778186440467834e-01 -1.295314878225326538e-01 -1.605474390089511871e-02 -1.206263899803161621e-01 -1.305973809212446213e-02 -1.262346357107162476e-01 8.039724081754684448e-02 1.306412518024444580e-01 1.841161549091339111e-01 1.554751545190811157e-01 -1.568671613931655884e-01 1.294115837663412094e-02 2.206344716250896454e-02 -1.110847219824790955e-01 -4.648661240935325623e-02 -1.137362644076347351e-01 -1.855323612689971924e-01 -9.770033881068229675e-03 1.006789430975914001e-01 1.433123946189880371e-01 -1.430780906230211258e-02 1.148650571703910828e-01 3.378905728459358215e-02 1.223646327853202820e-01 4.032618924975395203e-02 -4.182303696870803833e-02 -5.095640569925308228e-02 5.061001330614089966e-02 3.510455414652824402e-02 -9.796301275491714478e-02 -1.310919821262359619e-01 3.087352588772773743e-02 -3.513960912823677063e-02 2.819234132766723633e-02 -1.034110710024833679e-01 3.772445395588874817e-02 -6.706633418798446655e-02 -7.693043351173400879e-02 9.391336143016815186e-02 2.522943913936614990e-02 -8.728235214948654175e-02 5.576943978667259216e-02 -1.916310638189315796e-01 -7.209857553243637085e-02 -5.062795430421829224e-02 -8.930532261729240417e-03 6.204150989651679993e-02 -1.109772920608520508e-01 -1.704915612936019897e-01 5.042591691017150879e-02 -3.927172347903251648e-02 4.784069582819938660e-02 1.883146613836288452e-01 3.212108090519905090e-02 1.701859682798385620e-01 -1.857046931982040405e-01 6.888764351606369019e-02 7.677626609802246094e-02 -4.740761965513229370e-02 2.325513027608394623e-02 9.784109890460968018e-02 1.340526738204061985e-03 9.626179188489913940e-02 2.761627733707427979e-02 -1.177508160471916199e-01 -1.872653812170028687e-01 -2.216833457350730896e-02 -4.176485911011695862e-02 -1.069491878151893616e-01 -1.420420855283737183e-01 8.447582274675369263e-02 1.883971542119979858e-01 -1.020242795348167419e-01 1.398085206747055054e-01 3.572060912847518921e-02 6.917055696249008179e-02 -2.638499811291694641e-02 3.951114136725664139e-03 -1.179435998201370239e-01 1.492230594158172607e-01 1.717914193868637085e-01 -5.980700999498367310e-02 -1.297334879636764526e-01 1.453713327646255493e-01 4.855680093169212341e-02 -1.759533733129501343e-01 4.265275225043296814e-02 -1.495872586965560913e-01 1.503589004278182983e-01 1.683790087699890137e-01 -9.543661773204803467e-02 2.941515482962131500e-02 -5.862694978713989258e-02 7.501026242971420288e-02 1.512645483016967773e-01 8.756487071514129639e-02 -1.889101229608058929e-02 -8.839177899062633514e-03 -5.660376045852899551e-03 -1.286756396293640137e-01 8.516523987054824829e-02 2.000687271356582642e-02 1.301181763410568237e-01 1.435801237821578979e-01 1.814659871160984039e-02 -9.739258140325546265e-02 -2.528474666178226471e-02 2.167433686554431915e-02 -3.976279497146606445e-02 1.113775372505187988e-01 -2.708129398524761200e-02 -7.957166992127895355e-03 7.831377536058425903e-02 1.060055419802665710e-01 -1.261403411626815796e-02 -4.081264883279800415e-02 -7.561455667018890381e-02 -3.130956366658210754e-02 -1.191192865371704102e-01 -9.133633971214294434e-02 -1.169011741876602173e-01 1.124408170580863953e-01 1.377449780702590942e-01 -7.405033707618713379e-02 8.363265544176101685e-02 1.768065243959426880e-01 9.389644116163253784e-02 5.708358809351921082e-02 -8.475168608129024506e-03 -1.595597118139266968e-01 -7.356452196836471558e-02 1.913526356220245361e-01 4.343916848301887512e-02 -3.931191191077232361e-02 -2.652077702805399895e-03 -1.384892314672470093e-01 -1.158979535102844238e-01 1.668228805065155029e-01 6.225432828068733215e-02 -1.430215537548065186e-01 -9.745375812053680420e-02 3.422529250383377075e-02 -4.234810546040534973e-02 -8.482138067483901978e-02 -9.025172144174575806e-02 6.155503913760185242e-02 -1.254073232412338257e-01 5.995925888419151306e-02 -5.630391836166381836e-02 6.920665502548217773e-02 7.673377543687820435e-02 1.472383439540863037e-01 -1.546185165643692017e-01 -1.193677186965942383e-01 -2.216918393969535828e-02 1.040243133902549744e-01 7.454201579093933105e-02 -4.878322407603263855e-02 4.674379155039787292e-02 -1.761773824691772461e-01 -1.258055716753005981e-01 8.994127810001373291e-02 -1.246551498770713806e-01 -2.776671899482607841e-03 -1.026283428072929382e-01 -9.044940769672393799e-02 7.233676314353942871e-02 4.924601316452026367e-02 -3.939888905733823776e-03 -6.040819454938173294e-03 -5.688216164708137512e-02 -6.308533251285552979e-02 -7.952313870191574097e-02 1.296651512384414673e-01 1.749664396047592163e-01 -3.070080280303955078e-02 -1.394236385822296143e-01 1.098985597491264343e-01 4.155360534787178040e-02 -8.692871779203414917e-02 2.112787589430809021e-02 -6.065582856535911560e-02 8.120063692331314087e-02 -5.103523726575076580e-04 5.143934115767478943e-02 1.073940172791481018e-01 2.680026367306709290e-02 3.059536218643188477e-02 -3.868434205651283264e-02 -1.207374259829521179e-01 -1.570450365543365479e-01 1.729256510734558105e-01 9.024777449667453766e-03 -1.728726476430892944e-01 -1.314703375101089478e-01 7.373859733343124390e-02 4.676383361220359802e-02 3.023983351886272430e-02 -1.120636835694313049e-01 -3.596395626664161682e-02 8.601894229650497437e-02 8.389812707901000977e-02 -1.678625307977199554e-02 -2.097611129283905029e-02 7.936163991689682007e-02 -1.110668927431106567e-01 5.919015407562255859e-02 -5.521032959222793579e-02 -1.332045346498489380e-02 5.879557877779006958e-02 -8.722197264432907104e-02 -1.381585448980331421e-01 -4.513077065348625183e-02 -1.500009000301361084e-01 -8.177853375673294067e-02 -5.598897486925125122e-02 -3.428125753998756409e-03 -1.830746531486511230e-01 4.132279008626937866e-02 -2.077915892004966736e-02 -4.037040751427412033e-03 2.679489925503730774e-02 -6.909995526075363159e-02 1.091362815350294113e-02 1.171134635806083679e-01 9.402617067098617554e-02 7.343533635139465332e-02 8.786717802286148071e-02 -1.202100068330764771e-01 -8.598697930574417114e-02 -1.176777034997940063e-01 -7.774796336889266968e-02 3.587860381230711937e-03 -7.213515043258666992e-02 -1.321024727076292038e-02 -1.892257481813430786e-02 -3.186657652258872986e-02 -2.903579548001289368e-02 -1.860294840298593044e-03 -2.886170707643032074e-02 2.324017509818077087e-02 -3.318163380026817322e-02 6.056668981909751892e-02 -8.947863429784774780e-02 9.832859784364700317e-02 1.986331790685653687e-01 2.270525507628917694e-02 -3.675842285156250000e-02 -1.748687587678432465e-02 -1.180444727651774883e-03 -7.755010575056076050e-02 1.148215755820274353e-01 -1.352797299623489380e-01 -1.346408855170011520e-02 3.799529373645782471e-02 1.771550811827182770e-02 6.043335795402526855e-02 2.980289794504642487e-02 1.749873012304306030e-01 9.339870512485504150e-02 6.477454304695129395e-02 -8.960902690887451172e-02 1.262195874005556107e-02 -1.525055915117263794e-01 6.399905681610107422e-02 3.692535683512687683e-02 1.045403257012367249e-01 -7.701050490140914917e-02 7.711424678564071655e-02 4.172460641711950302e-03 -1.257024854421615601e-01 7.824137806892395020e-02 1.710794568061828613e-01 -6.435693055391311646e-02 -1.308327317237854004e-01 -2.313782693818211555e-03 -2.648714557290077209e-02 8.589608967304229736e-02 1.393594443798065186e-01 -1.166488453745841980e-01 8.672794699668884277e-02 -1.383867710828781128e-01 8.241364359855651855e-02 3.888210281729698181e-02 4.286981746554374695e-02 1.042637880891561508e-02 -1.059274002909660339e-01 5.273285135626792908e-02 -4.440544173121452332e-02 8.179342001676559448e-02 -6.124585866928100586e-03 5.243786145001649857e-03 -1.665691584348678589e-01 1.106924340128898621e-01 -9.306400269269943237e-02 -4.736188799142837524e-02 1.039685867726802826e-02 -1.591849774122238159e-01 1.301381438970565796e-01 -3.197961300611495972e-02 1.526824235916137695e-01 6.441627442836761475e-02 -1.124803051352500916e-01 1.766798645257949829e-02 -1.693540252745151520e-02 -6.600020080804824829e-02 2.776858583092689514e-02 4.008471965789794922e-02 -1.270205527544021606e-01 -1.611363738775253296e-01 9.410889446735382080e-02 4.057003185153007507e-02 4.420999437570571899e-02 -5.448463186621665955e-02 3.057035803794860840e-02 -9.612255543470382690e-02
-5.506112053990364075e-02 -3.634782973676919937e-03 3.133456036448478699e-02 -1.822150498628616333e-02 -9.862805716693401337e-03 -3.241436183452606201e-02 4.020565375685691833e-02 7.928919047117233276e-02 2.435010485351085663e-02 -1.472724676132202148e-01 -4.831865802407264709e-02 4.731590673327445984e-02 -1.115336641669273376e-01 -3.134371712803840637e-02 -2.490505343303084373e-03 -2.614944614470005035e-02 3.819428756833076477e-02 -4.980596899986267090e-02 1.438930332660675049e-01 -2.852387493476271629e-03 -1.206148862838745117e-01 -5.671493336558341980e-02 2.038768120110034943e-02 -1.272883266210556030e-01 -2.143317833542823792e-02 2.588751027360558510e-03 7.385044544935226440e-02 -1.012014299631118774e-01 -6.178938969969749451e-02 6.208163499832153320e-02 -3.104333579540252686e-02 -1.273863464593887329e-01 -7.677044253796339035e-03 -4.616314172744750977e-02 2.322206273674964905e-02 -3.272574767470359802e-02 -6.320428103208541870e-02 1.322583407163619995e-01 -4.715245962142944336e-02 1.338749378919601440e-02 2.271701395511627197e-02 1.637860089540481567e-01 6.288269162178039551e-02 -1.340131312608718872e-01 -1.675886511802673340e-01 -6.457351893186569214e-02 -5.180909857153892517e-02 2.978493832051753998e-02 -2.106943866237998009e-03 -5.040378123521804810e-02 6.314806640148162842e-02 -8.081662654876708984e-02 1.050555035471916199e-01 1.123729720711708069e-01 -1.757946424186229706e-02 -4.196813330054283142e-02 -3.394022956490516663e-02 1.345334202051162720e-02 -8.950801566243171692e-03 1.707151383161544800e-01 8.687812834978103638e-02 5.879172682762145996e-02 2.863983390852808952e-03 7.621338963508605957e-02 -1.041516661643981934e-01 9.385570883750915527e-02 -3.268240019679069519e-03 -1.823772117495536804e-02 -1.338045764714479446e-02 -2.440012060105800629e-02 1.782043427228927612e-01 -1.465592831373214722e-01 -2.158681489527225494e-02 5.614375695586204529e-02 -8.664595335721969604e-02 -9.534975141286849976e-02 2.628558315336704254e-02 -1.075983978807926178e-02 -1.664433330297470093e-01 -2.922595478594303131e-02 -1.637888699769973755e-01 -4.462555423378944397e-02 7.523591816425323486e-02 2.630210481584072113e-02 -3.742532804608345032e-02 1.535460650920867920e-01 -3.622899949550628662e-02 -5.535830184817314148e-02 -1.250389665365219116e-01 1.185811031609773636e-02 -8.388689905405044556e-02 4.664165526628494263e-02 4.376988392323255539e-03 1.901873014867305756e-02 5.016560479998588562e-02 5.531656742095947266e-02 2.413049153983592987e-02 -8.708953112363815308e-02 1.085265651345252991e-01 6.977108865976333618e-02 5.751514341682195663e-03 7.377970963716506958e-03 -3.542480990290641785e-02 -1.311294883489608765e-01 4.388849437236785889e-02 -1.224879622459411621e-01 -4.608779214322566986e-03 -9.062262624502182007e-02 1.360837072134017944e-01 -1.145182624459266663e-01 -3.369318693876266479e-02 5.302263423800468445e-02 -1.437559165060520172e-02 -9.817962348461151123e-02 4.085743799805641174e-02 -1.760113053023815155e-02 5.524474382400512695e-02 7.933803647756576538e-02 7.356162369251251221e-02 -1.888437271118164062e-01 -6.184802576899528503e-02 -2.595787681639194489e-02 1.192294508218765259e-01 -1.662376224994659424e-01 3.944192454218864441e-02 -6.031213328242301941e-02 3.141795471310615540e-02 -1.003524661064147949e-01 -8.844917640089988708e-03 5.636885389685630798e-02 -5.418564006686210632e-02 -1.358873099088668823e-01 1.549763884395360947e-02 -1.862999796867370605e-02 -7.778511196374893188e-02 9.638652950525283813e-02 -1.047854591161012650e-02 1.360935419797897339e-01 1.096844580024480820e-02 -4.262319579720497131e-02 -9.507291764020919800e-02 1.275558620691299438e-01 6.864310055971145630e-02 1.706461235880851746e-02 -8.662878721952438354e-02 6.642702221870422363e-02 -4.809599742293357849e-02 1.287240236997604370e-01 -6.505530327558517456e-02 1.208504661917686462e-01 -1.659577153623104095e-02 -9.188162535429000854e-02 9.159303456544876099e-02 -4.848951473832130432e-02 -5.139375850558280945e-02 3.541118279099464417e-02 -7.726287096738815308e-02 1.798925548791885376e-01 -6.500282138586044312e-02 8.256420493125915527e-02 -1.671052575111389160e-01 1.205409541726112366e-01 -8.781881071627140045e-03 2.745882235467433929e-02 -5.178647860884666443e-02 2.652700245380401611e-02 8.845164626836776733e-02 3.835346922278404236e-02 4.699168726801872253e-02 -1.068685110658407211e-02 6.771507114171981812e-02 1.282411366701126099e-01 3.484558314085006714e-02 -1.328752338886260986e-01 -1.483374089002609253e-01 -1.059221178293228149e-01 -1.339244842529296875e-02 9.655113518238067627e-02 -1.684222668409347534e-01 1.863970607519149780e-02 2.174262516200542450e-02 -9.850719571113586426e-02 2.543767355382442474e-02 5.246348306536674500e-02 4.075285512953996658e-03 -1.488493662327528000e-02 -1.376913636922836304e-01 -4.486644268035888672e-02 -1.105414554476737976e-01 -2.181491255760192871e-02 -1.868444681167602539e-02 1.635362505912780762e-01 -9.238109737634658813e-02 1.367088258266448975e-01 -8.578474074602127075e-02 -7.517144083976745605e-03 -1.858420222997665405e-01 -1.703518093563616276e-03 -1.282984204590320587e-02 -1.003794670104980469e-01 -2.478016540408134460e-03 -8.188150078058242798e-02 1.126918122172355652e-01 4.462960362434387207e-02 1.928429305553436279e-02 -1.064906492829322815e-01 -2.670029737055301666e-02 9.127675741910934448e-02 -1.044593080878257751e-01 -9.546403586864471436e-02 1.449980139732360840e-01 -1.809833198785781860e-01 -2.472332119941711426e-02 1.580830216407775879e-01 1.948841661214828491e-01 -7.686884142458438873e-03 1.539589166641235352e-01 9.810828417539596558e-02 4.940146114677190781e-03 -2.380646765232086182e-02 6.183431670069694519e-02 -1.323476433753967285e-01 7.977791130542755127e-02 7.481732964515686035e-02 -5.997504666447639465e-02 -1.491322368383407593e-01 1.503223776817321777e-01 2.425464987754821777e-02 -1.423285156488418579e-01 5.143111571669578552e-02 -1.652982272207736969e-02 -1.413541734218597412e-01 6.926020141690969467e-03 1.320372521877288818e-01 -1.902340166270732880e-02 1.203669086098670959e-01 6.653106212615966797e-02 1.425030361860990524e-02 -8.425258100032806396e-02 -1.807025521993637085e-01 1.580301485955715179e-02 1.535671502351760864e-01 -6.328132003545761108e-02 -2.027926221489906311e-02 6.902676820755004883e-02 2.470440976321697235e-02 3.942355886101722717e-02 -4.636658355593681335e-02 1.031439844518899918e-02 5.739487335085868835e-02 1.831624209880828857e-01 6.314875930547714233e-02 1.568423509597778320e-01 9.793012402951717377e-03 -1.615520380437374115e-02 -6.885645445436239243e-03 -6.121523678302764893e-03 -7.805328350514173508e-03 3.344670310616493225e-02 -1.061354279518127441e-01 8.973518759012222290e-02 -3.810286894440650940e-02 1.329261343926191330e-02 7.086548209190368652e-02 2.727243676781654358e-02 -1.852973364293575287e-02 5.222583934664726257e-02 1.378153413534164429e-01 1.270217448472976685e-01 -1.236157044768333435e-01 1.025893241167068481e-01 4.810998216271400452e-03 -1.276798397302627563e-01 2.450670115649700165e-02 -4.794612154364585876e-02 1.336564272642135620e-01 1.695368140935897827e-01 1.227109059691429138e-01 5.098221451044082642e-02 1.066795736551284790e-02 3.801383450627326965e-02 -4.041698947548866272e-02 3.092081286013126373e-03 1.236805096268653870e-01 6.154650077223777771e-02 -8.111743628978729248e-02 -3.241979703307151794e-02 1.491021271795034409e-02 1.602553203701972961e-02 4.274230450391769409e-02 9.761571884155273438e-02 7.270011305809020996e-02 3.500638902187347412e-02 -9.495998919010162354e-02 3.101773001253604889e-02 -1.276337206363677979e-01 -7.642619311809539795e-02 -1.516875922679901123e-01 1.077451482415199280e-01 -7.051085680723190308e-02 1.219743769615888596e-02 -7.246644794940948486e-02 6.929972767829895020e-02 -6.730446964502334595e-02 4.910186305642127991e-02 1.338000148534774780e-01 1.982985287904739380e-01 -3.248159307986497879e-03 -1.632857322692871094e-02 -1.533513665199279785e-01 -5.187504924833774567e-03 -1.511223465204238892e-01 3.543689474463462830e-02 -1.115876361727714539e-01 9.473544359207153320e-02 9.382560849189758301e-02 -2.641860581934452057e-02 1.986391842365264893e-01 1.690341345965862274e-02 7.336082309484481812e-02 1.614697426557540894e-01 -1.784863322973251343e-02 1.518808454275131226e-01 2.952305041253566742e-02 -1.953918039798736572e-01 -1.270150840282440186e-01 1.083709821105003357e-01 9.576644748449325562e-02 1.239617168903350830e-02 -1.585707515478134155e-01 -9.558711946010589600e-02 -1.089324876666069031e-01 -2.860024571418762207e-02 7.058440893888473511e-02 -1.684710830450057983e-01 1.318533439189195633e-02 -1.326207220554351807e-01 6.718000024557113647e-02 -1.658522784709930420e-01 1.147209182381629944e-01 -1.403993275016546249e-02 -1.923017352819442749e-01 -4.182150214910507202e-02 4.519564658403396606e-02 4.123011976480484009e-02 3.529080376029014587e-02 5.758644267916679382e-02 -1.748490035533905029e-01 1.478765755891799927e-01 -1.474991440773010254e-02 6.561553478240966797e-02 2.209019474685192108e-02 1.048792824149131775e-01 1.975734531879425049e-02 -5.154382064938545227e-02 -4.020344838500022888e-02 2.038450678810477257e-03 -2.224958874285221100e-02 6.657508760690689087e-02 -4.639162681996822357e-03 4.477045312523841858e-02 -1.346515025943517685e-02 -7.887882739305496216e-02 4.618083592504262924e-03 1.659274250268936157e-01 8.767083287239074707e-02 8.402211964130401611e-02 6.549447029829025269e-02 -1.399712860584259033e-01 1.220125183463096619e-01 -4.699332267045974731e-02 8.196173585020005703e-04 6.592675298452377319e-02 -1.718191653490066528e-01 8.268897235393524170e-02 -9.025672450661659241e-03 5.352968722581863403e-02 -1.211205869913101196e-01 1.128471717238426208e-01 1.405459046363830566e-01 -4.913366213440895081e-02 -3.285798057913780212e-02 3.322097659111022949e-02 -5.232541635632514954e-02 -2.227039076387882233e-02 9.022395126521587372e-03 7.040079683065414429e-02 -8.667644858360290527e-02 -1.244450584053993225e-01 1.353331655263900757e-01 -1.097255498170852661e-01 -1.107987165451049805e-01 1.230608820915222168e-01 7.677280809730291367e-03 1.593116521835327148e-01 -6.631053984165191650e-02 -1.616960018873214722e-01 2.191123180091381073e-02 1.173413321375846863e-01 -3.981168847531080246e-03 1.503571569919586182e-01 -9.491999633610248566e-03 6.514041125774383545e-02 -1.086147055029869080e-01 1.421826779842376709e-01 3.160638734698295593e-02 5.612636357545852661e-02 -8.440847694873809814e-02 9.012880921363830566e-02 -1.266625076532363892e-01 1.196720153093338013e-01 2.050209045410156250e-02 7.396309822797775269e-02 -7.293584197759628296e-02 -7.167510688304901123e-02 6.223187968134880066e-02 -8.292354643344879150e-03 9.939991682767868042e-02 -2.928316593170166016e-02 4.077043756842613220e-02 1.464322656393051147e-01 7.081579416990280151e-02 -2.211610414087772369e-02 -7.562727481126785278e-02 8.133886009454727173e-02 7.545389235019683838e-02 1.278189122676849365e-01 -6.847925484180450439e-02 -1.349074393510818481e-01 7.693778723478317261e-02 -7.441554218530654907e-03 -1.339197307825088501e-01 5.319422110915184021e-02 -1.772550791501998901e-01 7.913880050182342529e-03 6.109059602022171021e-02 -1.300574243068695068e-01 1.703226566314697266e-02 1.207666322588920593e-01 1.951477527618408203e-01 1.192428451031446457e-02 2.725269459187984467e-02 1.119816079735755920e-01 7.169749587774276733e-02 -1.308354586362838745e-01 -1.979976706206798553e-02 9.408853203058242798e-02 -2.920358255505561829e-02 4.724866524338722229e-02 -8.683268725872039795e-02 -8.491008728742599487e-02 7.832876592874526978e-02 7.700327783823013306e-02 5.652706697583198547e-02 -4.562783986330032349e-02 1.921905390918254852e-02 -8.233658969402313232e-02 -2.477257512509822845e-02 1.324209421873092651e-01 6.935128569602966309e-02 3.600654378533363342e-02 7.562249153852462769e-02 -4.439428821206092834e-02 -1.401950865983963013e-01 2.149029076099395752e-02 1.698585301637649536e-01 -8.262936025857925415e-02 1.106678247451782227e-01 2.569964900612831116e-02 -1.372657120227813721e-01 -2.098633348941802979e-02 -1.042866855859756470e-01 7.976114004850387573e-02 8.673371374607086182e-02 1.332566328346729279e-02 -5.603758618235588074e-02 4.685006663203239441e-02 4.754516109824180603e-02 -2.202225290238857269e-02 4.248845204710960388e-02 8.312634378671646118e-02 1.916293799877166748e-01 5.558618344366550446e-03 -6.972921639680862427e-02 1.364835947751998901e-01 -2.516657672822475433e-02 1.298268139362335205e-01 -9.847038239240646362e-02 -1.138701066374778748e-01 -3.987603634595870972e-02 -8.349923789501190186e-02 -1.261308509856462479e-02 8.306224644184112549e-02 6.667130440473556519e-02 5.209589749574661255e-02 -8.908283710479736328e-02 -6.430368870496749878e-03 -1.149033829569816589e-01 1.082765012979507446e-01 -1.552798599004745483e-01 -1.861461810767650604e-02 1.866112113930284977e-03 1.337014790624380112e-02 5.937642604112625122e-02 6.874275207519531250e-02 -7.601180672645568848e-02 1.487879734486341476e-02 1.352428346872329712e-01 -4.762275516986846924e-02 -9.038393199443817139e-02 7.725031673908233643e-02 2.404998242855072021e-02
6.377276033163070679e-02 -1.231479793787002563e-01 1.274175383150577545e-02 1.764848530292510986e-01 -6.410219520330429077e-02 -5.208208784461021423e-02 3.283206373453140259e-02 -1.906593590974807739e-01 2.889550291001796722e-02 6.870057433843612671e-02 -1.353469789028167725e-01 -4.119337722659111023e-02 1.928416639566421509e-02 1.048689056187868118e-02 3.866197168827056885e-02 6.693076342344284058e-02 1.254272311925888062e-01 -3.311036154627799988e-02 -5.204567685723304749e-03 -6.505843251943588257e-02 -7.044946402311325073e-02 -2.674674987792968750e-02 3.363891737535595894e-03 -4.991496726870536804e-02 -1.392395794391632080e-01 -1.149244830012321472e-01 4.683138802647590637e-02 2.410803176462650299e-02 -2.709789574146270752e-02 -7.986432313919067383e-02 3.952343389391899109e-02 -7.935490459203720093e-02 7.722442597150802612e-02 2.047994174063205719e-02 -7.510028034448623657e-02 9.021591395139694214e-02 -4.073203541338443756e-03 -4.320146981626749039e-03 -9.602164477109909058e-02 1.421665400266647339e-01 1.326362788677215576e-01 1.072459742426872253e-01 8.149592205882072449e-03 -3.511590650305151939e-03 -4.505392536520957947e-02 9.360115975141525269e-03 9.055223315954208374e-02 -1.070396900177001953e-01 3.256821259856224060e-02 -1.063632685691118240e-02 7.810309529304504395e-02 4.188055917620658875e-02 -5.909259989857673645e-02 1.256865710020065308e-01 1.442316174507141113e-01 -3.374201431870460510e-02 8.604758232831954956e-02 -5.729724839329719543e-02 -2.641294384375214577e-03 5.610819533467292786e-02 1.361970156431198120e-01 -1.102143526077270508e-01 1.100998297333717346e-01 3.869922133162617683e-03 1.224579405970871449e-03 -1.275364309549331665e-01 5.554285645484924316e-02 7.941531389951705933e-02 -6.567370891571044922e-02 -1.442859619855880737e-01 1.837277226150035858e-02 -9.557133913040161133e-02 3.703235706780105829e-04 -1.434785574674606323e-01 1.162998899817466736e-01 -9.694774448871612549e-02 1.969423443078994751e-01 -8.164643310010433197e-03 4.491593688726425171e-02 -1.328720897436141968e-01 4.362963512539863586e-02 -8.405500650405883789e-02 -4.644544050097465515e-02 -6.521191447973251343e-02 -1.543073076754808426e-02 1.249357834458351135e-01 -1.167194768786430359e-01 3.934939950704574585e-02 -2.267616242170333862e-02 7.746871560811996460e-02 7.240939885377883911e-02 6.942365318536758423e-02 2.494358643889427185e-02 -4.490696359425783157e-03 1.178412809967994690e-01 1.019939687103033066e-02 -7.752972096204757690e-02 1.452015042304992676e-01 -1.996122002601623535e-01 6.070408970117568970e-02 -4.865833744406700134e-02 2.627227641642093658e-02 4.126183316111564636e-02 -2.297833748161792755e-02 6.141256168484687805e-02 4.618173092603683472e-02 -8.640474826097488403e-02 -1.203140020370483398e-01 1.463177949190139771e-01 1.613901555538177490e-01 2.229993604123592377e-02 9.366559237241744995e-02 -4.721461795270442963e-03 -8.286727219820022583e-02 -1.411502212285995483e-01 -1.216821894049644470e-01 1.869288384914398193e-01 -3.892304748296737671e-02 -3.766428679227828979e-02 1.246885862201452255e-02 -1.618082523345947266e-01 -2.420379780232906342e-02 6.708451360464096069e-02 -9.474771097302436829e-03 -6.324791163206100464e-02 -3.033145330846309662e-02 1.502818912267684937e-01 1.234123036265373230e-01 6.027480959892272949e-02 1.239903494715690613e-01 6.571725010871887207e-02 1.096784397959709167e-01 1.050052791833877563e-01 -1.797305978834629059e-02 2.781490795314311981e-02 -1.572350263595581055e-01 1.393925249576568604e-01 -7.978920638561248779e-02 1.255105584859848022e-01 -1.603076308965682983e-01 -1.243349630385637283e-02 -1.089591905474662781e-02 -7.257112115621566772e-02 4.390841722488403320e-02 6.099968031048774719e-02 8.411520719528198242e-02 -1.151990666985511780e-01 1.422352045774459839e-01 4.881612583994865417e-02 -6.205635890364646912e-02 4.912693426012992859e-02 -1.012369021773338318e-01 -6.988827139139175415e-02 -1.137726902961730957e-01 -7.070445269346237183e-02 -9.386076778173446655e-02 1.321043968200683594e-01 -4.546770080924034119e-02 1.716200709342956543e-01 1.323786675930023193e-01 1.165811643004417419e-01 7.460241764783859253e-02 -2.329961769282817841e-02 8.887895196676254272e-02 1.199398040771484375e-01 4.706928506493568420e-02 1.734304055571556091e-02 -1.241629477590322495e-02 -9.850361943244934082e-02 -3.133402904495596886e-03 -3.731130436062812805e-02 2.725417912006378174e-02 -8.980708569288253784e-02 -1.020129546523094177e-01 -1.658273190259933472e-01 3.418760374188423157e-02 -9.153761714696884155e-02 2.719712210819125175e-03 4.810842499136924744e-02 -4.677836596965789795e-02 -3.690769895911216736e-02 1.409707218408584595e-01 2.120592817664146423e-02 2.879545465111732483e-02 -1.249373778700828552e-01 1.451814360916614532e-02 1.697315126657485962e-01 -1.656415611505508423e-01 -8.156292885541915894e-02 1.298803091049194336e-01 5.283595994114875793e-02 5.383463576436042786e-02 6.953196972608566284e-02 -9.132257848978042603e-02 -1.858600229024887085e-02 1.626145392656326294e-01 -1.273943930864334106e-01 -5.773089081048965454e-02 -8.842736482620239258e-02 7.950208336114883423e-02 4.690190777182579041e-02 3.180256858468055725e-02 1.916563212871551514e-01 1.127410158514976501e-01 2.623994089663028717e-02 1.677380315959453583e-02 -1.344361901283264160e-01 4.759899526834487915e-02 -1.016877815127372742e-01 -5.295985564589500427e-02 -1.024861335754394531e-01 -1.977763138711452484e-02 1.429442018270492554e-01 -1.424866318702697754e-01 8.416446298360824585e-02 -8.955431729555130005e-02 1.032869145274162292e-01 3.466537967324256897e-02 5.513907596468925476e-02 -2.294694446027278900e-02 7.035053800791501999e-03 -1.036039814352989197e-01 7.819603383541107178e-02 -9.875936061143875122e-02 -7.948166877031326294e-02 8.282279595732688904e-03 -1.300407648086547852e-01 6.361536681652069092e-03 -7.098077982664108276e-02 -2.416543290019035339e-02 -1.662569306790828705e-02 4.675566405057907104e-02 -4.049892351031303406e-02 1.225166320800781250e-01 1.339414864778518677e-01 -6.951200217008590698e-02 -5.175392702221870422e-02 1.478991564363241196e-02 -1.207743864506483078e-02 7.607766985893249512e-02 -7.763143163174390793e-03 1.020140796899795532e-01 9.812613576650619507e-02 -3.523469343781471252e-02 1.153876334428787231e-01 8.803506940603256226e-02 -1.733607500791549683e-01 4.637877643108367920e-02 -6.450202316045761108e-02 7.835018634796142578e-02 1.087658405303955078e-01 6.831622868776321411e-02 8.808998018503189087e-02 3.852330148220062256e-02 1.188226118683815002e-01 1.756698787212371826e-01 8.149185776710510254e-02 1.958671957254409790e-01 -8.792050927877426147e-02 -3.122404776513576508e-02 1.703666448593139648e-01 3.219783771783113480e-03 -1.483973711729049683e-01 -7.561734318733215332e-02 1.148232594132423401e-01 5.877227336168289185e-02 -1.015231572091579437e-02 -3.908086940646171570e-02 -1.287172897718846798e-03 -5.779964849352836609e-04 -1.991027146577835083e-01 4.301703348755836487e-02 1.237394437193870544e-01 -1.332448422908782959e-01 -1.336878538131713867e-01 -1.520068049430847168e-01 1.708548069000244141e-01 -9.851793199777603149e-02 -3.279178962111473083e-02 -1.022376120090484619e-02 3.122712671756744385e-02 -8.923612534999847412e-02 -1.509604323655366898e-02 -4.656660184264183044e-02 3.158064186573028564e-02 -2.381276898086071014e-02 -8.798841387033462524e-02 -7.942944020032882690e-02 -2.582542411983013153e-02 -1.552876929054036736e-04 1.015627011656761169e-02 7.465451490134000778e-03 6.736805289983749390e-02 1.048075184226036072e-01 -1.017882376909255981e-01 1.009262576699256897e-01 9.043029509484767914e-03 4.011146351695060730e-02 9.091438353061676025e-02 -2.970345132052898407e-02 -3.263021260499954224e-02 1.021589413285255432e-01 1.164516955614089966e-01 1.093293633311986923e-02 -3.147897496819496155e-02 2.734430134296417236e-02 1.050498858094215393e-01 1.909246593713760376e-01 2.931174449622631073e-02 -1.404302418231964111e-01 -6.322705186903476715e-03 3.680216893553733826e-02 6.272231787443161011e-02 -3.207448124885559082e-02 -9.609242528676986694e-02 6.132153421640396118e-02 -3.961418196558952332e-02 1.073033139109611511e-01 8.901662379503250122e-02 1.052126660943031311e-01 2.527281455695629120e-02 4.326100647449493408e-02 7.673063874244689941e-02 1.482986062765121460e-01 -1.443143635988235474e-01 -1.759085655212402344e-01 -9.162139892578125000e-02 -8.923759311437606812e-02 -1.122125890105962753e-02 5.752473697066307068e-02 -2.240552008152008057e-02 6.115102395415306091e-02 -1.450665444135665894e-01 7.493389397859573364e-02 9.882038086652755737e-02 -1.269045751541852951e-02 -8.199942111968994141e-02 1.061904355883598328e-01 8.550836890935897827e-02 -1.405885815620422363e-01 5.551967769861221313e-02 -8.313363790512084961e-02 -8.406579494476318359e-02 1.910626888275146484e-02 -2.039942145347595215e-02 1.403711736202239990e-01 1.797473989427089691e-02 8.653858304023742676e-02 -2.132987603545188904e-03 -1.359123438596725464e-01 8.218164741992950439e-02 -5.405432078987360001e-03 -1.281244214624166489e-03 1.367536485195159912e-01 1.624993532896041870e-01 3.962839394807815552e-02 -9.610026329755783081e-02 1.097153574228286743e-01 6.584881246089935303e-02 9.094729274511337280e-02 6.120033189654350281e-02 1.627974361181259155e-01 -4.819081723690032959e-02 -7.763575017452239990e-02 1.238081976771354675e-02 4.071110486984252930e-02 -1.491007357835769653e-01 -1.207584980875253677e-02 1.078315302729606628e-01 1.275385618209838867e-01 -1.933775395154953003e-01 -4.353503137826919556e-02 3.153877332806587219e-02 -1.042315363883972168e-01 1.185730695724487305e-01 -7.319769263267517090e-02 1.720472052693367004e-02 4.938931390643119812e-02 -6.014561653137207031e-02 -1.704071834683418274e-02 -3.426361829042434692e-02 3.104861453175544739e-02 1.087761577218770981e-02 -1.959994249045848846e-02 1.049198508262634277e-01 2.608487568795681000e-02 7.482882589101791382e-03 -3.419379517436027527e-02 2.663025632500648499e-02 4.950320348143577576e-02 -1.808166056871414185e-01 -3.411496430635452271e-02 1.303962320089340210e-01 1.255504339933395386e-01 -6.525747012346982956e-03 8.822695910930633545e-02 -1.454320251941680908e-01 7.100289221853017807e-03 4.269659519195556641e-02 -6.940002087503671646e-03 6.046890094876289368e-02 -7.687702775001525879e-02 -1.268493980169296265e-01 -5.051825568079948425e-02 9.913232177495956421e-02 -7.254543155431747437e-02 -7.940052449703216553e-02 -1.390863060951232910e-01 -1.013117562979459763e-02 1.362160891294479370e-01 1.548569649457931519e-01 -6.564503908157348633e-02 1.497850404120981693e-03 -1.081122383475303650e-01 -1.818306744098663330e-01 1.662524044513702393e-01 -1.187185421586036682e-01 3.118144907057285309e-02 5.267715081572532654e-02 -1.222379729151725769e-01 -6.788699328899383545e-02 -6.597183179110288620e-03 4.851282574236392975e-03 -4.173843935132026672e-02 -7.504852116107940674e-02 -5.477234348654747009e-02 -1.009790226817131042e-01 -6.926795840263366699e-02 -2.589639090001583099e-02 -1.629820913076400757e-01 -1.424525678157806396e-01 1.377685815095901489e-01 -1.404482871294021606e-01 -6.896636635065078735e-02 -7.465465366840362549e-02 9.068331867456436157e-02 6.183334812521934509e-02 -7.205199450254440308e-02 -7.606527209281921387e-02 -4.653755947947502136e-02 -5.353204160928726196e-02 8.712257444858551025e-02 -1.587081551551818848e-01 6.200172379612922668e-02 3.634264692664146423e-02 6.856747204437851906e-04 -4.810485243797302246e-02 -1.121118199080228806e-02 -5.025692284107208252e-03 -3.894906118512153625e-02 1.216552406549453735e-02 8.239083737134933472e-02 -3.761410340666770935e-02 -1.416233479976654053e-01 -3.825257346034049988e-02 -1.055913716554641724e-01 -8.086109161376953125e-02 -4.318227060139179230e-03 -1.663186401128768921e-01 7.129926234483718872e-02 1.430711299180984497e-01 -1.038806438446044922e-01 -2.215493284165859222e-02 -9.476550668478012085e-02 7.576762139797210693e-02 4.065688326954841614e-02 -4.063479974865913391e-02 -2.108426205813884735e-02 -9.916029870510101318e-02 -4.233239218592643738e-02 -3.727710340172052383e-03 -7.152513414621353149e-02 2.040731348097324371e-02 1.778406053781509399e-01 -2.329882234334945679e-02 1.114095672965049744e-01 2.103097038343548775e-03 -4.963472485542297363e-02 1.765837222337722778e-01 -4.959185048937797546e-02 -2.845075167715549469e-02 -3.525851294398307800e-02 1.372463703155517578e-01 8.399990946054458618e-02 8.019665628671646118e-02 -1.929790526628494263e-01 -2.359127812087535858e-02 -8.106239885091781616e-02 1.389269530773162842e-01 -6.583680957555770874e-02 4.994420707225799561e-02 -7.466633804142475128e-03 4.465807974338531494e-02 4.700290039181709290e-02 -3.016914427280426025e-02 -6.009700894355773926e-02 -3.338794410228729248e-02 1.452781260013580322e-02 -4.342916235327720642e-02 4.296816419810056686e-03 -9.912887588143348694e-03 3.105041757225990295e-02 1.430909242480993271e-02 7.708531618118286133e-02 3.852294012904167175e-02 -3.947738930583000183e-02 1.192624196410179138e-01 2.775915339589118958e-02 -6.581056863069534302e-02 -6.229510903358459473e-02 9.460696019232273102e-03 -1.743449643254280090e-02
