-8.287346363067626953e-02,-1.064578071236610413e-01,-1.086369380354881287e-01,1.002193777821958065e-03,9.911166876554489136e-02,-2.211695909500122070e-02,-1.043407339602708817e-02,1.833136379718780518e-02,-7.482035458087921143e-02,4.787937924265861511e-02,1.399577856063842773e-01,9.542617946863174438e-02,7.755533605813980103e-02,5.672214180231094360e-02,-1.306271404027938843e-01,4.051444120705127716e-03,-1.411640197038650513e-01,6.514880061149597168e-02,1.163122653961181641e-01,4.668740928173065186e-02,-2.625577151775360107e-03,2.389386855065822601e-02,-4.625955596566200256e-02,-1.995231807231903076e-01,1.733638904988765717e-02,-1.106163486838340759e-01,-3.680594731122255325e-03,-1.664119213819503784e-02,-6.185877323150634766e-02,-5.934330448508262634e-02,-5.048454925417900085e-02,-6.214223429560661316e-02,-9.677912294864654541e-02,-1.283873021602630615e-01,4.968652036041021347e-03,-5.877323821187019348e-02,6.846293061971664429e-02,5.850698426365852356e-02,-1.964566707611083984e-01,5.780708789825439453e-02,1.991546750068664551e-01,-1.753590703010559082e-01,-1.686459928750991821e-01,3.850125148892402649e-02,-9.975223988294601440e-02,5.949928238987922668e-02,-1.275883764028549194e-01,-1.675045192241668701e-01,-1.099404841661453247e-01,-1.977265775203704834e-01,-2.491623349487781525e-02,-1.322855353355407715e-01,-2.737477980554103851e-02,-7.806298136711120605e-02,5.901036318391561508e-03,-1.588712185621261597e-01,2.001777850091457367e-02,7.119227945804595947e-02,2.006704732775688171e-02,8.054225891828536987e-02,6.511127203702926636e-02,-9.501062333583831787e-02,-9.337169118225574493e-03,7.166623603552579880e-03,1.297153085470199585e-01,7.148545235395431519e-02,1.219407841563224792e-01,-7.613305747509002686e-02,3.015183843672275543e-02,6.061293557286262512e-02,2.724518440663814545e-02,1.790396571159362793e-01,-1.232355982065200806e-01,-9.841482155025005341e-03,1.619715541601181030e-01,-1.150739789009094238e-01,-1.690481007099151611e-01,-1.052135005593299866e-01,-9.698911756277084351e-02,1.055698543787002563e-01,-3.662300482392311096e-02,-6.476940959692001343e-02,-7.948742806911468506e-02,-1.954101175069808960e-01,-3.763397783041000366e-02,-1.372268646955490112e-01,-3.253927454352378845e-02,1.239215508103370667e-01,-1.550438906997442245e-02,-2.890309551730751991e-03,-3.131857083644717932e-04,-5.865949392318725586e-02,-1.197526827454566956e-01,1.424994021654129028e-01,4.127178669932618504e-07,-3.056617639958858490e-02,1.438148226588964462e-02,1.025466322898864746e-01,-1.628117822110652924e-02,8.009134978055953979e-02,-5.250903591513633728e-02,-9.611134976148605347e-02,1.694520413875579834e-01,4.559828341007232666e-02,-1.633103042840957642e-01,9.375181049108505249e-02,-3.874956816434860229e-02,-1.651210710406303406e-02,9.589885920286178589e-02,4.645262286067008972e-02,-1.721929013729095459e-01,1.352396309375762939e-01,2.102726697921752930e-02,1.040668711066246033e-01,-1.255843043327331543e-01,2.885357849299907684e-02,-7.817482203245162964e-02,4.792674630880355835e-02,-1.086074858903884888e-01,-2.777801593765616417e-03,7.853562384843826294e-02,1.768767647445201874e-02,9.136883169412612915e-02,-3.693258762359619141e-02,7.029721140861511230e-02,1.907729916274547577e-02,7.588972896337509155e-02,1.762079298496246338e-01,1.926515996456146240e-02,-4.290742333978414536e-03,-9.653304517269134521e-02,-6.542807072401046753e-02,-3.822839632630348206e-02,8.481150120496749878e-02,1.032760366797447205e-01,3.704571723937988281e-02,-1.613482236862182617e-01,-1.162867471575737000e-01,1.047030240297317505e-01,9.074807167053222656e-02,8.646606653928756714e-02,9.283436834812164307e-02,1.005189940333366394e-01,5.296676978468894958e-02,-3.208757936954498291e-02,1.659050732851028442e-01,7.681279629468917847e-02,-9.092706441879272461e-02,-6.646318733692169189e-02,6.730137020349502563e-02,-1.032972335815429688e-01,-1.075507327914237976e-02,8.643127977848052979e-02,-1.714094430208206177e-01,2.270578779280185699e-02,-4.844809696078300476e-02,-3.369271382689476013e-02,1.749929971992969513e-02,-3.588064387440681458e-02,-4.725789651274681091e-02,-1.010151654481887817e-01,1.312777101993560791e-01,1.042369157075881958e-01,-1.749801449477672577e-02,5.206134542822837830e-02,4.114041477441787720e-02,-4.900814220309257507e-02,1.430353671312332153e-01,9.189233928918838501e-02,1.157930865883827209e-01,-1.476947963237762451e-01,3.300587460398674011e-02,-6.145254522562026978e-02,1.570319980382919312e-01,6.763014942407608032e-02,-1.042722817510366440e-02,5.841697566211223602e-03,3.864296898245811462e-02,-1.252166479825973511e-01,1.125532295554876328e-02,9.329558908939361572e-02,-2.445268444716930389e-02,-8.536639064550399780e-02,-1.482292544096708298e-02,9.669980406761169434e-02,1.686839014291763306e-02,8.742152899503707886e-02,-1.095011457800865173e-01,-4.019586741924285889e-02,1.023512855172157288e-01,1.400019377470016479e-01,-5.370255187153816223e-02,5.801801010966300964e-02,-1.141607537865638733e-01,4.484732169657945633e-03,-1.574968360364437103e-02,-4.478175565600395203e-02,-1.054695155471563339e-02,1.082335039973258972e-01,-1.090973764657974243e-01,-7.650139182806015015e-02,2.945178560912609100e-02,-4.743327572941780090e-02,6.065083295106887817e-02,-4.588421061635017395e-02,1.823431253433227539e-01,1.640334539115428925e-02,-6.405034661293029785e-02,1.195310503244400024e-01,1.372417360544204712e-01,8.511768281459808350e-02,7.610767334699630737e-02,8.466071635484695435e-02,-6.847684830427169800e-02,1.232896279543638229e-02,3.769331052899360657e-02,-1.048275157809257507e-01,9.901114739477634430e-03,1.639666967093944550e-02,1.312571614980697632e-01,-9.529320895671844482e-02,6.273116171360015869e-02,-7.425919175148010254e-02,3.827027603983879089e-02,-1.416169404983520508e-01,-1.509716385044157505e-03,-2.686722902581095695e-03,3.770874068140983582e-02,-5.156570300459861755e-02,-4.799386020749807358e-03,2.507501840591430664e-02,-8.431499451398849487e-02,3.501492738723754883e-02,5.188539251685142517e-02,-6.291227042675018311e-02,4.157626256346702576e-02,1.556448936462402344e-01,-7.851797342300415039e-02,-7.246666401624679565e-02,-2.161293476819992065e-02,2.200018428266048431e-02,-9.079026989638805389e-03,1.649683564901351929e-01,5.005447193980216980e-02,-1.090651974081993103e-01,3.901142999529838562e-02,-4.679463431239128113e-02,-1.895695179700851440e-01,-9.638259187340736389e-03,-3.780087456107139587e-03,-5.953922495245933533e-02,-9.471978247165679932e-02,-8.520358055830001831e-02,3.813363239169120789e-02,-2.871076762676239014e-02,1.145929023623466492e-01,-6.481119245290756226e-02,1.832661926746368408e-01,-1.336174458265304565e-01,-1.059182211756706238e-01,1.392668932676315308e-01,1.852092295885086060e-01,-9.882827103137969971e-02,-9.274240583181381226e-02,1.349522918462753296e-01,-1.430873721837997437e-01,1.111702844500541687e-01,-2.346177957952022552e-02,-3.383557125926017761e-02,-1.363924611359834671e-02,6.776330620050430298e-02,4.915047809481620789e-02,9.675251692533493042e-02,-2.123330906033515930e-02,-1.258027739822864532e-02,2.075915038585662842e-02,-1.207188740372657776e-01,8.174346387386322021e-02,5.775892641395330429e-03,-1.294529158622026443e-02,-5.257198214530944824e-02,-2.901227213442325592e-02,2.333798818290233612e-02,-5.892276763916015625e-02,7.043119519948959351e-02,-9.945332258939743042e-02,-9.816114604473114014e-02,-5.778463091701269150e-03,-1.775674223899841309e-01,7.364671677350997925e-02,7.146074622869491577e-02,6.089586764574050903e-02,3.830374404788017273e-02,-9.631948545575141907e-03,1.027344986796379089e-01,1.493871361017227173e-01,-1.019737347960472107e-01,5.559082608669996262e-03,-3.340744599699974060e-02,8.307876437902450562e-02,9.739537537097930908e-02,-4.245139285922050476e-02,1.001789495348930359e-01,8.110449463129043579e-02,-6.827006489038467407e-02,-2.972354367375373840e-02,-3.036014549434185028e-02,6.884311884641647339e-02,1.051766276359558105e-01,1.693646758794784546e-01,-6.878232955932617188e-02,6.693663448095321655e-02,7.159616798162460327e-02,1.054678931832313538e-01,1.094870939850807190e-01,7.587440311908721924e-02,5.148116871714591980e-02,-3.334337100386619568e-02,7.560816407203674316e-02,6.961406767368316650e-02,-2.844218350946903229e-02,-1.675255149602890015e-01,-3.754675015807151794e-02,-1.271851211786270142e-01,-1.626796834170818329e-02,1.172565594315528870e-01,-1.080235615372657776e-01,-1.520132869482040405e-01,-1.324925851076841354e-02,-9.560927003622055054e-02,7.469217479228973389e-02,-1.315656751394271851e-01,3.869562223553657532e-02,5.867097526788711548e-02,-3.238100558519363403e-02,1.586128473281860352e-01,1.445531696081161499e-01,1.328046321868896484e-01,4.845236835535615683e-04,-2.527080290019512177e-02,7.515030354261398315e-02,4.359290376305580139e-02,8.239648304879665375e-03,7.256586849689483643e-02,2.202058909460902214e-03,-1.319309175014495850e-01,1.548393070697784424e-01,-1.908134371042251587e-01,-1.981223188340663910e-02,5.312306340783834457e-03,5.889755487442016602e-02,1.989670842885971069e-02,1.148199662566184998e-01,-8.845745772123336792e-02,-9.360858239233493805e-03,-1.347493529319763184e-01,4.649898782372474670e-02,4.943084344267845154e-02,2.777453139424324036e-02,-6.876295059919357300e-02,-1.140688806772232056e-01,3.368460340425372124e-03,-1.332766264677047729e-01,2.501786686480045319e-02,5.745249986648559570e-02,-5.892096087336540222e-02,1.132680755108594894e-02,1.642449945211410522e-01,8.222141116857528687e-02,4.109749570488929749e-02,2.330701984465122223e-02,9.208697825670242310e-02,-1.584069104865193367e-04,9.180345386266708374e-02,9.982750751078128815e-03,6.583693623542785645e-02,3.399324044585227966e-02,8.505711704492568970e-02,-6.569987535476684570e-02,1.258252710103988647e-01,-1.995372585952281952e-02,2.468311227858066559e-02,1.378482431173324585e-01,-1.268414855003356934e-01,1.642774790525436401e-01,4.166967049241065979e-02,1.352876126766204834e-01,-4.427997767925262451e-02,1.439099758863449097e-01,-4.130017384886741638e-02,-1.275546755641698837e-02,3.846990689635276794e-02,-3.570884093642234802e-02,3.604203835129737854e-02,1.271293014287948608e-01,-6.315540522336959839e-02,-5.688131973147392273e-02,7.820003479719161987e-02,2.383120916783809662e-02,6.928689777851104736e-02,9.241833537817001343e-02,-6.347595900297164917e-02,4.840552434325218201e-02,-1.418509613722562790e-02,9.290357679128646851e-02,-1.378443986177444458e-01,7.107517216354608536e-03,-1.317612975835800171e-01,1.373190432786941528e-01,-5.973096471279859543e-03,6.153404247015714645e-03,8.709843456745147705e-02,1.712474077939987183e-01,-1.708282083272933960e-01,3.307922510430216789e-03,8.213131874799728394e-02,-2.552196942269802094e-02,3.541852161288261414e-02,-2.850371971726417542e-02,-4.259193688631057739e-02,-3.877725452184677124e-02,-1.139079332351684570e-01,-5.850305035710334778e-02,-8.169708400964736938e-02,-6.175799295306205750e-02,1.581335067749023438e-01,-1.107442006468772888e-02,1.821600347757339478e-01,3.519921377301216125e-02,-3.617320209741592407e-02,-5.740275979042053223e-02,-2.230459824204444885e-02,8.016581647098064423e-03,6.616263836622238159e-02,-5.393030121922492981e-02,-3.685373067855834961e-02,-5.715640261769294739e-02,-3.700561448931694031e-02,9.449435770511627197e-02,8.005432039499282837e-02,8.495409972965717316e-03,1.486264765262603760e-01,-8.823698014020919800e-02,2.058777958154678345e-02,1.676800698041915894e-01,-2.713961899280548096e-02,4.871536046266555786e-02,-1.186440582387149334e-03,-6.120509654283523560e-02,2.157889073714613914e-03,-8.684052526950836182e-02,-1.445468422025442123e-02,2.300766110420227051e-02,9.170978516340255737e-02,5.821102485060691833e-02,-5.142997577786445618e-02,1.215723808854818344e-02,2.866475842893123627e-02,-1.071614399552345276e-02,4.034988954663276672e-02,9.929949045181274414e-02,-1.494598984718322754e-01,-1.851900070905685425e-01,1.416891664266586304e-01,1.103366166353225708e-01,5.966401845216751099e-02,1.983349025249481201e-02,6.203469261527061462e-02,-1.098732128739356995e-01,4.612590000033378601e-02,1.075577959418296814e-01,-4.417483881115913391e-02,-2.821202576160430908e-02,-7.434013485908508301e-02,-3.308194503188133240e-02,9.228834882378578186e-03,9.392128325998783112e-03,3.614011034369468689e-02,1.373139023780822754e-01,8.216605521738529205e-03,-9.445922076702117920e-02,-6.927753984928131104e-02,-1.181104779243469238e-01,8.789850026369094849e-02,-1.048179045319557190e-01,-1.627716422080993652e-02,-1.248762235045433044e-01,3.245342150330543518e-02,1.138321533799171448e-01,-6.873327493667602539e-02,1.530442237854003906e-01,-1.042430773377418518e-01,-1.499152183532714844e-01,9.789850562810897827e-02,4.741740971803665161e-02,7.056576199829578400e-03,1.264100521802902222e-01,1.235569268465042114e-01,-1.159529685974121094e-01,-1.422579437494277954e-01,1.988554373383522034e-02,-1.880830973386764526e-01,-7.660733163356781006e-02,-1.129628196358680725e-01,6.573736667633056641e-02,1.293288767337799072e-01,2.801270224153995514e-02,-3.249379619956016541e-02,1.392691731452941895e-01,-9.814045391976833344e-03,-7.975276559591293335e-02,6.990201771259307861e-02
-2.402789704501628876e-02,-1.339245587587356567e-02,-6.425556540489196777e-02,8.789113722741603851e-03,1.034618914127349854e-02,1.122268103063106537e-02,9.360951185226440430e-02,1.651570647954940796e-01,-9.313005208969116211e-02,9.889634698629379272e-02,-1.043903827667236328e-01,-7.238464057445526123e-02,-1.558437794446945190e-01,-2.251075021922588348e-02,5.897113680839538574e-02,9.867814928293228149e-02,-1.318398416042327881e-01,1.646220088005065918e-01,1.100542917847633362e-01,1.310859173536300659e-01,-1.024549752473831177e-01,1.022687777876853943e-01,1.670704782009124756e-01,-2.099062316119670868e-03,-2.899158559739589691e-02,-4.036488756537437439e-02,2.241536974906921387e-02,3.645984828472137451e-02,1.112310811877250671e-01,3.630137443542480469e-02,5.005506426095962524e-02,-9.712786227464675903e-02,8.195264637470245361e-02,-1.599630154669284821e-02,1.846775040030479431e-02,1.796695291996002197e-01,6.295047700405120850e-02,5.231300741434097290e-02,-6.853828579187393188e-02,4.472146928310394287e-02,8.110427111387252808e-02,-2.153190784156322479e-02,1.105118077248334885e-02,1.626626588404178619e-02,6.829225271940231323e-02,-1.175437122583389282e-02,-3.463242901489138603e-03,-9.389751404523849487e-02,-1.758744381368160248e-02,1.936956867575645447e-02,-2.722210250794887543e-02,-9.464336931705474854e-02,-3.537188470363616943e-02,1.478020548820495605e-01,-1.886419602669775486e-03,1.804222539067268372e-02,9.313606470823287964e-02,1.271152347326278687e-01,1.389587670564651489e-01,1.171022802591323853e-01,6.094930320978164673e-02,-2.610068581998348236e-02,9.440001845359802246e-02,-6.890963017940521240e-02,1.056114956736564636e-01,1.403222233057022095e-01,-5.025947839021682739e-02,-1.348148584365844727e-01,4.293081816285848618e-03,2.721273340284824371e-02,-9.729628451168537140e-03,1.788406223058700562e-01,-4.575111716985702515e-02,-2.137678675353527069e-02,-4.188662394881248474e-02,1.027682423591613770e-01,9.157755225896835327e-02,-5.351145938038825989e-02,-1.436018943786621094e-02,1.070673242211341858e-01,7.688793540000915527e-02,-2.259151451289653778e-02,-1.568282954394817352e-02,-1.682521775364875793e-02,2.779019251465797424e-02,-8.828692883253097534e-02,1.786648035049438477e-01,2.353329025208950043e-02,-1.880549043416976929e-01,-1.188334599137306213e-01,2.945162728428840637e-02,2.396577969193458557e-02,-1.102985963225364685e-01,8.691425621509552002e-02,1.972768157720565796e-01,-6.073011536500416696e-05,-3.419193997979164124e-02,-2.962609566748142242e-02,1.030813977122306824e-01,-1.127540618181228638e-01,1.016612816601991653e-02,-1.318037956953048706e-01,7.605195790529251099e-02,4.505594819784164429e-02,6.718346476554870605e-02,-5.706229433417320251e-02,3.206251561641693115e-02,2.573773078620433807e-02,-1.016849502921104431e-01,-9.917328506708145142e-02,4.455961287021636963e-02,-1.060699597001075745e-01,6.044196709990501404e-02,-3.978451713919639587e-02,1.420492529869079590e-01,4.112166911363601685e-02,1.228684908710420132e-03,-1.099277734756469727e-01,-8.629498630762100220e-02,-4.513856396079063416e-02,-8.231335133314132690e-02,-1.007929444313049316e-01,6.033336278051137924e-03,4.827488958835601807e-02,1.802035123109817505e-01,-2.023126743733882904e-02,1.387456338852643967e-02,-1.679842323064804077e-01,1.207949519157409668e-01,-1.805639266967773438e-01,-9.993532299995422363e-02,-1.829219460487365723e-01,1.851179152727127075e-01,-1.620237343013286591e-02,-7.283194363117218018e-02,-7.736062258481979370e-02,-1.267604297026991844e-03,-6.826253980398178101e-02,1.091456562280654907e-01,8.011262118816375732e-02,-7.680194824934005737e-02,6.808050721883773804e-02,1.858363114297389984e-02,1.432351320981979370e-01,-1.079849749803543091e-01,1.147600337862968445e-01,-3.102588653564453125e-02,5.410801246762275696e-02,-2.691229991614818573e-02,4.212106764316558838e-02,-6.172996759414672852e-02,3.518025204539299011e-02,-4.449903499335050583e-03,-1.894357353448867798e-01,-3.172239288687705994e-02,1.856640540063381195e-02,9.736398607492446899e-02,1.362523883581161499e-01,3.892759606242179871e-02,1.588011980056762695e-01,1.215280517935752869e-01,5.085433647036552429e-02,3.787785023450851440e-02,-7.923930138349533081e-02,-2.391606383025646210e-02,2.493817918002605438e-02,-1.794376224279403687e-01,-1.226292476058006287e-01,-1.699522584676742554e-01,1.826213300228118896e-02,5.699262768030166626e-02,4.919420182704925537e-02,1.754935383796691895e-01,7.358604110777378082e-03,7.033123821020126343e-02,-1.433967053890228271e-01,6.492992490530014038e-02,-7.650501281023025513e-02,-1.635681837797164917e-02,-1.665802448987960815e-01,1.055859252810478210e-01,-1.205275580286979675e-02,-3.378222137689590454e-02,7.154162507504224777e-03,-1.113439351320266724e-02,3.643032535910606384e-02,7.451521605253219604e-02,6.546318531036376953e-03,2.694115415215492249e-02,-6.936233490705490112e-02,-1.506676673889160156e-01,-1.109578609466552734e-01,-1.424932926893234253e-01,-7.474251836538314819e-02,2.146801911294460297e-02,-3.957670181989669800e-02,-6.826268136501312256e-02,8.198984712362289429e-02,2.645212411880493164e-02,8.271995186805725098e-02,1.199074387550354004e-01,9.061532467603683472e-02,1.031682267785072327e-02,5.033287033438682556e-02,1.936968415975570679e-02,-2.245507761836051941e-02,1.483181565999984741e-01,9.117193520069122314e-02,-1.215490028262138367e-01,-3.211421519517898560e-02,-4.377866908907890320e-02,-1.848585903644561768e-02,-1.070429757237434387e-02,9.142122417688369751e-02,5.393589660525321960e-02,-5.077857896685600281e-02,9.082681685686111450e-02,-9.196111001074314117e-03,4.258749261498451233e-02,-1.531299054622650146e-01,8.419242501258850098e-02,-2.745590545237064362e-02,2.246045880019664764e-02,3.327021549921482801e-04,-8.664027787744998932e-03,1.137142330408096313e-01,5.098333954811096191e-02,2.572852931916713715e-02,3.271440044045448303e-02,4.961572214961051941e-02,2.272119373083114624e-02,-7.950406521558761597e-02,-4.927717521786689758e-02,-1.306876838207244873e-01,8.711642771959304810e-02,-1.117344480007886887e-02,-1.547976583242416382e-01,-1.191815510392189026e-01,1.599263697862625122e-01,1.874813251197338104e-02,3.793653845787048340e-02,2.496856264770030975e-02,-4.612614866346120834e-03,-1.572703570127487183e-01,-5.765857174992561340e-02,-1.421826332807540894e-01,8.593811839818954468e-02,1.349282800219953060e-03,7.228194153867661953e-04,1.422703117132186890e-01,3.282835334539413452e-02,2.074515260756015778e-02,7.398225367069244385e-02,9.915629401803016663e-03,-4.119295999407768250e-02,1.695826277136802673e-02,-9.212467074394226074e-02,-9.228929877281188965e-02,6.612899899482727051e-02,-9.942188113927841187e-02,-1.081170588731765747e-01,3.077691886574029922e-03,1.028177328407764435e-02,1.082713007926940918e-01,6.067653372883796692e-02,1.730989664793014526e-01,3.658780083060264587e-02,8.979753591120243073e-03,5.308950692415237427e-02,1.035781130194664001e-01,-5.703283473849296570e-02,2.499823458492755890e-02,4.337593447417020798e-03,-1.169150136411190033e-02,-1.302638947963714600e-01,-1.908317208290100098e-02,5.198029102757573128e-04,-3.518116194754838943e-03,-1.031758561730384827e-01,-1.108602210879325867e-01,-8.454654365777969360e-02,-4.274391382932662964e-02,6.571200489997863770e-02,-4.737957846373319626e-03,-1.963241770863533020e-02,1.569711975753307343e-02,8.378203026950359344e-03,7.243975251913070679e-02,-9.146814793348312378e-02,7.168948650360107422e-02,1.158664599061012268e-01,7.000479102134704590e-02,-9.470859915018081665e-02,3.164437785744667053e-02,7.888808846473693848e-02,6.773798912763595581e-02,1.323071774095296860e-02,1.140677332878112793e-01,6.521982699632644653e-02,-1.511685401201248169e-01,-7.761535793542861938e-02,5.137722566723823547e-02,8.554667234420776367e-03,-8.159167319536209106e-02,-3.096961788833141327e-02,-3.435407578945159912e-02,-2.449438348412513733e-02,1.332623064517974854e-01,-6.464784592390060425e-02,-9.998658299446105957e-02,2.295620180666446686e-02,-1.116321235895156860e-02,-3.378145024180412292e-02,-1.076321005821228027e-01,9.002583473920822144e-02,-1.206043362617492676e-01,8.139896392822265625e-02,-6.002213433384895325e-02,2.058220282196998596e-02,7.592850923538208008e-02,-4.211435467004776001e-02,2.536498568952083588e-02,1.332952231168746948e-01,7.772703468799591064e-02,7.729574292898178101e-02,1.156235113739967346e-01,-1.518471725285053253e-02,1.598771661520004272e-01,1.332256197929382324e-01,-5.272993072867393494e-02,-1.737916618585586548e-01,1.055017858743667603e-01,-2.285744808614253998e-02,1.154093667864799500e-01,6.304796040058135986e-02,6.297656893730163574e-02,1.375361084938049316e-01,4.798995330929756165e-02,-8.579894900321960449e-02,1.315668821334838867e-01,-5.348528549075126648e-02,-1.153501644730567932e-01,1.207279693335294724e-02,-5.830881744623184204e-02,-2.333140373229980469e-02,1.744857281446456909e-01,-1.323274224996566772e-01,2.758000744506716728e-03,-8.050151914358139038e-02,1.822777651250362396e-02,6.972777843475341797e-02,-7.427851855754852295e-02,9.138052165508270264e-02,1.637374460697174072e-01,-1.201624274253845215e-01,-9.295325726270675659e-02,-3.345291316509246826e-02,2.418538741767406464e-02,5.746031925082206726e-02,-3.626453503966331482e-02,7.281711697578430176e-02,4.208221286535263062e-02,-1.792205721139907837e-01,-1.030683144927024841e-01,9.033047407865524292e-02,9.364470839500427246e-02,1.024961099028587341e-01,5.181748420000076294e-02,-1.356924623250961304e-01,-2.531035616993904114e-02,-1.772486418485641479e-01,-1.379859745502471924e-01,-1.114477068185806274e-01,1.043665930628776550e-01,-1.147067174315452576e-01,7.936042547225952148e-02,-1.400965899229049683e-01,1.502373814582824707e-01,-5.485768243670463562e-02,-6.541658937931060791e-02,-9.907189011573791504e-02,8.836729452013969421e-03,6.540294736623764038e-02,6.971400231122970581e-02,5.002605915069580078e-02,-5.102469399571418762e-02,1.855741590261459351e-01,-1.107310205698013306e-01,1.234852895140647888e-01,-8.139019459486007690e-02,4.247117787599563599e-02,1.336523448117077351e-03,-1.852334886789321899e-01,1.486732214689254761e-01,8.485616184771060944e-03,-2.534639276564121246e-02,5.102145485579967499e-03,-1.345614492893218994e-01,-6.084377691149711609e-02,2.043453790247440338e-02,-1.969444453716278076e-01,-2.893402986228466034e-02,8.619677275419235229e-02,1.166136190295219421e-02,-7.788357138633728027e-02,8.874894678592681885e-02,4.377523809671401978e-02,-6.131454184651374817e-02,3.857326507568359375e-02,2.886436320841312408e-02,-5.052986741065979004e-02,1.324564367532730103e-01,-6.852930877357721329e-03,4.434805735945701599e-02,8.301004022359848022e-02,1.887843459844589233e-01,-1.741150394082069397e-02,-3.838957985863089561e-03,1.777122020721435547e-01,1.873298585414886475e-01,1.081234961748123169e-01,-1.433420032262802124e-01,-1.125363856554031372e-01,-8.838244527578353882e-02,-6.471048295497894287e-02,-1.008105799555778503e-01,-2.748313918709754944e-02,1.197827458381652832e-01,-1.735977977514266968e-01,-7.191890478134155273e-02,1.235951930284500122e-01,-8.365697413682937622e-02,-1.259260177612304688e-01,1.005622744560241699e-01,-8.873100392520427704e-03,-1.575851142406463623e-01,-1.690563261508941650e-01,1.245822906494140625e-01,1.549812108278274536e-01,1.096697896718978882e-02,-1.495566070079803467e-01,1.331643015146255493e-02,-3.744912892580032349e-02,4.513005912303924561e-02,3.029193356633186340e-02,-3.449010103940963745e-02,-5.079507455229759216e-02,2.208466082811355591e-02,6.849530339241027832e-02,1.190533190965652466e-01,-3.338723629713058472e-02,-4.775261506438255310e-02,-8.891143836081027985e-03,6.225773692131042480e-02,-6.498312205076217651e-02,5.695983767509460449e-02,-1.305152010172605515e-02,-8.913218043744564056e-03,1.905126422643661499e-01,-2.285584807395935059e-02,2.186672203242778778e-02,5.513026937842369080e-02,6.576143950223922729e-02,-1.882070489227771759e-02,2.576880715787410736e-02,-1.780989468097686768e-01,8.862936496734619141e-02,3.244277834892272949e-02,1.293808072805404663e-01,6.254481524229049683e-02,-6.689149141311645508e-02,-4.961931705474853516e-02,6.611121445894241333e-02,-2.724995650351047516e-02,1.220561638474464417e-01,1.031381040811538696e-01,1.562103033065795898e-01,1.097213774919509888e-01,5.543284490704536438e-02,-6.478564441204071045e-02,-7.986390590667724609e-02,-1.292047351598739624e-01,1.318044513463973999e-01,-4.903398454189300537e-02,-2.703383378684520721e-02,-6.123504787683486938e-02,-2.052670530974864960e-02,2.307267859578132629e-02,2.250417694449424744e-02,-4.239911213517189026e-02,-8.801344782114028931e-02,5.826103966683149338e-03,1.540265530347824097e-01,6.953579187393188477e-02,-3.315511718392372131e-02,1.003633886575698853e-01,4.332333430647850037e-02,2.384849451482295990e-02,3.956159949302673340e-02,-4.304376896470785141e-03,9.518956393003463745e-02,-8.854234963655471802e-02,1.559409052133560181e-01,1.947648227214813232e-01,2.820862270891666412e-02,7.471608370542526245e-02,-1.882811188697814941e-01,-1.683722585439682007e-01,-1.023160368204116821e-01,-2.926028706133365631e-02,-6.872685998678207397e-02,8.356152474880218506e-02
-2.471040189266204834e-02,-3.067080676555633545e-02,1.031004786491394043e-01,2.834619022905826569e-02,1.447800993919372559e-01,-2.337342500686645508e-02,-8.551915735006332397e-02,3.992078825831413269e-02,1.218660995364189148e-01,1.804806441068649292e-01,-1.114760413765907288e-01,2.519064210355281830e-02,7.184798270463943481e-02,1.097792536020278931e-01,1.608695983886718750e-01,1.898834556341171265e-01,8.739445358514785767e-02,-8.985251933336257935e-02,-5.316904932260513306e-02,1.492841839790344238e-01,-4.916945844888687134e-02,7.396040949970483780e-03,-4.791206493973731995e-02,1.120333224534988403e-01,-1.451300531625747681e-01,1.568542420864105225e-01,-3.485386446118354797e-02,7.443088293075561523e-02,9.618383646011352539e-02,1.113561391830444336e-01,-1.163491979241371155e-01,-3.248560801148414612e-02,8.700677752494812012e-02,9.793127886950969696e-03,5.227300524711608887e-02,-8.954600989818572998e-02,4.979669675230979919e-02,-5.315965041518211365e-02,2.658259868621826172e-02,8.256515860557556152e-02,1.517426222562789917e-01,-4.930913448333740234e-02,4.218659922480583191e-02,-1.148540973663330078e-01,4.687387868762016296e-02,-6.164294108748435974e-02,4.120349511504173279e-02,-1.060415729880332947e-01,-1.626023799180984497e-01,2.446140907704830170e-02,-1.922412402927875519e-02,1.332592070102691650e-01,1.342193968594074249e-02,2.983975410461425781e-02,5.564157292246818542e-02,-3.701458871364593506e-02,1.587910503149032593e-01,1.765691302716732025e-02,-5.680504441261291504e-02,-4.941847547888755798e-02,-9.741945564746856689e-02,-8.105648308992385864e-02,-5.268401931971311569e-03,-1.898780278861522675e-02,-8.926431834697723389e-02,-2.284883335232734680e-02,-1.255000531673431396e-01,-1.350390166044235229e-01,5.356995016336441040e-02,1.766474246978759766e-01,1.135903373360633850e-01,1.779273897409439087e-02,-9.682587347924709320e-03,-1.081388071179389954e-02,2.104398049414157867e-02,-2.808887138962745667e-02,-8.022435009479522705e-03,7.085918635129928589e-02,1.905193924903869629e-01,-3.866213560104370117e-02,6.553129758685827255e-03,-1.226402074098587036e-02,8.701547235250473022e-02,1.454771012067794800e-01,-6.939282268285751343e-02,9.831624478101730347e-02,-1.214331109076738358e-02,6.610605120658874512e-02,-1.117759868502616882e-01,-6.217816472053527832e-02,-1.062574908137321472e-01,1.199897751212120056e-01,-1.615674197673797607e-01,-7.604407519102096558e-02,-4.900420829653739929e-02,-3.898791223764419556e-02,-8.151736855506896973e-02,1.930282451212406158e-03,7.620747387409210205e-02,9.831446409225463867e-02,-8.698081225156784058e-02,1.995900832116603851e-02,7.980719953775405884e-02,1.259919703006744385e-01,-6.800913065671920776e-02,4.595307109411805868e-04,-4.428477212786674500e-02,5.224675685167312622e-02,7.504126429557800293e-02,-1.175685524940490723e-01,4.916753992438316345e-02,1.521891057491302490e-01,1.558963209390640259e-01,-5.209256336092948914e-02,5.502615123987197876e-02,-1.083044782280921936e-01,-3.050097264349460602e-02,-1.161163225769996643e-01,3.709244728088378906e-02,-1.531110256910324097e-01,4.698323458433151245e-02,-1.007652059197425842e-01,2.521844021975994110e-02,6.694148480892181396e-02,-1.035705134272575378e-01,6.110824644565582275e-03,-9.537719935178756714e-02,6.603413075208663940e-02,-1.412550825625658035e-02,-1.776166260242462158e-01,4.298822209239006042e-02,9.893985092639923096e-02,9.952271357178688049e-03,-1.860893815755844116e-01,-1.482219994068145752e-01,1.027541160583496094e-01,-4.461317881941795349e-02,-1.601055562496185303e-01,5.968112498521804810e-02,9.898775070905685425e-02,-1.339101791381835938e-01,1.024242043495178223e-01,-1.382738798856735229e-01,-2.614708244800567627e-02,-1.281997859477996826e-01,-1.098420545458793640e-01,2.667672000825405121e-03,-2.901578508317470551e-02,-1.369943609461188316e-03,7.511280477046966553e-02,1.122162863612174988e-01,6.427509360946714878e-04,-2.722123637795448303e-02,-4.967150278389453888e-03,-4.168890416622161865e-02,-2.372867800295352936e-02,-6.592027377337217331e-03,1.620316207408905029e-01,-7.118280231952667236e-02,-1.252996176481246948e-01,2.436325699090957642e-02,-1.623017042875289917e-01,-7.484529912471771240e-02,6.043784692883491516e-02,5.689804628491401672e-02,1.729060336947441101e-02,6.444586813449859619e-02,1.258438229560852051e-01,3.929899539798498154e-03,-1.865080185234546661e-02,1.757255494594573975e-01,-9.656848758459091187e-02,-6.799491494894027710e-02,4.046023264527320862e-02,-6.529951840639114380e-02,-4.232924804091453552e-02,-1.824802458286285400e-01,-6.230855733156204224e-02,8.042959123849868774e-02,-8.059374988079071045e-02,-1.126052141189575195e-01,-2.824594080448150635e-02,-4.695744719356298447e-03,-9.699540585279464722e-02,-1.587376445531845093e-01,3.151557222008705139e-02,5.140393599867820740e-02,-1.438613831996917725e-01,7.135429978370666504e-02,-7.465177029371261597e-02,1.002491116523742676e-01,4.243905097246170044e-02,4.746071621775627136e-02,-7.000929862260818481e-02,1.298703253269195557e-01,-3.099626675248146057e-02,3.553763777017593384e-02,-4.807225987315177917e-02,-1.054622232913970947e-02,-8.310052752494812012e-02,1.156003698706626892e-01,-1.090528741478919983e-01,1.489645093679428101e-01,5.755082517862319946e-02,8.148068934679031372e-02,-2.619586698710918427e-02,-2.616508677601814270e-02,-8.212345093488693237e-02,7.875451445579528809e-02,-1.125660687685012817e-01,-8.286510594189167023e-03,-6.491138041019439697e-02,1.200562641024589539e-01,1.214868053793907166e-01,-2.281581424176692963e-02,5.416007712483406067e-02,-1.720663458108901978e-01,-1.044197902083396912e-01,5.760652944445610046e-02,-9.660843759775161743e-02,-4.791788384318351746e-02,-2.857925556600093842e-02,-1.118811890482902527e-01,-9.759786725044250488e-02,-7.867326587438583374e-02,-5.159765481948852539e-02,-4.665168747305870056e-02,8.260839432477951050e-02,-1.073087006807327271e-01,-1.308007538318634033e-01,8.788876980543136597e-02,-2.697882615029811859e-02,-5.504211410880088806e-02,6.006787344813346863e-02,1.349510904401540756e-02,1.548629160970449448e-02,1.220055744051933289e-01,9.289741516113281250e-02,1.404344141483306885e-01,6.934239715337753296e-02,1.092480570077896118e-01,-6.185206770896911621e-02,6.712552160024642944e-02,3.659318014979362488e-02,-9.503608196973800659e-02,-6.759244948625564575e-02,5.707036703824996948e-03,1.015899004414677620e-03,-6.185080483555793762e-02,-6.393226981163024902e-02,2.662115357816219330e-02,-9.064055979251861572e-02,2.546641789376735687e-02,9.613914415240287781e-03,1.318039000034332275e-01,1.030608173459768295e-02,1.728128641843795776e-02,1.820761561393737793e-01,-1.446060091257095337e-02,2.441663855279330164e-05,1.021665111184120178e-01,-3.078182041645050049e-02,-1.898652128875255585e-02,2.883814834058284760e-02,-2.131827548146247864e-02,1.083139777183532715e-01,9.317535161972045898e-02,-1.516719907522201538e-01,4.435327649116516113e-02,-1.466501783579587936e-02,-1.798987202346324921e-02,-6.692359596490859985e-02,2.393028698861598969e-02,1.528683956712484360e-02,-1.235821768641471863e-01,-4.907573759555816650e-02,-1.120527386665344238e-01,1.312242448329925537e-01,-1.080166697502136230e-01,4.906283318996429443e-02,-4.509997367858886719e-02,1.078713685274124146e-01,-1.146413311362266541e-01,1.002545505762100220e-01,1.399996131658554077e-01,-7.228761445730924606e-03,7.164674252271652222e-02,1.051671728491783142e-01,-2.362848445773124695e-02,-3.754892200231552124e-02,-4.697132110595703125e-02,6.263440102338790894e-02,7.268220186233520508e-02,-5.981573089957237244e-02,1.397543586790561676e-02,9.812609106302261353e-02,-1.554983854293823242e-01,-1.210273429751396179e-01,1.552830636501312256e-01,-5.030676722526550293e-02,6.922186911106109619e-02,1.635725349187850952e-01,4.945428296923637390e-02,6.892748922109603882e-02,1.682209037244319916e-02,4.678874835371971130e-02,1.457019895315170288e-01,1.936717890202999115e-02,-2.502541057765483856e-02,4.251928254961967468e-02,1.275939345359802246e-01,5.604160949587821960e-02,-4.676453303545713425e-03,-1.151014398783445358e-02,-2.887162007391452789e-02,1.702108383178710938e-01,3.522273153066635132e-02,5.434916820377111435e-03,3.527034772560000420e-03,6.448617670685052872e-03,-7.531245797872543335e-02,2.263754233717918396e-02,3.939463943243026733e-02,1.262073498219251633e-02,5.160132795572280884e-02,1.524550169706344604e-01,8.988994359970092773e-02,-9.903133660554885864e-02,8.083878457546234131e-02,1.355729997158050537e-01,5.356613546609878540e-02,-5.701892450451850891e-02,-1.384442448616027832e-01,1.669934839010238647e-01,9.725253283977508545e-02,6.804535631090402603e-03,5.163764581084251404e-03,1.007319688796997070e-01,3.949270769953727722e-02,1.240986213088035583e-01,-1.707483381032943726e-01,5.831413343548774719e-02,9.053426980972290039e-02,9.715977311134338379e-02,1.559723317623138428e-01,2.090641111135482788e-02,-6.189362332224845886e-02,-9.174424409866333008e-02,7.260777056217193604e-02,-1.664095818996429443e-01,9.519680589437484741e-02,-1.226781588047742844e-02,5.897381808608770370e-03,-6.188556179404258728e-02,9.173716604709625244e-02,-1.160311698913574219e-01,3.771715238690376282e-02,-1.085372492671012878e-01,4.569447133690118790e-03,-3.592551872134208679e-02,-9.081445634365081787e-02,2.279080078005790710e-02,-9.144528955221176147e-02,1.194335147738456726e-01,-5.456455424427986145e-02,-8.530855178833007812e-02,-1.252930015325546265e-01,-2.796548046171665192e-02,-1.107542142271995544e-01,-5.145250633358955383e-02,1.154461503028869629e-01,7.680714130401611328e-02,2.543005906045436859e-02,-4.232430364936590195e-03,-8.853697776794433594e-02,1.138116344809532166e-01,-1.741621494293212891e-01,1.003553196787834167e-01,3.655770048499107361e-02,9.118160605430603027e-02,6.427054107189178467e-02,2.430694177746772766e-02,1.035291776061058044e-01,8.949480205774307251e-02,-6.432119011878967285e-02,-5.138760805130004883e-02,1.001640111207962036e-01,-2.171862125396728516e-02,-8.473398163914680481e-03,6.184231117367744446e-02,-5.196203663945198059e-02,-1.588412821292877197e-01,9.223874658346176147e-02,-2.235944196581840515e-02,-4.156782105565071106e-02,5.150667950510978699e-02,-9.045108407735824585e-02,-8.819480985403060913e-02,1.667138189077377319e-01,2.618038095533847809e-02,1.402064263820648193e-01,-1.170773059129714966e-01,1.493871659040451050e-01,1.056823730468750000e-01,-5.530839785933494568e-02,4.191284999251365662e-02,8.063407987356185913e-02,-7.676266133785247803e-02,-2.899720147252082825e-02,8.058708161115646362e-02,-1.388696283102035522e-01,3.931919112801551819e-02,-7.312656193971633911e-02,-1.094418317079544067e-01,-2.205016091465950012e-03,-1.577888727188110352e-01,1.668221354484558105e-01,-9.994804859161376953e-02,-3.865716978907585144e-02,1.770209968090057373e-01,-6.988506764173507690e-02,-3.693243488669395447e-02,3.152820095419883728e-02,8.506634086370468140e-02,1.901037804782390594e-02,6.328518688678741455e-02,-9.301512688398361206e-02,1.566403545439243317e-02,-9.669514745473861694e-02,1.718106307089328766e-02,1.496599465608596802e-01,3.387201344594359398e-03,1.418574154376983643e-01,3.043288551270961761e-02,2.517785690724849701e-02,-5.668787285685539246e-02,-6.222572922706604004e-02,-3.493651375174522400e-02,1.655496209859848022e-01,-1.619120538234710693e-01,-1.974910348653793335e-01,-2.840678393840789795e-02,-1.195732727646827698e-01,-9.251140803098678589e-02,-2.033108472824096680e-02,-1.284172087907791138e-01,-5.284117069095373154e-03,3.845424205064773560e-02,1.129175350069999695e-01,1.480480283498764038e-01,-1.214087381958961487e-01,8.898194879293441772e-02,-1.301458757370710373e-02,-1.791594922542572021e-01,1.983758807182312012e-02,2.456189505755901337e-02,1.995833776891231537e-02,1.181087922304868698e-02,-1.189408544450998306e-02,1.687396913766860962e-01,-5.338512733578681946e-02,4.989120364189147949e-02,9.884174168109893799e-02,-3.169639408588409424e-02,-1.741311252117156982e-01,6.777103990316390991e-03,-4.296997562050819397e-02,5.368384718894958496e-02,3.598183020949363708e-02,-4.633193090558052063e-02,1.354967802762985229e-01,-8.681219071149826050e-02,-1.153577119112014771e-01,-1.571867018938064575e-01,5.939473584294319153e-02,-7.931751012802124023e-02,9.921298176050186157e-02,-1.065900102257728577e-01,-8.197759836912155151e-02,1.047697588801383972e-01,1.188091784715652466e-01,6.868654489517211914e-02,4.450646042823791504e-02,9.561212360858917236e-02,-1.206247806549072266e-01,1.880962252616882324e-01,7.877314090728759766e-02,7.503078132867813110e-02,1.772324144840240479e-01,1.018680259585380554e-01,-2.032805979251861572e-02,8.813218772411346436e-02,-1.032953485846519470e-01,1.120768114924430847e-01,-8.192941546440124512e-02,6.493745837360620499e-03,1.721342653036117554e-02,-1.492817252874374390e-01,1.181132509373128414e-03,1.614836901426315308e-01,-1.128549203276634216e-01,1.107593774795532227e-01,1.436627060174942017e-01,6.716241687536239624e-02,-3.465109318494796753e-02,-1.073960587382316589e-01,-4.646654269890859723e-05,3.889130800962448120e-02,1.726206690073013306e-01,1.230747103691101074e-01,-1.949373050592839718e-03,-2.190612815320491791e-02
-1.994648575782775879e-01,-1.860858313739299774e-02,8.636339753866195679e-02,-9.402677416801452637e-03,-7.055994938127696514e-04,3.910672664642333984e-02,-2.586634457111358643e-02,-1.596554666757583618e-01,4.646469652652740479e-02,-1.043505221605300903e-01,8.977743983268737793e-02,-6.870103627443313599e-02,1.038991212844848633e-01,-1.272728201001882553e-02,7.085087150335311890e-02,8.267812430858612061e-02,4.338945448398590088e-02,-1.880438178777694702e-01,-4.803089424967765808e-02,-1.220572218298912048e-01,8.362670242786407471e-02,-1.518522053956985474e-01,-4.179733619093894958e-02,1.247232109308242798e-01,-3.709246590733528137e-02,-1.443759053945541382e-01,-5.946499854326248169e-02,-1.059448346495628357e-01,-2.467622421681880951e-02,-1.302754431962966919e-01,-1.499623954296112061e-01,-5.975491553544998169e-02,1.145265251398086548e-02,3.464233828708529472e-03,6.506243348121643066e-02,-1.887980103492736816e-01,-1.835896223783493042e-01,-5.656740814447402954e-02,1.072128936648368835e-01,-1.387974768877029419e-01,8.733969181776046753e-02,-3.105868771672248840e-02,-6.612303201109170914e-03,-1.482942253351211548e-01,2.185281179845333099e-02,-9.650077670812606812e-02,-9.950321167707443237e-02,4.771301173605024815e-04,1.585979014635086060e-01,2.676102332770824432e-02,-1.451329737901687622e-01,8.419054001569747925e-02,-4.290644079446792603e-02,-1.921782456338405609e-02,-5.671877786517143250e-02,-9.039662033319473267e-02,-1.273818761110305786e-01,1.697563081979751587e-01,-1.788111925125122070e-01,-9.662444703280925751e-03,-1.675745099782943726e-01,2.361815422773361206e-02,-7.182086352258920670e-03,1.659530214965343475e-02,-4.725171253085136414e-02,1.060353666543960571e-01,-1.219351515173912048e-01,-1.371385008096694946e-01,2.195533923804759979e-02,9.818247705698013306e-02,-2.192366309463977814e-02,-3.790948167443275452e-02,6.878056377172470093e-02,5.698157008737325668e-03,8.550121448934078217e-03,-1.193064600229263306e-01,-1.831165514886379242e-02,1.138258948922157288e-01,-4.769614711403846741e-02,1.441925019025802612e-02,-6.550522148609161377e-02,-1.895314604043960571e-01,1.224757358431816101e-01,9.060887992382049561e-02,2.067199163138866425e-02,5.218356847763061523e-02,9.908709675073623657e-02,-5.044919997453689575e-02,-1.093566939234733582e-01,-2.573416195809841156e-02,2.752181328833103180e-02,9.821759909391403198e-02,-1.255764998495578766e-02,-5.713627487421035767e-02,5.686350539326667786e-02,-2.245728671550750732e-02,6.963633745908737183e-02,9.390974789857864380e-02,-1.349732428789138794e-01,8.498656749725341797e-02,2.695573726668953896e-03,1.813883930444717407e-01,9.464285336434841156e-03,-1.276497840881347656e-01,-3.916728124022483826e-02,3.434373065829277039e-02,-6.654720008373260498e-02,1.174824610352516174e-01,-9.036135673522949219e-02,-2.839660458266735077e-02,-1.055098921060562134e-01,8.488908410072326660e-02,1.370570659637451172e-01,-9.070169925689697266e-02,-1.824621409177780151e-01,-1.372362673282623291e-01,1.178637519478797913e-01,1.252086460590362549e-01,-1.073344349861145020e-01,-8.359196782112121582e-02,-4.054160043597221375e-02,1.657014153897762299e-02,-1.581015139818191528e-01,-1.482255905866622925e-01,8.165352046489715576e-02,-1.216776296496391296e-01,8.708181977272033691e-02,-9.077756106853485107e-02,1.258601546287536621e-01,6.369972974061965942e-02,-3.236166760325431824e-02,-8.604901283979415894e-02,-5.756996199488639832e-02,1.783469915390014648e-01,9.323378652334213257e-02,-9.180250018835067749e-02,2.685242332518100739e-02,3.779755160212516785e-02,-4.853131994605064392e-02,-7.175078243017196655e-02,1.523919552564620972e-01,-1.874998770654201508e-02,4.054195806384086609e-02,-1.141948848962783813e-01,-9.506500512361526489e-02,7.731872051954269409e-02,-1.208478957414627075e-01,1.099595054984092712e-01,-9.254736453294754028e-02,3.115720115602016449e-02,-3.333171829581260681e-02,7.222148030996322632e-02,-6.447454541921615601e-02,-2.198699489235877991e-02,1.482211798429489136e-01,-7.752779871225357056e-02,1.862916797399520874e-01,4.490670189261436462e-02,1.174886748194694519e-01,-9.826950728893280029e-02,4.861575737595558167e-02,9.632387198507785797e-03,-5.492111667990684509e-03,6.917224824428558350e-02,1.539602875709533691e-01,1.889130771160125732e-01,1.483470797538757324e-01,-8.774567395448684692e-02,4.840636998414993286e-02,-1.028656121343374252e-02,-3.708029910922050476e-02,1.817396492697298527e-03,-6.354252249002456665e-02,7.322089374065399170e-02,9.281557053327560425e-02,-1.201465502381324768e-01,-1.572730839252471924e-01,-2.211960218846797943e-02,-4.627643211279064417e-04,4.467673972249031067e-02,-8.580237627029418945e-02,1.336758434772491455e-01,-1.859000138938426971e-02,-1.589306592941284180e-01,-1.755769103765487671e-01,-1.013230308890342712e-01,-2.139281854033470154e-02,-2.167693711817264557e-02,7.768731564283370972e-02,8.122565597295761108e-02,-1.852507293224334717e-01,2.255008555948734283e-02,1.623453050851821899e-01,2.125296555459499359e-02,1.131397858262062073e-01,1.144755706191062927e-01,-1.014411672949790955e-01,1.224147006869316101e-01,-7.363953441381454468e-02,-9.945678710937500000e-02,-4.359076917171478271e-02,1.293476670980453491e-01,-4.277729615569114685e-02,-1.571883819997310638e-02,6.781648099422454834e-02,5.435348674654960632e-02,7.867368310689926147e-02,4.791228100657463074e-02,8.798450976610183716e-02,-5.283196642994880676e-02,-1.478102058172225952e-01,-1.357461065053939819e-01,-5.520568042993545532e-02,1.458817124366760254e-01,-1.017810255289077759e-01,1.621166765689849854e-01,2.531403116881847382e-02,-8.757751435041427612e-02,-1.001041084527969360e-01,-3.267078101634979248e-02,1.113580241799354553e-01,-7.124803215265274048e-02,-1.088704615831375122e-01,-3.348180279135704041e-02,7.915081828832626343e-02,-1.262953132390975952e-01,6.004581972956657410e-02,9.925440698862075806e-02,7.334113121032714844e-02,8.499623090028762817e-02,-1.543247103691101074e-01,-5.762280896306037903e-02,7.620088011026382446e-02,1.142607927322387695e-01,1.608572751283645630e-01,-1.613880246877670288e-01,5.470715090632438660e-02,-5.876672267913818359e-02,-5.632411316037178040e-02,-5.108904093503952026e-03,-6.565310806035995483e-02,-4.205739125609397888e-02,1.180721726268529892e-02,1.975180953741073608e-01,2.145781740546226501e-02,-1.996470689773559570e-01,-3.350426629185676575e-02,-6.787768751382827759e-02,1.801832169294357300e-01,-1.924773901700973511e-01,4.608533158898353577e-02,1.528498381376266479e-01,4.083894193172454834e-03,1.199363637715578079e-02,5.019566416740417480e-02,8.018853515386581421e-02,4.950779676437377930e-02,6.252252310514450073e-02,1.360498964786529541e-01,-7.443978637456893921e-02,2.874608151614665985e-03,2.654129080474376678e-02,2.105908468365669250e-02,-1.576933078467845917e-03,-3.585003688931465149e-02,-5.598698928952217102e-02,-1.260568201541900635e-01,-8.155428618192672729e-02,4.273017868399620056e-02,-5.199179053306579590e-02,1.776939928531646729e-01,1.744280220009386539e-03,-1.388708781450986862e-02,-3.583618672564625740e-03,4.620802402496337891e-02,-1.261066552251577377e-02,4.515818133950233459e-02,-1.626752912998199463e-01,9.543334692716598511e-02,-6.976764649152755737e-02,-4.819905757904052734e-02,-8.479052782058715820e-02,2.225264674052596092e-03,-6.287829577922821045e-02,-9.909985214471817017e-02,-2.383706346154212952e-02,1.394995301961898804e-02,-9.402696788311004639e-02,9.350832551717758179e-02,-1.331610530614852905e-01,5.137737467885017395e-02,-3.620081814005970955e-03,1.953666508197784424e-01,-2.545381896197795868e-02,8.346348069608211517e-03,-8.366373181343078613e-02,-1.516771167516708374e-01,-6.351581215858459473e-02,-1.457541584968566895e-01,-2.453737333416938782e-02,9.587550163269042969e-02,7.127288728952407837e-02,4.065950866788625717e-03,1.127678975462913513e-01,2.351906895637512207e-02,5.406221747398376465e-02,-4.247781634330749512e-02,-7.417758554220199585e-02,-4.976276680827140808e-02,-1.010514423251152039e-01,-7.350553758442401886e-03,-2.780285291373729706e-02,-3.479215130209922791e-02,-3.377563878893852234e-02,-5.185871198773384094e-02,-1.898842304944992065e-01,-1.869447678327560425e-01,5.542565509676933289e-02,8.259643614292144775e-02,-2.892008982598781586e-02,-2.199434675276279449e-02,5.881378054618835449e-02,2.011440880596637726e-02,2.350736036896705627e-02,-1.013581529259681702e-01,1.969592422246932983e-01,9.452228993177413940e-02,-6.027429923415184021e-02,3.956325352191925049e-02,-1.476461142301559448e-01,-9.687962383031845093e-02,-4.826804623007774353e-02,1.516743749380111694e-01,-1.062707528471946716e-01,-4.000209644436836243e-02,-5.725224688649177551e-02,1.206867471337318420e-01,-1.373422425240278244e-02,3.127916529774665833e-02,4.757154732942581177e-02,2.144276537001132965e-02,-5.917441844940185547e-02,-8.412482589483261108e-02,8.435979485511779785e-02,-1.261716932058334351e-01,-2.485005883499979973e-03,2.375735156238079071e-02,1.721564531326293945e-01,1.244513764977455139e-01,-4.196551069617271423e-02,9.857745468616485596e-02,-1.307691186666488647e-01,6.975982338190078735e-02,2.348472177982330322e-02,-1.583495140075683594e-01,7.791923731565475464e-02,1.045922785997390747e-01,1.164900586009025574e-01,-9.866046160459518433e-02,-1.332254260778427124e-01,1.654324233531951904e-01,3.499926999211311340e-02,2.318799495697021484e-02,-4.429947584867477417e-03,4.533503949642181396e-02,-5.117745604366064072e-03,2.552197314798831940e-02,8.665121346712112427e-02,3.747813869267702103e-03,2.891871705651283264e-02,2.049547247588634491e-02,-3.629148378968238831e-02,-8.388937264680862427e-02,1.982209980487823486e-01,1.107956916093826294e-01,7.955851405858993530e-02,-3.245749697089195251e-02,-9.801433980464935303e-02,4.455185029655694962e-03,-1.591289341449737549e-01,9.607722610235214233e-02,3.831480862572789192e-03,1.288218051195144653e-01,-1.046219374984502792e-02,5.416006967425346375e-02,-1.108802272938191891e-03,7.956413924694061279e-02,1.025190502405166626e-01,1.938950084149837494e-02,-4.677808843553066254e-03,-4.827253147959709167e-02,-1.869921386241912842e-01,3.415866568684577942e-02,-5.425928905606269836e-02,-5.567105254158377647e-04,-8.265280723571777344e-02,2.512901090085506439e-02,-3.249169513583183289e-02,4.728112742304801941e-02,-5.035344883799552917e-02,-9.976833313703536987e-02,-3.949041664600372314e-02,2.711271680891513824e-02,3.037015907466411591e-02,1.038030907511711121e-01,-2.311080880463123322e-02,-1.448826640844345093e-01,2.233081497251987457e-02,-1.637971550226211548e-01,8.723222464323043823e-02,1.766356639564037323e-02,-1.414199918508529663e-01,-1.340770721435546875e-01,-1.951028853654861450e-01,1.508241295814514160e-01,4.912048205733299255e-02,-1.454669237136840820e-02,3.586657345294952393e-02,-1.396249830722808838e-01,3.516016528010368347e-03,-5.096798017621040344e-02,-1.758681386709213257e-01,3.618266899138689041e-03,-1.064138021320104599e-02,1.892435946501791477e-03,5.168960615992546082e-02,3.804283961653709412e-02,-3.810835478361696005e-04,1.127664744853973389e-02,1.715116649866104126e-01,-3.735312446951866150e-02,-8.350551128387451172e-02,1.668937504291534424e-01,-8.071173727512359619e-02,-7.491635531187057495e-02,-9.719750285148620605e-02,4.867098852992057800e-02,-8.315927535295486450e-02,1.191525012254714966e-01,-1.307729184627532959e-01,1.619321852922439575e-02,-1.361641585826873779e-01,-9.639256633818149567e-03,-1.244972348213195801e-01,-1.682525128126144409e-01,7.806105073541402817e-03,1.067256480455398560e-01,5.571015062741935253e-04,-1.355408430099487305e-01,1.997124403715133667e-02,-9.364786744117736816e-02,-2.005316503345966339e-02,1.104920655488967896e-01,9.731143712997436523e-03,-9.282775968313217163e-02,1.269173920154571533e-01,-1.232534050941467285e-01,9.516952931880950928e-02,-9.926772862672805786e-02,-3.825830668210983276e-02,-7.211082428693771362e-02,-1.915374398231506348e-01,7.854816317558288574e-02,-8.200111798942089081e-03,1.253249645233154297e-01,8.354388177394866943e-03,-1.252093911170959473e-01,-5.087107419967651367e-02,-9.649126231670379639e-02,6.288411468267440796e-02,7.076239585876464844e-02,-3.611215949058532715e-02,5.444955453276634216e-02,-1.059629917144775391e-01,3.282924368977546692e-02,2.095476537942886353e-02,9.674770385026931763e-02,-5.964178964495658875e-02,-1.105148345232009888e-01,-1.174689084291458130e-01,-9.422762691974639893e-02,-7.145582884550094604e-02,-2.273107646033167839e-03,3.684381395578384399e-02,-7.966843992471694946e-02,6.751491874456405640e-02,-4.988637194037437439e-02,-1.354872733354568481e-01,-1.124408990144729614e-01,-3.897290676832199097e-02,1.682477258145809174e-02,-1.010080706328153610e-02,-3.472171723842620850e-02,-2.901290170848369598e-02,-5.793621018528938293e-02,-1.299401968717575073e-01,6.623279303312301636e-02,1.071605831384658813e-01,-4.461962357163429260e-02,7.092370837926864624e-02,1.471088975667953491e-01,1.813586056232452393e-01,5.932546779513359070e-02,1.854415866546332836e-03,7.165876775979995728e-02,-3.096207976341247559e-02,-7.656157948076725006e-03,1.397102624177932739e-01,1.183003112673759460e-01,-2.428600378334522247e-02,1.939694136381149292e-01,-1.551798433065414429e-01
1.146172210574150085e-01,-3.229064634069800377e-03,-1.293106586672365665e-03,2.856204751878976822e-03,2.278474532067775726e-02,1.331775486469268799e-01,3.743156418204307556e-02,-3.041448537260293961e-03,-9.096042811870574951e-02,-7.570434361696243286e-03,-3.842271864414215088e-02,1.225474029779434204e-01,6.277187261730432510e-03,-1.140775457024574280e-01,-9.805441647768020630e-02,1.438509821891784668e-01,1.752991676330566406e-01,1.761834919452667236e-01,7.508295029401779175e-02,-1.284561604261398315e-01,5.417867377400398254e-02,-7.091813534498214722e-02,6.332002580165863037e-02,6.122509390115737915e-02,1.816705614328384399e-01,-2.082213386893272400e-02,4.956924170255661011e-02,6.054395437240600586e-02,1.148316413164138794e-01,-5.654510576277971268e-03,-3.932290524244308472e-02,2.631793916225433350e-02,3.168545663356781006e-02,1.172546520829200745e-01,1.756644546985626221e-01,-8.109195530414581299e-02,5.746706202626228333e-02,-1.644832640886306763e-02,1.672197692096233368e-02,-5.889591202139854431e-02,1.504721492528915405e-01,1.530525833368301392e-01,-8.902688324451446533e-02,2.788523770868778229e-02,-5.623082444071769714e-02,-7.508932054042816162e-02,-1.331892460584640503e-01,8.191951364278793335e-02,7.815160602331161499e-02,9.166776388883590698e-02,-7.760024070739746094e-02,1.107013225555419922e-02,-7.908736914396286011e-02,5.233616381883621216e-02,-1.156298741698265076e-01,-3.530966863036155701e-02,-5.942484736442565918e-02,2.152979932725429535e-02,-7.676058262586593628e-02,3.921468183398246765e-02,1.106107980012893677e-01,-1.316972374916076660e-01,-6.814136356115341187e-02,-1.526264846324920654e-01,-1.421354860067367554e-01,-6.976852566003799438e-02,-1.141352206468582153e-01,6.107856705784797668e-02,6.068879365921020508e-02,8.005768805742263794e-02,1.425935178995132446e-01,2.096285298466682434e-02,-9.347303956747055054e-02,-1.638325490057468414e-02,-1.167107820510864258e-01,-8.855944126844406128e-02,-3.028647974133491516e-02,1.751458197832107544e-01,-8.049796335399150848e-03,-3.594408929347991943e-02,-2.812270261347293854e-02,1.149179562926292419e-01,-1.501732170581817627e-01,-3.768252953886985779e-02,1.499839406460523605e-02,7.061658054590225220e-02,1.407760530710220337e-01,5.329681187868118286e-02,-1.650723069906234741e-01,5.787827540189027786e-03,-8.323182165622711182e-02,1.837763041257858276e-01,5.708867311477661133e-02,-1.123825833201408386e-01,-2.470720373094081879e-02,7.170308381319046021e-02,4.009040817618370056e-02,6.524389237165451050e-02,1.490465085953474045e-02,-1.104866042733192444e-01,2.785533107817173004e-02,5.127228423953056335e-02,-3.557458985596895218e-03,-3.980086743831634521e-02,-6.943209469318389893e-02,7.649529725313186646e-02,-5.416507646441459656e-02,-6.583834439516067505e-02,-1.000642403960227966e-01,-2.383556030690670013e-02,-3.487380594015121460e-02,5.634236335754394531e-02,-1.389843523502349854e-01,-3.517744690179824829e-02,8.350531756877899170e-02,6.956911087036132812e-02,-1.032069548964500427e-01,-1.154708042740821838e-01,-4.403392598032951355e-02,3.459072485566139221e-02,-2.497803233563899994e-02,1.564493589103221893e-02,-1.931541971862316132e-02,2.610797621309757233e-02,-3.590937331318855286e-02,5.401456356048583984e-02,9.908130764961242676e-02,2.220915816724300385e-02,9.946509264409542084e-03,-7.088034600019454956e-02,-1.108779311180114746e-01,1.243417412042617798e-01,4.950638115406036377e-02,-3.142021596431732178e-02,8.571218699216842651e-02,-2.649787627160549164e-02,2.028319612145423889e-02,4.895031079649925232e-02,-2.477016858756542206e-02,8.047649264335632324e-02,8.134586364030838013e-02,7.402210682630538940e-02,4.726669564843177795e-02,7.852428406476974487e-02,-1.797227412462234497e-01,6.994325667619705200e-02,-6.685438007116317749e-02,-5.027167871594429016e-02,1.500137057155370712e-02,-1.397109776735305786e-01,5.254131555557250977e-02,3.582240641117095947e-02,5.400292202830314636e-02,-1.872201263904571533e-02,-1.599128693342208862e-01,-1.502924412488937378e-01,-4.247077554464340210e-02,1.220766082406044006e-01,-1.031033396720886230e-01,7.905925065279006958e-02,-1.548864692449569702e-01,1.483177542686462402e-01,1.426948159933090210e-01,2.745669893920421600e-02,1.438176352530717850e-02,-8.122041076421737671e-02,6.847146153450012207e-02,7.328581809997558594e-02,-7.334774732589721680e-02,3.072111681103706360e-02,1.655056923627853394e-01,4.943212494254112244e-02,5.603376775979995728e-02,-8.039077371358871460e-02,6.739235669374465942e-02,6.069343164563179016e-02,7.783475518226623535e-02,-1.793940067291259766e-01,1.143479496240615845e-01,1.517951190471649170e-01,-9.155645221471786499e-02,1.357802599668502808e-01,-5.817484483122825623e-02,5.449470132589340210e-03,5.951759964227676392e-02,-1.716608852148056030e-01,6.238203868269920349e-02,-1.701828688383102417e-01,1.978302150964736938e-01,1.196218281984329224e-01,2.182129025459289551e-02,8.502329885959625244e-02,1.124304682016372681e-01,-1.005279645323753357e-01,-1.747058033943176270e-01,4.323357716202735901e-02,-2.855522930622100830e-02,1.982141286134719849e-01,-1.479983180761337280e-01,4.303492605686187744e-02,4.169482737779617310e-02,5.689236335456371307e-03,-2.220530435442924500e-02,1.392899751663208008e-01,1.871043890714645386e-01,-1.839997917413711548e-01,1.734200268983840942e-01,-2.680988691281527281e-04,-8.087985962629318237e-02,-6.480252742767333984e-02,-7.332229055464267731e-03,5.221289023756980896e-02,8.944677561521530151e-02,-1.349558588117361069e-03,6.689256429672241211e-02,1.967060416936874390e-01,-4.332966729998588562e-02,1.015743017196655273e-01,1.369296014308929443e-01,-8.493887633085250854e-02,-1.336417794227600098e-01,4.968347027897834778e-02,1.044765636324882507e-01,1.173995882272720337e-01,1.629904285073280334e-02,-2.950288355350494385e-02,-5.538375303149223328e-02,-2.578022144734859467e-02,-3.940887376666069031e-02,8.452902734279632568e-02,1.524518579244613647e-01,3.931120410561561584e-02,-6.585563719272613525e-02,-3.820637986063957214e-02,9.512054175138473511e-02,1.490738838911056519e-01,7.453435100615024567e-03,-3.655245527625083923e-02,1.366396546363830566e-01,-3.133583068847656250e-02,7.952126860618591309e-02,3.173262253403663635e-02,1.218612194061279297e-01,8.721975982189178467e-02,3.658974543213844299e-02,2.625733055174350739e-02,1.322043389081954956e-01,3.082022443413734436e-02,-1.093459129333496094e-01,1.139815673232078552e-01,1.574819982051849365e-01,1.823294609785079956e-01,1.657408177852630615e-01,5.512661859393119812e-02,-5.721537396311759949e-02,-1.071678847074508667e-02,2.666482143104076385e-02,1.270084083080291748e-01,1.244618669152259827e-01,-1.463856697082519531e-01,-3.990021068602800369e-04,3.449350222945213318e-02,6.548063457012176514e-02,-3.282541781663894653e-02,-2.579868398606777191e-02,-3.796183690428733826e-02,-7.154857367277145386e-02,1.271974295377731323e-02,-6.404671818017959595e-02,9.606622159481048584e-02,5.185292288661003113e-02,-3.423793241381645203e-02,5.166988447308540344e-02,-5.713557079434394836e-02,-9.217834472656250000e-02,6.277907639741897583e-02,-7.624801248311996460e-02,4.797689616680145264e-02,1.316049546003341675e-01,-2.532407082617282867e-02,-1.367444396018981934e-01,3.842378780245780945e-02,-7.421091943979263306e-02,4.783006012439727783e-02,2.372316643595695496e-02,5.477636680006980896e-02,-5.571517348289489746e-02,1.294976323843002319e-01,3.147342428565025330e-02,1.100058928132057190e-01,-1.405224055051803589e-01,2.834445610642433167e-02,1.304122712463140488e-02,1.455988734960556030e-01,-2.984626032412052155e-02,-1.098611503839492798e-01,-1.890173181891441345e-02,-3.417896851897239685e-02,-8.987978845834732056e-02,-3.700389340519905090e-02,4.990870878100395203e-02,-8.948726207017898560e-02,-8.674054592847824097e-02,1.125129237771034241e-01,-7.207455486059188843e-02,1.926401406526565552e-01,-9.300822019577026367e-02,-2.713637985289096832e-02,9.115232527256011963e-02,1.142052784562110901e-01,1.556780189275741577e-02,-7.406444847583770752e-02,-9.671210497617721558e-02,1.473212987184524536e-01,-1.856543868780136108e-01,-5.574000999331474304e-02,-1.398140788078308105e-01,-1.586845889687538147e-02,9.022212028503417969e-02,1.043607592582702637e-01,8.099239319562911987e-02,-1.038346514105796814e-01,2.859390713274478912e-02,-5.344048142433166504e-02,-4.285301640629768372e-02,1.090447828173637390e-01,4.752668365836143494e-02,-1.510206758975982666e-01,2.873073890805244446e-02,1.083260998129844666e-01,5.732760578393936157e-02,-2.659289352595806122e-02,-1.856938451528549194e-01,3.212381526827812195e-02,-1.744584739208221436e-01,9.070789068937301636e-02,-4.186309408396482468e-03,1.419977098703384399e-02,3.729190677404403687e-02,-4.951461404561996460e-02,4.013536125421524048e-02,-1.452650129795074463e-02,-3.429109230637550354e-02,-6.112205609679222107e-02,-2.763585187494754791e-02,-1.027669310569763184e-01,1.776037365198135376e-01,-8.822163194417953491e-02,8.729926496744155884e-02,-5.429003760218620300e-02,-8.656620234251022339e-02,1.063867807388305664e-01,-9.362633526325225830e-02,-1.121729612350463867e-01,-9.299694746732711792e-02,8.891262859106063843e-02,2.560008130967617035e-02,1.164582967758178711e-01,3.152163699269294739e-02,-1.873527020215988159e-01,2.805358171463012695e-02,8.848294615745544434e-02,-7.761783897876739502e-02,-5.673021078109741211e-03,-5.794795230031013489e-02,-1.688541173934936523e-01,8.000589162111282349e-02,1.971562653779983521e-01,1.121763586997985840e-01,6.492863874882459641e-03,1.751337051391601562e-01,-9.356418997049331665e-02,1.529714614152908325e-01,-1.365480124950408936e-01,-1.342093199491500854e-01,-9.576790034770965576e-02,-8.039303123950958252e-03,-4.690502211451530457e-02,1.252004038542509079e-02,1.937861889600753784e-01,-3.852961584925651550e-02,-7.187768071889877319e-02,-6.565594673156738281e-02,-1.084966212511062622e-01,-1.814386807382106781e-02,-1.315856426954269409e-01,-1.017311811447143555e-01,5.754667520523071289e-02,1.248123217374086380e-02,7.907946407794952393e-02,-3.246793895959854126e-02,-5.733143910765647888e-02,4.712976142764091492e-02,-8.626630902290344238e-02,-4.041555151343345642e-02,8.507570251822471619e-03,1.222077533602714539e-01,-1.030013114213943481e-01,1.624523252248764038e-01,1.184936091303825378e-01,1.306016594171524048e-01,3.436457738280296326e-02,-5.568578839302062988e-02,3.600390627980232239e-02,7.016677409410476685e-02,-1.326278895139694214e-01,-3.315429016947746277e-02,4.748527705669403076e-02,-4.749827086925506592e-02,7.531963288784027100e-02,8.361900597810745239e-02,6.383454892784357071e-03,-1.097440049052238464e-01,6.195828318595886230e-02,-1.036589518189430237e-01,9.775870479643344879e-03,-8.946493268013000488e-03,-1.664232462644577026e-01,5.762855336070060730e-02,-6.157829239964485168e-02,-6.462548859417438507e-03,4.959069564938545227e-02,-3.122963570058345795e-02,3.096736036241054535e-02,-1.225364208221435547e-01,-7.945494353771209717e-02,-5.647891759872436523e-02,1.329301744699478149e-01,-1.433835644274950027e-02,3.274140879511833191e-02,4.517728462815284729e-02,1.130004078149795532e-01,-7.159363478422164917e-02,1.052075549960136414e-01,5.945848301053047180e-02,-2.432326041162014008e-02,1.655113548040390015e-01,-1.744186878204345703e-01,-4.603200405836105347e-02,-1.477143466472625732e-01,-1.239498630166053772e-01,4.613704606890678406e-02,-1.998662203550338745e-01,4.644231125712394714e-02,-7.781706750392913818e-02,1.591118127107620239e-01,4.760525748133659363e-02,1.474223881959915161e-01,4.813465103507041931e-02,9.756601601839065552e-02,1.141564827412366867e-02,-7.941243797540664673e-02,1.587650328874588013e-01,6.721136718988418579e-02,-8.191905915737152100e-02,-1.244994923472404480e-01,1.089704856276512146e-01,-1.180623173713684082e-01,4.192175716161727905e-02,-3.420018404722213745e-02,-1.924379542469978333e-02,-4.058905318379402161e-02,-6.407197564840316772e-02,7.116889953613281250e-02,1.413142383098602295e-01,9.736382216215133667e-02,-6.079534813761711121e-02,9.021373838186264038e-02,9.019545465707778931e-02,-2.017466537654399872e-02,-6.758192181587219238e-02,1.163409501314163208e-01,-4.990055784583091736e-02,-3.857927024364471436e-02,-9.117913246154785156e-02,-1.095677539706230164e-01,-7.232380099594593048e-03,2.915035560727119446e-02,6.896778941154479980e-02,1.906649582087993622e-02,-4.614955559372901917e-02,9.942074120044708252e-02,1.680856756865978241e-02,-7.558437436819076538e-02,1.043129190802574158e-01,9.546066820621490479e-02,-8.174921572208404541e-02,-3.227062895894050598e-02,1.014609485864639282e-01,1.310345381498336792e-01,-9.236776083707809448e-02,1.864685714244842529e-01,-3.079161979258060455e-02,6.413970142602920532e-02,-1.143345423042774200e-02,-1.044425889849662781e-01,-1.068181321024894714e-01,-2.441892400383949280e-02,2.895321324467658997e-02,-7.416956126689910889e-02,-1.392018646001815796e-01,-3.442181274294853210e-02,8.171003311872482300e-02,1.856615208089351654e-02,5.282768234610557556e-02,-2.842024527490139008e-02,1.068047620356082916e-02,-5.268942192196846008e-02,8.872225880622863770e-02,-8.898260444402694702e-02,6.278973072767257690e-02,-9.297697246074676514e-02
-1.779266744852066040e-01,-1.523919105529785156e-01,7.003615051507949829e-02,9.676788747310638428e-02,-1.379966586828231812e-01,-6.471921503543853760e-02,-1.126862391829490662e-01,-1.055171042680740356e-01,3.572033718228340149e-02,-6.905871629714965820e-02,8.172558248043060303e-02,8.254924905486404896e-04,1.008166000247001648e-01,-1.041834130883216858e-01,2.521851658821105957e-02,5.400746688246726990e-02,2.938166074454784393e-02,1.043657660484313965e-01,9.293078631162643433e-02,-1.840094663202762604e-02,8.416675776243209839e-02,6.190545111894607544e-02,-5.941067263484001160e-02,9.502360224723815918e-02,1.586896181106567383e-01,5.736048892140388489e-02,1.073941811919212341e-01,-7.750939577817916870e-02,1.998485624790191650e-01,6.437443196773529053e-02,2.281402470543980598e-03,2.124225348234176636e-02,-9.805636480450630188e-03,-9.373283945024013519e-03,4.081189259886741638e-02,-6.801714003086090088e-02,-9.665735810995101929e-02,2.456322684884071350e-02,5.645611509680747986e-02,-8.183942735195159912e-02,9.544720500707626343e-02,6.960974633693695068e-02,9.363737702369689941e-02,-1.296448111534118652e-01,-7.514753192663192749e-02,-7.945048063993453979e-02,-7.791693508625030518e-02,-6.483540683984756470e-02,-9.329494088888168335e-02,9.102050215005874634e-02,5.952197313308715820e-02,1.026511713862419128e-01,-1.511118859052658081e-01,5.749217420816421509e-02,1.453098505735397339e-01,3.065828979015350342e-02,-6.035022065043449402e-02,1.716840825974941254e-02,9.173148125410079956e-02,1.455146521329879761e-01,7.141279522329568863e-03,-6.888719648122787476e-02,-4.996473714709281921e-02,3.630664572119712830e-02,1.490555554628372192e-01,-1.063489317893981934e-01,3.561639040708541870e-02,-9.120815992355346680e-02,-3.570615500211715698e-02,-4.620048403739929199e-02,-1.311980187892913818e-01,-9.772028028964996338e-02,5.024860054254531860e-02,1.343112289905548096e-01,1.587419211864471436e-01,1.401968449354171753e-01,-9.855144470930099487e-02,5.328610166907310486e-02,-3.815967962145805359e-02,6.992151588201522827e-02,-2.459344826638698578e-02,5.167017132043838501e-02,1.297873109579086304e-01,-3.033230267465114594e-02,4.266881570219993591e-02,7.576695829629898071e-02,6.123314425349235535e-02,1.341341435909271240e-01,2.351223491132259369e-02,-1.000084802508354187e-01,-9.724090993404388428e-02,-3.834119765087962151e-03,-8.435886353254318237e-02,8.117167651653289795e-02,1.005663769319653511e-03,8.677648729644715786e-04,1.078511700034141541e-01,-6.561239808797836304e-02,3.793228045105934143e-02,-5.242541059851646423e-02,1.033788472414016724e-01,1.088609024882316589e-01,-7.632889598608016968e-02,1.576882153749465942e-01,-4.825763404369354248e-03,-9.676938503980636597e-02,-1.265218704938888550e-01,-1.343229878693819046e-02,6.968461722135543823e-02,5.840907618403434753e-02,4.662149772047996521e-02,-1.338256150484085083e-01,-9.884627163410186768e-02,8.046337217092514038e-02,1.903889030218124390e-01,5.851978808641433716e-02,8.921120315790176392e-02,1.200226172804832458e-01,-9.262934327125549316e-02,-6.470280885696411133e-02,-7.721995469182729721e-03,7.173200696706771851e-02,-1.424662489444017410e-02,-8.358981460332870483e-02,-1.073276922106742859e-01,-1.424298584461212158e-01,-2.448982372879981995e-02,-2.821668796241283417e-02,7.523418217897415161e-02,5.680711939930915833e-02,1.905645988881587982e-02,-1.250718981027603149e-01,6.630749255418777466e-02,2.192043326795101166e-02,-1.211700262501835823e-03,-9.044512361288070679e-02,1.383241713047027588e-01,1.491187065839767456e-01,-1.921078860759735107e-01,6.709154695272445679e-02,4.384804889559745789e-02,1.741468720138072968e-02,-1.034216284751892090e-01,1.945666074752807617e-01,-1.663372665643692017e-02,-5.184868723154067993e-02,-9.092276543378829956e-02,-2.345354668796062469e-02,-1.564212143421173096e-02,-5.639302358031272888e-02,1.734109520912170410e-01,-6.368499249219894409e-03,1.592469662427902222e-01,-2.190122567117214203e-02,4.338878020644187927e-02,-1.376731880009174347e-02,8.310990780591964722e-02,9.767059236764907837e-02,2.164566516876220703e-02,-1.080920845270156860e-01,-4.099147021770477295e-02,1.066060140146873891e-04,-1.105194911360740662e-01,1.526905894279479980e-01,-1.667738407850265503e-01,-1.879219524562358856e-02,-2.754308283329010010e-02,-1.235433220863342285e-01,-4.151762649416923523e-02,-8.748897910118103027e-02,-8.065640181303024292e-02,7.861864566802978516e-02,8.931924588978290558e-03,-7.890577614307403564e-02,6.768398731946945190e-02,-8.475140482187271118e-02,1.488452106714248657e-01,6.649049371480941772e-02,-8.264694362878799438e-03,-8.751808106899261475e-02,-9.634728543460369110e-03,4.928210005164146423e-02,-9.481435269117355347e-02,-6.735181063413619995e-02,1.199613735079765320e-01,7.752041518688201904e-02,-5.363337323069572449e-02,6.210177764296531677e-02,-8.276818692684173584e-02,-1.058933362364768982e-01,-5.911029130220413208e-02,-3.308267518877983093e-02,4.642222449183464050e-02,-4.093263670802116394e-02,3.889642655849456787e-02,-7.396472990512847900e-02,-2.160497754812240601e-02,-1.462086886167526245e-01,-2.227819152176380157e-02,-5.160668492317199707e-02,-5.237123370170593262e-02,6.595586985349655151e-02,-2.948783710598945618e-02,6.067043542861938477e-02,-1.224399432539939880e-01,-4.187406506389379501e-03,7.713706046342849731e-02,7.196339219808578491e-02,1.334737688302993774e-01,8.183007687330245972e-02,3.152693097945302725e-04,1.287585198879241943e-01,-2.820316329598426819e-02,1.482340544462203979e-01,-5.925488099455833435e-02,-5.891491100192070007e-02,1.964349001646041870e-01,2.130177244544029236e-02,-6.536895781755447388e-02,-3.301131352782249451e-02,-3.668596968054771423e-02,4.812549054622650146e-02,8.325252681970596313e-03,6.499352306127548218e-02,3.023004904389381409e-02,4.515713080763816833e-02,-1.661948263645172119e-01,1.349613349884748459e-02,1.383894532918930054e-01,9.940099902451038361e-03,-1.164584532380104065e-01,6.212625652551651001e-02,-1.045172475278377533e-02,-1.611254066228866577e-01,-7.719620317220687866e-02,-1.103682667016983032e-01,8.934699743986129761e-02,3.792896494269371033e-02,8.599169552326202393e-02,-1.698552072048187256e-02,-7.694100588560104370e-02,-1.521930247545242310e-01,-3.804188966751098633e-02,2.351713366806507111e-02,-1.415982246398925781e-01,-9.733379632234573364e-02,-2.569064497947692871e-02,-3.671386465430259705e-02,-1.314362436532974243e-01,-1.239246129989624023e-01,1.117500290274620056e-01,-1.123524457216262817e-01,8.977421373128890991e-02,-5.262546613812446594e-02,-9.167535603046417236e-02,-1.021595597267150879e-01,5.615770444273948669e-02,4.287744313478469849e-02,3.266691789031028748e-02,-1.508171409368515015e-01,-3.645821660757064819e-02,1.423986535519361496e-02,-2.406710945069789886e-02,1.221284270286560059e-01,2.347674779593944550e-02,-8.609866350889205933e-02,5.240454152226448059e-02,-1.645433306694030762e-01,-5.320404097437858582e-02,4.249266162514686584e-02,1.192619130015373230e-01,1.086067929863929749e-01,2.614167146384716034e-02,-4.379545897245407104e-02,2.980114519596099854e-02,-1.377920508384704590e-01,3.956666588783264160e-02,1.092435717582702637e-01,-1.819625794887542725e-01,6.904113572090864182e-03,-8.972000330686569214e-02,1.594417244195938110e-01,-5.000510811805725098e-02,-1.884396374225616455e-01,-1.219772696495056152e-01,-2.861355245113372803e-02,1.395334452390670776e-01,1.446141768246889114e-02,-2.275548689067363739e-02,2.029815874993801117e-02,-2.697723545134067535e-02,-4.975983127951622009e-02,-1.733080595731735229e-01,3.366767242550849915e-02,1.311169564723968506e-01,1.179699897766113281e-01,1.441871225833892822e-01,-9.365913271903991699e-02,-5.742351338267326355e-02,-3.115343488752841949e-02,1.126967277377843857e-02,6.371641904115676880e-02,-1.543575972318649292e-01,1.056534647941589355e-01,8.352625370025634766e-02,-4.923908039927482605e-03,-3.494505211710929871e-02,1.420922875404357910e-01,-3.056346438825130463e-02,-9.047334641218185425e-02,5.952006578445434570e-02,7.550812512636184692e-02,6.196213513612747192e-02,-3.306707367300987244e-02,-4.349438473582267761e-02,-9.888070076704025269e-02,3.193110972642898560e-02,-9.931218624114990234e-02,1.060826405882835388e-01,-1.385442167520523071e-01,7.660144567489624023e-02,-8.314131945371627808e-02,-5.151013657450675964e-02,-3.724688664078712463e-02,4.236119613051414490e-02,-5.899631883949041367e-03,1.221235916018486023e-01,-8.052287995815277100e-02,-2.386407181620597839e-02,1.557433325797319412e-02,-3.832575306296348572e-02,1.339466776698827744e-02,-1.586123555898666382e-01,-5.447726324200630188e-02,-1.419643964618444443e-02,4.497913271188735962e-02,3.358698636293411255e-02,-1.072880774736404419e-01,-1.584275066852569580e-01,2.350134216248989105e-02,-6.941285729408264160e-02,-1.056123971939086914e-01,5.543258786201477051e-02,-1.340865045785903931e-01,-5.930028483271598816e-02,1.000097990036010742e-01,-1.116966921836137772e-02,1.311565190553665161e-01,-8.610498160123825073e-02,1.412369310855865479e-02,9.300692379474639893e-02,-1.610483527183532715e-01,1.069833561778068542e-01,8.660252392292022705e-02,2.227006293833255768e-02,4.163179919123649597e-02,-8.137363195419311523e-02,-1.401724666357040405e-01,1.125111207365989685e-01,1.133743152022361755e-01,1.368504166603088379e-01,-3.048926405608654022e-02,-1.433071345090866089e-01,8.495533838868141174e-03,-2.288131602108478546e-02,-7.453037798404693604e-02,-2.608053199946880341e-02,1.418077200651168823e-01,5.406320560723543167e-03,-1.326647996902465820e-01,-2.630531601607799530e-02,8.640360087156295776e-02,-1.067268848419189453e-01,-7.067616563290357590e-03,4.255073145031929016e-02,5.047313123941421509e-02,-1.575509160757064819e-01,9.849972091615200043e-03,1.215077266097068787e-01,-1.316086500883102417e-01,-2.983089163899421692e-02,1.162297055125236511e-01,-1.238326262682676315e-02,1.166340615600347519e-02,-6.912200152873992920e-02,7.445786893367767334e-02,3.709607943892478943e-02,-5.029558762907981873e-02,1.555316299200057983e-01,-1.253613680601119995e-01,3.960447385907173157e-03,-3.789552673697471619e-02,9.442382305860519409e-02,-9.370897710323333740e-02,-5.909013748168945312e-02,-1.223867088556289673e-01,7.226982712745666504e-02,8.821237087249755859e-02,-9.029931575059890747e-02,1.739471219480037689e-02,-1.453687902539968491e-02,-8.861225098371505737e-02,7.104235142469406128e-02,-4.744274169206619263e-02,6.611392647027969360e-02,-8.266115933656692505e-02,-6.804927438497543335e-02,-3.547389432787895203e-02,1.379218995571136475e-01,-7.174921780824661255e-02,1.455949395895004272e-01,-1.127362027764320374e-01,7.548989262431859970e-03,-1.060321703553199768e-01,4.816906899213790894e-02,-1.447617709636688232e-01,-7.464264333248138428e-02,-8.254723995923995972e-02,-8.780908584594726562e-02,-5.892793089151382446e-02,-9.112744778394699097e-02,1.677344553172588348e-02,-1.956931315362453461e-02,1.043244004249572754e-01,-3.974872082471847534e-02,-3.012529574334621429e-02,2.384238317608833313e-02,9.802899323403835297e-03,8.699583262205123901e-02,-1.027620434761047363e-01,4.043342079967260361e-03,8.013736456632614136e-02,1.163638383150100708e-02,-7.344862073659896851e-02,5.313410982489585876e-02,9.848125278949737549e-03,7.874538749456405640e-02,9.958631545305252075e-02,1.745785325765609741e-01,8.923640102148056030e-02,-1.221766471862792969e-01,8.368529379367828369e-02,-1.948541998863220215e-01,1.854092329740524292e-01,-2.405033074319362640e-02,1.229843646287918091e-01,-4.154713079333305359e-02,9.508798830211162567e-03,8.268944174051284790e-02,-1.748104691505432129e-01,7.991070300340652466e-02,-8.018025010824203491e-02,3.511599078774452209e-02,1.159933134913444519e-01,-3.655637428164482117e-02,2.035532332956790924e-02,1.020154729485511780e-01,-6.815849989652633667e-02,-1.124103665351867676e-01,8.256206661462783813e-02,-2.574273385107517242e-02,-6.997739523649215698e-02,1.147948279976844788e-01,-3.936887905001640320e-02,-3.885015845298767090e-02,-4.056982323527336121e-02,1.331405490636825562e-01,-1.977761089801788330e-01,3.771425783634185791e-02,3.141706436872482300e-02,1.101257726550102234e-01,-2.540941908955574036e-02,1.431146264076232910e-01,-9.234433993697166443e-03,-5.504006147384643555e-02,8.674898743629455566e-02,-4.115476831793785095e-02,1.546206325292587280e-01,2.966649830341339111e-02,-9.363977611064910889e-02,5.830688402056694031e-02,-5.094903707504272461e-02,-1.037928275763988495e-02,-3.200117498636245728e-02,-1.010287776589393616e-01,1.314066052436828613e-01,1.855126023292541504e-02,-1.397881656885147095e-01,1.676244288682937622e-01,1.070169918239116669e-02,1.290584355592727661e-01,-1.014412641525268555e-01,3.843413665890693665e-02,-8.687494695186614990e-02,1.503778100013732910e-01,1.110617350786924362e-02,1.396208256483078003e-01,-8.583214879035949707e-02,-7.331675291061401367e-02,-8.827237784862518311e-02,-3.731625899672508240e-02,-2.497781626880168915e-02,1.103021502494812012e-01,5.531965568661689758e-02,-8.036091178655624390e-02,-1.101302355527877808e-02,-3.234713897109031677e-02,-7.629768550395965576e-02,-2.995928004384040833e-02,2.538617886602878571e-02,-3.055497445166110992e-02,3.556365892291069031e-02
5.642354022711515427e-03,9.755331091582775116e-03,6.940922886133193970e-02,1.684558205306529999e-02,-2.090196497738361359e-02,7.894120179116725922e-03,8.197177201509475708e-02,4.273114900570362806e-04,-8.118995279073715210e-02,1.013054773211479187e-01,4.139674827456474304e-02,1.313199847936630249e-01,-4.744670912623405457e-02,-1.038967743515968323e-01,1.182330474257469177e-01,-1.906613324536010623e-04,9.905854240059852600e-03,3.943096101284027100e-02,4.934916645288467407e-02,-4.544147476553916931e-02,1.839087530970573425e-02,1.138030439615249634e-01,1.037030369043350220e-01,2.876024879515171051e-02,-9.822153300046920776e-02,-1.649655029177665710e-02,-8.890224248170852661e-02,-1.710989139974117279e-02,-5.432155355811119080e-02,-1.225408092141151428e-01,3.682902827858924866e-02,6.420852243900299072e-02,1.856113225221633911e-01,-1.483003944158554077e-01,-1.033088713884353638e-01,1.345483399927616119e-02,-9.484358131885528564e-03,6.408793479204177856e-02,2.962833642959594727e-02,9.042354673147201538e-02,8.176093548536300659e-02,-4.087054356932640076e-02,-1.303910166025161743e-01,-9.231107681989669800e-02,-9.117894619703292847e-02,9.995280951261520386e-02,1.341305114328861237e-02,9.468764066696166992e-02,-8.011198043823242188e-02,6.120632961392402649e-02,3.059374168515205383e-02,1.458470243960618973e-02,-1.590104401111602783e-02,4.950443655252456665e-02,4.543156921863555908e-02,1.021168380975723267e-01,-4.174540936946868896e-02,-1.621998995542526245e-01,1.620050519704818726e-02,6.085848808288574219e-02,9.408812038600444794e-03,-1.776800006628036499e-01,-1.183204054832458496e-01,2.074320241808891296e-02,-1.646139472723007202e-01,-1.095145568251609802e-01,1.948732696473598480e-02,-7.017473131418228149e-02,-1.311819851398468018e-01,-1.705872826278209686e-02,-1.352148056030273438e-01,-7.124206423759460449e-02,4.785140510648488998e-03,-1.378257274627685547e-01,-1.058661267161369324e-01,1.359546482563018799e-01,4.949119687080383301e-02,-1.389397233724594116e-01,1.671174019575119019e-01,-4.188788682222366333e-02,-1.766552627086639404e-01,1.133275683969259262e-02,-3.081865608692169189e-02,-5.192373320460319519e-02,1.299192197620868683e-02,-1.081229671835899353e-01,-7.220067828893661499e-02,1.473965197801589966e-01,4.234191775321960449e-02,3.458293899893760681e-02,-1.064211279153823853e-01,-2.791078947484493256e-02,1.038199439644813538e-01,7.763230055570602417e-02,1.141728367656469345e-02,1.689941734075546265e-01,-4.515649005770683289e-02,-2.714059688150882721e-02,-8.356007188558578491e-02,-5.186165496706962585e-02,6.134177371859550476e-02,-1.642136424779891968e-01,1.189616043120622635e-02,4.033598303794860840e-02,1.244003698229789734e-01,-3.362293168902397156e-02,-1.201900243759155273e-01,-7.303636521100997925e-02,3.316497057676315308e-02,-4.080295097082853317e-03,6.566424667835235596e-02,-1.514637768268585205e-01,-4.217779263854026794e-02,-1.012312322854995728e-01,-5.037696287035942078e-02,-3.693884238600730896e-02,1.859317161142826080e-02,7.199725601822137833e-03,1.311929672956466675e-01,-1.157788783311843872e-01,1.420975755900144577e-02,3.753755008801817894e-03,-9.422929584980010986e-02,1.894542127847671509e-01,-1.319678872823715210e-01,6.940047442913055420e-02,-1.461324095726013184e-01,-1.751562803983688354e-01,-1.261091139167547226e-02,9.132581949234008789e-02,-5.869382247328758240e-02,1.232957839965820312e-01,7.152654230594635010e-02,1.138332411646842957e-01,-3.280969336628913879e-02,-3.704148530960083008e-02,-2.340370556339621544e-03,1.432202458381652832e-01,6.220343336462974548e-02,1.356006264686584473e-01,-1.695086807012557983e-01,1.953832060098648071e-01,5.790128931403160095e-02,1.434939634054899216e-02,1.813587248325347900e-01,9.828266687691211700e-03,2.515783719718456268e-02,-9.471713006496429443e-02,-8.717654645442962646e-02,1.160132661461830139e-01,6.115965917706489563e-02,-9.264124929904937744e-02,-4.621377214789390564e-02,1.575604379177093506e-01,7.644440978765487671e-02,-3.919522091746330261e-02,-2.410400845110416412e-02,-1.301290839910507202e-01,1.250508241355419159e-03,-1.952781341969966888e-02,-7.993879914283752441e-02,1.049820929765701294e-01,-9.620404988527297974e-02,-2.183578762924298644e-04,2.389314211905002594e-02,-6.242083385586738586e-02,-7.056126743555068970e-02,-1.820260733366012573e-01,-2.900411188602447510e-02,-3.603942692279815674e-02,1.732941134832799435e-03,-2.830751053988933563e-02,-9.251791983842849731e-02,5.154600739479064941e-02,-4.107581824064254761e-02,4.896086454391479492e-02,6.095685437321662903e-02,-1.491197198629379272e-02,-1.022585853934288025e-01,8.943272754549980164e-03,1.258491724729537964e-01,-7.636723574250936508e-03,5.332948639988899231e-02,-7.036295719444751740e-03,-1.249232515692710876e-01,2.473214827477931976e-02,1.331546157598495483e-01,-6.020544841885566711e-02,3.040037490427494049e-02,2.186932973563671112e-02,1.898830011487007141e-02,2.151680365204811096e-02,6.857022643089294434e-03,1.428660452365875244e-01,-1.061848402023315430e-01,5.075605586171150208e-02,-4.356341436505317688e-02,1.814894527196884155e-01,-6.724078208208084106e-02,1.327547430992126465e-01,-7.334771007299423218e-02,-1.188123002648353577e-01,7.890834659337997437e-02,-4.071293398737907410e-02,-6.737129390239715576e-02,1.855887323617935181e-01,1.953966170549392700e-02,6.203369423747062683e-02,7.330030947923660278e-02,-1.765430718660354614e-02,3.546795621514320374e-02,-1.215645447373390198e-01,1.278392225503921509e-01,-6.018715724349021912e-02,1.143838167190551758e-01,-5.105035379528999329e-02,2.135559171438217163e-02,8.914297074079513550e-02,-4.760483652353286743e-02,-1.055841427296400070e-02,-7.835426367819309235e-04,-2.265929244458675385e-02,-2.615694701671600342e-02,4.198958352208137512e-02,1.938001625239849091e-02,2.676740288734436035e-02,6.569603923708200455e-03,1.667737402021884918e-02,8.328761905431747437e-02,1.243144422769546509e-01,-1.417461633682250977e-01,-1.184005066752433777e-01,-3.703241795301437378e-02,2.502484992146492004e-02,1.379201710224151611e-01,-1.213673353195190430e-01,3.056406974792480469e-02,7.398011535406112671e-02,-3.793544322252273560e-02,1.018004417419433594e-01,3.301048418506979942e-03,-1.433266699314117432e-01,4.329823702573776245e-02,-1.451576221734285355e-02,-6.164495274424552917e-02,-3.135505691170692444e-02,-1.680528372526168823e-02,-8.272411674261093140e-02,1.516660582274198532e-02,1.446757744997739792e-02,4.122079908847808838e-02,1.875351518392562866e-01,-1.548155546188354492e-01,1.900707930326461792e-01,-1.071543022990226746e-01,7.841348648071289062e-02,-1.363560091704130173e-02,-6.833834201097488403e-02,2.551831677556037903e-02,1.790901273488998413e-01,3.687425702810287476e-02,-5.705574899911880493e-02,-5.983293056488037109e-02,3.523309901356697083e-02,-6.113000586628913879e-02,2.922077476978302002e-02,2.327517978847026825e-02,6.340851634740829468e-02,-1.394583750516176224e-02,-1.356188207864761353e-02,6.802648305892944336e-02,1.884517520666122437e-01,5.496940761804580688e-02,-4.352828860282897949e-02,6.130849942564964294e-02,5.301447585225105286e-02,-3.525211289525032043e-02,-1.645355485379695892e-02,1.807928830385208130e-01,1.257491856813430786e-01,-1.341261714696884155e-02,4.172397777438163757e-02,-9.884505718946456909e-02,7.048883289098739624e-02,3.389069065451622009e-02,-2.404977194964885712e-02,3.360060276463627815e-03,1.243522092700004578e-01,1.578971147537231445e-01,-3.695530444383621216e-02,-6.889200955629348755e-02,-1.599711924791336060e-01,1.301306206732988358e-02,1.538681215606629848e-03,-7.975790649652481079e-02,5.855176970362663269e-02,5.802657082676887512e-02,-1.328603625297546387e-01,-1.731169819831848145e-01,1.307858526706695557e-01,8.867457509040832520e-03,9.854497388005256653e-03,1.063184887170791626e-01,-7.817461341619491577e-02,-5.333134159445762634e-02,1.255951672792434692e-01,-5.779656767845153809e-02,-6.463692523539066315e-03,1.197382584214210510e-01,-7.921877503395080566e-02,-5.803551897406578064e-02,-7.320152968168258667e-02,-6.534640491008758545e-02,1.817501708865165710e-02,-1.056402698159217834e-01,5.634186789393424988e-02,1.589056253433227539e-01,5.064061284065246582e-02,5.504268407821655273e-02,2.810614369809627533e-02,-9.734641760587692261e-02,-1.178274676203727722e-01,4.051610454916954041e-02,1.136257052421569824e-01,1.573058590292930603e-02,-1.305460780858993530e-01,-1.193299666047096252e-01,6.322294473648071289e-02,-9.188977628946304321e-02,-5.845620855689048767e-02,5.766707286238670349e-02,-4.770671576261520386e-02,1.158452779054641724e-01,5.803183838725090027e-02,1.723107695579528809e-02,1.140175089240074158e-01,-7.757084816694259644e-02,2.495228312909603119e-03,8.203534781932830811e-02,9.023486077785491943e-02,7.957384735345840454e-02,7.564796507358551025e-02,6.275654770433902740e-03,-1.622406691312789917e-01,2.880642749369144440e-02,5.319700762629508972e-02,-8.411513268947601318e-02,5.669232085347175598e-02,7.820189744234085083e-02,4.649487510323524475e-02,3.755309805274009705e-02,-1.317576766014099121e-01,-7.636218518018722534e-02,7.108570635318756104e-02,-8.538397960364818573e-03,-4.900402203202247620e-02,-1.066385507583618164e-01,-5.269557237625122070e-02,1.835764497518539429e-01,-5.461572483181953430e-02,-4.851875454187393188e-02,3.689539059996604919e-02,-3.700101748108863831e-02,1.661167889833450317e-01,-3.485719487071037292e-02,-9.340927004814147949e-02,-1.292361617088317871e-01,-3.543214127421379089e-02,-7.814944535493850708e-02,-9.543144702911376953e-02,-1.213745102286338806e-01,-1.371415406465530396e-01,-8.320620656013488770e-02,1.434431876987218857e-02,1.025995984673500061e-01,-9.752645343542098999e-02,3.505652025341987610e-02,5.532925203442573547e-02,-2.157866396009922028e-02,9.322495013475418091e-02,9.692001342773437500e-02,8.511947095394134521e-02,1.076292619109153748e-01,2.051548101007938385e-02,-5.756937339901924133e-02,-9.084079647436738014e-04,-1.651641912758350372e-02,1.273303925991058350e-01,-1.030321866273880005e-01,2.424046956002712250e-02,3.852024301886558533e-02,-9.361026436090469360e-02,4.298792406916618347e-02,-1.729027368128299713e-02,1.220854744315147400e-01,-5.542270373553037643e-03,7.250692695379257202e-02,-7.842978835105895996e-02,1.343090832233428955e-01,-4.511921852827072144e-02,2.025757683441042900e-03,-4.975930601358413696e-02,-7.229342311620712280e-02,-1.698521822690963745e-01,-1.101504787802696228e-01,-7.587557286024093628e-02,1.113753467798233032e-01,-1.083701997995376587e-01,-4.709509387612342834e-02,1.207993626594543457e-01,-6.347446143627166748e-02,-1.734127104282379150e-01,2.928151004016399384e-02,1.011563912034034729e-01,-1.444412320852279663e-01,-3.434485197067260742e-02,7.545740157365798950e-02,3.613344952464103699e-02,8.133686333894729614e-02,2.297096513211727142e-02,7.801689952611923218e-02,-1.037593111395835876e-01,-5.995316058397293091e-02,-1.577233523130416870e-02,1.423687636852264404e-01,-7.785745710134506226e-02,1.227153763175010681e-01,-5.108821392059326172e-02,6.410817801952362061e-02,-5.828083306550979614e-02,-4.589934647083282471e-02,8.996912837028503418e-02,8.638123422861099243e-02,1.272540539503097534e-01,9.019551426172256470e-02,4.631646722555160522e-02,-1.525640636682510376e-01,-2.340046130120754242e-02,-2.398669905960559845e-02,2.378851920366287231e-02,1.762092113494873047e-01,-1.645674556493759155e-01,6.266343593597412109e-02,-4.265620931982994080e-02,-1.915820688009262085e-01,1.608491986989974976e-01,-8.999315649271011353e-02,3.243188187479972839e-02,-9.502019733190536499e-02,7.283035665750503540e-02,-1.279594302177429199e-01,-7.756008952856063843e-02,-1.133861914277076721e-01,2.287565544247627258e-02,2.424038946628570557e-03,-1.939321458339691162e-01,-1.631272397935390472e-02,7.297700643539428711e-02,3.407045826315879822e-02,7.377192378044128418e-02,-6.982743740081787109e-02,-5.812006816267967224e-02,1.470571942627429962e-02,6.765141338109970093e-02,5.524180084466934204e-02,6.470981240272521973e-02,-9.436858445405960083e-02,6.913663446903228760e-02,-1.220275089144706726e-01,9.228064119815826416e-02,5.170604586601257324e-02,-1.971873641014099121e-01,-2.436962909996509552e-02,1.255619078874588013e-01,-5.794151499867439270e-02,7.721584290266036987e-02,-2.697189105674624443e-03,-4.007216915488243103e-02,8.748372644186019897e-02,4.084940534085035324e-03,1.526219993829727173e-01,3.582655638456344604e-02,-1.343436539173126221e-02,-3.421482443809509277e-02,-1.347213838016614318e-04,-5.874205753207206726e-02,-1.688917167484760284e-02,-5.496177822351455688e-02,3.370051831007003784e-02,9.241127222776412964e-02,1.390482634305953979e-01,-2.962592244148254395e-02,4.539484903216362000e-02,4.641615971922874451e-02,1.523333936929702759e-01,7.097863405942916870e-02,-9.318766742944717407e-02,7.005866616964340210e-02,-6.291668117046356201e-02,4.168822988867759705e-02,-1.147897616028785706e-01,-6.953011453151702881e-02,9.230089932680130005e-02,-1.159394606947898865e-01,8.161989599466323853e-02,-8.238743990659713745e-02,-1.314313262701034546e-01,-1.897546499967575073e-01,-1.379015948623418808e-02,-6.865137070417404175e-02,7.858493924140930176e-02,-1.765129156410694122e-02
