1.521680355072021484e-01,-9.127541631460189819e-02,-9.999470412731170654e-02,2.981861494481563568e-02,5.906108766794204712e-02,1.787145249545574188e-02,1.024876385927200317e-01,3.349145501852035522e-02,-8.483590930700302124e-02,-3.893038257956504822e-02,-5.792048573493957520e-02,-4.609435424208641052e-02,7.610838115215301514e-02,9.269598126411437988e-02,-1.450206041336059570e-01,-1.680743992328643799e-01,-1.101411357522010803e-01,4.984956979751586914e-02,-7.607465237379074097e-02,-4.391817376017570496e-02,1.550992429256439209e-01,2.330417744815349579e-02,8.373785018920898438e-02,5.553958564996719360e-02,1.208658441901206970e-01,-7.315829279832541943e-04,-6.108381971716880798e-02,1.040382757782936096e-01,8.791080862283706665e-02,-8.933802694082260132e-02,-7.042233645915985107e-02,1.778013706207275391e-01,-1.449032127857208252e-01,2.054854109883308411e-02,-2.066225744783878326e-03,5.126249790191650391e-02,6.585722416639328003e-02,7.376660406589508057e-02,-9.641597419977188110e-02,-1.116249784827232361e-01,-8.449123054742813110e-02,-4.996375739574432373e-02,-8.446521311998367310e-02,-2.667931653559207916e-02,-2.901544235646724701e-02,-4.110681265592575073e-02,1.740992069244384766e-01,-1.470655649900436401e-01,-1.370476335287094116e-01,6.973662227392196655e-02,1.465778201818466187e-01,4.151331633329391479e-02,9.641331434249877930e-02,-8.218570053577423096e-02,4.153586551547050476e-02,-2.906582690775394440e-02,3.655034303665161133e-02,-1.133167743682861328e-01,5.803416483104228973e-03,1.287970412522554398e-02,1.079278364777565002e-01,-3.773602843284606934e-02,-1.070066243410110474e-01,-9.371375665068626404e-03,7.536705117672681808e-03,1.457693614065647125e-02,-9.099669754505157471e-03,1.062276735901832581e-01,-4.684538114815950394e-03,1.317762881517410278e-01,-1.186488643288612366e-01,-8.991286158561706543e-02,-9.476129710674285889e-02,-9.106334298849105835e-02,3.802829980850219727e-02,5.739278718829154968e-02,-7.964442484080791473e-03,-1.356821507215499878e-01,-6.769537180662155151e-02,9.508600085973739624e-02,8.988989144563674927e-02,-9.632445871829986572e-02,-9.752801805734634399e-02,-6.657417863607406616e-02,-1.383604295551776886e-02,1.080728173255920410e-01,-1.287783980369567871e-01,-1.047235652804374695e-01,-3.993193432688713074e-02,3.181216493248939514e-02,-1.555891931056976318e-01,6.827608495950698853e-02,4.473484680056571960e-02,1.215512305498123169e-01,-7.242455333471298218e-02,-4.566847905516624451e-02,1.010885834693908691e-01,1.192663908004760742e-01,-1.478967666625976562e-01,-1.662425696849822998e-01,-6.529536843299865723e-02,-8.818645775318145752e-02,-3.483591601252555847e-02,1.954077929258346558e-01,-3.295728191733360291e-02,7.127851992845535278e-02,-1.568604409694671631e-01,4.353780671954154968e-02,-1.688801497220993042e-02,8.697133511304855347e-02,1.643767058849334717e-01,1.091438904404640198e-01,-3.974844142794609070e-02,-1.527671515941619873e-01,9.211622923612594604e-02,-1.390841305255889893e-01,-6.965398788452148438e-02,-1.626946777105331421e-01,5.837731435894966125e-02,-1.015959903597831726e-01,-1.823256351053714752e-02,5.310559272766113281e-02,-8.664526790380477905e-02,-9.934955090284347534e-02,3.464926406741142273e-02,9.653674066066741943e-02,-1.296747773885726929e-01,1.407632082700729370e-01,-5.111588910222053528e-02,2.833504974842071533e-02,1.764071881771087646e-01,6.128050014376640320e-02,1.620070450007915497e-02,4.252303019165992737e-02,5.961774662137031555e-02,-1.394579708576202393e-01,-5.455261468887329102e-02,4.555709287524223328e-02,-5.080680176615715027e-02,3.968358784914016724e-02,8.330460637807846069e-02,1.756080836057662964e-01,-9.905769675970077515e-02,-8.591001480817794800e-02,-3.876965865492820740e-02,-2.164457738399505615e-02,9.966319054365158081e-02,-3.276653215289115906e-02,6.284663826227188110e-02,-6.359129399061203003e-02,5.438230186700820923e-02,-1.649519056081771851e-01,5.820458289235830307e-03,-6.487870216369628906e-02,-1.088022589683532715e-01,-2.142495848238468170e-02,4.253135994076728821e-02,3.287493810057640076e-02,2.950789965689182281e-02,9.223476052284240723e-02,3.531538695096969604e-02,1.082890853285789490e-01,-7.832004874944686890e-02,-2.483032457530498505e-02,-8.228179067373275757e-02,-1.166380476206541061e-02,4.747744277119636536e-02,1.873469203710556030e-01,3.437762707471847534e-02,-1.479416526854038239e-02,1.225915271788835526e-02,-5.684708431363105774e-02,-5.872059985995292664e-02,-4.183457046747207642e-02,-1.084464415907859802e-01,-2.059598825871944427e-02,-1.721805632114410400e-01,7.730045914649963379e-02,2.426882274448871613e-02,9.585872292518615723e-02,-1.205187197774648666e-02,-9.623047709465026855e-02,-2.113072201609611511e-02,-1.170711498707532883e-02,8.425607532262802124e-02,-1.186751052737236023e-01,-2.946763532236218452e-03,5.614972114562988281e-02,-3.749977797269821167e-03,3.451101854443550110e-02,7.504441589117050171e-02,-7.337756454944610596e-02,-1.597454212605953217e-02,-3.964487835764884949e-02,2.183859981596469879e-02,-5.721643567085266113e-02,-1.907059401273727417e-01,2.854221872985363007e-02,6.553255766630172729e-02,3.635602816939353943e-02,-4.964638873934745789e-02,-1.946214288473129272e-01,-6.850431207567453384e-03,8.922290056943893433e-02,-4.068734496831893921e-02,1.361361891031265259e-01,2.597863785922527313e-02,1.493393536657094955e-02,-4.850104823708534241e-02,-4.431229457259178162e-02,1.060489937663078308e-01,3.165427967905998230e-02,-4.085996747016906738e-02,8.501185104250907898e-03,1.813172549009323120e-01,3.935265541076660156e-02,-8.174767345190048218e-02,1.164771839976310730e-01,6.671867519617080688e-02,3.730483120307326317e-03,1.870216727256774902e-01,1.416578292846679688e-01,8.077266626060009003e-03,-1.908762007951736450e-01,8.823768049478530884e-02,-9.630123153328895569e-03,-6.334266066551208496e-02,-8.638744801282882690e-02,7.463680207729339600e-02,-3.413329645991325378e-02,1.114075910300016403e-02,6.963335722684860229e-02,-3.691648691892623901e-02,-9.817611426115036011e-03,-1.004503741860389709e-01,-6.967846304178237915e-02,-3.051552688702940941e-03,-1.552069634199142456e-01,-1.925898343324661255e-02,7.652589556528255343e-05,1.247791424393653870e-01,6.866782158613204956e-02,-4.750925302505493164e-02,-9.901612251996994019e-02,7.019924372434616089e-02,-1.925847232341766357e-01,-1.487456262111663818e-01,6.837242096662521362e-02,2.053931169211864471e-02,7.581481337547302246e-02,4.681473597884178162e-02,5.039076786488294601e-03,9.749154001474380493e-02,-4.224163666367530823e-02,-1.906602643430233002e-02,8.472194522619247437e-02,-1.264210976660251617e-02,1.420518606901168823e-01,9.938960522413253784e-02,-1.386999636888504028e-01,7.498013228178024292e-02,-5.090828612446784973e-02,-5.730258300900459290e-02,1.593815088272094727e-01,-7.976516336202621460e-02,4.698074981570243835e-02,-1.280509084463119507e-01,-1.389547623693943024e-02,6.786258518695831299e-02,4.079523682594299316e-02,8.563144505023956299e-02,-1.351838409900665283e-01,-2.715174667537212372e-02,-4.700816795229911804e-02,-3.171141073107719421e-02,1.341746300458908081e-01,-8.375887572765350342e-02,-4.900396242737770081e-02,1.773574799299240112e-01,-4.274407029151916504e-02,-6.167958956211805344e-03,1.201340369880199432e-02,1.808299571275711060e-01,1.352013181895017624e-02,5.441679153591394424e-03,-9.082151949405670166e-02,2.214515209197998047e-02,-1.659928113222122192e-01,-7.369068264961242676e-02,7.911355793476104736e-02,-6.828444451093673706e-02,-3.588818013668060303e-02,7.807701081037521362e-02,-1.183941122144460678e-02,2.349163964390754700e-02,-1.199766993522644043e-02,-1.635993830859661102e-02,-1.271722614765167236e-01,9.246712177991867065e-02,-1.059490591287612915e-01,-6.018427014350891113e-02,-1.044438630342483521e-01,-5.555331707000732422e-02,4.197634756565093994e-02,2.909911051392555237e-02,-2.186125610023736954e-03,-1.371229290962219238e-01,3.893737494945526123e-02,-6.800571829080581665e-02,6.979118287563323975e-02,1.505590230226516724e-01,2.007882110774517059e-02,-1.200409680604934692e-01,-3.183723986148834229e-02,-3.522196784615516663e-02,-3.131286427378654480e-02,6.594543904066085815e-02,4.422999545931816101e-02,-7.424000650644302368e-02,-1.104020252823829651e-01,4.205405246466398239e-03,2.385096624493598938e-02,-3.657437115907669067e-02,5.589833855628967285e-02,-2.370073646306991577e-02,-6.772380322217941284e-02,-1.816091388463973999e-01,4.809952154755592346e-02,1.584196649491786957e-02,1.281564682722091675e-01,5.161968991160392761e-02,-1.627789996564388275e-02,6.447053700685501099e-02,-1.322032511234283447e-01,1.568991541862487793e-01,-1.427503824234008789e-01,1.957886293530464172e-02,1.492289751768112183e-01,5.302998051047325134e-02,4.034287482500076294e-02,6.121170148253440857e-02,1.856761425733566284e-02,-2.163985930383205414e-02,1.501339077949523926e-01,-2.284904755651950836e-02,-7.314812391996383667e-02,-5.703935027122497559e-02,4.961792752146720886e-02,-7.445621490478515625e-02,-1.159161925315856934e-01,7.263161242008209229e-02,-2.665693755261600018e-04,-9.312468767166137695e-02,-5.575658008456230164e-02,-1.697523705661296844e-02,-2.578202821314334869e-02,-7.113891839981079102e-02,3.499824926257133484e-02,-1.390110105276107788e-01,1.798377037048339844e-01,1.642285734415054321e-01,6.193650886416435242e-02,-8.841816335916519165e-02,2.079527452588081360e-02,-1.748013645410537720e-01,-2.292514406144618988e-02,1.376613378524780273e-01,-5.138126015663146973e-02,-1.187925599515438080e-02,-1.258451212197542191e-02,-1.028446108102798462e-01,4.849293455481529236e-02,1.806249655783176422e-02,-7.461439818143844604e-02,4.634365066885948181e-02,-6.162141636013984680e-02,1.197224780917167664e-01,-2.889786474406719208e-02,3.071988187730312347e-02,1.422705948352813721e-01,-5.994914844632148743e-02,-2.318703196942806244e-02,5.656344443559646606e-02,9.004863351583480835e-02,-3.558718040585517883e-02,-2.137334272265434265e-02,-9.442105144262313843e-02,-1.180779561400413513e-01,5.914479028433561325e-03,1.469225436449050903e-01,-1.045707240700721741e-01,4.775978252291679382e-02,3.519007563591003418e-02,5.444840714335441589e-02,4.238817468285560608e-02,-2.370949275791645050e-02,8.907719701528549194e-02,1.167540922760963440e-01,-1.090908870100975037e-01,1.313654333353042603e-01,1.407413929700851440e-01,-9.758494049310684204e-02,4.341725260019302368e-02,7.066210359334945679e-02,5.731303617358207703e-02,1.984006911516189575e-01,-1.256920304149389267e-02,1.039316784590482712e-02,-7.585983723402023315e-02,2.910967729985713959e-02,1.115060374140739441e-01,1.314420849084854126e-01,8.263724297285079956e-02,-6.800185889005661011e-02,-1.620237231254577637e-01,1.293445974588394165e-01,-1.098430994898080826e-02,-1.526153683662414551e-01,-2.333016321063041687e-02,-8.192162215709686279e-02,-1.792819350957870483e-01,-1.173301339149475098e-01,1.194664612412452698e-01,3.315197676420211792e-02,-1.146409139037132263e-01,3.047526814043521881e-02,9.892544895410537720e-02,-7.626508921384811401e-02,1.379538625478744507e-01,-7.737023383378982544e-02,-2.105419896543025970e-02,2.418111637234687805e-02,-1.088869292289018631e-02,-1.690796762704849243e-02,9.081626683473587036e-02,-8.248133957386016846e-02,-1.545991450548171997e-01,1.197142060846090317e-02,3.881732001900672913e-02,3.575697308406233788e-03,-7.475429028272628784e-02,8.801589906215667725e-02,-3.188969194889068604e-02,1.832745410501956940e-02,1.527866721153259277e-02,-3.098701313138008118e-02,4.159518703818321228e-02,3.857142105698585510e-02,-6.203089142218232155e-04,-6.743211299180984497e-02,-2.555473521351814270e-02,1.395787596702575684e-01,2.477564616128802299e-03,6.298702955245971680e-02,-8.026497066020965576e-02,3.133113682270050049e-02,-2.345085330307483673e-02,5.770016461610794067e-02,2.095923945307731628e-02,-9.882433712482452393e-02,-8.891599252820014954e-03,-1.776348613202571869e-02,-2.108524640789255500e-04,-2.500209212303161621e-02,1.138177663087844849e-01,6.724059581756591797e-02,8.698027580976486206e-02,-7.014470547437667847e-02,1.351097226142883301e-01,1.204594597220420837e-01,4.242629930377006531e-02,1.194483563303947449e-01,-7.968696951866149902e-02,1.859005093574523926e-01,4.025561211165040731e-04,-5.772270634770393372e-02,4.933279380202293396e-02,6.518911570310592651e-02,3.467714414000511169e-02,-4.193362593650817871e-02,1.878666877746582031e-01,1.698303073644638062e-01,-6.776439398527145386e-02,1.400099098682403564e-01,-6.915535777807235718e-02,2.632034756243228912e-02,5.023102089762687683e-02,-8.787974715232849121e-03,-1.899422705173492432e-02,-1.006201095879077911e-02,1.352134812623262405e-02,-1.346547603607177734e-01,4.184780269861221313e-02,-7.813019305467605591e-02,1.024662181735038757e-01,4.716382548213005066e-02,3.412678092718124390e-02,4.408754035830497742e-02,8.894528448581695557e-02,-6.156838685274124146e-02,4.275758937001228333e-02,6.804241240024566650e-02,-3.418402047827839851e-03,1.550029963254928589e-01,-2.316074445843696594e-02,1.940208822488784790e-01,-1.629485748708248138e-02,-9.987197816371917725e-03,1.409893631935119629e-01,1.243379116058349609e-01,1.150496602058410645e-01,1.231387490406632423e-03
1.044652462005615234e-01,1.416169852018356323e-02,-1.783228479325771332e-02,7.652458548545837402e-02,-1.363129317760467529e-01,1.457504928112030029e-02,-7.708709686994552612e-02,-4.213440418243408203e-02,9.540850669145584106e-02,1.363641303032636642e-02,1.755762249231338501e-01,1.312997788190841675e-01,1.267396658658981323e-01,-1.320541091263294220e-02,-7.396572828292846680e-02,-6.187806278467178345e-02,8.722595125436782837e-02,-4.670903831720352173e-02,8.802980929613113403e-02,-1.869403421878814697e-01,-1.025840081274509430e-02,2.897877059876918793e-02,5.059609934687614441e-02,-1.086347475647926331e-01,-3.368608420714735985e-03,4.201610386371612549e-02,1.507955491542816162e-01,-3.003384172916412354e-02,-2.334667928516864777e-02,8.238143473863601685e-02,-6.069272384047508240e-02,1.775275729596614838e-02,-3.947670385241508484e-02,-1.692441105842590332e-02,1.997424475848674774e-02,-2.328512631356716156e-02,-1.088388189673423767e-01,-5.153966695070266724e-02,-6.097621843218803406e-02,3.893576934933662415e-02,-4.386547487229108810e-03,7.858651876449584961e-02,-1.677164137363433838e-01,1.162778660655021667e-01,2.322030439972877502e-02,-1.146662980318069458e-01,7.325968146324157715e-02,-2.659492753446102142e-02,3.738663718104362488e-02,4.094357043504714966e-02,5.751577764749526978e-02,1.460137125104665756e-02,2.569637261331081390e-02,-1.668450050055980682e-02,1.519134193658828735e-01,-2.590938471257686615e-02,1.723211407661437988e-01,4.147210717201232910e-02,5.479457601904869080e-02,-3.657209873199462891e-02,1.031792089343070984e-01,8.863190561532974243e-02,-6.484100222587585449e-02,-5.614404752850532532e-02,-1.732535846531391144e-02,1.163231953978538513e-01,5.440329387784004211e-02,4.283865913748741150e-02,-1.442744303494691849e-02,-4.252350702881813049e-02,2.481286786496639252e-02,3.367211669683456421e-02,5.080357193946838379e-02,-1.100289728492498398e-02,1.117105409502983093e-01,-4.225196316838264465e-02,1.714327186346054077e-01,-2.928206883370876312e-02,9.958403557538986206e-02,5.502806976437568665e-02,-7.396385818719863892e-02,-1.155248656868934631e-01,4.854064807295799255e-02,6.417971104383468628e-02,-1.143905669450759888e-01,-7.044885307550430298e-02,-2.663574926555156708e-02,-4.085353016853332520e-02,-4.146921262145042419e-02,-6.981655210256576538e-02,-4.698252305388450623e-02,-6.032387167215347290e-02,5.127036478370428085e-03,1.886711120605468750e-01,2.539423108100891113e-02,9.965183585882186890e-02,-1.430641561746597290e-01,-6.913878768682479858e-02,2.798533439636230469e-02,-1.723708063364028931e-01,-1.938287355005741119e-02,9.079789742827415466e-03,-1.409367322921752930e-01,1.751149259507656097e-02,7.546199113130569458e-02,4.598223790526390076e-02,-6.472046673297882080e-02,-5.591064319014549255e-02,-1.949683427810668945e-01,1.838501542806625366e-02,9.567140787839889526e-02,1.038269232958555222e-02,-6.333669275045394897e-02,-6.292456388473510742e-02,-9.456148743629455566e-02,6.925114244222640991e-02,4.025904834270477295e-02,-7.324465364217758179e-02,6.085386872291564941e-02,1.508202701807022095e-01,1.068796515464782715e-01,-1.799876540899276733e-01,5.160614848136901855e-02,-5.577039718627929688e-02,-5.294647812843322754e-02,-5.771146970801055431e-04,-1.817844063043594360e-02,-9.647239744663238525e-02,9.724779427051544189e-02,4.428588971495628357e-02,-1.869757622480392456e-01,1.032684370875358582e-01,1.018472835421562195e-01,7.369856536388397217e-02,1.494186371564865112e-02,2.325090812519192696e-03,-1.008788272738456726e-01,-1.131383329629898071e-01,-2.514164708554744720e-02,-6.255966424942016602e-02,4.215070232748985291e-02,-1.273965984582901001e-01,-3.068759851157665253e-02,-8.008521795272827148e-02,6.392400711774826050e-02,-4.084453359246253967e-02,9.327892214059829712e-03,5.073673557490110397e-03,-1.322034299373626709e-01,-2.009462006390094757e-02,-7.440060377120971680e-02,3.793297708034515381e-02,-1.952380128204822540e-02,5.751353129744529724e-02,1.116800829768180847e-01,-5.011443048715591431e-02,1.699535399675369263e-01,-3.014528565108776093e-02,-9.104224294424057007e-02,-9.122943133115768433e-02,1.160895153880119324e-01,6.535264104604721069e-02,3.952043130993843079e-02,-6.295561045408248901e-02,1.763472706079483032e-02,7.184623181819915771e-02,-7.372873276472091675e-02,-6.266820430755615234e-02,1.392140686511993408e-01,-2.053218334913253784e-02,1.374139189720153809e-01,3.842242434620857239e-02,-2.403941377997398376e-02,1.571902930736541748e-01,7.903878390789031982e-02,-5.961379408836364746e-02,-4.166376590728759766e-02,-1.114571020007133484e-01,-5.813520867377519608e-03,-1.478450000286102295e-01,3.351619839668273926e-02,7.849436998367309570e-02,-1.656090766191482544e-01,5.253456905484199524e-02,-1.511594057083129883e-01,6.000766158103942871e-02,-1.959919929504394531e-01,1.689154803752899170e-01,-4.372675344347953796e-02,9.599598497152328491e-02,1.913758069276809692e-01,-9.183730185031890869e-02,8.746006339788436890e-02,2.229069545865058899e-02,-4.670223686844110489e-03,-1.210063025355339050e-01,-1.783114522695541382e-01,4.879075661301612854e-02,-6.070661544799804688e-02,-1.231709048151969910e-01,-5.185390636324882507e-02,1.867490261793136597e-01,-1.218085810542106628e-01,-1.720616817474365234e-01,6.847433000802993774e-02,6.561660021543502808e-02,7.665457576513290405e-02,-1.204862743616104126e-01,4.367671906948089600e-02,8.462071418762207031e-02,5.109316110610961914e-02,1.701824250631034374e-03,2.644499950110912323e-02,-5.061865970492362976e-02,3.690145909786224365e-02,-9.551595896482467651e-02,-1.393053829669952393e-01,1.245965287089347839e-01,9.153197705745697021e-02,1.011678501963615417e-01,-1.826976798474788666e-02,5.171221122145652771e-02,-4.341894760727882385e-02,4.505659639835357666e-02,8.428350090980529785e-02,1.000822186470031738e-01,-1.015726253390312195e-01,-1.585947349667549133e-02,-1.155796051025390625e-01,-7.054451387375593185e-03,-1.640737652778625488e-01,-5.187584087252616882e-02,1.048750802874565125e-01,1.727645099163055420e-01,1.708245277404785156e-02,4.558556899428367615e-02,1.263705939054489136e-01,1.353773009032011032e-02,1.580419205129146576e-02,1.787303201854228973e-02,-7.971989363431930542e-02,1.355576217174530029e-01,-4.749014507979154587e-03,-1.203231960535049438e-01,-7.317556440830230713e-02,-4.224620014429092407e-02,-1.766223907470703125e-01,-9.569507837295532227e-02,3.685284405946731567e-02,3.138235583901405334e-02,7.808121293783187866e-02,2.950075641274452209e-02,9.735135734081268311e-02,-1.862803474068641663e-02,1.866105943918228149e-02,7.839230448007583618e-02,4.145289584994316101e-02,6.098289042711257935e-02,-1.252372004091739655e-02,9.607892483472824097e-03,3.940317407250404358e-02,5.921727418899536133e-02,7.365617901086807251e-02,-5.493304133415222168e-02,4.852772876620292664e-02,8.506753295660018921e-02,-9.574408829212188721e-02,-6.350065767765045166e-02,-7.721578329801559448e-02,1.131454333662986755e-01,-1.594284474849700928e-01,-4.838758322875946760e-04,-8.875481039285659790e-02,1.844191364943981171e-02,-4.954969510436058044e-02,-2.590464614331722260e-02,-1.557048410177230835e-01,1.034761443734169006e-01,7.950448244810104370e-02,-1.906832605600357056e-01,8.431711047887802124e-02,-8.590901643037796021e-02,1.392275542020797729e-01,3.430901840329170227e-02,1.345170885324478149e-01,-5.067336559295654297e-02,1.609644736163318157e-03,-1.266228109598159790e-01,-8.792169392108917236e-02,6.685772538185119629e-02,1.441525518894195557e-01,1.794036477804183960e-01,9.295420721173286438e-03,1.425772067159414291e-02,7.293498516082763672e-02,-3.349633514881134033e-02,-3.412731364369392395e-02,1.215945035219192505e-01,-3.125538351014256477e-03,-8.365755900740623474e-03,-7.665955345146358013e-04,-5.137301236391067505e-02,1.881944946944713593e-02,1.057614833116531372e-01,-1.744512096047401428e-02,7.848561555147171021e-02,-1.934204548597335815e-01,1.191885843873023987e-01,1.931848078966140747e-01,1.261524409055709839e-01,-1.319553256034851074e-01,4.109881073236465454e-02,5.610297992825508118e-02,4.097018390893936157e-02,3.683875873684883118e-02,3.705944120883941650e-02,-5.745378136634826660e-02,9.520085155963897705e-02,-1.783477328717708588e-02,1.223819330334663391e-03,-9.945181012153625488e-02,1.619654148817062378e-02,2.272894978523254395e-02,-4.856757819652557373e-03,1.213199123740196228e-01,-9.355498850345611572e-02,-3.758920729160308838e-02,4.847941920161247253e-02,8.046441525220870972e-02,1.343179196119308472e-01,5.251743271946907043e-02,9.128282777965068817e-03,2.540605701506137848e-02,4.265420511364936829e-02,-1.859517693519592285e-01,-4.105181992053985596e-02,-2.695093629881739616e-03,1.183842644095420837e-01,-8.567502349615097046e-02,-1.221311241388320923e-01,1.239864039234817028e-03,-5.640036612749099731e-02,-5.774563178420066833e-02,3.852073848247528076e-02,1.352267116308212280e-01,-1.071282401680946350e-01,1.501411497592926025e-01,4.545370861887931824e-02,1.736528472974896431e-03,-7.033646106719970703e-02,1.004636064171791077e-01,-8.689898997545242310e-02,4.409630969166755676e-02,3.182091191411018372e-02,-1.592108019394800067e-04,1.592046394944190979e-02,-5.032695457339286804e-02,1.590506136417388916e-01,-1.099880710244178772e-01,5.865673883818089962e-04,-8.656496554613113403e-02,4.030174389481544495e-02,8.447617292404174805e-02,-1.358345150947570801e-01,6.951225548982620239e-02,-9.273060411214828491e-02,-2.525117481127381325e-03,-3.811472328379750252e-03,3.200162202119827271e-02,1.934554800391197205e-02,1.375727355480194092e-01,5.099686980247497559e-02,2.679345430806279182e-03,-1.607366055250167847e-01,-7.516134530305862427e-02,6.944482680410146713e-03,1.424038410186767578e-02,-9.313358366489410400e-02,-4.303527995944023132e-02,-3.188828751444816589e-02,1.286635249853134155e-01,-5.839316174387931824e-02,-1.738107651472091675e-01,-1.709425747394561768e-01,-7.948546856641769409e-02,5.212534591555595398e-02,1.951450407505035400e-01,-2.725662291049957275e-02,-1.683148592710494995e-01,-1.924018710851669312e-01,9.355433285236358643e-02,-2.332953922450542450e-02,1.488478034734725952e-01,-6.810676306486129761e-02,-1.160084037110209465e-03,9.249054640531539917e-02,-3.323252499103546143e-02,1.200047135353088379e-01,1.648819819092750549e-02,6.932250689715147018e-04,-1.277875900268554688e-01,6.694058328866958618e-02,-3.251389134675264359e-03,-8.903829008340835571e-02,-1.973409904167056084e-03,-7.590802758932113647e-02,4.157582670450210571e-02,-1.641117483377456665e-01,7.605816423892974854e-02,-9.540183097124099731e-02,-3.310375288128852844e-02,-1.062336284667253494e-02,-8.192532509565353394e-02,1.070079728960990906e-01,-3.808310255408287048e-02,4.159859567880630493e-02,-2.829269506037235260e-02,1.047951504588127136e-01,-4.782810062170028687e-02,1.921956078149378300e-03,7.202414423227310181e-02,8.076458424329757690e-02,-2.157158590853214264e-02,-3.519530966877937317e-02,1.395648568868637085e-01,1.045993566513061523e-01,-2.239305991679430008e-03,6.728570908308029175e-02,-1.492330729961395264e-01,1.894178539514541626e-01,4.236197844147682190e-02,1.935975104570388794e-01,-8.186201006174087524e-02,1.707616075873374939e-02,1.072909012436866760e-01,-3.701268928125500679e-03,8.235419541597366333e-02,1.820434182882308960e-01,7.924515753984451294e-03,1.144154071807861328e-01,8.929505199193954468e-02,2.016818337142467499e-02,9.688126295804977417e-02,1.289593428373336792e-01,-6.195003911852836609e-02,1.280468553304672241e-01,6.049890536814928055e-03,-1.041065379977226257e-01,-1.692993938922882080e-01,8.684404194355010986e-02,-5.108547955751419067e-02,7.457235455513000488e-02,8.805879205465316772e-02,-9.069863706827163696e-03,3.340896591544151306e-02,-8.772247284650802612e-02,1.796762347221374512e-01,1.316142547875642776e-02,-1.056149601936340332e-02,1.898897737264633179e-01,3.165985643863677979e-02,8.021202683448791504e-02,-1.275287270545959473e-01,-3.029568307101726532e-02,-7.692987471818923950e-02,-4.795807972550392151e-02,2.312434464693069458e-02,3.174349293112754822e-02,-1.022873520851135254e-01,1.086563896387815475e-02,1.910693198442459106e-02,7.057619839906692505e-02,-4.683981835842132568e-02,5.896240100264549255e-02,-3.772870078682899475e-02,-7.500592619180679321e-02,-1.260963380336761475e-01,-7.009092718362808228e-02,-1.334497183561325073e-01,-1.339548528194427490e-01,1.285355687141418457e-01,-3.189879655838012695e-02,-3.905996680259704590e-02,-1.322401612997055054e-01,-2.731059864163398743e-02,-4.679746180772781372e-02,-1.057614106684923172e-03,-9.655573219060897827e-02,7.592860609292984009e-02,4.898801073431968689e-02,-1.937354728579521179e-02,-3.310967609286308289e-02,-5.379357933998107910e-02,-3.971640393137931824e-02,-5.220270901918411255e-02,1.046626791357994080e-01,3.923263866454362869e-03,-1.537153571844100952e-01,1.394749581813812256e-01,1.289775222539901733e-01,9.626438468694686890e-02,1.449176203459501266e-02,-6.345085799694061279e-02,1.811971664428710938e-01,-7.651621848344802856e-02,-7.873474806547164917e-02,2.555985562503337860e-02,1.502919644117355347e-01,-1.427809149026870728e-01,4.172065481543540955e-02,-1.879827231168746948e-01,7.852303981781005859e-02
4.641075059771537781e-02,-1.642805933952331543e-01,1.765475049614906311e-02,3.046660125255584717e-02,4.642079770565032959e-02,1.152440831065177917e-01,5.904282256960868835e-02,1.330540031194686890e-01,5.128690227866172791e-02,-1.048750802874565125e-01,-1.577787250280380249e-01,-6.562066730111837387e-03,-4.534541442990303040e-02,8.651853352785110474e-02,2.308206818997859955e-02,-4.608511924743652344e-03,3.917345404624938965e-02,8.693417906761169434e-02,-1.650552265346050262e-02,2.307793824002146721e-03,-2.636354602873325348e-02,3.962215781211853027e-02,8.480799384415149689e-03,8.176329731941223145e-02,-1.479935646057128906e-02,-1.290796250104904175e-01,-7.545150071382522583e-02,2.257973328232765198e-02,1.022445783019065857e-01,4.168348014354705811e-02,1.722051650285720825e-01,8.646491914987564087e-02,-9.679441899061203003e-02,-3.264979645609855652e-02,-1.214933320879936218e-01,7.514722645282745361e-03,1.738292351365089417e-02,-1.928944885730743408e-01,-3.100070171058177948e-02,1.502909511327743530e-02,5.437718704342842102e-02,7.549320906400680542e-02,-1.493072360754013062e-01,7.453418523073196411e-02,6.309011485427618027e-03,-1.871936209499835968e-02,1.859021782875061035e-01,-9.023986011743545532e-02,5.596382543444633484e-02,2.570267394185066223e-02,3.130476921796798706e-02,8.565987460315227509e-03,-7.196007668972015381e-02,1.467766165733337402e-01,-1.294600125402212143e-02,1.347757596522569656e-02,-2.194130606949329376e-02,-1.156794205307960510e-01,-1.533465534448623657e-01,5.854167416691780090e-02,-6.843730062246322632e-02,8.022855967283248901e-02,1.164119616150856018e-01,-1.222616061568260193e-01,1.911650151014328003e-01,9.933455847203731537e-03,-7.696714601479470730e-04,2.831573598086833954e-02,-1.088069900870323181e-01,-1.324740201234817505e-01,-2.806219831109046936e-02,-7.697034161537885666e-03,1.509352773427963257e-01,-7.198491692543029785e-02,-2.832939103245735168e-02,6.734351045452058315e-04,-9.863264858722686768e-02,-7.548724859952926636e-02,1.284068524837493896e-01,-4.782367125153541565e-02,-2.498120814561843872e-02,9.031886607408523560e-02,-1.544236391782760620e-02,1.077874451875686646e-01,-5.047535896301269531e-02,8.698686212301254272e-02,4.126958921551704407e-02,8.285724371671676636e-02,-2.087118476629257202e-02,-5.309865996241569519e-02,1.295583248138427734e-01,4.688578099012374878e-02,-4.718457907438278198e-02,3.417270258069038391e-02,-5.141749605536460876e-02,-1.855039410293102264e-02,9.854142367839813232e-02,-1.893796175718307495e-01,-1.862072944641113281e-01,3.828574344515800476e-02,1.287320163100957870e-02,-3.182002902030944824e-02,2.605881169438362122e-02,2.747684158384799957e-02,6.424747407436370850e-02,-6.254242360591888428e-02,1.158681064844131470e-01,-1.134732291102409363e-01,-4.513171687722206116e-02,-1.785016506910324097e-01,-2.759489417076110840e-02,-1.896395087242126465e-01,6.034251675009727478e-02,9.488163143396377563e-02,3.046993911266326904e-02,-1.659317873418331146e-02,-1.887207850813865662e-02,1.361023187637329102e-01,5.720295384526252747e-02,-2.140007540583610535e-02,-1.384103894233703613e-01,5.473912879824638367e-02,-7.003683596849441528e-02,-9.417492151260375977e-02,1.416249722242355347e-01,-4.317399288993328810e-04,1.741229146718978882e-01,-4.986781999468803406e-02,9.555822610855102539e-02,1.195780560374259949e-01,5.488690803758800030e-04,-1.954154670238494873e-01,-2.099637500941753387e-02,4.989875480532646179e-02,1.077512428164482117e-01,1.969084590673446655e-01,6.259154528379440308e-02,-1.791602559387683868e-02,4.544603079557418823e-02,-1.351101994514465332e-01,6.603740900754928589e-02,5.472195148468017578e-02,-2.395043335855007172e-02,-6.155333016067743301e-03,3.942090086638927460e-03,7.497134152799844742e-03,-4.303213208913803101e-02,-4.479282721877098083e-02,-1.973572969436645508e-01,-1.112913712859153748e-02,-7.939065806567668915e-03,7.090649753808975220e-02,1.770462840795516968e-01,5.074480921030044556e-02,-1.275846268981695175e-02,1.416312605142593384e-01,-3.172309324145317078e-02,-5.385084077715873718e-02,-1.503840088844299316e-02,1.148531213402748108e-01,5.836963281035423279e-02,3.264129161834716797e-02,1.105782911181449890e-01,-2.762862481176853180e-02,1.304241418838500977e-01,4.389361664652824402e-02,9.488839656114578247e-02,2.427729777991771698e-03,7.207030057907104492e-02,-1.322707384824752808e-01,3.742534294724464417e-02,1.219805628061294556e-01,-1.031177043914794922e-01,2.079979330301284790e-02,-1.248049363493919373e-01,-1.734417304396629333e-02,8.489356189966201782e-02,-8.523521572351455688e-02,6.423000246286392212e-02,-2.877311967313289642e-02,-1.612526923418045044e-01,-7.232621312141418457e-02,8.331387490034103394e-02,-4.838496074080467224e-02,6.770194321870803833e-02,1.524224318563938141e-02,5.451719835400581360e-02,-5.751222372055053711e-02,7.220280915498733521e-02,-8.947887271642684937e-02,1.623106151819229126e-01,9.065724164247512817e-02,-4.862813279032707214e-02,1.633767336606979370e-01,4.190820083022117615e-02,1.515630930662155151e-01,-8.549864590167999268e-02,8.111005648970603943e-03,1.168045997619628906e-01,-4.884808138012886047e-02,-1.908302754163742065e-01,1.749202609062194824e-02,5.663409829139709473e-02,-7.656856626272201538e-02,-7.347527146339416504e-02,-8.902641385793685913e-02,-9.014978259801864624e-02,3.885488212108612061e-02,8.705543726682662964e-02,7.678296416997909546e-02,-1.538456827402114868e-01,-7.516923546791076660e-02,7.778447470627725124e-04,-1.184157095849514008e-02,1.271817740052938461e-02,4.725396283902227879e-04,2.463936619460582733e-02,-5.133157968521118164e-02,-1.436043381690979004e-01,-1.035269871354103088e-01,8.742537349462509155e-02,-3.472483530640602112e-02,1.902700215578079224e-02,2.503868890926241875e-03,-4.016382619738578796e-02,-9.030911326408386230e-02,-1.594472378492355347e-01,-3.937830775976181030e-02,1.777974069118499756e-01,-4.201729595661163330e-02,-1.411085277795791626e-01,7.147414982318878174e-02,-8.594731986522674561e-02,-1.283001154661178589e-01,-9.764933586120605469e-02,6.312150508165359497e-02,-6.861422210931777954e-02,-9.187653660774230957e-02,-9.937088936567306519e-03,-1.413140296936035156e-01,6.495084613561630249e-02,-1.921355351805686951e-02,-8.113660663366317749e-02,-7.215189281851053238e-03,-9.835151582956314087e-02,3.377263993024826050e-02,-1.878270693123340607e-02,-7.912506908178329468e-02,-5.273552611470222473e-03,-3.672955324873328209e-03,-3.574870154261589050e-02,-3.917395696043968201e-02,1.013813614845275879e-01,-7.291113585233688354e-02,-6.664156168699264526e-02,-9.217339567840099335e-03,4.177735373377799988e-02,-2.745798788964748383e-02,8.297198265790939331e-02,1.841721683740615845e-01,-5.987496301531791687e-02,1.613528095185756683e-02,7.525842171162366867e-03,2.142689935863018036e-02,-1.475514471530914307e-01,2.683072723448276520e-02,-6.358201056718826294e-02,-7.891418784856796265e-02,-4.174967855215072632e-02,-9.721060842275619507e-02,-2.083092369139194489e-02,-1.500784605741500854e-01,2.012488618493080139e-02,1.992034465074539185e-01,1.576895713806152344e-01,4.525492712855339050e-02,7.740386575460433960e-02,-9.683611243963241577e-02,-3.685224801301956177e-02,1.130698099732398987e-01,-5.792270880192518234e-03,7.560929749161005020e-03,1.268979068845510483e-02,-9.698606282472610474e-02,3.505691513419151306e-02,1.329374462366104126e-01,-3.139153867959976196e-02,-7.478097919374704361e-03,1.505590416491031647e-02,-1.925583779811859131e-01,1.016223654150962830e-01,1.156424805521965027e-01,-5.665995553135871887e-02,6.606988608837127686e-02,-1.214550137519836426e-01,3.593457490205764771e-02,-1.738622933626174927e-01,-1.340849250555038452e-01,-7.618547230958938599e-02,-2.213109284639358521e-03,-4.254504665732383728e-02,6.181532889604568481e-02,1.003746315836906433e-01,-1.398423463106155396e-01,-1.380234509706497192e-01,9.166403859853744507e-02,7.820144295692443848e-02,-3.256559371948242188e-02,1.321759074926376343e-02,-2.844969742000102997e-02,-1.113321408629417419e-01,-6.137743592262268066e-02,-9.250047616660594940e-03,1.979406774044036865e-01,-5.549966357648372650e-03,-1.128015294671058655e-01,-5.125765129923820496e-02,3.845615312457084656e-03,-2.813352085649967194e-02,-3.968973085284233093e-02,6.184057146310806274e-02,5.771590396761894226e-02,-8.427294343709945679e-02,9.546427428722381592e-02,-6.751836091279983521e-02,-1.154892370104789734e-01,7.846629619598388672e-02,-4.056626185774803162e-02,-8.426170051097869873e-02,-7.295828312635421753e-02,6.048465892672538757e-02,-1.276578605175018311e-01,-9.370215982198715210e-02,8.564932644367218018e-02,-5.532868579030036926e-02,9.279294312000274658e-02,2.076738141477108002e-02,-4.848505184054374695e-02,-1.526161562651395798e-02,8.089773356914520264e-02,6.187958642840385437e-03,9.653536602854728699e-03,-7.846526801586151123e-02,9.245148301124572754e-02,-1.639404743909835815e-01,-1.051268354058265686e-01,-5.192792043089866638e-02,1.052571758627891541e-01,-6.735216826200485229e-02,-3.676268085837364197e-02,3.095808066427707672e-02,-7.398203760385513306e-02,3.360045328736305237e-02,-9.015360474586486816e-02,1.045414134860038757e-01,1.399172693490982056e-01,-1.229423433542251587e-01,6.199119146913290024e-03,-7.419725507497787476e-02,-6.182183697819709778e-02,-1.269076485186815262e-03,3.871124237775802612e-02,1.539086103439331055e-01,3.647455200552940369e-02,4.793602600693702698e-02,-1.358196437358856201e-01,-3.149120137095451355e-02,-1.532981097698211670e-01,2.731377026066184044e-03,5.373488739132881165e-02,-5.626608617603778839e-03,2.215220592916011810e-02,1.257064938545227051e-02,1.304142922163009644e-01,5.079995468258857727e-02,-8.575001358985900879e-02,5.899862572550773621e-02,1.417144984006881714e-01,-1.174897104501724243e-01,-1.157945115119218826e-02,-2.339873276650905609e-02,1.282120347023010254e-01,1.784195937216281891e-02,5.609983950853347778e-02,7.700954377651214600e-02,-5.697703361511230469e-02,1.091675385832786560e-01,9.127790480852127075e-02,-2.697499096393585205e-02,-7.267224788665771484e-02,-1.300893276929855347e-01,7.541715353727340698e-02,3.125498816370964050e-02,1.229124814271926880e-01,-1.446126699447631836e-01,-5.767757818102836609e-02,5.656681582331657410e-02,-1.528338249772787094e-02,1.175694838166236877e-01,-1.524475496262311935e-02,1.201634574681520462e-02,-7.313336431980133057e-02,1.251845527440309525e-02,-3.346629068255424500e-02,1.060538366436958313e-02,3.304202854633331299e-02,-3.792300820350646973e-02,-2.486958168447017670e-02,7.314141094684600830e-02,1.466994583606719971e-01,-7.563688606023788452e-02,-2.603035606443881989e-02,1.513052582740783691e-01,4.986926540732383728e-02,7.766295969486236572e-02,3.340411931276321411e-03,-1.697500497102737427e-01,7.012605667114257812e-02,1.917918771505355835e-01,-1.388644333928823471e-02,1.709918230772018433e-01,-7.172986865043640137e-02,-1.026844382286071777e-01,5.784862115979194641e-02,6.000217795372009277e-02,-3.918509930372238159e-02,-1.267502307891845703e-01,-8.799677342176437378e-02,1.374566256999969482e-01,-1.223362088203430176e-01,6.810499727725982666e-02,-1.801322549581527710e-01,-7.805572357028722763e-03,4.496760666370391846e-02,-7.488325983285903931e-02,3.740528225898742676e-02,-8.698802441358566284e-02,-1.542764902114868164e-02,5.176394805312156677e-02,-9.284152090549468994e-02,1.078695207834243774e-01,-1.883601024746894836e-02,-9.377847425639629364e-03,3.598548099398612976e-02,-9.675548411905765533e-03,-1.174573823809623718e-01,1.236867681145668030e-01,-8.800774067640304565e-02,9.946938604116439819e-02,-1.000334620475769043e-01,-1.567397825419902802e-02,1.287503689527511597e-01,8.395396918058395386e-02,-2.498038858175277710e-02,2.138410322368144989e-02,-1.000297907739877701e-02,9.534236788749694824e-02,-3.093934617936611176e-02,5.535622313618659973e-02,-3.455300629138946533e-02,1.341866701841354370e-01,-1.346532255411148071e-01,3.416130319237709045e-02,4.665915295481681824e-02,-3.672762587666511536e-02,-5.122447013854980469e-02,1.610999554395675659e-01,-1.128830686211585999e-01,1.074988394975662231e-01,-1.150514371693134308e-02,2.501679956912994385e-02,-8.118374273180961609e-03,1.020567044615745544e-01,-5.429742857813835144e-03,-1.005015000700950623e-01,-2.111631818115711212e-02,-1.209910120815038681e-02,-8.076139539480209351e-02,1.567373871803283691e-01,-7.336041331291198730e-02,-1.490249950438737869e-02,1.237932592630386353e-01,-1.279573440551757812e-01,-4.868814349174499512e-02,1.361365057528018951e-02,-6.779901683330535889e-02,8.891484700143337250e-03,-1.391982287168502808e-01,3.960041329264640808e-02,1.430795639753341675e-01,5.054112151265144348e-02,-7.039705663919448853e-02,-6.854740530252456665e-02,-9.317497164011001587e-02,9.423512965440750122e-02,-7.955564558506011963e-02,-1.466746777296066284e-01,1.558532123453915119e-03,3.722315654158592224e-02,-4.864479228854179382e-02,-2.966842427849769592e-02,-5.612874031066894531e-02,-8.205106854438781738e-02,-5.471603944897651672e-02,2.858251566067337990e-03,8.208297193050384521e-02,-1.228810474276542664e-01,2.857086434960365295e-02,-1.298054307699203491e-01,-5.182456597685813904e-02,-1.151730418205261230e-01,6.259895116090774536e-02
3.552335873246192932e-02,-4.434437304735183716e-02,-3.863953053951263428e-02,-1.539713293313980103e-01,-5.849922820925712585e-02,-1.445239186286926270e-01,-8.526911586523056030e-02,-3.670916333794593811e-02,-4.022620618343353271e-03,2.302836254239082336e-02,9.484296292066574097e-02,-1.143329739570617676e-01,-5.419958848506212234e-03,-4.032877739518880844e-03,-8.630735427141189575e-02,-1.221642866730690002e-01,5.701643973588943481e-02,-1.585154235363006592e-01,9.703527390956878662e-02,1.123466640710830688e-01,-2.057669125497341156e-02,3.539263829588890076e-02,-2.287688857904868200e-06,-8.463917672634124756e-02,-2.637269534170627594e-02,1.745718270540237427e-01,-2.837782911956310272e-02,-1.879829615354537964e-01,-3.843484446406364441e-02,5.140766128897666931e-02,1.532168239355087280e-01,3.591496497392654419e-02,-7.942893356084823608e-02,-8.956494182348251343e-02,8.689999580383300781e-02,-3.443035855889320374e-02,-7.413711398839950562e-02,4.241152852773666382e-02,-4.886995255947113037e-02,1.742589324712753296e-01,3.615647554397583008e-02,-1.006447225809097290e-01,3.086574375629425049e-02,7.163893431425094604e-02,-1.069978810846805573e-02,-3.789007291197776794e-02,1.799707673490047455e-02,1.546464264392852783e-01,7.169820368289947510e-02,-6.290100514888763428e-02,-1.941104792058467865e-02,-6.114024668931961060e-02,1.958655007183551788e-02,-1.618664413690567017e-01,-1.975048892199993134e-02,3.113543055951595306e-02,-4.612911865115165710e-02,-1.234606653451919556e-01,-1.385993361473083496e-01,8.282498270273208618e-02,1.511941701173782349e-01,-1.044696941971778870e-01,1.414540559053421021e-01,1.512114256620407104e-01,-3.615354374051094055e-02,1.993797533214092255e-02,-9.349742531776428223e-02,1.588585972785949707e-02,8.385900408029556274e-02,-8.738785237073898315e-02,-1.246159076690673828e-01,-8.991102688014507294e-03,-4.080758616328239441e-02,-2.941267006099224091e-02,-9.361480921506881714e-02,6.213634833693504333e-02,2.424033544957637787e-02,7.761931419372558594e-02,-9.154235571622848511e-02,1.559510082006454468e-01,-3.008973598480224609e-02,4.806516319513320923e-02,3.524834662675857544e-02,-9.868980199098587036e-02,-4.961536824703216553e-02,1.210309844464063644e-02,1.696772426366806030e-01,-1.251282729208469391e-02,-1.180744450539350510e-02,-1.195130124688148499e-01,-3.700717538595199585e-02,-1.499640047550201416e-01,-3.421694785356521606e-02,-6.288829445838928223e-02,-1.056474372744560242e-01,2.225208096206188202e-02,1.641133613884449005e-02,1.278471201658248901e-01,1.453714519739151001e-01,-6.236203014850616455e-03,-2.315684221684932709e-02,-1.570989787578582764e-01,-1.123901531100273132e-01,-3.820700570940971375e-02,-5.397675558924674988e-02,-9.899143874645233154e-02,-3.922096639871597290e-02,-1.264312118291854858e-01,7.646077126264572144e-02,1.368401348590850830e-01,-3.199284197762608528e-03,-1.031768471002578735e-01,3.445544512942433357e-03,3.899167478084564209e-02,8.552860468626022339e-02,-1.589627377688884735e-02,9.089690446853637695e-02,1.007052287459373474e-01,-1.179800853133201599e-01,7.423342019319534302e-02,-1.581216976046562195e-02,1.714061945676803589e-01,8.410494774580001831e-02,-8.941935747861862183e-02,2.394899260252714157e-03,1.635885089635848999e-01,-3.400566801428794861e-02,-1.060312017798423767e-01,8.557169884443283081e-02,-5.797047168016433716e-02,-7.913675159215927124e-02,-4.857859015464782715e-02,6.981378793716430664e-02,-6.469129770994186401e-02,1.535339653491973877e-02,-5.936607718467712402e-02,2.670353092253208160e-02,7.675528526306152344e-02,1.081477999687194824e-01,9.537277370691299438e-02,3.775997785851359367e-03,1.035202108323574066e-02,2.574688009917736053e-02,9.057378023862838745e-02,4.716304689645767212e-02,-1.533062607049942017e-01,1.675133556127548218e-01,-3.469378501176834106e-02,-5.128386244177818298e-02,4.340472072362899780e-02,-1.417620014399290085e-02,8.398400619626045227e-03,4.243936389684677124e-02,2.204199694097042084e-02,3.344778716564178467e-02,8.571173995733261108e-02,1.488783117383718491e-02,-6.570272892713546753e-02,-1.047838851809501648e-01,3.175636753439903259e-02,-1.784463226795196533e-02,4.617581726051867008e-04,-8.402650803327560425e-02,7.668387144804000854e-02,-5.284127593040466309e-02,2.255804464221000671e-02,-6.620968878269195557e-02,-2.433591894805431366e-02,-2.958382479846477509e-02,4.151209723204374313e-03,1.392561644315719604e-01,4.697644338011741638e-02,-1.115312725305557251e-01,3.813672438263893127e-02,-7.250297814607620239e-02,1.032370254397392273e-01,-7.038631290197372437e-02,5.895989015698432922e-02,5.836507678031921387e-02,-1.009191423654556274e-01,3.878566669300198555e-03,1.361642777919769287e-01,-7.013266533613204956e-02,8.915907144546508789e-02,4.937257990241050720e-02,3.812654316425323486e-02,-3.583912923932075500e-02,-7.705792039632797241e-02,-7.265719026327133179e-02,6.003385409712791443e-02,6.689658015966415405e-02,6.346567720174789429e-02,-3.731070784851908684e-03,1.353768445551395416e-02,-6.295328587293624878e-02,-1.372455246746540070e-02,-6.985910981893539429e-02,-1.920794844627380371e-01,7.654678821563720703e-02,1.242466196417808533e-01,-7.770656049251556396e-02,-1.256620883941650391e-01,8.137772977352142334e-02,-1.541304439306259155e-01,-1.457531657069921494e-02,-1.967753171920776367e-01,-3.857255727052688599e-02,-1.105257421731948853e-01,9.692477434873580933e-02,-1.302351653575897217e-01,2.467966452240943909e-02,-5.465525016188621521e-02,1.120085492730140686e-01,-1.102401390671730042e-01,1.630665808916091919e-01,3.415642073377966881e-03,3.676456958055496216e-02,-9.908460080623626709e-02,-1.303867995738983154e-02,7.290524989366531372e-02,3.714003413915634155e-02,6.967286020517349243e-02,2.680434845387935638e-02,-1.099113281816244125e-02,-1.012750789523124695e-01,1.864064037799835205e-01,-1.214216127991676331e-01,2.163647115230560303e-02,3.060786426067352295e-02,-1.533094644546508789e-01,-1.147134527564048767e-01,2.702735736966133118e-02,1.209607440978288651e-02,-1.246093660593032837e-01,-1.670133918523788452e-01,-4.784992337226867676e-02,2.774121426045894623e-02,6.974277645349502563e-02,-2.231999114155769348e-02,1.426121294498443604e-01,-4.480610042810440063e-02,2.758276835083961487e-02,-1.186733245849609375e-01,1.173900142312049866e-01,1.551160868257284164e-02,-1.148111447691917419e-01,3.898211941123008728e-02,-1.434003747999668121e-02,9.802726656198501587e-02,-1.927191466093063354e-01,9.026013314723968506e-02,1.414351314306259155e-01,-1.026864275336265564e-01,-4.321932420134544373e-02,-1.388849318027496338e-01,-1.672974377870559692e-01,-4.628347605466842651e-02,-7.555726915597915649e-02,-1.388243138790130615e-01,1.300875246524810791e-01,-9.142672270536422729e-02,-8.515945076942443848e-02,4.111182317137718201e-02,1.026153331622481346e-03,5.853952094912528992e-02,-1.368429046124219894e-02,1.360274553298950195e-01,-3.428139537572860718e-02,2.079169638454914093e-02,-1.991197764873504639e-01,1.685646176338195801e-01,-9.425509721040725708e-02,1.580988019704818726e-01,-2.901820652186870575e-02,3.065656498074531555e-02,3.316613659262657166e-02,-9.217464923858642578e-02,-7.584216445684432983e-02,-1.239743158221244812e-01,8.242755383253097534e-02,1.908147931098937988e-01,-3.367689996957778931e-02,9.356092661619186401e-02,1.339318454265594482e-01,3.553274646401405334e-02,-3.565340116620063782e-02,4.795631393790245056e-02,-6.784859579056501389e-03,3.158956393599510193e-02,1.171174645423889160e-01,6.598583608865737915e-02,1.995021663606166840e-02,5.305894091725349426e-02,5.676601454615592957e-02,2.784328162670135498e-02,-1.880765892565250397e-02,1.283838301897048950e-01,1.483329087495803833e-01,5.863955710083246231e-03,-1.523628383874893188e-01,-3.529734164476394653e-02,-4.104801639914512634e-02,1.466825325042009354e-02,7.778518646955490112e-02,4.839020594954490662e-02,-5.560692027211189270e-02,1.178416386246681213e-01,6.077866628766059875e-02,-1.153591424226760864e-01,-5.664449557662010193e-02,-4.074987396597862244e-02,-4.463953897356987000e-02,4.940655082464218140e-02,7.433646917343139648e-02,7.389069348573684692e-02,-1.515473574399948120e-01,-5.136635899543762207e-02,-1.132512232288718224e-03,-2.479570545256137848e-02,1.227945461869239807e-01,-1.898213773965835571e-01,-7.196955382823944092e-02,3.100916743278503418e-02,1.124332919716835022e-01,2.108947746455669403e-02,-1.139331143349409103e-02,-5.495440959930419922e-02,1.397228091955184937e-01,-8.654458075761795044e-02,4.878871608525514603e-03,4.788934253156185150e-03,-5.827566608786582947e-02,-4.198059439659118652e-02,-1.338278949260711670e-01,-3.858308866620063782e-02,-9.400761127471923828e-02,-9.893798828125000000e-02,-7.932738959789276123e-02,-1.643053144216537476e-01,9.221691638231277466e-03,6.963442545384168625e-03,-2.981010451912879944e-02,4.949084296822547913e-02,2.874930202960968018e-02,1.885855942964553833e-02,8.614736050367355347e-02,6.611194461584091187e-02,-5.204296857118606567e-02,-1.566805243492126465e-01,-1.032152548432350159e-01,1.216322109103202820e-01,1.092083826661109924e-01,-1.100308224558830261e-01,1.846662722527980804e-02,-6.625458598136901855e-02,1.371550410985946655e-01,9.684652090072631836e-02,-9.896726161241531372e-02,-2.608559094369411469e-02,-9.125006198883056641e-02,8.640642627142369747e-04,-6.472852826118469238e-02,6.365647912025451660e-02,-2.737563289701938629e-02,-1.496816277503967285e-01,1.270602941513061523e-01,1.591351479291915894e-01,1.201455742120742798e-01,6.134539842605590820e-02,3.456230089068412781e-02,1.199242994189262390e-01,3.889525309205055237e-02,5.341244861483573914e-03,2.904750779271125793e-02,1.334898918867111206e-01,-1.079578623175621033e-01,1.037558093667030334e-01,-1.080919653177261353e-01,4.601247236132621765e-02,-1.162377744913101196e-01,6.937768193893134594e-04,-9.310552477836608887e-02,-6.222618371248245239e-02,1.263258457183837891e-01,1.115573421120643616e-01,-7.498377561569213867e-02,1.639749705791473389e-01,-7.954870164394378662e-02,-9.904441237449645996e-02,-9.965199045836925507e-03,-9.486213326454162598e-02,-2.163610979914665222e-02,1.285532265901565552e-01,4.330365732312202454e-02,-5.352104455232620239e-02,-8.936597406864166260e-02,8.356356620788574219e-02,-5.775076895952224731e-02,1.562644839286804199e-01,-1.565456688404083252e-01,1.015554666519165039e-01,-1.941379718482494354e-02,-6.290200632065534592e-03,-3.528804704546928406e-02,5.808773264288902283e-02,1.187545880675315857e-01,9.574992954730987549e-02,8.660894236527383327e-04,5.268926173448562622e-02,4.288903623819351196e-02,5.306100472807884216e-03,-9.380287677049636841e-02,-9.600355476140975952e-02,1.139760166406631470e-01,-5.740749835968017578e-02,-1.182630285620689392e-01,7.474478334188461304e-02,-1.352219432592391968e-01,1.672891527414321899e-01,-4.651145264506340027e-02,-1.080159693956375122e-01,2.610918693244457245e-02,-7.802291214466094971e-02,-1.612208038568496704e-01,-1.624433249235153198e-01,-1.020245775580406189e-01,-1.101367697119712830e-01,-3.189732134342193604e-02,9.336174279451370239e-02,-6.165999919176101685e-03,5.289161205291748047e-02,4.405110701918601990e-02,-1.665754169225692749e-01,-1.759026199579238892e-03,1.231055036187171936e-01,-2.612706087529659271e-02,-5.183135345578193665e-02,-1.824119240045547485e-01,1.183883659541606903e-02,9.932378679513931274e-02,5.008984729647636414e-02,4.148351773619651794e-02,-1.016975753009319305e-02,-4.160102084279060364e-02,1.396679282188415527e-01,-3.257518261671066284e-02,-7.066693902015686035e-02,1.349032074213027954e-01,-5.436614155769348145e-02,-4.286875948309898376e-02,6.530109792947769165e-02,-5.548965930938720703e-02,2.810319419950246811e-03,1.923090666532516479e-01,-6.783667206764221191e-02,-9.137957543134689331e-02,-3.458984941244125366e-02,6.186268851161003113e-02,3.882561624050140381e-02,-8.712707459926605225e-02,3.078072704374790192e-02,9.575742296874523163e-03,-1.550113260746002197e-01,-5.252451822161674500e-02,3.016171790659427643e-02,-2.161444537341594696e-02,2.003350481390953064e-02,-3.734806180000305176e-02,5.929529294371604919e-02,4.159171879291534424e-02,-4.640302434563636780e-02,2.133602462708950043e-02,-2.847861312329769135e-02,-2.911181421950459480e-03,-1.027039811015129089e-02,1.232065707445144653e-01,-1.330334395170211792e-01,9.800537489354610443e-03,-6.235446408390998840e-02,1.554372012615203857e-01,-5.715405568480491638e-02,4.568713158369064331e-02,-8.717279881238937378e-02,1.035885587334632874e-01,1.677117943763732910e-01,1.313251908868551254e-02,-7.227957993745803833e-02,-8.369573205709457397e-02,5.765189882367849350e-03,1.019836664199829102e-01,-1.180661916732788086e-01,-8.264213055372238159e-02,-2.065894380211830139e-02,-7.336919754743576050e-02,-1.120774522423744202e-01,2.316757309017702937e-04,8.983398973941802979e-02,-1.870576874352991581e-03,1.144072338938713074e-01,-7.042972743511199951e-02,1.684053391218185425e-01,-7.361776381731033325e-02,-4.802902787923812866e-02,-1.318430453538894653e-01,-1.208752114325761795e-02,-5.589236691594123840e-02,1.814125925302505493e-01,4.272065684199333191e-02,-1.493611335754394531e-01,3.112750686705112457e-02,-7.249838113784790039e-02,3.911498934030532837e-02
7.995197921991348267e-02,-3.905934514477849007e-03,-3.099865652620792389e-02,6.935696303844451904e-02,-9.018483012914657593e-02,5.070334672927856445e-02,1.813452690839767456e-01,-6.486844271421432495e-02,-1.492839753627777100e-01,-1.463405229151248932e-02,-4.657856747508049011e-02,1.668723076581954956e-01,-1.629044301807880402e-02,3.762215375900268555e-02,-3.301357850432395935e-02,6.721289362758398056e-03,-4.101946949958801270e-03,-9.843078441917896271e-03,4.432986676692962646e-02,9.610718488693237305e-02,-2.711700275540351868e-02,6.137717515230178833e-02,-1.157837919890880585e-02,-2.390602976083755493e-02,1.230962872505187988e-01,5.984577536582946777e-02,-8.999654650688171387e-02,-5.353686213493347168e-02,-6.005430221557617188e-02,-1.796959787607192993e-01,-5.921076610684394836e-02,-1.616812497377395630e-01,8.003043010830879211e-03,7.702961564064025879e-02,9.846252948045730591e-02,1.673508621752262115e-02,3.371188044548034668e-02,6.697812676429748535e-02,1.125948578119277954e-01,-1.415073871612548828e-01,-1.601058058440685272e-02,-2.158641256392002106e-02,-1.164541244506835938e-01,-6.221774965524673462e-02,1.614930778741836548e-01,-1.725063174962997437e-01,-6.385746598243713379e-02,-3.087542764842510223e-02,-8.171524852514266968e-02,-4.435070976614952087e-02,-5.787139758467674255e-02,4.970749840140342712e-02,-1.379681974649429321e-01,-5.410958081483840942e-02,8.746295422315597534e-02,-5.327088385820388794e-02,1.305611431598663330e-01,1.346857994794845581e-01,2.472243644297122955e-02,1.118466481566429138e-01,5.054762959480285645e-02,2.064986340701580048e-02,-4.335435479879379272e-02,-3.415203420445322990e-03,-9.546386450529098511e-02,-9.619729965925216675e-02,1.552473604679107666e-01,2.864343859255313873e-02,3.966248035430908203e-02,1.137876659631729126e-01,-6.727966666221618652e-02,-8.269722759723663330e-02,-5.032229050993919373e-02,-5.103509500622749329e-02,-4.692396149039268494e-02,2.146121487021446228e-02,1.340299695730209351e-01,-1.631116718053817749e-01,-1.182642951607704163e-01,3.394221886992454529e-02,-4.051655158400535583e-02,4.379567503929138184e-02,6.170537695288658142e-02,-1.003776937723159790e-01,-9.072743356227874756e-02,-4.842292144894599915e-02,8.467952162027359009e-02,-1.341302245855331421e-01,-7.049707323312759399e-02,2.404356561601161957e-02,-1.051131486892700195e-01,3.700746223330497742e-02,-6.573139131069183350e-02,6.161630153656005859e-02,-2.486988157033920288e-02,-1.047602444887161255e-01,-1.098174825310707092e-01,-1.531366556882858276e-01,1.285371631383895874e-01,-1.123368740081787109e-01,-4.610001295804977417e-02,1.875775121152400970e-02,4.250828176736831665e-02,-1.961331665515899658e-01,3.385463729500770569e-02,3.258993104100227356e-02,-1.972471177577972412e-01,-3.064050339162349701e-02,-2.612933330237865448e-02,1.270629912614822388e-01,-1.449265237897634506e-02,1.759277470409870148e-02,3.403116390109062195e-02,4.736791923642158508e-02,-1.405929476022720337e-01,-1.400683373212814331e-01,2.312325127422809601e-02,-1.868332922458648682e-02,-6.323488801717758179e-02,-6.197995692491531372e-02,-1.140361838042736053e-02,-4.987939726561307907e-03,1.195109859108924866e-01,-7.198666781187057495e-02,-5.767730530351400375e-03,1.932354420423507690e-01,-1.746671795845031738e-01,-7.332178205251693726e-02,-1.280439347028732300e-01,-8.013042062520980835e-02,1.058564409613609314e-01,6.137703731656074524e-02,6.180207803845405579e-02,-3.888699039816856384e-02,-1.039468571543693542e-01,6.733843684196472168e-02,-7.968460023403167725e-02,-1.132188457995653152e-02,-5.684034153819084167e-02,1.375314295291900635e-01,3.979507368057966232e-03,-1.070870533585548401e-01,1.627294123172760010e-01,1.283120959997177124e-01,-5.189986154437065125e-02,1.765519194304943085e-02,7.262617349624633789e-02,-5.575573444366455078e-02,3.557851165533065796e-02,-9.602962434291839600e-02,-6.621836125850677490e-02,6.237619742751121521e-02,2.237694524228572845e-02,-5.700171738862991333e-02,-8.100061118602752686e-02,7.257321476936340332e-02,1.361269503831863403e-01,6.669493857771158218e-03,1.614280790090560913e-01,5.390013009309768677e-02,9.152080863714218140e-02,-7.688253372907638550e-02,1.106517836451530457e-01,9.200545959174633026e-03,9.557052515447139740e-03,-1.284424122422933578e-02,4.160996153950691223e-02,1.895155161619186401e-01,-1.646564453840255737e-01,-9.463068097829818726e-02,1.412515848642215133e-04,2.201760187745094299e-02,7.222536206245422363e-02,-3.994017839431762695e-02,3.960942476987838745e-02,1.391931474208831787e-01,-1.576081849634647369e-02,-6.656239181756973267e-02,-3.757726773619651794e-02,3.392308577895164490e-02,-1.207017712295055389e-02,1.707906574010848999e-01,-1.092975735664367676e-01,3.201715275645256042e-02,-1.140679046511650085e-01,9.050694108009338379e-02,4.243605211377143860e-02,-1.130262040533125401e-03,1.023284718394279480e-01,1.336665637791156769e-02,-6.156211718916893005e-03,-6.170047447085380554e-02,-1.690631173551082611e-02,-5.101212859153747559e-02,-5.249744281172752380e-02,-5.159943923354148865e-02,9.175705909729003906e-02,1.500670611858367920e-01,-1.794872730970382690e-01,1.517854072153568268e-02,1.206694617867469788e-01,-1.278192549943923950e-01,-2.887974679470062256e-02,2.602884545922279358e-02,1.493944972753524780e-01,5.328133329749107361e-02,3.994279727339744568e-02,-3.989351540803909302e-02,-1.281756609678268433e-01,1.619308441877365112e-01,1.277660112828016281e-02,3.740029875189065933e-03,-1.776047945022583008e-01,-2.525548636913299561e-02,-1.663487963378429413e-02,1.088467426598072052e-02,-8.615665882825851440e-02,2.296284037583973259e-05,-9.237488359212875366e-02,7.305476814508438110e-02,8.417106233537197113e-03,-3.355180472135543823e-02,-1.134102344512939453e-01,6.362446397542953491e-02,-9.901563823223114014e-02,1.198330447077751160e-01,7.857657223939895630e-02,-1.013913899660110474e-01,1.645330339670181274e-01,8.374784886837005615e-02,-8.692797273397445679e-02,-2.015236765146255493e-02,-9.942328929901123047e-02,-8.771049231290817261e-02,5.609701946377754211e-02,2.546481788158416748e-02,1.689870841801166534e-02,-2.733731083571910858e-02,-1.093267127871513367e-01,-3.263208642601966858e-02,-4.967036470770835876e-02,-1.161308214068412781e-01,-1.486803889274597168e-01,4.575591906905174255e-02,-5.596079304814338684e-02,1.351213175803422928e-02,5.464338883757591248e-02,-2.252717502415180206e-03,1.554066985845565796e-01,9.512942284345626831e-02,-1.207436099648475647e-01,1.085133701562881470e-01,5.397519469261169434e-02,-1.318375617265701294e-01,2.409439161419868469e-02,-1.545292790979146957e-02,-1.127010360360145569e-01,-4.414540156722068787e-02,-1.072338372468948364e-01,8.252432942390441895e-02,-1.508872807025909424e-01,-2.922774758189916611e-03,-1.986380368471145630e-01,-1.812982931733131409e-02,-1.241252049803733826e-01,-1.575539112091064453e-01,1.276771258562803268e-02,-2.059361338615417480e-02,-4.719397053122520447e-02,-5.802784115076065063e-02,5.406093597412109375e-02,1.448418200016021729e-02,1.081256791949272156e-01,3.871219232678413391e-02,1.233841702342033386e-01,1.959914714097976685e-02,-1.125559806823730469e-01,-6.054219603538513184e-02,6.925485283136367798e-02,6.748452037572860718e-02,-5.485019087791442871e-02,8.809886872768402100e-02,2.251598425209522247e-02,-1.243184357881546021e-01,-1.224064826965332031e-01,-1.787415146827697754e-01,1.072975769639015198e-01,-2.830064622685313225e-03,5.649381782859563828e-03,-2.291517518460750580e-02,1.547543853521347046e-01,-3.195348381996154785e-02,-6.553245335817337036e-02,1.734773814678192139e-02,-1.066090241074562073e-01,1.530520152300596237e-02,3.278874233365058899e-02,-2.550570107996463776e-02,9.521689265966415405e-02,7.985058426856994629e-02,-2.802121639251708984e-02,-9.627991169691085815e-02,6.308683007955551147e-02,2.076751552522182465e-02,6.034424528479576111e-02,-2.240846306085586548e-02,-1.529356986284255981e-01,5.253097414970397949e-02,7.292037457227706909e-02,1.048877760767936707e-01,-4.250557720661163330e-02,6.283832248300313950e-03,-6.332215666770935059e-02,4.823138564825057983e-02,-7.583236694335937500e-02,-1.312881857156753540e-01,2.433545142412185669e-02,1.030576881021261215e-02,-1.022300943732261658e-01,1.127154007554054260e-01,1.210250779986381531e-01,-5.052576214075088501e-02,-1.479557007551193237e-01,4.597086925059556961e-03,-2.448180131614208221e-02,-6.706958264112472534e-02,5.055643245577812195e-02,1.555064916610717773e-01,1.418386250734329224e-01,6.782211363315582275e-02,7.748632133007049561e-02,1.475141942501068115e-01,-1.353083103895187378e-01,1.889262162148952484e-02,-1.471494287252426147e-01,-7.163235545158386230e-02,9.812404401600360870e-03,-1.629061698913574219e-01,1.551021821796894073e-02,-1.594737172126770020e-02,1.609783470630645752e-01,-9.628394991159439087e-02,-1.134490221738815308e-02,-6.779711693525314331e-02,5.823269486427307129e-02,-7.528270035982131958e-02,1.391781028360128403e-02,3.178102895617485046e-02,-5.262050777673721313e-02,6.742524355649948120e-02,8.451569080352783203e-02,-1.677614748477935791e-01,8.682228624820709229e-02,1.742280125617980957e-01,-1.139865517616271973e-01,-1.037101969122886658e-01,1.089871302247047424e-01,-9.309431165456771851e-02,-5.988175421953201294e-02,1.184489354491233826e-01,1.223682165145874023e-01,6.486573815345764160e-02,-1.327190250158309937e-01,-7.221788167953491211e-02,2.413596399128437042e-02,-2.168298466131091118e-03,-3.760705876629799604e-04,3.228084370493888855e-02,5.500888824462890625e-02,-1.869976334273815155e-02,-1.597706675529479980e-01,4.536158964037895203e-02,9.758123010396957397e-02,-1.025811955332756042e-01,8.621733635663986206e-02,-4.826371371746063232e-02,1.966688483953475952e-01,-4.033452644944190979e-02,-6.298673152923583984e-02,2.233573794364929199e-02,1.893035024404525757e-01,-1.294051110744476318e-02,-1.007122769951820374e-01,3.530557453632354736e-02,-7.406761497259140015e-02,-8.949071913957595825e-02,1.054366007447242737e-01,-1.012346073985099792e-01,-8.354732394218444824e-02,-1.570579558610916138e-01,-1.890263557434082031e-01,-9.478029608726501465e-02,1.220944616943597794e-02,8.302830904722213745e-02,-6.589932739734649658e-02,-2.754992619156837463e-02,3.093319013714790344e-02,-1.022954508662223816e-01,1.774560064077377319e-01,1.556650251150131226e-01,-2.218388766050338745e-02,-8.723510056734085083e-02,2.552926354110240936e-02,1.524516493082046509e-01,1.433682143688201904e-01,2.159370295703411102e-02,1.307908743619918823e-01,-7.355704903602600098e-02,2.416719682514667511e-02,1.068685427308082581e-01,5.386947467923164368e-02,-1.293871998786926270e-01,1.194634363055229187e-01,-2.038264833390712738e-02,-3.383051231503486633e-02,9.316323697566986084e-02,-1.031841989606618881e-02,2.151711843907833099e-02,6.164308264851570129e-02,-1.921442337334156036e-03,2.187461033463478088e-02,-8.128593116998672485e-02,9.870973229408264160e-02,-3.732456639409065247e-02,-1.544393151998519897e-01,-9.302391670644283295e-03,-1.117337588220834732e-02,-8.004821836948394775e-03,1.527396589517593384e-02,-4.305985197424888611e-02,2.975502051413059235e-02,-8.193907327950000763e-03,2.188744209706783295e-02,1.194672361016273499e-01,-1.189387589693069458e-02,7.348222285509109497e-02,-7.213423401117324829e-02,4.283581674098968506e-02,8.120498969219624996e-04,1.156293302774429321e-01,1.737093776464462280e-01,-8.518534898757934570e-02,1.763821095228195190e-01,-8.083956316113471985e-03,1.282821744680404663e-01,-6.920827925205230713e-02,4.815256968140602112e-02,-7.793972641229629517e-02,-6.412859261035919189e-02,-9.939640760421752930e-03,3.425033017992973328e-02,-6.354530155658721924e-02,5.583474785089492798e-02,-4.082678258419036865e-02,1.035578027367591858e-01,-1.651224642992019653e-01,1.723173707723617554e-01,9.046655148267745972e-02,9.353696554899215698e-02,-3.342539817094802856e-02,-6.340048462152481079e-02,1.969638466835021973e-01,7.440447062253952026e-02,1.514910906553268433e-01,1.061639413237571716e-01,1.650425344705581665e-01,1.476330030709505081e-02,1.327466666698455811e-01,-6.961255799978971481e-03,7.706938683986663818e-02,-1.132904216647148132e-01,-1.746150702238082886e-01,-5.900194123387336731e-02,-1.218080893158912659e-01,-8.983014523983001709e-02,1.477748621255159378e-02,5.602745339274406433e-02,-3.590765967965126038e-02,1.152521967887878418e-01,1.075871512293815613e-01,-3.476368729025125504e-03,9.260614961385726929e-02,4.259123653173446655e-02,5.265527591109275818e-02,-9.129886515438556671e-03,-1.905101537704467773e-02,-1.954724267125129700e-02,4.049642011523246765e-02,-7.807189226150512695e-02,-1.072845514863729477e-02,5.545603856444358826e-02,1.374574154615402222e-01,-7.859237492084503174e-03,2.211429551243782043e-02,1.146927475929260254e-01,2.204782329499721527e-02,-1.001197099685668945e-01,-2.696918509900569916e-02,-5.109308287501335144e-02,2.216111868619918823e-02,-8.226226270198822021e-02,-8.445667475461959839e-02,6.783885508775711060e-02,-1.236540600657463074e-01,2.349719963967800140e-02,-1.289975643157958984e-01,-9.138750284910202026e-02,-5.138364061713218689e-02,-8.327134698629379272e-02,-2.401703409850597382e-02,-4.617435857653617859e-02,6.000740453600883484e-02
6.603371351957321167e-02,6.089166924357414246e-02,3.707449138164520264e-02,4.140326753258705139e-02,-4.370189830660820007e-02,-8.368834853172302246e-03,4.523466154932975769e-02,7.203724235296249390e-02,-1.168423332273960114e-02,1.051039323210716248e-01,-1.091515421867370605e-01,-1.866743415594100952e-01,-5.276647955179214478e-02,-2.673107944428920746e-02,-1.280145626515150070e-02,1.917159706354141235e-01,-3.283658251166343689e-02,-3.665142133831977844e-02,-9.731740504503250122e-02,7.546389847993850708e-02,1.110393460839986801e-02,1.214631348848342896e-01,-3.286144137382507324e-02,5.946935620158910751e-03,3.968121111392974854e-02,-5.370322614908218384e-02,-1.567142456769943237e-01,6.602726131677627563e-02,-1.901632398366928101e-01,-2.944918349385261536e-02,-6.558700650930404663e-02,-1.041720882058143616e-01,-1.236787587404251099e-01,1.059770137071609497e-01,1.572415679693222046e-01,-6.869982928037643433e-02,1.655930280685424805e-02,2.186476252973079681e-02,6.504157185554504395e-02,-9.937553852796554565e-02,-1.215781494975090027e-01,1.481400220654904842e-03,1.517900675535202026e-01,-1.918866485357284546e-01,6.599199771881103516e-02,-4.545552283525466919e-02,-1.638428121805191040e-01,1.227183267474174500e-02,7.690682262182235718e-02,-7.217007875442504883e-02,8.234127610921859741e-02,-8.616253733634948730e-02,1.056747213006019592e-01,-7.085496187210083008e-02,-7.006960362195968628e-02,1.900314167141914368e-02,-4.156209528446197510e-02,1.679717898368835449e-01,1.918699219822883606e-02,-1.128455810248851776e-02,-5.747963115572929382e-02,1.180721446871757507e-01,1.096565648913383484e-01,2.292818017303943634e-02,5.408663675189018250e-02,2.540366025641560555e-03,8.250927180051803589e-02,7.407521456480026245e-02,1.106884852051734924e-01,-5.057343468070030212e-02,-4.288155585527420044e-03,-4.410616587847471237e-03,4.503452032804489136e-02,-1.896481588482856750e-02,7.484842091798782349e-02,6.473394483327865601e-02,-7.249432057142257690e-02,1.027354225516319275e-01,6.008170917630195618e-02,-1.925235427916049957e-02,-9.936908259987831116e-03,5.851034075021743774e-02,-7.532224804162979126e-02,-5.919694527983665466e-02,3.247481957077980042e-02,-1.234813705086708069e-01,1.236768141388893127e-01,3.421143069863319397e-02,-4.548491910099983215e-02,1.398219019174575806e-01,-1.842947602272033691e-01,1.238268017768859863e-01,-1.149348020553588867e-01,7.703276723623275757e-02,-1.047139763832092285e-01,1.257301717996597290e-01,1.325230151414871216e-01,8.321411907672882080e-02,-2.401961944997310638e-02,9.400419890880584717e-02,-7.051227241754531860e-02,7.324596494436264038e-02,8.308397978544235229e-02,1.095216274261474609e-01,1.680306047201156616e-01,-9.047877392731606960e-04,-1.122987642884254456e-01,-1.238813325762748718e-01,-2.910008653998374939e-03,-1.909731701016426086e-02,-1.151446104049682617e-01,5.483618006110191345e-02,3.832524409517645836e-03,6.788500398397445679e-02,-1.643562316894531250e-02,1.019112244248390198e-01,3.013578988611698151e-02,-1.633441299200057983e-01,-1.246507763862609863e-01,1.860316097736358643e-01,4.162968695163726807e-02,7.128872722387313843e-02,1.209645792841911316e-01,-3.334210440516471863e-02,-8.688575588166713715e-03,-7.242272794246673584e-02,1.257132291793823242e-01,1.630637980997562408e-02,4.392189532518386841e-02,-9.102772921323776245e-02,-7.828416675329208374e-02,-3.897167509421706200e-03,9.175100177526473999e-02,-6.921140104532241821e-02,6.505076773464679718e-03,-1.056102737784385681e-01,1.723964698612689972e-02,1.613419386558234692e-03,5.055096372961997986e-02,2.275005541741847992e-02,3.537995740771293640e-02,-8.848094940185546875e-02,-1.138919964432716370e-01,-6.259995698928833008e-02,-1.144522801041603088e-01,2.947655133903026581e-02,-3.314502246212214231e-04,1.263286825269460678e-02,-8.018642663955688477e-02,1.016174778342247009e-01,-1.074734255671501160e-01,-1.596540808677673340e-01,-6.041712686419487000e-02,-1.343530882149934769e-02,5.472185835242271423e-02,-5.666981264948844910e-02,2.655650489032268524e-02,5.915782973170280457e-02,4.343752190470695496e-02,-1.573048681020736694e-01,-6.631010025739669800e-02,4.091819375753402710e-02,-5.121516063809394836e-02,1.307858377695083618e-01,1.059561595320701599e-01,2.665764652192592621e-02,1.068422943353652954e-01,-3.357249498367309570e-02,1.761072725057601929e-01,6.670749187469482422e-02,-1.308281719684600830e-01,-1.507529318332672119e-01,7.892761379480361938e-02,-1.084044575691223145e-01,-8.345195651054382324e-02,2.924918197095394135e-02,1.074124686419963837e-02,-1.602045148611068726e-01,-3.787514567375183105e-02,8.490987122058868408e-02,2.759742178022861481e-02,1.415888667106628418e-01,8.392716944217681885e-02,-8.238310366868972778e-02,-1.806527376174926758e-01,8.258144371211528778e-03,-8.587439358234405518e-02,1.382906921207904816e-02,-1.169250234961509705e-01,-7.802575081586837769e-02,-7.427868992090225220e-02,4.489371180534362793e-02,-6.681932602077722549e-03,-1.687266305088996887e-02,-1.054478660225868225e-01,6.651969999074935913e-02,1.490316838026046753e-01,5.242935847491025925e-03,-7.383528631180524826e-03,1.106344386935234070e-01,-7.839487493038177490e-02,-1.064699664711952209e-01,-4.955991730093955994e-02,-1.220852732658386230e-01,2.706451155245304108e-02,-2.512109698727726936e-03,6.210432201623916626e-02,1.832598894834518433e-01,-1.459201425313949585e-01,-5.649930983781814575e-02,1.346879005432128906e-01,1.740391924977302551e-02,5.015106871724128723e-02,-1.802946813404560089e-02,8.484762907028198242e-02,4.805853590369224548e-02,-6.673256307840347290e-02,5.378191545605659485e-02,7.961159199476242065e-02,8.809132874011993408e-02,-7.548105716705322266e-02,8.160737156867980957e-02,-7.714648731052875519e-03,-2.130023948848247528e-02,-1.467867642641067505e-01,7.487513870000839233e-02,-1.542873233556747437e-01,-5.719954520463943481e-02,-3.329312801361083984e-02,1.159741207957267761e-01,1.479084342718124390e-01,-1.712858229875564575e-01,-6.255644559860229492e-02,-2.905517816543579102e-02,1.446077674627304077e-01,-7.592356950044631958e-02,5.661434680223464966e-02,6.758991628885269165e-02,-9.068633615970611572e-02,4.480515420436859131e-02,1.172394156455993652e-01,7.366349548101425171e-02,-3.782961517572402954e-02,-4.353493824601173401e-02,-4.391811788082122803e-02,1.231770291924476624e-01,-2.095433883368968964e-02,1.256090402603149414e-01,2.155813202261924744e-02,-7.744956016540527344e-02,-1.570090651512145996e-02,1.162350922822952271e-01,7.847402989864349365e-02,-5.798066407442092896e-02,-1.099128625355660915e-03,5.132976174354553223e-02,-3.886228427290916443e-02,2.927409484982490540e-02,-9.150400012731552124e-02,9.546209126710891724e-03,5.398323014378547668e-02,4.081564769148826599e-02,7.464164495468139648e-02,-9.950803965330123901e-02,8.996490389108657837e-02,-3.655267506837844849e-02,3.312470391392707825e-02,3.242538124322891235e-02,-4.976372700184583664e-03,1.443054229021072388e-01,1.413712352514266968e-01,7.471329718828201294e-02,7.915449887514114380e-02,1.331508904695510864e-01,-1.228045821189880371e-01,-8.704196661710739136e-02,5.409288406372070312e-02,-6.668063346296548843e-03,1.447236984968185425e-01,8.725463598966598511e-02,7.683276385068893433e-02,2.651809155941009521e-02,7.921358197927474976e-02,2.500872872769832611e-02,7.922468334436416626e-02,-2.622114494442939758e-02,1.594568341970443726e-01,1.943558268249034882e-02,4.689116775989532471e-02,4.443645477294921875e-02,-5.017106607556343079e-02,1.602143608033657074e-02,3.141968324780464172e-02,6.429492682218551636e-02,1.290493309497833252e-01,-6.411924958229064941e-02,-1.239793449640274048e-01,6.254329532384872437e-02,-1.052581816911697388e-01,-7.973614335060119629e-02,-3.149550175294280052e-04,-1.134271025657653809e-01,8.100861310958862305e-02,6.716152280569076538e-02,-2.934281341731548309e-02,6.101036071777343750e-02,-4.430764168500900269e-02,-8.898811787366867065e-02,-1.042309328913688660e-01,-1.247505545616149902e-01,-9.358579665422439575e-02,1.019224245101213455e-02,8.939971774816513062e-02,1.072892174124717712e-01,3.529362007975578308e-02,1.505735665559768677e-01,-1.426568031311035156e-01,-9.486252814531326294e-02,-8.820331096649169922e-02,3.740987181663513184e-02,-8.524290472269058228e-02,1.444687843322753906e-01,1.243837699294090271e-01,-7.868736982345581055e-02,5.451850220561027527e-02,-1.353851407766342163e-01,4.979864880442619324e-02,-7.655747979879379272e-02,4.887100681662559509e-02,7.572348695248365402e-03,1.793080866336822510e-01,8.079554885625839233e-02,-1.533280611038208008e-01,-5.493243411183357239e-02,-1.065322756767272949e-01,5.163264274597167969e-02,-1.724146008491516113e-01,2.425966225564479828e-02,7.211840897798538208e-02,-1.827647350728511810e-02,9.250637888908386230e-02,-1.027665734291076660e-01,7.693263143301010132e-02,9.019637107849121094e-02,-9.084185957908630371e-02,9.636422246694564819e-02,-3.260696306824684143e-02,-8.522866666316986084e-02,4.231500998139381409e-02,-2.057888172566890717e-02,-1.113858446478843689e-01,-6.554967164993286133e-02,-2.721693925559520721e-02,1.267188927158713341e-04,1.683865338563919067e-01,-9.086885303258895874e-02,8.983161300420761108e-02,7.415439933538436890e-02,-7.883777469396591187e-02,1.442363299429416656e-02,-1.117744445800781250e-01,-5.510901610250584781e-05,4.827531054615974426e-02,1.356120686978101730e-02,1.140211969614028931e-01,-1.902770847082138062e-01,9.897104650735855103e-02,-5.750707909464836121e-02,-6.209077313542366028e-02,4.685891792178153992e-02,-9.723073989152908325e-02,3.742152079939842224e-02,2.980337478220462799e-02,-6.187694892287254333e-02,-2.514321543276309967e-02,1.458194702863693237e-01,8.923421800136566162e-02,-3.104398958384990692e-03,-1.018633842468261719e-01,2.212280407547950745e-03,-5.541286990046501160e-02,-1.371226925402879715e-02,2.412434108555316925e-02,4.312637727707624435e-03,-1.397236883640289307e-01,-7.691115140914916992e-02,1.309614479541778564e-01,1.629259251058101654e-02,-5.339651927351951599e-02,-1.365716010332107544e-01,-2.295906841754913330e-02,-2.906293049454689026e-02,-5.086333304643630981e-02,2.531646005809307098e-02,-7.401799410581588745e-02,1.683592945337295532e-01,-9.449607133865356445e-02,1.937929354608058929e-02,-7.331799715757369995e-02,1.368058938533067703e-02,-2.871226705610752106e-02,2.030406706035137177e-02,-3.469963371753692627e-02,-1.066785231232643127e-01,1.732027530670166016e-01,1.111507564783096313e-01,8.777852356433868408e-02,4.775147885084152222e-02,8.616729639470577240e-03,4.591731354594230652e-03,3.983345627784729004e-02,-7.531034201383590698e-02,-3.001925162971019745e-02,-1.340414285659790039e-01,-6.058371067047119141e-02,5.829839780926704407e-02,-9.270375221967697144e-02,-7.735791057348251343e-02,-9.713653475046157837e-03,-1.133770570158958435e-01,-9.810470044612884521e-02,-1.942638494074344635e-02,8.289605379104614258e-02,8.656058460474014282e-02,-8.706651628017425537e-02,-7.256009429693222046e-02,-8.256122469902038574e-02,1.402302086353302002e-01,8.485919237136840820e-02,3.941364958882331848e-02,7.364913076162338257e-02,1.714043202809989452e-03,-6.519355624914169312e-02,-1.677230447530746460e-01,9.223114699125289917e-02,2.829163148999214172e-02,-1.284333225339651108e-02,1.900554150342941284e-01,-5.906226113438606262e-02,1.357981711626052856e-01,6.122077628970146179e-02,-1.479251962155103683e-02,-5.839389562606811523e-02,-9.931552223861217499e-03,1.013329178094863892e-01,-2.289662323892116547e-02,1.487732231616973877e-01,-1.203853264451026917e-01,-6.594089418649673462e-02,7.662862539291381836e-02,-1.283293068408966064e-01,1.077721044421195984e-01,-1.031890511512756348e-01,4.445495828986167908e-02,1.686540432274341583e-02,-8.150875568389892578e-02,5.831611156463623047e-02,1.571767181158065796e-01,-1.333968341350555420e-01,3.708909079432487488e-02,9.642176330089569092e-02,-4.662817344069480896e-02,4.015349596738815308e-02,-2.496607415378093719e-02,7.759518921375274658e-02,4.643714427947998047e-02,1.400940120220184326e-01,-1.195466239005327225e-02,3.509299084544181824e-02,-7.535253465175628662e-02,4.531228914856910706e-03,8.142032660543918610e-03,-9.446454793214797974e-02,4.220614209771156311e-02,5.763117596507072449e-02,-1.117830276489257812e-01,-1.724706292152404785e-01,1.416757255792617798e-01,-1.765120774507522583e-01,6.921033561229705811e-02,-1.357990652322769165e-01,-2.205317653715610504e-02,-1.098828688263893127e-01,-1.547024399042129517e-02,1.335201263427734375e-01,1.687095873057842255e-02,-6.346700340509414673e-02,-1.812191493809223175e-02,1.183285936713218689e-01,3.467073664069175720e-02,-6.603287905454635620e-02,9.218621999025344849e-03,-8.219279348850250244e-02,1.704612821340560913e-01,-4.603370279073715210e-02,-1.176982074975967407e-01,1.420102566480636597e-01,-1.592670977115631104e-01,-1.246950253844261169e-01,-5.158931016921997070e-02,-6.550467759370803833e-02,-6.735163927078247070e-02,-3.357890993356704712e-02,2.089342288672924042e-02,-3.756700549274682999e-03,7.445964217185974121e-02,1.265541017055511475e-01,1.067852750420570374e-01,6.513262540102005005e-02,6.774505227804183960e-02,-2.252292260527610779e-02,-3.829158097505569458e-02
4.820964485406875610e-02,1.223382577300071716e-01,-6.048208475112915039e-02,7.329823076725006104e-02,5.369218066334724426e-02,-3.410836309194564819e-02,1.439034044742584229e-01,1.361931264400482178e-01,-3.622783813625574112e-03,5.918340757489204407e-02,-2.907003834843635559e-02,5.703318864107131958e-02,7.552973181009292603e-02,3.483841940760612488e-02,5.868720635771751404e-02,-7.738297432661056519e-02,-5.447810515761375427e-02,-4.066470637917518616e-02,1.861317306756973267e-01,-1.474392320960760117e-02,-1.751035684719681740e-03,-1.195047646760940552e-01,-1.521495580673217773e-01,6.277863681316375732e-02,5.534003023058176041e-03,-1.005932614207267761e-01,-5.201984196901321411e-02,8.775837719440460205e-03,-1.782198697328567505e-01,9.885945171117782593e-02,-4.253523051738739014e-02,-1.646488010883331299e-01,-3.635357320308685303e-02,-5.563027411699295044e-02,-9.251812100410461426e-02,3.841751813888549805e-02,2.307000197470188141e-02,-1.703047603368759155e-01,4.487673565745353699e-02,-6.044186279177665710e-02,-1.325315088033676147e-01,-1.682246476411819458e-01,1.528331935405731201e-01,-1.013439446687698364e-01,1.141452509909868240e-02,-2.763202600181102753e-02,1.445376724004745483e-01,1.699013859033584595e-01,-1.704642549157142639e-02,-1.544693578034639359e-02,-1.764725893735885620e-01,3.738566860556602478e-02,-1.323155015707015991e-01,-1.656663566827774048e-01,-7.029176503419876099e-02,1.149373650550842285e-01,1.033234149217605591e-01,-1.649111509323120117e-01,-1.456048060208559036e-02,-7.758688181638717651e-02,-5.659309029579162598e-02,1.619693450629711151e-02,1.275892136618494987e-03,8.796209469437599182e-03,-1.363531202077865601e-01,7.271882146596908569e-02,3.708172217011451721e-02,3.084791637957096100e-02,-5.296139791607856750e-02,6.496142596006393433e-02,-1.652311831712722778e-01,9.767369180917739868e-02,7.563620060682296753e-02,-6.656679511070251465e-02,5.660497117787599564e-03,-1.449681967496871948e-01,5.956324562430381775e-02,-1.008763536810874939e-01,1.226995214819908142e-01,-3.410408645868301392e-02,1.021075174212455750e-01,5.942880734801292419e-02,-8.257212489843368530e-02,1.992861926555633545e-01,-6.702316552400588989e-02,-3.601482836529612541e-03,2.121745608747005463e-02,4.161714017391204834e-02,-1.024729013442993164e-01,3.291493654251098633e-02,7.158173620700836182e-02,-9.868916822597384453e-04,-6.227211281657218933e-02,1.193246468901634216e-01,-7.657107897102832794e-03,2.526602474972605705e-03,1.527181565761566162e-01,1.293412595987319946e-01,-4.519337043166160583e-02,2.866488508880138397e-02,6.978861242532730103e-02,7.790711522102355957e-02,8.421199768781661987e-02,-1.085190922021865845e-01,1.784020289778709412e-02,-1.753183752298355103e-01,9.015308693051338196e-03,4.904638510197401047e-03,1.069241389632225037e-01,1.245722770690917969e-01,1.638153009116649628e-02,-1.642979532480239868e-01,7.326968014240264893e-02,1.421224474906921387e-01,7.701196521520614624e-02,1.489765495061874390e-01,-1.659631282091140747e-01,-4.984999448060989380e-02,8.905914425849914551e-02,-8.805328607559204102e-02,-7.777281850576400757e-02,6.161144375801086426e-02,2.340143732726573944e-02,1.139312386512756348e-01,6.463263183832168579e-02,-1.763160340487957001e-02,8.982256054878234863e-02,2.442912757396697998e-02,5.839850287884473801e-03,-3.283493965864181519e-02,-2.810411527752876282e-02,1.421582549810409546e-01,1.808800734579563141e-02,-4.564433544874191284e-02,-2.269078791141510010e-02,2.947388030588626862e-02,-8.877404965460300446e-03,-7.335321605205535889e-02,-1.069848239421844482e-02,-3.141267970204353333e-02,-6.000749021768569946e-02,8.484828472137451172e-02,1.657409667968750000e-01,4.982028901576995850e-02,-1.445899344980716705e-02,-2.768834307789802551e-02,7.760287262499332428e-03,-6.297545880079269409e-02,1.639289706945419312e-01,-2.807136857882142067e-03,-1.362510919570922852e-01,-1.170715093612670898e-01,-1.246534809470176697e-01,-1.155603080987930298e-01,-9.950233623385429382e-03,-2.982072532176971436e-02,-6.000506505370140076e-02,4.665480926632881165e-02,1.357512772083282471e-01,-1.172835156321525574e-01,-3.830992383882403374e-03,-5.872087087482213974e-03,1.321962922811508179e-01,-7.934041321277618408e-02,-7.929477095603942871e-02,-6.163856014609336853e-02,-1.211726590991020203e-01,1.615817546844482422e-01,-5.398209020495414734e-02,-1.413515862077474594e-02,-6.812149286270141602e-02,3.299961611628532410e-02,-8.387108892202377319e-02,-7.832805812358856201e-02,-1.174016520380973816e-01,-5.411491543054580688e-02,1.369159072637557983e-01,8.158629387617111206e-02,-7.318981736898422241e-02,5.995946004986763000e-02,-1.401961036026477814e-02,-9.409145265817642212e-02,-5.941311642527580261e-02,-6.310039013624191284e-02,1.618702262639999390e-01,-3.511613979935646057e-02,1.925775706768035889e-01,3.687434643507003784e-02,-1.485791206359863281e-01,1.715202480554580688e-01,-1.052619307301938534e-03,1.049675270915031433e-01,-1.962512033060193062e-04,2.479033172130584717e-02,-8.717485517263412476e-02,6.591363251209259033e-02,1.922427304089069366e-02,4.549004137516021729e-02,1.064718887209892273e-01,-5.079864524304866791e-03,1.981074176728725433e-02,-9.458419866859912872e-03,-1.091694235801696777e-01,1.887161731719970703e-01,4.689575359225273132e-02,-4.422303661704063416e-02,-8.099750615656375885e-03,1.173392161726951599e-01,-8.087933063507080078e-02,-9.151839464902877808e-02,-3.499849140644073486e-02,7.846621423959732056e-02,1.148829013109207153e-01,-8.698789775371551514e-02,-2.420224947854876518e-03,1.586212068796157837e-01,4.134997352957725525e-02,-1.637693867087364197e-02,-5.022266507148742676e-02,-1.071901842951774597e-01,-1.037523243576288223e-02,-7.142709940671920776e-02,3.069556318223476410e-02,7.666756957769393921e-02,4.897841066122055054e-02,-4.826102405786514282e-03,-9.630978107452392578e-02,1.509504318237304688e-01,-4.825345054268836975e-02,-1.045466065406799316e-01,-4.368131980299949646e-02,-5.367252230644226074e-02,6.967111676931381226e-02,1.447931677103042603e-02,1.235554590821266174e-01,1.567890122532844543e-02,1.482630223035812378e-01,-2.270939759910106659e-02,-8.443778008222579956e-02,-1.303497403860092163e-01,-1.315877865999937057e-02,9.412225335836410522e-02,-1.088518649339675903e-01,2.377312444150447845e-02,5.747077614068984985e-02,-1.546570956707000732e-01,2.642727270722389221e-02,-1.466914564371109009e-01,-2.278410457074642181e-02,9.598883241415023804e-02,6.490482389926910400e-02,7.348313927650451660e-02,-7.485169917345046997e-03,4.923237860202789307e-02,1.138852164149284363e-01,7.296671718358993530e-02,1.065084114670753479e-01,1.650754064321517944e-01,-4.408759623765945435e-02,1.313988566398620605e-01,7.945970445871353149e-02,9.263790398836135864e-02,-1.858515441417694092e-01,-1.263527125120162964e-01,3.654925897717475891e-02,-4.207738861441612244e-02,5.502162128686904907e-02,-5.545514822006225586e-02,9.291652590036392212e-02,-1.141935586929321289e-01,1.529170423746109009e-01,-9.174534934572875500e-04,-1.009743427857756615e-03,-1.933053135871887207e-02,1.801250725984573364e-01,-2.321494184434413910e-02,-1.184571161866188049e-01,8.497345447540283203e-02,4.051219671964645386e-02,1.976362913846969604e-01,7.007799297571182251e-02,9.145661443471908569e-02,-7.326504588127136230e-02,6.759564578533172607e-02,8.254118263721466064e-03,9.420640021562576294e-02,5.341888219118118286e-02,5.973663926124572754e-02,1.014226078987121582e-01,-1.073720604181289673e-01,-1.552452333271503448e-02,1.196173578500747681e-01,-1.732430011034011841e-01,-2.112902933731675148e-03,-1.666676551103591919e-01,-2.634625136852264404e-02,1.421665400266647339e-01,1.325088292360305786e-01,6.034744530916213989e-02,-7.806761562824249268e-02,5.010927841067314148e-02,-7.179488986730575562e-02,-3.784361854195594788e-02,2.376252971589565277e-02,1.172807961702346802e-01,3.910126164555549622e-02,3.860263153910636902e-02,-1.418116539716720581e-01,1.304889470338821411e-01,-5.230426415801048279e-02,-5.584103986620903015e-02,-4.783743247389793396e-02,1.742174327373504639e-01,-5.032949522137641907e-02,-5.344222858548164368e-02,-1.421953290700912476e-01,7.822411507368087769e-02,8.850374259054660797e-03,2.151135541498661041e-02,-1.912333518266677856e-01,5.475738272070884705e-02,8.069177716970443726e-02,1.387290656566619873e-01,-1.077273394912481308e-02,-1.567044109106063843e-01,-5.826814845204353333e-02,-1.015123277902603149e-01,8.438804000616073608e-02,-5.237105116248130798e-02,1.687892079353332520e-01,1.824644207954406738e-01,-1.085105091333389282e-01,8.310576528310775757e-02,1.227196976542472839e-01,-7.616328448057174683e-02,1.139350086450576782e-01,-2.436863817274570465e-02,4.190278053283691406e-02,-9.494800120592117310e-02,1.684225946664810181e-01,1.446452438831329346e-01,5.208448693156242371e-02,-1.288995742797851562e-01,-3.255720809102058411e-02,1.417581290006637573e-01,5.433782935142517090e-02,-4.674897715449333191e-02,8.755104243755340576e-02,-1.703134924173355103e-01,6.662325561046600342e-02,4.855574294924736023e-02,6.420796364545822144e-02,-1.163431182503700256e-01,5.210739374160766602e-02,6.306573748588562012e-02,-1.286981552839279175e-01,1.793561577796936035e-01,9.335026890039443970e-02,-1.002043411135673523e-01,-2.813614206388592720e-03,-5.299406126141548157e-02,9.307122975587844849e-02,7.705005258321762085e-02,-9.159921854734420776e-02,1.418563276529312134e-01,6.762599200010299683e-02,1.761119961738586426e-01,-2.230826579034328461e-02,4.329453036189079285e-02,5.817895755171775818e-02,-3.303677216172218323e-02,-1.386926025152206421e-01,3.782845661044120789e-02,-1.858532615005970001e-02,1.955789774656295776e-01,1.974264383316040039e-01,9.783378243446350098e-02,1.413411796092987061e-01,1.207957044243812561e-01,1.039057746529579163e-01,4.008928313851356506e-02,1.908037625253200531e-02,-1.028023958206176758e-01,3.992864489555358887e-02,-1.219396367669105530e-01,-3.677215799689292908e-02,-6.622976809740066528e-02,-9.403034299612045288e-02,3.184135630726814270e-02,7.890114793553948402e-04,-1.578508764505386353e-01,4.461471363902091980e-02,9.939329698681831360e-03,1.698261797428131104e-01,8.934976905584335327e-02,-1.381727904081344604e-01,5.765709280967712402e-02,-6.476177275180816650e-02,-4.680081084370613098e-02,5.624101683497428894e-02,-3.553689643740653992e-02,-7.355722784996032715e-02,6.351323425769805908e-02,-4.647756367921829224e-02,-2.425074949860572815e-02,9.143664687871932983e-02,-9.549613296985626221e-02,-1.428124010562896729e-01,-3.919747844338417053e-02,-1.191237941384315491e-01,-7.798613607883453369e-02,5.180013924837112427e-02,-1.482192333787679672e-02,3.567162156105041504e-02,-5.332080647349357605e-02,1.382836252450942993e-01,3.533352166414260864e-02,1.338032186031341553e-01,2.010019682347774506e-02,1.603778898715972900e-01,1.335980743169784546e-01,-3.826022520661354065e-02,-6.127996370196342468e-02,2.334547787904739380e-02,2.277501486241817474e-02,1.036833450198173523e-01,1.150682941079139709e-01,1.013480648398399353e-01,1.189604178071022034e-01,-1.630753874778747559e-01,4.899113625288009644e-02,3.666309639811515808e-02,7.698730379343032837e-02,-9.622289240360260010e-02,1.000600829720497131e-01,-9.509264677762985229e-02,-6.586907804012298584e-02,-7.767782360315322876e-02,-5.769202113151550293e-02,7.886032573878765106e-03,-1.423605084419250488e-01,-3.933870047330856323e-02,5.644561722874641418e-02,6.655467208474874496e-03,4.142733290791511536e-02,-8.789884299039840698e-02,-1.872115209698677063e-02,-7.009638100862503052e-02,1.071902737021446228e-02,-1.766986399888992310e-01,-3.001548163592815399e-02,-2.653834782540798187e-02,1.392588019371032715e-01,3.804209455847740173e-02,1.053562387824058533e-01,-4.685113206505775452e-02,1.443557590246200562e-01,-8.969537913799285889e-02,-1.651534885168075562e-01,-1.479026675224304199e-01,-1.652724295854568481e-01,-4.119407758116722107e-02,9.378354251384735107e-02,9.838861972093582153e-02,-1.216113790869712830e-01,-4.764330759644508362e-02,-2.693470753729343414e-02,1.273491829633712769e-01,1.903269141912460327e-01,1.022899523377418518e-01,8.225218392908573151e-03,3.337556496262550354e-02,5.359591916203498840e-03,-7.445117086172103882e-02,-8.609107136726379395e-02,-3.133481368422508240e-02,4.361263290047645569e-02,-4.780243709683418274e-02,-1.600107401609420776e-01,-7.358118891716003418e-03,-1.103734001517295837e-01,8.979118429124355316e-03,-2.550553344190120697e-02,-3.868749737739562988e-02,-6.889579445123672485e-02,-1.225562021136283875e-01,-1.469719856977462769e-01,-4.711393639445304871e-02,3.990028426051139832e-02,-1.523964572697877884e-02,2.680170349776744843e-02,1.621068567037582397e-01,-4.518099874258041382e-02,3.025416843593120575e-02,-4.517365619540214539e-02,7.112065702676773071e-02,-9.671962261199951172e-02,-8.345957845449447632e-02,-1.222065687179565430e-01,1.445858180522918701e-01,1.385444253683090210e-01,-1.086916252970695496e-01,-5.305600911378860474e-02,-1.961548067629337311e-02,-9.735399484634399414e-02,-1.003809124231338501e-01,-5.114571005105972290e-02,-6.243547424674034119e-02,1.272642016410827637e-01,-9.534244984388351440e-02,3.431512787938117981e-02,-1.798205226659774780e-01
