-1.151457428932189941e-01,1.119866315275430679e-02,-4.192530363798141479e-02,5.217460542917251587e-02,7.549583911895751953e-02,-7.019127905368804932e-02,-1.014612242579460144e-01,-1.285332739353179932e-01,1.038912162184715271e-01,-1.343071758747100830e-01,7.649790495634078979e-02,1.482280641794204712e-01,7.077183574438095093e-02,-1.603384315967559814e-02,-2.303591556847095490e-02,-5.805174633860588074e-02,6.608090549707412720e-02,-7.593490928411483765e-02,2.848955988883972168e-02,2.386315539479255676e-02,-8.556205779314041138e-02,1.105234026908874512e-01,1.377619504928588867e-01,-1.256984919309616089e-01,1.501363469287753105e-03,-1.391858514398336411e-02,-1.800585910677909851e-02,2.208581008017063141e-02,2.555433847010135651e-02,-7.816228270530700684e-02,-3.251766413450241089e-02,6.472276896238327026e-02,3.805108368396759033e-02,-1.388665288686752319e-01,-3.767472878098487854e-02,-1.165686920285224915e-02,-3.033014945685863495e-02,8.845923840999603271e-02,-1.103308349847793579e-01,9.250432997941970825e-02,-3.023628704249858856e-02,-7.579874247312545776e-02,-5.523964762687683105e-02,3.684989735484123230e-02,2.201529033482074738e-02,4.034505039453506470e-02,-4.724206402897834778e-02,4.276875779032707214e-02,4.719353467226028442e-02,-3.377383574843406677e-02,9.063819795846939087e-02,-1.415996551513671875e-01,-4.365445673465728760e-02,9.091009944677352905e-02,-1.009467840194702148e-01,-1.854836344718933105e-01,-1.830059476196765900e-02,9.588122367858886719e-02,-1.195148825645446777e-01,4.188227280974388123e-02,5.058447271585464478e-02,1.800659671425819397e-02,8.439647406339645386e-02,-4.506576061248779297e-02,2.426086692139506340e-03,1.414042264223098755e-01,1.596447080373764038e-01,3.771336004137992859e-02,-5.713865906000137329e-02,7.165990769863128662e-02,3.177672252058982849e-02,-3.524359082803130150e-03,5.177811905741691589e-02,1.350116170942783356e-02,2.941678836941719055e-02,1.650055870413780212e-02,-2.301082573831081390e-02,-1.399080604314804077e-01,1.421200484037399292e-01,-1.734720729291439056e-02,-2.853686921298503876e-03,-1.517846435308456421e-01,1.121448054909706116e-01,9.149786829948425293e-02,9.705186635255813599e-02,1.110710427165031433e-01,-1.150193810462951660e-01,-8.457391709089279175e-02,-8.794411271810531616e-02,-2.492563426494598389e-02,-4.401056095957756042e-02,-1.376334875822067261e-01,1.084868833422660828e-01,4.677652940154075623e-02,-4.566774517297744751e-02,8.730923384428024292e-02,-6.914993375539779663e-02,-4.358391743153333664e-03,6.313859671354293823e-02,3.734991326928138733e-02,1.270348578691482544e-01,-1.772827841341495514e-02,-5.102182179689407349e-02,5.202510580420494080e-02,2.362640388309955597e-02,-8.608909696340560913e-02,1.036458835005760193e-02,6.044732406735420227e-02,-7.410767674446105957e-02,-1.328975707292556763e-01,1.485577225685119629e-01,1.089803799986839294e-01,-5.612264946103096008e-02,-4.922308772802352905e-02,5.512024834752082825e-02,1.375351697206497192e-01,-4.146967083215713501e-03,1.584057658910751343e-01,4.592060670256614685e-02,-4.166389256715774536e-02,1.446088552474975586e-01,6.396802514791488647e-02,-4.524178802967071533e-02,4.141921922564506531e-02,1.251240540295839310e-02,-5.709350854158401489e-02,3.552461043000221252e-02,-1.888379082083702087e-02,4.150545597076416016e-02,2.679566107690334320e-02,-1.318651884794235229e-01,5.718977376818656921e-02,-3.591640666127204895e-02,-3.653604909777641296e-02,-1.085976511240005493e-01,1.554369479417800903e-01,1.016021370887756348e-01,1.085651144385337830e-01,-1.289002895355224609e-01,-8.781765587627887726e-03,-7.494053244590759277e-02,7.494573295116424561e-02,1.045989915728569031e-01,6.336639076471328735e-02,-4.333886131644248962e-02,6.240582093596458435e-03,1.893015019595623016e-02,-6.973020732402801514e-02,-1.070845127105712891e-01,-5.326339602470397949e-02,-2.082109823822975159e-02,1.073351968079805374e-02,2.334889397025108337e-02,-8.893859386444091797e-02,-7.228172570466995239e-02,-1.903125829994678497e-02,7.502256776206195354e-04,2.969764731824398041e-02,-3.272738307714462280e-02,9.269497357308864594e-03,-1.516603678464889526e-01,3.685510484501719475e-03,-1.149063631892204285e-01,-6.482080556452274323e-03,2.993004582822322845e-02,-1.341429799795150757e-01,3.727981075644493103e-02,-4.612198844552040100e-02,1.845848001539707184e-02,-5.518254265189170837e-02,-1.298930943012237549e-01,9.184851497411727905e-02,-5.066077783703804016e-02,-4.303730558604001999e-03,7.007888704538345337e-02,1.540134996175765991e-01,2.583496272563934326e-02,1.206347346305847168e-01,1.956490725278854370e-01,1.739914268255233765e-01,-1.124263647943735123e-02,-1.863668859004974365e-01,5.619234591722488403e-02,-5.058255419135093689e-02,-8.374853990972042084e-03,-4.577705636620521545e-02,1.012451574206352234e-01,9.676874428987503052e-02,-1.695279479026794434e-01,-1.055309996008872986e-01,5.535453185439109802e-02,-2.862842287868261337e-03,3.727607801556587219e-02,6.369292270392179489e-03,-2.504515089094638824e-02,6.005224213004112244e-02,-4.219956696033477783e-02,-5.989543348550796509e-02,-3.930447623133659363e-02,-6.860464811325073242e-03,-1.654141396284103394e-01,1.411228533834218979e-02,-9.496117010712623596e-03,-1.412563957273960114e-02,-1.896938495337963104e-02,6.353177875280380249e-02,1.547254174947738647e-01,6.411761045455932617e-02,7.518905401229858398e-02,-2.482705004513263702e-02,8.294917643070220947e-02,1.179928332567214966e-02,2.764620259404182434e-02,1.442374289035797119e-01,-1.090936809778213501e-01,-8.296141028404235840e-02,4.578530415892601013e-02,9.876712411642074585e-02,-8.698106557130813599e-02,1.311244070529937744e-02,-1.486608292907476425e-02,-8.936656266450881958e-02,-1.160889789462089539e-01,1.122351065278053284e-01,-1.399558484554290771e-01,-5.635998398065567017e-02,-2.579424157738685608e-02,2.593732252717018127e-02,6.088959053158760071e-02,1.256959885358810425e-01,8.852850645780563354e-02,-1.050360798835754395e-01,1.574202477931976318e-01,-6.308365613222122192e-03,-5.212980788201093674e-03,9.096856415271759033e-02,-9.125184267759323120e-02,-1.683996915817260742e-01,1.182758584618568420e-01,-6.425433605909347534e-02,-2.028512209653854370e-02,-3.594850003719329834e-02,9.153214842081069946e-02,-1.539191007614135742e-01,-1.783017218112945557e-01,8.804939687252044678e-03,1.283148080110549927e-01,-1.293374300003051758e-01,1.398444622755050659e-01,1.705913059413433075e-02,2.658462338149547577e-02,5.401950329542160034e-04,-1.123484000563621521e-01,7.428222894668579102e-02,-1.716334074735641479e-01,-7.989937812089920044e-02,-1.778969019651412964e-01,-8.840086311101913452e-02,5.467242747545242310e-02,6.789016723632812500e-02,-1.451929956674575806e-01,3.047440387308597565e-02,-5.752133950591087341e-02,2.945267595350742340e-02,1.629201620817184448e-01,2.602569200098514557e-02,4.895297810435295105e-02,2.640441432595252991e-02,-1.593583524227142334e-01,2.939417026937007904e-02,-1.552537232637405396e-01,1.278255432844161987e-01,-1.724722050130367279e-02,-2.183778397738933563e-02,2.664006128907203674e-02,-8.758290857076644897e-02,-3.235417231917381287e-02,-1.203292533755302429e-01,1.494551002979278564e-01,1.638872325420379639e-01,-2.017790079116821289e-02,-1.995129510760307312e-02,-1.239982172846794128e-01,-1.080199405550956726e-01,-1.758490651845932007e-01,-8.364434354007244110e-03,-1.026731655001640320e-01,-7.369171828031539917e-02,8.649093657732009888e-02,-9.278215467929840088e-02,4.994614049792289734e-02,1.263839285820722580e-02,-3.006433509290218353e-02,-1.141177192330360413e-01,5.548382177948951721e-04,-1.677999272942543030e-03,-6.564930826425552368e-02,1.774111948907375336e-02,3.799164667725563049e-02,3.064811229705810547e-02,8.673385716974735260e-03,1.014047414064407349e-01,3.204710781574249268e-02,-7.083767652511596680e-02,1.023953557014465332e-01,-2.970633283257484436e-02,-1.371240764856338501e-01,5.711830779910087585e-02,-1.339143812656402588e-01,-7.733719795942306519e-02,-9.121042490005493164e-02,-4.204523935914039612e-02,4.269805550575256348e-02,-1.846817731857299805e-01,3.796214237809181213e-02,-9.665990620851516724e-02,-2.950758440420031548e-03,-6.727747619152069092e-02,-5.536056682467460632e-02,-4.185775294899940491e-02,-4.096228163689374924e-03,-2.453859709203243256e-02,-4.535419493913650513e-02,8.246662095189094543e-03,-1.498810350894927979e-01,-4.313479736447334290e-02,1.341314613819122314e-01,-1.279579848051071167e-01,1.200821772217750549e-01,9.887550771236419678e-02,1.459494531154632568e-01,-4.474979266524314880e-02,-4.223082587122917175e-02,-4.030446335673332214e-02,2.236550906673073769e-03,-5.927306413650512695e-02,5.858182907104492188e-02,-5.506842862814664841e-03,1.524835824966430664e-01,4.385427013039588928e-02,-8.162419497966766357e-02,7.036983221769332886e-02,-1.249859854578971863e-01,3.196349367499351501e-02,8.577003329992294312e-02,-4.218254983425140381e-02,7.154845446348190308e-02,2.302798628807067871e-02,-3.296269476413726807e-02,4.743503523059189320e-04,-1.096669957041740417e-01,-1.676641255617141724e-01,-7.451900839805603027e-02,1.488822698593139648e-02,5.487547442317008972e-02,-1.631550937891006470e-01,-6.013498455286026001e-02,-1.920640170574188232e-01,6.194348260760307312e-02,1.094313412904739380e-01,-1.055238023400306702e-01,-2.245841361582279205e-02,1.613268814980983734e-02,1.177291478961706161e-02,1.667466610670089722e-01,-6.572445482015609741e-02,-6.437883526086807251e-02,-4.313219338655471802e-02,1.335985679179430008e-02,-6.734695285558700562e-02,1.235277429223060608e-01,-8.876136504113674164e-03,-1.342403739690780640e-01,-7.225214689970016479e-02,-1.134902983903884888e-01,-1.115814000368118286e-01,5.716783925890922546e-02,-3.764333575963973999e-02,2.294326014816761017e-02,-5.842154100537300110e-02,1.653894037008285522e-01,7.652838528156280518e-02,4.348448291420936584e-02,-8.481664583086967468e-03,1.445341110229492188e-01,1.831914782524108887e-01,-5.813009664416313171e-02,1.621052473783493042e-01,5.780671909451484680e-02,2.543576434254646301e-02,5.908735468983650208e-02,6.389319151639938354e-02,-7.677174359560012817e-02,-1.234997436404228210e-01,-1.237597391009330750e-01,-1.863873749971389771e-02,4.170348495244979858e-02,-1.088155731558799744e-01,-7.434909790754318237e-02,-5.580168589949607849e-02,1.221461519598960876e-01,1.493630115874111652e-03,-4.345681890845298767e-02,4.541045986115932465e-03,-1.172485947608947754e-01,1.207199245691299438e-01,2.322033047676086426e-03,-4.273305088281631470e-02,1.187591105699539185e-01,-8.641894091852009296e-04,5.830065160989761353e-02,-1.107707843184471130e-01,1.530887931585311890e-01,-7.018601149320602417e-02,-1.153049338608980179e-02,1.019015237689018250e-01,2.074370160698890686e-02,4.580063745379447937e-02,1.441574543714523315e-01,5.999603495001792908e-02,-3.423888701945543289e-03,-8.557953685522079468e-02,7.474733050912618637e-03,1.791629940271377563e-01,-4.805406555533409119e-02,1.471995748579502106e-02,3.505353629589080811e-02,6.506036221981048584e-02,1.251377016305923462e-01,-1.082692742347717285e-01,-3.901471942663192749e-02,-5.044499039649963379e-02,8.405693620443344116e-02,-1.261479556560516357e-01,-1.351027376949787140e-02,1.240391880273818970e-01,-1.629230938851833344e-02,2.027478767558932304e-03,-3.410958219319581985e-03,-6.117583066225051880e-02,7.726817578077316284e-02,1.247934028506278992e-01,5.008097365498542786e-02,3.194458782672882080e-02,1.561983395367860794e-02,-1.328498404473066330e-02,1.100945621728897095e-01,1.044995966367423534e-03,7.477281242609024048e-02,1.400659233331680298e-01,-5.643147230148315430e-02,-6.720655411481857300e-02,-1.403717845678329468e-01,-5.535358935594558716e-02,2.943663857877254486e-02,-1.181687936186790466e-01,3.316251188516616821e-02,1.554232090711593628e-01,1.183397993445396423e-01,6.199623271822929382e-02,4.537918791174888611e-02,-1.206892058253288269e-01,-2.366166561841964722e-02,9.936582297086715698e-02,4.472805932164192200e-02,-5.544055625796318054e-02,7.009630650281906128e-02,-1.642015203833580017e-02,-1.431625522673130035e-02,7.577852159738540649e-02,-8.744171261787414551e-02,1.105978414416313171e-01,1.417288631200790405e-01,-3.784223692491650581e-03,-1.483395546674728394e-01,-4.460163787007331848e-02,8.245532959699630737e-02,-1.180719509720802307e-01,-1.412733495235443115e-01,5.580875556915998459e-03,-1.266384422779083252e-01,-1.432572584599256516e-02,-1.479914188385009766e-01,6.378417462110519409e-02,6.653352826833724976e-02,2.877641236409544945e-03,1.410573273897171021e-01,1.355960220098495483e-01,-1.050487533211708069e-01,1.568597555160522461e-01,6.358092278242111206e-02,9.611450135707855225e-02,-1.041857972741127014e-01,-5.962735041975975037e-02,4.344268888235092163e-02,1.520746946334838867e-01,1.152731403708457947e-01,5.495754629373550415e-02,-6.985081732273101807e-02,8.839233964681625366e-02,5.550233274698257446e-02,3.465396538376808167e-02,-8.652777760289609432e-04,1.178637072443962097e-01,-6.958059221506118774e-02,-1.094164848327636719e-01,1.378848403692245483e-01,1.966591179370880127e-01,7.075082510709762573e-02,1.056816079653799534e-03,-1.140506789088249207e-01,-1.454345732927322388e-01
-1.195951700210571289e-01,6.330248713493347168e-02,-1.237638387829065323e-02,2.135265432298183441e-02,1.603720150887966156e-02,2.367139980196952820e-02,1.676516085863113403e-01,-1.133266091346740723e-01,-1.452011615037918091e-01,-1.252506822347640991e-01,-9.101232141256332397e-02,1.149151921272277832e-01,-6.645193696022033691e-02,-5.845133680850267410e-03,4.600299149751663208e-02,1.361808627843856812e-01,1.132789850234985352e-01,1.219450980424880981e-01,3.707131370902061462e-02,2.459194138646125793e-02,-2.871475555002689362e-02,-8.769106119871139526e-02,-1.203663125634193420e-01,-1.300781127065420151e-02,-1.729874610900878906e-01,-7.353848218917846680e-02,2.092044614255428314e-02,-7.378435134887695312e-02,1.131273880600929260e-01,3.691697493195533752e-02,-1.809664443135261536e-02,1.141450628638267517e-01,-7.735265046358108521e-02,-3.703204542398452759e-02,-2.847484312951564789e-02,1.098062172532081604e-01,1.943468302488327026e-01,-3.839625418186187744e-02,1.441313922405242920e-01,-4.023099690675735474e-02,-1.518229693174362183e-01,4.167542234063148499e-02,-1.787549816071987152e-02,5.444663763046264648e-02,1.366994995623826981e-02,3.094126097857952118e-02,-1.405446417629718781e-02,-5.827847123146057129e-02,-2.922487817704677582e-02,-1.276740729808807373e-01,-6.823486089706420898e-02,-3.669534996151924133e-02,-1.450563073158264160e-01,-4.719828814268112183e-02,-1.578340493142604828e-02,-6.526228040456771851e-02,1.707962155342102051e-02,-1.349262148141860962e-01,-2.383547648787498474e-02,5.509513895958662033e-03,-1.739950478076934814e-01,3.874471411108970642e-02,1.044261381030082703e-01,4.159184545278549194e-02,1.111911959014832973e-03,5.603903532028198242e-02,-4.235962778329849243e-02,4.568284749984741211e-02,1.683261059224605560e-02,-4.687425121665000916e-02,3.203235333785414696e-03,-3.973528370261192322e-02,1.073461100459098816e-01,6.420806050300598145e-02,7.173469662666320801e-02,1.438809931278228760e-01,6.142449378967285156e-02,-1.498363465070724487e-01,6.023739464581012726e-03,-1.541616618633270264e-01,1.538757532835006714e-01,-5.174707248806953430e-02,-4.698991402983665466e-02,1.988851930946111679e-03,-1.029235869646072388e-01,-9.581337869167327881e-02,-1.502688378095626831e-01,-1.613850519061088562e-02,-4.512270912528038025e-02,4.308063909411430359e-02,7.973884791135787964e-02,1.884709857404232025e-02,3.894772380590438843e-02,6.120159849524497986e-02,-1.090575978159904480e-01,4.855482652783393860e-02,2.662189863622188568e-02,-8.448610454797744751e-02,7.307238131761550903e-02,1.349323689937591553e-01,8.092711679637432098e-03,1.882036589086055756e-02,-1.548129599541425705e-02,2.301524765789508820e-02,1.151796579360961914e-01,-1.390532553195953369e-01,5.278804805129766464e-03,2.801838330924510956e-02,-4.036016017198562622e-02,-1.368847787380218506e-01,6.671938300132751465e-02,-8.441452682018280029e-02,7.828515022993087769e-03,-5.696840211749076843e-02,-7.428967952728271484e-02,9.891168214380741119e-03,7.422827929258346558e-02,-8.214515447616577148e-02,8.333506435155868530e-02,-3.203079476952552795e-02,4.969539865851402283e-02,-7.871913164854049683e-02,1.791392266750335693e-01,8.590876124799251556e-03,-1.067492291331291199e-01,-5.612083896994590759e-02,1.105997152626514435e-02,-1.002582460641860962e-01,-1.800987273454666138e-01,-3.758953884243965149e-02,-7.430263608694076538e-02,-1.416715532541275024e-01,8.095773309469223022e-02,1.567429900169372559e-01,2.351881191134452820e-02,-5.532286316156387329e-02,-7.633125036954879761e-02,-5.667764693498611450e-03,1.734310686588287354e-01,3.245325386524200439e-02,-2.056481316685676575e-02,-6.324191391468048096e-02,-1.931884437799453735e-01,1.346241589635610580e-02,4.299972578883171082e-02,-4.281511530280113220e-02,3.386437520384788513e-02,-1.442397385835647583e-01,-1.060536727309226990e-01,-2.284765709191560745e-03,2.842863462865352631e-02,-1.430766750127077103e-02,-7.654520217329263687e-03,1.378563344478607178e-01,-1.727783977985382080e-01,-3.410841897130012512e-02,7.355359941720962524e-02,-2.408875152468681335e-02,9.494832158088684082e-02,-5.125215277075767517e-02,2.349018678069114685e-02,-3.764609619975090027e-02,1.677639186382293701e-01,1.919613778591156006e-02,-1.102875471115112305e-01,-9.972765296697616577e-02,9.971287846565246582e-02,6.287326663732528687e-02,1.807021326385438442e-03,-5.578348040580749512e-02,2.591452375054359436e-02,1.044858619570732117e-02,-1.601354926824569702e-01,1.421983242034912109e-01,-1.081768795847892761e-01,6.932454556226730347e-02,1.028620526194572449e-01,-8.709927648305892944e-02,-1.728560477495193481e-01,-3.654509782791137695e-02,2.024323679506778717e-02,-7.321811467409133911e-02,8.986169844865798950e-02,3.147201985120773315e-02,1.290056407451629639e-01,-1.386276781558990479e-01,-8.010326325893402100e-02,-8.029199391603469849e-02,1.103979125618934631e-01,1.058395430445671082e-01,2.127465605735778809e-02,-5.021338537335395813e-02,1.108549255877733231e-02,1.040410175919532776e-01,-1.254649162292480469e-01,1.242986842989921570e-01,-1.225892305374145508e-01,1.411439478397369385e-01,9.752645343542098999e-02,-7.867227494716644287e-02,2.931619063019752502e-02,9.044013917446136475e-02,-4.078260436654090881e-02,5.210277065634727478e-02,-8.923669159412384033e-02,-2.091347984969615936e-02,-7.096800953149795532e-02,-9.869663417339324951e-02,4.868316277861595154e-02,3.520314022898674011e-02,4.900455102324485779e-02,1.710234433412551880e-01,1.225737556815147400e-01,1.462270468473434448e-01,-8.828609436750411987e-02,-1.088582649827003479e-01,5.932924151420593262e-02,3.017902374267578125e-02,3.655135259032249451e-02,4.938886687159538269e-02,1.131326332688331604e-01,-5.314495787024497986e-02,-3.011524491012096405e-02,-1.353626251220703125e-01,-3.403138741850852966e-02,-2.858946658670902252e-02,-8.529015630483627319e-02,3.378102928400039673e-02,1.406775880604982376e-02,5.786064267158508301e-02,8.748820424079895020e-02,1.410393160767853260e-03,4.597522318363189697e-02,1.331911236047744751e-01,-6.432893872261047363e-02,-1.880180388689041138e-01,1.728105098009109497e-01,8.397982269525527954e-02,5.869290232658386230e-02,8.731009438633918762e-04,1.140125021338462830e-01,-5.172483995556831360e-02,1.747124940156936646e-01,1.089022755622863770e-01,1.237563043832778931e-01,-4.089198634028434753e-02,1.269239187240600586e-01,-1.148433461785316467e-01,-4.469382576644420624e-03,4.896469041705131531e-02,-4.448707401752471924e-02,5.803298950195312500e-02,-1.976532302796840668e-02,-4.341011494398117065e-02,1.142602488398551941e-01,4.541816934943199158e-02,9.946797043085098267e-02,-9.296819567680358887e-02,7.048281282186508179e-02,-2.316229417920112610e-02,-1.846106946468353271e-01,-9.602765738964080811e-02,-1.116404458880424500e-01,-9.336815029382705688e-02,-1.606169342994689941e-01,-5.601095035672187805e-02,-8.004418574273586273e-03,-1.715284436941146851e-01,3.414043039083480835e-02,-1.362932622432708740e-01,1.326369643211364746e-01,-4.242435470223426819e-02,6.968098133802413940e-02,-1.271314769983291626e-01,-4.034750163555145264e-02,1.028542499989271164e-02,4.667889699339866638e-02,-2.189953438937664032e-02,5.379630997776985168e-02,4.810347035527229309e-02,-7.532765716314315796e-02,5.111471563577651978e-02,-1.631934493780136108e-01,3.284499049186706543e-02,1.294868439435958862e-01,-1.261520683765411377e-01,-9.923592209815979004e-02,-9.860052913427352905e-02,1.068213135004043579e-01,-8.749579638242721558e-02,1.836379244923591614e-02,8.728810399770736694e-02,1.292115356773138046e-02,-1.805947422981262207e-01,1.299301236867904663e-01,3.999100998044013977e-02,-9.579917043447494507e-02,1.470574587583541870e-01,-3.384603187441825867e-02,1.916449517011642456e-01,1.219009086489677429e-01,-1.733666211366653442e-01,6.108567863702774048e-02,2.378679811954498291e-02,-2.760597877204418182e-02,9.943320602178573608e-02,9.502634406089782715e-02,-6.633669883012771606e-02,1.171134039759635925e-01,1.294175833463668823e-01,8.404696732759475708e-02,6.718846410512924194e-02,3.315342357382178307e-03,9.520553797483444214e-02,-2.670524455606937408e-02,8.339351974427700043e-03,-3.461608663201332092e-02,-5.729021504521369934e-02,-2.246276102960109711e-02,5.626573041081428528e-02,-2.345776185393333435e-02,5.287044867873191833e-02,3.594604507088661194e-02,-9.216239303350448608e-02,-1.296077854931354523e-02,2.999559044837951660e-02,-3.262884542346000671e-02,5.784488841891288757e-02,-1.400019245920702815e-04,8.543392270803451538e-02,-4.031405597925186157e-02,8.942622691392898560e-02,-9.348720312118530273e-02,4.462546110153198242e-02,-1.090647950768470764e-01,1.095121055841445923e-01,2.805044688284397125e-02,1.031324788928031921e-01,-9.193199127912521362e-02,4.662100598216056824e-02,4.828560631722211838e-03,1.858557462692260742e-01,4.689954593777656555e-02,-1.974015869200229645e-02,-1.192157864570617676e-01,1.354657560586929321e-01,-1.634126156568527222e-01,1.228255033493041992e-01,-8.871606737375259399e-02,-1.405067294836044312e-01,1.151377893984317780e-02,-1.167920827865600586e-01,2.382157370448112488e-02,2.696456015110015869e-02,-1.207841187715530396e-01,1.577273197472095490e-02,1.153974905610084534e-01,3.209707560017704964e-03,-1.234197393059730530e-01,1.216782853007316589e-01,-1.975479871034622192e-01,8.422496169805526733e-02,-1.525411903858184814e-01,-2.817033790051937103e-02,-2.450161799788475037e-02,7.654619403183460236e-03,1.127328202128410339e-01,-2.490279078483581543e-02,-1.109401509165763855e-01,8.617325127124786377e-02,-1.137730032205581665e-01,-1.748038828372955322e-02,5.471355468034744263e-02,-1.390958577394485474e-01,1.776519268751144409e-01,3.860633447766304016e-02,-6.746414303779602051e-02,1.178484335541725159e-01,5.450344085693359375e-02,1.251853704452514648e-01,1.005880162119865417e-01,5.208947882056236267e-02,-2.565297298133373260e-02,-6.754903495311737061e-02,-1.873926818370819092e-01,2.965042367577552795e-02,-1.461424082517623901e-01,-9.211864671669900417e-04,3.960260376334190369e-02,1.460214406251907349e-01,-9.082011878490447998e-02,1.425854563713073730e-01,-1.092652603983879089e-02,-9.964847564697265625e-02,-1.420760154724121094e-01,7.822957634925842285e-02,-8.937017410062253475e-04,-8.175443857908248901e-02,-1.422388106584548950e-01,-4.250733181834220886e-02,-1.230010297149419785e-02,-1.583047062158584595e-01,4.569032415747642517e-02,1.179494708776473999e-02,1.086467318236827850e-02,4.865475744009017944e-02,1.072118058800697327e-01,-7.213019579648971558e-02,-3.488176316022872925e-02,6.895545870065689087e-03,-6.297928839921951294e-02,-5.780656263232231140e-02,-8.024261146783828735e-02,6.300850654952228069e-04,-6.386387348175048828e-02,3.668260201811790466e-02,-1.522747129201889038e-01,-1.442002952098846436e-01,1.075235940515995026e-02,-6.110142543911933899e-02,1.283482927829027176e-02,-1.919846422970294952e-02,8.335246890783309937e-02,-5.682947859168052673e-02,8.217527717351913452e-02,-8.291225880384445190e-02,2.136551029980182648e-02,5.162748694419860840e-02,-1.189999952912330627e-01,-1.007846966385841370e-01,-1.563326269388198853e-01,2.187043055891990662e-02,9.207627922296524048e-02,1.157646700739860535e-01,-3.006413392722606659e-02,9.178894758224487305e-02,1.870138496160507202e-01,-3.387153148651123047e-02,9.023242630064487457e-03,1.168315019458532333e-02,-9.236534684896469116e-02,8.585755527019500732e-02,-2.185824699699878693e-02,-2.261972986161708832e-02,8.461621403694152832e-02,-1.691157370805740356e-01,2.828931249678134918e-02,1.204965114593505859e-01,-5.929548665881156921e-02,1.849254518747329712e-01,-7.180858403444290161e-02,6.908752024173736572e-02,-4.835741594433784485e-02,-9.725412726402282715e-02,-1.667978763580322266e-01,-6.734728068113327026e-02,-5.601517483592033386e-02,-1.810168474912643433e-01,-7.881452143192291260e-02,-3.134961426258087158e-02,1.642145961523056030e-01,1.039958223700523376e-01,1.390899419784545898e-01,-8.908610790967941284e-02,-1.342298388481140137e-01,7.565960288047790527e-02,-1.595640480518341064e-01,9.397489577531814575e-02,-3.923696279525756836e-02,-1.583337336778640747e-01,6.559110432863235474e-02,1.607086136937141418e-02,1.059110537171363831e-01,4.213061183691024780e-02,-1.278575789183378220e-02,8.753380924463272095e-02,-1.546895205974578857e-01,-1.229345947504043579e-01,-1.507420539855957031e-01,-4.816003888845443726e-02,-1.104058176279067993e-01,3.550863638520240784e-02,-1.768557131290435791e-01,7.974150031805038452e-02,1.308578997850418091e-01,1.269008871167898178e-02,3.199982270598411560e-02,1.044667419046163559e-02,-7.961294800043106079e-02,-3.062379313632845879e-03,-9.395726770162582397e-02,6.909202784299850464e-02,-3.145544230937957764e-02,-7.077514380216598511e-02,-5.469794943928718567e-02,2.236232347786426544e-02,5.716790631413459778e-02,1.107598561793565750e-02,-1.112940236926078796e-01,4.577511548995971680e-02,-5.572327598929405212e-02,1.808974593877792358e-01,-8.383321017026901245e-02,-3.114748047664761543e-03,1.930336840450763702e-02,5.361429974436759949e-02,-5.663399770855903625e-02,3.322464227676391602e-02,-2.665448188781738281e-02,-4.116879403591156006e-02,1.601829007267951965e-02,1.877229809761047363e-01
-2.983040409162640572e-03,-1.044965609908103943e-01,-4.653477109968662262e-03,-1.388437598943710327e-01,-4.818945750594139099e-02,-2.310784719884395599e-02,-1.007092818617820740e-01,-8.865241706371307373e-02,-2.655812422744929790e-04,8.901952952146530151e-02,4.117080196738243103e-02,-1.023015305399894714e-01,6.793223321437835693e-02,8.792565204203128815e-03,-1.562696397304534912e-01,-1.138600111007690430e-01,-1.353625506162643433e-01,1.237392351031303406e-01,-1.781286448240280151e-01,-1.696223616600036621e-01,-1.407883614301681519e-01,8.891127258539199829e-02,-9.362842887639999390e-02,8.928950875997543335e-02,-8.566615171730518341e-03,-5.572333559393882751e-02,-1.818171516060829163e-02,-2.472250198479741812e-04,-1.195868626236915588e-01,-5.919798836112022400e-02,8.374797552824020386e-02,-5.902239680290222168e-02,8.573459461331367493e-03,-1.152393817901611328e-01,1.649890691041946411e-01,2.202294208109378815e-02,4.490216076374053955e-02,9.810697287321090698e-02,1.013833209872245789e-01,8.097984641790390015e-02,-3.088534250855445862e-02,5.466970428824424744e-02,-3.324838355183601379e-02,-4.430460557341575623e-02,-3.394958004355430603e-02,-1.129235252737998962e-01,-2.454013330861926079e-03,1.648340672254562378e-01,-3.015544265508651733e-03,8.396696299314498901e-02,-1.170985624194145203e-01,1.355993933975696564e-02,1.132779270410537720e-01,-4.310384392738342285e-02,1.402692403644323349e-02,-1.766214221715927124e-01,7.190450280904769897e-02,1.654476486146450043e-02,-5.747894570231437683e-02,4.018300399184226990e-02,9.206562489271163940e-02,-1.628371775150299072e-01,-1.523718088865280151e-01,4.768649488687515259e-02,-6.683902442455291748e-02,-1.025165691971778870e-01,1.087106019258499146e-01,-1.070133596658706665e-01,-2.936493232846260071e-02,1.062083020806312561e-01,-1.201508417725563049e-01,-4.387755319476127625e-02,-7.214026898145675659e-02,-7.473448663949966431e-02,-1.231102123856544495e-01,-1.866796286776661873e-03,-1.173811312764883041e-02,5.658977106213569641e-02,1.337742339819669724e-02,-1.543500423431396484e-01,8.679946511983871460e-02,7.297991961240768433e-02,2.051534876227378845e-02,-1.008812338113784790e-01,-9.310004115104675293e-02,-7.732608169317245483e-02,4.833989590406417847e-02,-2.571156062185764313e-02,-3.290251642465591431e-02,5.075981840491294861e-02,3.373242169618606567e-02,1.131287142634391785e-01,-1.030515357851982117e-01,4.467143118381500244e-02,9.585645049810409546e-02,6.400125473737716675e-02,8.417927473783493042e-02,1.069710478186607361e-01,9.675943851470947266e-02,1.232480779290199280e-01,-3.073102794587612152e-02,-1.407323926687240601e-01,-6.461120396852493286e-02,5.821960791945457458e-02,8.098437637090682983e-02,2.547459444031119347e-03,5.941353365778923035e-02,4.506397247314453125e-02,1.363248527050018311e-01,-1.356830745935440063e-01,-4.012370854616165161e-02,-6.334514915943145752e-02,-1.378310769796371460e-01,-8.616145700216293335e-02,6.110639311373233795e-03,1.783642172813415527e-02,5.550481751561164856e-02,-1.124348267912864685e-01,1.286351233720779419e-01,-5.677626281976699829e-02,-1.319674700498580933e-01,8.519797772169113159e-02,8.331906795501708984e-02,-1.694545745849609375e-01,9.420278482139110565e-03,-1.131652593612670898e-01,7.696209102869033813e-02,-9.804072976112365723e-02,1.439001061953604221e-04,9.807310067117214203e-03,1.207855492830276489e-01,-9.614251554012298584e-02,-1.066808328032493591e-01,-1.222353503108024597e-01,-7.906647771596908569e-02,6.645657867193222046e-02,-1.366508156061172485e-01,-6.236319616436958313e-02,8.723867125809192657e-03,5.043789744377136230e-02,-6.915873289108276367e-02,-1.170377880334854126e-01,-1.037204638123512268e-01,-1.543652545660734177e-02,-9.145968407392501831e-02,1.606620550155639648e-01,8.694406715221703053e-04,-1.054190024733543396e-01,-1.047712936997413635e-01,7.464294880628585815e-02,1.794528812170028687e-01,-5.820787698030471802e-02,-9.297391772270202637e-02,5.087624862790107727e-02,-8.394713699817657471e-02,7.690814882516860962e-02,1.662428118288516998e-02,-8.779445290565490723e-02,2.900446392595767975e-02,2.514400146901607513e-02,-5.839196965098381042e-03,-7.056415081024169922e-03,-4.084339365363121033e-02,-4.256569221615791321e-02,-2.619932964444160461e-02,-3.953766077756881714e-02,3.817054629325866699e-02,-1.236280575394630432e-01,8.445767313241958618e-02,1.016682386398315430e-01,1.196986809372901917e-01,7.313687354326248169e-02,-6.763547658920288086e-02,-3.418459091335535049e-03,-1.073109433054924011e-01,-1.201979629695415497e-02,-4.720995947718620300e-02,-7.158963126130402088e-04,1.207828670740127563e-01,-8.085276931524276733e-02,-9.562781453132629395e-02,1.034742146730422974e-01,-5.469495058059692383e-02,9.634402394294738770e-02,6.612795870751142502e-03,1.585088074207305908e-01,2.843655087053775787e-02,-4.268346354365348816e-02,4.554019309580326080e-03,-1.497667580842971802e-01,5.841891095042228699e-02,-1.143858581781387329e-01,-5.344433337450027466e-02,1.475926637649536133e-01,-5.965152010321617126e-02,-1.762883365154266357e-01,-6.157356780022382736e-03,-1.323207747191190720e-02,-2.760048583149909973e-02,-8.742212504148483276e-02,-8.437390625476837158e-02,-8.332064375281333923e-03,2.827868331223726273e-03,3.971185907721519470e-02,9.746342152357101440e-02,-4.905406758189201355e-02,-5.135122686624526978e-02,5.551953986287117004e-02,-3.605292364954948425e-02,4.816317930817604065e-03,1.248038467019796371e-02,7.704874128103256226e-02,4.900432005524635315e-02,-8.360005915164947510e-02,1.047428771853446960e-01,4.026001319289207458e-02,4.476152360439300537e-02,3.835354745388031006e-02,5.783107876777648926e-02,-5.866738036274909973e-02,3.132948651909828186e-02,-7.253833115100860596e-02,4.626058787107467651e-02,-1.192379184067249298e-02,2.480349503457546234e-04,1.026178970932960510e-01,-1.225767731666564941e-01,-8.936887979507446289e-02,5.616713687777519226e-02,9.380654245615005493e-02,6.060399487614631653e-02,1.565764099359512329e-02,8.408971875905990601e-02,1.919391565024852753e-02,-1.348509043455123901e-01,-7.295469287782907486e-03,-1.317923814058303833e-01,-8.865252137184143066e-02,1.645948970690369606e-03,-1.572603583335876465e-01,-5.334908608347177505e-03,2.181466482579708099e-02,2.602622285485267639e-02,4.702902957797050476e-02,-1.158063784241676331e-01,-2.933153591584414244e-04,8.549768477678298950e-02,2.499399670341517776e-05,-7.814389653503894806e-03,-4.105386510491371155e-02,8.513271808624267578e-03,-6.988644599914550781e-03,-8.917538076639175415e-02,8.250486850738525391e-02,-1.063866391777992249e-01,1.524660587310791016e-01,8.306363015435636044e-04,-2.934009768068790436e-02,-8.454594016075134277e-02,-1.382715553045272827e-01,-6.427019089460372925e-02,1.131534203886985779e-01,1.834426224231719971e-01,8.691308647394180298e-02,-9.517701715230941772e-02,2.210706099867820740e-02,3.845291584730148315e-02,-4.556583985686302185e-02,8.184963464736938477e-02,1.071295514702796936e-01,-1.468134671449661255e-01,3.700751811265945435e-03,-5.953139811754226685e-02,-9.839823842048645020e-02,2.609976939857006073e-02,-4.014834389090538025e-02,7.508661597967147827e-02,6.821780651807785034e-02,-6.075347587466239929e-02,-8.849176578223705292e-03,1.100165247917175293e-01,1.299875527620315552e-01,-1.713896393775939941e-01,-1.802482642233371735e-02,-5.322397500276565552e-02,4.176739975810050964e-02,1.509266644716262817e-01,-3.408947587013244629e-02,1.489289999008178711e-01,2.061030827462673187e-02,-8.232373744249343872e-02,-9.230671077966690063e-02,8.144962042570114136e-02,9.548109769821166992e-02,7.877072691917419434e-02,1.650091856718063354e-01,3.374708816409111023e-02,1.207310333847999573e-01,1.019879207015037537e-01,1.095375791192054749e-01,7.457596808671951294e-02,-3.879072889685630798e-02,-1.696166992187500000e-01,3.218717500567436218e-02,7.058318704366683960e-02,-8.321998268365859985e-02,1.322900354862213135e-01,-8.856793493032455444e-02,7.782097905874252319e-02,5.719272419810295105e-02,-1.542325168848037720e-01,1.426359713077545166e-01,4.695459455251693726e-02,5.949033424258232117e-03,-1.320333778858184814e-02,8.789859712123870850e-02,1.136812120676040649e-01,2.567729353904724121e-02,-2.718882262706756592e-02,-1.516181975603103638e-01,2.822620607912540436e-02,-5.043131113052368164e-02,-1.998275965452194214e-01,-3.165369853377342224e-02,-1.353888958692550659e-01,-7.998561114072799683e-02,3.449277579784393311e-02,7.783884555101394653e-02,5.225673317909240723e-02,-5.772945284843444824e-02,1.347704380750656128e-01,7.946111261844635010e-02,2.419520728290081024e-02,4.799420014023780823e-02,6.184648349881172180e-02,7.853359729051589966e-02,7.331175357103347778e-02,-8.006881922483444214e-02,-1.645935028791427612e-01,1.635583043098449707e-01,-6.560039706528186798e-03,-1.155596837634220719e-04,-3.812129795551300049e-02,-7.164204120635986328e-02,1.184084545820951462e-02,1.125882416963577271e-01,-1.152424365282058716e-01,-8.468899130821228027e-02,6.880466639995574951e-02,-1.323080062866210938e-01,6.217550486326217651e-03,6.067779287695884705e-02,-7.010208815336227417e-02,-1.701874434947967529e-01,-1.660584211349487305e-01,-9.390491992235183716e-02,-8.396124839782714844e-02,-4.978954419493675232e-02,1.592323035001754761e-01,8.689473569393157959e-02,5.540329217910766602e-02,1.577455364167690277e-02,-3.311444818973541260e-02,7.074549049139022827e-02,1.827754266560077667e-02,-2.559998072683811188e-02,-2.155729569494724274e-02,-1.575441099703311920e-02,6.046527624130249023e-02,3.801054088398814201e-03,1.555394977331161499e-01,-1.503018587827682495e-01,-5.089716985821723938e-02,3.900256007909774780e-02,1.488062441349029541e-01,-4.118611291050910950e-02,-3.788855671882629395e-02,-1.246739029884338379e-01,4.958974942564964294e-02,-5.792295932769775391e-02,-8.395116776227951050e-02,-6.111341342329978943e-02,-2.103177271783351898e-02,5.902031064033508301e-02,3.645347803831100464e-02,2.555723860859870911e-02,7.582982629537582397e-02,1.346085369586944580e-01,-6.569155305624008179e-02,1.627169102430343628e-01,-1.258096098899841309e-01,3.875273093581199646e-02,8.894266933202743530e-02,4.670284315943717957e-02,9.718760102987289429e-02,-5.213323235511779785e-02,1.885142028331756592e-01,1.793550141155719757e-02,-1.441975869238376617e-02,1.709256023168563843e-01,1.336348056793212891e-01,1.920142620801925659e-01,1.437246948480606079e-01,-4.282455146312713623e-02,5.656045861542224884e-03,1.009130384773015976e-02,-1.988009363412857056e-01,-1.775996945798397064e-02,-5.508266016840934753e-02,-1.756501644849777222e-01,1.107883080840110779e-01,1.040843594819307327e-02,-8.741105347871780396e-02,1.665066927671432495e-02,1.173695549368858337e-01,1.299097537994384766e-01,-4.716178402304649353e-02,2.189879864454269409e-02,-1.599703282117843628e-01,4.937142506241798401e-02,-1.578398644924163818e-01,1.002790704369544983e-01,6.862992048263549805e-02,1.016827225685119629e-01,6.629057973623275757e-02,4.613107070326805115e-02,4.725871980190277100e-02,6.183009222149848938e-02,1.370762288570404053e-01,1.558265537023544312e-01,-8.671301603317260742e-02,-1.612566709518432617e-01,7.602702360600233078e-03,1.548843830823898315e-01,-5.828112829476594925e-03,7.505159825086593628e-02,-7.628734409809112549e-02,5.611594393849372864e-02,1.822998933494091034e-02,7.032875716686248779e-02,-1.638729721307754517e-01,-8.341600000858306885e-02,1.402367204427719116e-01,-9.545689821243286133e-02,-1.305594891309738159e-01,-6.483944505453109741e-02,5.311731621623039246e-02,1.620450802147388458e-02,1.391182392835617065e-01,-7.466214243322610855e-03,1.237403973937034607e-01,-1.248652860522270203e-01,-5.197291448712348938e-02,4.365231096744537354e-02,-7.126856595277786255e-02,-6.891074031591415405e-02,-1.236256286501884460e-01,4.145646002143621445e-03,-5.520404502749443054e-02,-1.908933669328689575e-01,-1.313581913709640503e-01,1.520789563655853271e-01,4.318416491150856018e-02,5.186892673373222351e-02,4.005522653460502625e-02,-1.142682656645774841e-01,-8.794502168893814087e-02,-1.233305260539054871e-01,-1.109310612082481384e-01,3.853675350546836853e-02,3.349794447422027588e-02,-4.437588527798652649e-02,-1.636080145835876465e-01,3.646353632211685181e-02,-1.397797465324401855e-02,5.162226781249046326e-02,4.183831810951232910e-02,-5.611743405461311340e-02,-9.930175542831420898e-02,1.292255241423845291e-02,-2.462877891957759857e-02,-1.220410615205764771e-01,-1.407331079244613647e-01,8.200237900018692017e-02,2.046355418860912323e-02,-8.528574556112289429e-02,4.409908130764961243e-02,2.348717302083969116e-02,8.593174070119857788e-02,-4.648118466138839722e-02,1.423630416393280029e-01,2.138736099004745483e-02,4.780956730246543884e-02,-1.214242726564407349e-02,1.588786840438842773e-01,1.390709728002548218e-02,5.353521928191184998e-02,6.753962486982345581e-02,-1.101863384246826172e-01,-2.787430956959724426e-02,-1.429606825113296509e-01,-1.097639128565788269e-01,1.260819733142852783e-01,-6.135983858257532120e-03,-7.922251522541046143e-02,-8.885096013545989990e-02,-1.639581844210624695e-02,-5.965726450085639954e-02,4.004898294806480408e-02,1.691968888044357300e-01,8.638640865683555603e-04,4.811315983533859253e-02
-5.134595558047294617e-02,4.194162413477897644e-02,4.254877567291259766e-03,1.284215017221868038e-03,-3.237181529402732849e-02,-1.056096237152814865e-02,-3.456998616456985474e-02,7.711324095726013184e-02,-1.051060482859611511e-01,-5.462020263075828552e-02,1.524184048175811768e-01,1.045873910188674927e-01,1.488049924373626709e-01,5.222333595156669617e-02,3.823429346084594727e-02,-1.002165228128433228e-01,-1.122728213667869568e-01,-1.710114926099777222e-01,-8.743922412395477295e-02,-3.472064062952995300e-02,-1.204583570361137390e-01,-9.542392939329147339e-02,1.558543294668197632e-01,1.125664636492729187e-01,2.319829165935516357e-02,-1.056718975305557251e-01,-9.804571047425270081e-03,2.414357103407382965e-02,-3.280496969819068909e-02,2.843243256211280823e-02,-8.462673053145408630e-03,-4.248017910867929459e-03,-1.638296246528625488e-02,1.418579965829849243e-01,-1.343420334160327911e-02,3.512040898203849792e-02,3.931301459670066833e-02,1.076657325029373169e-01,8.064692467451095581e-02,1.946593075990676880e-01,6.754460185766220093e-02,-6.034474447369575500e-02,-1.680464744567871094e-01,1.018982455134391785e-01,-1.074377819895744324e-01,-7.388399541378021240e-02,1.440248489379882812e-01,7.950855791568756104e-02,7.947050780057907104e-02,2.131017670035362244e-02,1.850802078843116760e-02,8.935727924108505249e-02,7.394662499427795410e-02,-9.683043695986270905e-03,8.197401463985443115e-02,1.742241680622100830e-01,-5.463965609669685364e-02,4.512802883982658386e-02,8.425313234329223633e-02,-1.672387123107910156e-01,8.558987826108932495e-02,-1.132670417428016663e-01,-4.648693278431892395e-02,-6.637749075889587402e-02,4.159915819764137268e-02,4.881386086344718933e-02,5.147718824446201324e-03,1.209373101592063904e-01,-9.843521565198898315e-02,1.054139658808708191e-01,1.516345422714948654e-02,5.450214818120002747e-02,3.606704622507095337e-02,8.351252973079681396e-02,-1.342524588108062744e-01,1.022225618362426758e-01,-1.561629474163055420e-01,-7.279745489358901978e-02,-1.506937891244888306e-01,-5.579801276326179504e-02,8.773140609264373779e-02,2.269396744668483734e-02,-1.292888373136520386e-01,3.782365936785936356e-03,-1.165741309523582458e-01,1.248332783579826355e-01,2.589197456836700439e-02,-2.610309980809688568e-02,5.764587549492716789e-04,2.906381152570247650e-02,4.926718398928642273e-02,-2.955585531890392303e-02,-1.427598763257265091e-02,-5.049770697951316833e-02,4.656795784831047058e-02,-2.795758284628391266e-02,1.370217651128768921e-01,-1.215416714549064636e-01,-1.304414123296737671e-02,3.839160129427909851e-02,6.575260311365127563e-02,7.708554714918136597e-02,-2.045048214495182037e-02,-1.157486587762832642e-01,1.165794655680656433e-01,-3.469223529100418091e-02,5.866751819849014282e-02,8.866747468709945679e-02,3.601732850074768066e-02,-4.286731407046318054e-02,-1.069762706756591797e-01,4.181600362062454224e-02,2.828372083604335785e-02,-3.526667505502700806e-02,-1.870864778757095337e-01,6.761875003576278687e-02,8.110081404447555542e-02,8.765994757413864136e-02,9.849466383457183838e-03,-1.968041062355041504e-02,-3.541325405240058899e-02,7.452633231878280640e-02,-6.642740219831466675e-02,1.338623184710741043e-02,-6.128690391778945923e-02,-5.094885453581809998e-02,-7.490715384483337402e-02,3.509088978171348572e-02,-9.164982289075851440e-02,-1.646394468843936920e-02,-1.648186296224594116e-01,1.237121745944023132e-01,9.199202060699462891e-02,-7.981138676404953003e-02,-2.266683429479598999e-02,-8.835138380527496338e-02,-2.281264960765838623e-02,-8.626729249954223633e-02,-2.398314140737056732e-02,2.786037139594554901e-02,-4.350135847926139832e-02,3.902496397495269775e-02,-7.498510181903839111e-02,-7.695702463388442993e-02,-8.609400689601898193e-02,-6.452255696058273315e-02,-3.106998465955257416e-02,1.085789594799280167e-02,1.888832921395078301e-04,-8.683302253484725952e-02,-3.049109317362308502e-02,5.663773417472839355e-02,-9.741568565368652344e-02,1.869994848966598511e-01,1.136982999742031097e-02,1.717556118965148926e-01,1.123865172266960144e-01,-4.853153228759765625e-02,6.663323938846588135e-02,-1.051198169589042664e-01,2.547827363014221191e-02,-6.299394369125366211e-02,-3.815669193863868713e-02,6.390424817800521851e-02,-1.932510547339916229e-02,8.709646645002067089e-04,-6.836061924695968628e-02,1.702790409326553345e-01,-7.539423648267984390e-03,8.763970434665679932e-02,4.968565329909324646e-02,5.090012028813362122e-02,1.853364333510398865e-02,3.297762712463736534e-03,3.529788181185722351e-02,1.949000358581542969e-02,1.762116253376007080e-01,1.632165759801864624e-01,1.375874783843755722e-02,1.367937773466110229e-02,-6.195032224059104919e-02,-6.723359972238540649e-02,2.883699908852577209e-02,-4.382184147834777832e-02,5.172491818666458130e-02,5.945397168397903442e-02,1.290071457624435425e-01,2.437504194676876068e-02,9.930231422185897827e-02,-3.951721265912055969e-02,-5.264768004417419434e-02,2.734265103936195374e-02,-1.226186677813529968e-01,2.206665650010108948e-02,8.869519829750061035e-02,-7.366534322500228882e-02,1.357405818998813629e-02,2.528301812708377838e-02,-1.498365849256515503e-01,7.529338356107473373e-03,-1.009701266884803772e-01,-5.671873688697814941e-02,5.550743266940116882e-02,-1.051428914070129395e-01,4.501885734498500824e-03,9.040956199169158936e-02,-7.820995897054672241e-02,5.418480187654495239e-02,3.285293281078338623e-02,-1.996020600199699402e-02,1.497334893792867661e-02,-1.178512573242187500e-01,5.743751674890518188e-02,9.222192317247390747e-02,1.344307810068130493e-01,-1.302844732999801636e-01,1.046563982963562012e-01,1.104846224188804626e-01,6.860865652561187744e-02,7.173166424036026001e-02,-4.376887902617454529e-02,1.086332127451896667e-01,1.451032310724258423e-01,-1.517020165920257568e-02,-1.308788061141967773e-01,-9.480872191488742828e-03,-7.421731203794479370e-02,-4.703663662075996399e-02,4.045448824763298035e-02,7.183158304542303085e-03,8.429894223809242249e-03,2.376348897814750671e-02,8.116853982210159302e-02,-1.128256544470787048e-01,-1.331693977117538452e-01,-6.463587284088134766e-02,1.833163760602474213e-02,-8.647061884403228760e-03,-4.419822990894317627e-02,-4.048305377364158630e-02,4.877426475286483765e-02,1.434201896190643311e-01,-3.247887641191482544e-02,-9.710107743740081787e-02,-1.253869086503982544e-01,-8.986839652061462402e-02,8.884416520595550537e-02,1.822541505098342896e-01,-6.858130544424057007e-02,-1.912950277328491211e-01,3.820382524281740189e-03,-4.110557585954666138e-02,1.786016076803207397e-01,1.597083732485771179e-02,5.837059020996093750e-02,4.045934602618217468e-02,-8.681127429008483887e-02,1.117135435342788696e-01,-6.133900210261344910e-02,-5.230149626731872559e-02,8.366706781089305878e-03,-4.645230993628501892e-02,1.267158240079879761e-01,7.488014549016952515e-02,6.400164961814880371e-02,-2.751742862164974213e-02,-2.932475507259368896e-02,-2.948938310146331787e-02,-1.184006258845329285e-01,1.904151737689971924e-01,9.675505012273788452e-02,-4.051231965422630310e-02,-1.359693557024002075e-01,-7.161731272935867310e-02,-1.300878971815109253e-01,-9.493870288133621216e-02,1.140661835670471191e-01,-4.210276529192924500e-02,-4.877709969878196716e-02,3.972312808036804199e-02,-2.462706528604030609e-02,9.645342081785202026e-02,5.869649350643157959e-03,1.069926768541336060e-01,-4.660102073103189468e-03,4.545016959309577942e-02,3.007456474006175995e-02,-4.885798692703247070e-02,5.145563557744026184e-02,9.243224561214447021e-02,8.757229894399642944e-03,5.687617138028144836e-02,1.611929014325141907e-02,6.123285368084907532e-02,1.175052952021360397e-02,-6.302239838987588882e-03,-3.572550415992736816e-02,5.192185193300247192e-02,-3.430385142564773560e-02,-6.773426383733749390e-02,5.717297270894050598e-02,1.174641251564025879e-01,-2.259195037186145782e-02,1.299571841955184937e-01,-7.738422136753797531e-03,-5.668130144476890564e-02,7.081820070743560791e-02,5.080932006239891052e-02,-1.179143115878105164e-01,7.331865280866622925e-02,7.504464592784643173e-03,-4.937713500112295151e-03,-2.637588046491146088e-02,6.841295957565307617e-02,2.706427685916423798e-02,-2.011487819254398346e-02,1.446724385023117065e-01,-5.535110365599393845e-03,2.199435373768210411e-03,1.355328112840652466e-01,5.924247577786445618e-02,2.697984687983989716e-02,-3.666681423783302307e-02,8.740387274883687496e-04,-9.122218936681747437e-02,1.327565964311361313e-02,-1.730140596628189087e-01,-1.048216447234153748e-01,7.637708634138107300e-02,-1.316123455762863159e-01,3.978600353002548218e-02,-7.804843131452798843e-03,-5.861680582165718079e-02,-2.078583091497421265e-02,2.058500237762928009e-02,-4.842307791113853455e-02,1.277833729982376099e-01,-1.893678121268749237e-02,-4.437570646405220032e-02,5.027748271822929382e-02,-1.158444434404373169e-01,7.816731929779052734e-02,3.610581159591674805e-02,-1.693556159734725952e-01,-7.096167653799057007e-02,9.741129726171493530e-02,-5.856582522392272949e-02,-1.340590715408325195e-01,1.766103506088256836e-01,-3.128550946712493896e-02,2.510885335505008698e-02,-1.884922757744789124e-02,7.988586276769638062e-02,-1.211806088685989380e-01,-5.752417445182800293e-02,-1.455338448286056519e-01,-5.601380392909049988e-02,-3.754020482301712036e-02,-1.314360368996858597e-02,-1.080783605575561523e-01,6.111999228596687317e-02,1.315362900495529175e-01,3.066014731302857399e-03,1.226525828242301941e-01,-5.019864998757839203e-03,8.541848510503768921e-02,-1.239176988601684570e-01,-1.148390322923660278e-01,-1.357734799385070801e-01,8.668680489063262939e-02,-1.570188850164413452e-01,-3.922206535935401917e-02,-1.142041832208633423e-01,3.102809190750122070e-02,1.298739165067672729e-01,-2.697698539122939110e-03,1.145711094141006470e-01,-3.349570930004119873e-02,8.014080673456192017e-02,-6.899898499250411987e-02,2.347777364775538445e-03,8.420924842357635498e-02,1.256798356771469116e-01,-8.312533795833587646e-02,-1.625818312168121338e-01,-1.589370816946029663e-01,3.968882188200950623e-02,4.063792154192924500e-02,2.287759259343147278e-02,-7.014981657266616821e-02,-2.046046033501625061e-02,-7.977335900068283081e-02,-8.714526146650314331e-02,8.485238254070281982e-02,5.427925661206245422e-02,3.791138902306556702e-02,8.208104223012924194e-02,-8.350044488906860352e-03,-1.286929100751876831e-01,8.143073879182338715e-03,1.015570312738418579e-01,2.930836635641753674e-04,-3.576939553022384644e-02,-8.542634546756744385e-02,5.200058221817016602e-02,-1.260793488472700119e-02,5.299165472388267517e-02,1.431147903203964233e-01,-1.050408091396093369e-02,1.485823541879653931e-01,-4.757127165794372559e-02,-5.863203480839729309e-02,6.595861166715621948e-02,-7.491755485534667969e-02,-8.538637310266494751e-02,-6.846946664154529572e-03,4.647254478186368942e-03,-1.869842112064361572e-01,-7.560381293296813965e-02,-5.741527676582336426e-02,1.434642523527145386e-01,4.125112667679786682e-02,6.629633158445358276e-02,6.235878914594650269e-03,2.464519627392292023e-02,-6.305541843175888062e-02,5.945548042654991150e-02,6.907663494348526001e-02,-8.655127882957458496e-02,-5.188487097620964050e-02,3.318646922707557678e-02,-6.075641140341758728e-02,3.271998465061187744e-02,2.286781370639801025e-02,2.450975403189659119e-02,3.317552432417869568e-02,4.587781149893999100e-03,-1.218419428914785385e-02,-4.158126562833786011e-02,-3.509738668799400330e-02,-4.653234034776687622e-02,6.472129374742507935e-02,4.030894860625267029e-02,3.224785998463630676e-02,6.236761342734098434e-03,-1.131014153361320496e-01,-7.353965938091278076e-02,9.014958143234252930e-02,-3.914327546954154968e-02,1.406118124723434448e-01,-1.994463987648487091e-02,-8.911751955747604370e-02,-1.260583549737930298e-01,1.442485749721527100e-01,-8.259376883506774902e-02,-8.048199862241744995e-02,4.851537756621837616e-03,-1.149047445505857468e-02,-4.318070784211158752e-02,9.306871145963668823e-02,-1.138981338590383530e-02,-1.053284779191017151e-01,-1.143678203225135803e-01,-2.277234382927417755e-02,-2.978910319507122040e-02,-1.691215299069881439e-02,-8.031153120100498199e-03,-3.476772457361221313e-02,-1.003347635269165039e-01,-1.270311325788497925e-01,2.830214798450469971e-03,-2.057408727705478668e-02,2.135155163705348969e-02,2.054628357291221619e-02,8.166936039924621582e-02,-1.339465826749801636e-01,-1.575276814401149750e-02,-3.672039508819580078e-02,-1.884644627571105957e-01,-4.988987371325492859e-02,-5.075462535023689270e-02,-1.099245697259902954e-01,-1.258615702390670776e-01,1.642051897943019867e-02,-3.801594721153378487e-05,6.289295852184295654e-02,1.471557375043630600e-02,5.935771390795707703e-02,-1.689656525850296021e-01,5.072138458490371704e-02,1.464022845029830933e-01,1.439137756824493408e-01,5.544676259160041809e-02,-9.747809916734695435e-02,-6.004419550299644470e-02,1.372859627008438110e-01,-5.413213372230529785e-02,-1.433880329132080078e-01,1.502818912267684937e-01,-1.510917991399765015e-01,-1.466188877820968628e-01,1.143470406532287598e-01,4.437796771526336670e-02,9.076165407896041870e-02,-3.907917812466621399e-02,8.363854885101318359e-02,-1.109051611274480820e-02,-1.545841097831726074e-01,-5.872220546007156372e-02,1.239950396120548248e-02,5.451897904276847839e-02,5.259053036570549011e-02
-3.420434892177581787e-03,-4.856411740183830261e-02,3.955773264169692993e-02,-6.810396909713745117e-02,1.449346393346786499e-01,6.149895116686820984e-02,8.116118609905242920e-02,1.052323505282402039e-01,-6.768181174993515015e-02,-3.034309856593608856e-02,-5.567752197384834290e-02,2.202338725328445435e-02,1.816425174474716187e-01,7.457002997398376465e-02,1.599183864891529083e-02,5.135905370116233826e-02,-8.347641676664352417e-02,1.998175531625747681e-01,-1.375827938318252563e-01,1.072166860103607178e-02,1.528138108551502228e-02,-1.104717627167701721e-01,-5.840032920241355896e-02,8.637191355228424072e-02,-5.182504281401634216e-02,-2.301435545086860657e-02,-3.433062229305505753e-03,1.370641589164733887e-01,-2.143106795847415924e-02,-1.092718392610549927e-01,9.016349911689758301e-02,-4.219315573573112488e-02,-1.986826062202453613e-01,3.459202498197555542e-02,-3.514647483825683594e-03,-9.026211686432361603e-03,8.753252215683460236e-03,-7.386414706707000732e-02,5.810362845659255981e-02,-1.457108091562986374e-02,1.069173738360404968e-01,-7.216511666774749756e-02,-2.961793541908264160e-02,-9.231943637132644653e-03,8.968420326709747314e-02,6.184922531247138977e-02,-9.776743501424789429e-02,-4.783603176474571228e-02,-9.739894419908523560e-02,8.754053711891174316e-02,-1.273614615201950073e-01,8.236732333898544312e-02,6.462554633617401123e-02,5.488479882478713989e-02,3.277455270290374756e-02,-2.990601398050785065e-02,1.042551025748252869e-01,-3.480234742164611816e-02,1.100428923964500427e-01,6.594575196504592896e-02,1.334903687238693237e-01,1.341817248612642288e-02,-7.301706820726394653e-02,-1.403328627347946167e-01,-1.345820128917694092e-01,-1.181552466005086899e-02,1.894294098019599915e-02,-5.537248216569423676e-03,4.237305000424385071e-02,8.595526218414306641e-02,-1.142197772860527039e-01,-1.224747896194458008e-01,-8.977736532688140869e-02,-1.768922805786132812e-01,2.034965157508850098e-02,6.327313929796218872e-02,8.641254156827926636e-02,-1.339871585369110107e-01,5.763549730181694031e-02,-1.483294218778610229e-01,6.065488606691360474e-02,-1.867987774312496185e-02,3.737455233931541443e-03,1.039924621582031250e-01,-2.060596458613872528e-02,-1.382285207509994507e-01,-1.420651525259017944e-01,7.593966275453567505e-02,7.078117132186889648e-02,5.334521457552909851e-02,1.274668723344802856e-01,-6.420067697763442993e-02,-7.165126502513885498e-02,-1.077938601374626160e-01,-9.189047850668430328e-03,1.797973960638046265e-01,-1.548175215721130371e-01,-1.749014705419540405e-01,-3.175307065248489380e-02,1.037919670343399048e-01,8.451404422521591187e-02,-1.053355336189270020e-01,5.198502168059349060e-02,1.594014652073383331e-02,-1.027766522020101547e-02,-4.855658393353223801e-03,1.009871587157249451e-01,-8.684729784727096558e-02,1.418701489455997944e-03,-4.389841482043266296e-02,1.215445157140493393e-02,1.107397228479385376e-01,2.465120330452919006e-02,-2.298738621175289154e-02,1.194179803133010864e-01,7.323429733514785767e-02,-1.964880675077438354e-01,1.460136324167251587e-01,1.165231093764305115e-01,3.810318186879158020e-02,-9.728305786848068237e-02,-4.090176522731781006e-02,9.624764323234558105e-02,-8.427619189023971558e-02,4.233927652239799500e-02,-9.107727557420730591e-02,1.234852820634841919e-01,1.132480874657630920e-01,1.581185758113861084e-01,-3.989950194954872131e-02,1.799418590962886810e-02,-9.354733675718307495e-02,4.250757023692131042e-02,-1.469318419694900513e-01,6.045901402831077576e-02,-1.547442376613616943e-01,7.755207270383834839e-02,8.136489242315292358e-02,-2.869588024623226374e-05,-7.297300547361373901e-02,1.659995689988136292e-02,4.611719772219657898e-02,1.618524193763732910e-01,4.433413222432136536e-02,1.402546167373657227e-01,-2.795975841581821442e-02,1.748005859553813934e-02,1.191335916519165039e-01,-1.731357425451278687e-01,5.076746270060539246e-02,1.484017223119735718e-01,2.633608877658843994e-02,3.866392746567726135e-02,-2.781873382627964020e-02,-6.744482368230819702e-02,7.623850554227828979e-02,-8.228105306625366211e-02,-1.330178380012512207e-01,-1.062052771449089050e-01,3.714283928275108337e-02,1.655761967413127422e-03,-4.905663430690765381e-02,-8.650319278240203857e-02,1.361705362796783447e-01,1.334866732358932495e-01,-1.871539466083049774e-02,7.600357383489608765e-02,-9.656050801277160645e-02,-5.770794302225112915e-02,-1.413404103368520737e-02,1.641635745763778687e-01,7.120692729949951172e-02,-2.685776598809752613e-05,-1.171434577554464340e-02,3.806160390377044678e-02,1.032474562525749207e-01,6.246320530772209167e-02,-1.568201035261154175e-01,-9.585916250944137573e-02,1.019327566027641296e-01,-8.362449705600738525e-02,3.243811056017875671e-02,-4.389150813221931458e-02,6.664957851171493530e-02,5.832467600703239441e-02,-1.103843562304973602e-02,-3.161813691258430481e-02,8.500190079212188721e-02,1.290650814771652222e-01,2.493347972631454468e-02,-9.844624251127243042e-02,2.849846892058849335e-02,5.152111873030662537e-02,-4.810372740030288696e-02,-1.742535084486007690e-01,1.746275648474693298e-02,-9.874462336301803589e-02,-2.490241080522537231e-02,3.391367942094802856e-02,1.778933703899383545e-01,6.140466406941413879e-02,-8.180723339319229126e-02,-4.918809235095977783e-02,1.547563523054122925e-01,-7.224947959184646606e-02,-1.542696803808212280e-01,-2.114925347268581390e-02,9.863319247961044312e-02,5.736777186393737793e-02,1.672843098640441895e-02,-6.573606282472610474e-02,-6.968241930007934570e-02,9.840928018093109131e-02,-1.359733492136001587e-01,2.879498340189456940e-02,1.940759271383285522e-01,-1.689037680625915527e-01,8.745890110731124878e-02,7.761866785585880280e-03,-6.990560144186019897e-02,-1.228790916502475739e-02,2.242870070040225983e-02,-1.342442817986011505e-02,-8.002646267414093018e-02,1.204540953040122986e-01,8.878825604915618896e-02,-5.304746702313423157e-02,1.231870874762535095e-01,-8.619483560323715210e-02,-1.643334887921810150e-02,-1.907434128224849701e-02,1.366128176450729370e-01,-9.521420113742351532e-03,-1.255183219909667969e-01,4.155391827225685120e-03,-1.165771707892417908e-01,-1.209213659167289734e-01,-6.550184637308120728e-02,-1.526924222707748413e-01,-7.556017488241195679e-02,-2.928026020526885986e-02,-3.021200560033321381e-02,-2.693918719887733459e-02,4.241354763507843018e-02,-1.315177530050277710e-01,-5.286670848727226257e-02,1.081602182239294052e-02,1.438142806291580200e-01,2.063831128180027008e-02,-8.070515096187591553e-02,2.611350081861019135e-02,3.646572306752204895e-02,6.874966621398925781e-02,1.269443184137344360e-01,1.177950650453567505e-01,1.213356480002403259e-01,1.066676378250122070e-01,4.559480771422386169e-02,-1.607469469308853149e-01,-2.247078157961368561e-02,4.396035894751548767e-02,-5.047616362571716309e-02,7.980228960514068604e-02,1.789028644561767578e-01,5.010328814387321472e-02,1.079215928912162781e-01,-6.379228085279464722e-02,1.185746341943740845e-01,-1.766523718833923340e-01,9.160012751817703247e-02,-3.906998410820960999e-02,6.749980151653289795e-02,1.071121692657470703e-01,1.041702087968587875e-02,-3.406758233904838562e-02,-8.837282657623291016e-03,1.599315255880355835e-01,1.746217459440231323e-01,3.219492360949516296e-02,1.687740907073020935e-02,-7.587318867444992065e-02,6.400745362043380737e-02,-8.135622367262840271e-03,2.398205175995826721e-02,2.456982992589473724e-02,-4.140996932983398438e-02,-4.313575045671314001e-04,-1.584227569401264191e-02,-4.968846216797828674e-02,-1.112965401262044907e-02,-1.001251768320798874e-02,-7.632767315953969955e-03,-1.203892845660448074e-02,8.407463878393173218e-02,1.849268795922398567e-03,3.718578442931175232e-02,-9.773762524127960205e-02,5.563061311841011047e-02,-3.390348283573985100e-03,-5.281111598014831543e-02,1.516977697610855103e-01,7.903292030096054077e-02,-3.353646397590637207e-02,1.586535573005676270e-01,-1.221083384007215500e-02,-1.665050350129604340e-02,1.629555970430374146e-01,-8.417242020368576050e-02,1.080415621399879456e-01,1.183946058154106140e-01,3.483135998249053955e-02,-1.103297341614961624e-02,5.572041869163513184e-02,3.782249614596366882e-02,-4.380448907613754272e-02,-2.550344169139862061e-02,-2.998083271086215973e-02,-1.218572184443473816e-01,1.661471836268901825e-02,1.469675172120332718e-02,7.310215383768081665e-02,3.698359429836273193e-02,1.022042781114578247e-01,8.506443351507186890e-02,-2.597885206341743469e-02,-2.732854522764682770e-02,2.351414598524570465e-02,3.915625438094139099e-02,3.988789394497871399e-02,-3.396223485469818115e-02,1.141474470496177673e-01,-1.155366450548171997e-01,-1.337424814701080322e-01,-8.432521671056747437e-02,4.553084075450897217e-02,1.134658008813858032e-01,1.390280723571777344e-01,-1.286730766296386719e-01,-1.058470159769058228e-01,1.898244209587574005e-02,-1.995681971311569214e-01,8.073889464139938354e-02,-4.396424442529678345e-02,-2.898881398141384125e-02,1.880052499473094940e-02,-5.567261576652526855e-02,-4.715304356068372726e-03,-1.823973655700683594e-02,-7.136184722185134888e-02,-8.858971297740936279e-02,7.690614461898803711e-02,1.892292499542236328e-02,6.786019355058670044e-02,-8.431237190961837769e-02,-7.104618847370147705e-02,1.114821583032608032e-01,4.774169623851776123e-02,9.639456868171691895e-02,-1.262040287256240845e-01,-3.601587936282157898e-02,5.089994147419929504e-02,6.522225588560104370e-02,-5.090231448411941528e-02,2.378014847636222839e-02,6.067962199449539185e-02,-6.775203347206115723e-02,-1.501610428094863892e-01,-4.585650190711021423e-02,-7.680998742580413818e-02,3.216197341680526733e-02,-3.544891625642776489e-02,4.025026038289070129e-02,8.602735400199890137e-02,1.570982187986373901e-01,4.315815120935440063e-02,1.396554559469223022e-01,-8.125796169042587280e-02,4.054994136095046997e-02,1.589327007532119751e-01,6.329698860645294189e-02,-6.874784827232360840e-02,-1.203585043549537659e-01,7.723110914230346680e-02,3.099995292723178864e-02,8.613165467977523804e-02,8.130069077014923096e-02,-9.356715530157089233e-02,-7.076948136091232300e-02,4.888455197215080261e-02,6.132712587714195251e-02,-1.070159897208213806e-01,-1.000558882951736450e-01,-5.820045620203018188e-02,5.196817591786384583e-02,3.351794928312301636e-02,3.996060416102409363e-02,-1.201718114316463470e-02,-9.992562979459762573e-02,4.425511509180068970e-02,9.692257642745971680e-02,2.281733788549900055e-03,-1.925883740186691284e-01,4.790773615241050720e-02,-8.741500973701477051e-02,9.722054004669189453e-02,5.928801372647285461e-02,5.538416560739278793e-03,1.910428144037723541e-02,1.539819389581680298e-01,-5.266711115837097168e-02,-2.120003849267959595e-02,-1.060926094651222229e-01,-6.856771558523178101e-02,-1.306766569614410400e-01,1.258136928081512451e-01,1.260581761598587036e-01,4.961785301566123962e-02,-2.897199429571628571e-02,1.381657421588897705e-01,3.456253558397293091e-02,-7.633966207504272461e-02,-2.598860673606395721e-02,3.755934908986091614e-02,-1.034323871135711670e-02,7.783258706331253052e-02,-8.958619087934494019e-02,5.929877236485481262e-02,-1.544307321310043335e-01,-1.178508996963500977e-01,2.453937754034996033e-02,1.687324196100234985e-01,2.426834031939506531e-02,9.398712217807769775e-02,1.409186143428087234e-02,1.428221818059682846e-03,1.778968423604965210e-02,-1.383105106651782990e-02,1.221509799361228943e-01,-4.050944931805133820e-03,4.629117622971534729e-02,9.217347949743270874e-02,-8.877767622470855713e-02,-1.994277238845825195e-01,-1.065640598535537720e-01,-9.249368682503700256e-03,6.451266258955001831e-02,-4.315079748630523682e-02,-1.452541798353195190e-01,8.544132113456726074e-02,-1.462535094469785690e-02,4.767433274537324905e-03,8.498330414295196533e-02,-6.517263501882553101e-02,-1.461884230375289917e-01,-7.681473344564437866e-02,9.877330809831619263e-02,-8.204124122858047485e-02,1.755073480308055878e-02,-6.761633604764938354e-02,1.532988101243972778e-01,-1.006981730461120605e-01,6.872987002134323120e-02,-1.597652435302734375e-01,1.680048257112503052e-01,1.748547852039337158e-01,6.686957180500030518e-02,-9.377364814281463623e-02,-1.548574715852737427e-01,1.491269916296005249e-01,3.493119403719902039e-02,9.476466476917266846e-02,2.015537582337856293e-02,-3.929070755839347839e-02,-6.455516070127487183e-02,-8.825032413005828857e-02,-3.374947607517242432e-02,-2.786559797823429108e-02,1.945232003927230835e-01,-2.143419161438941956e-02,-2.197749167680740356e-02,7.214333862066268921e-02,-1.674749702215194702e-01,1.436475366353988647e-01,-3.144075721502304077e-02,4.428866878151893616e-02,6.467246264219284058e-02,1.839313358068466187e-01,1.989289373159408569e-02,5.245928186923265457e-03,3.997534140944480896e-02,-1.690323799848556519e-01,1.323898434638977051e-01,1.431021243333816528e-01,-2.519888989627361298e-02,2.755289338529109955e-02,1.061806604266166687e-01,-2.596951462328433990e-02,-3.384310111869126558e-04,-1.183158382773399353e-01,-8.454266190528869629e-02,-6.370456516742706299e-02,1.021626815199851990e-01,-5.779753997921943665e-02,-8.505428582429885864e-02,-6.606303900480270386e-02,1.583378165960311890e-01,6.391390413045883179e-02,-1.767210103571414948e-02,9.777281433343887329e-02,-7.527450472116470337e-02,-1.016170009970664978e-01,1.305979788303375244e-01
5.304260179400444031e-02,3.429837152361869812e-02,5.159525945782661438e-02,-1.453870255500078201e-02,-3.839436918497085571e-02,-1.413045972585678101e-01,2.244939468801021576e-02,-1.224465742707252502e-01,1.074598059058189392e-01,-6.614129990339279175e-02,1.086728572845458984e-01,8.310057967901229858e-02,3.475738456472754478e-03,-9.080000966787338257e-02,-1.649036444723606110e-02,1.272848993539810181e-02,3.119997913017868996e-03,-1.421797554939985275e-02,6.530694197863340378e-03,-5.812494084239006042e-02,-6.089037284255027771e-02,8.230182528495788574e-02,-5.781173706054687500e-02,5.409806966781616211e-02,3.380536660552024841e-02,-4.840444028377532959e-02,3.504445031285285950e-02,-7.304623723030090332e-02,9.361957199871540070e-03,1.306279003620147705e-01,1.388678997755050659e-01,1.679213047027587891e-01,-9.616900980472564697e-02,-1.934482716023921967e-02,-6.025483086705207825e-02,-4.614184424281120300e-02,-8.867304772138595581e-02,1.714390069246292114e-01,7.471275329589843750e-02,-2.644704282283782959e-02,-9.309568256139755249e-02,4.568465799093246460e-02,1.303739566355943680e-02,1.155300959944725037e-01,-4.067989438772201538e-02,9.152556955814361572e-02,4.457980021834373474e-02,-1.352650374174118042e-01,1.045528575778007507e-01,-3.259317204356193542e-02,-8.295726776123046875e-02,-5.973534658551216125e-02,-9.878908842802047729e-02,-4.667901247739791870e-02,4.509754478931427002e-02,-5.051811411976814270e-02,-8.177913725376129150e-02,-1.658712178468704224e-01,6.573949940502643585e-03,1.116062998771667480e-01,1.210391521453857422e-02,-1.534856855869293213e-01,-1.102831289172172546e-01,-4.745119065046310425e-02,-1.701953262090682983e-01,7.802692800760269165e-02,-1.901567797176539898e-03,1.768223755061626434e-02,3.818705677986145020e-02,8.563494682312011719e-02,-1.171656847000122070e-01,9.177836030721664429e-02,-5.997613817453384399e-02,4.510790109634399414e-02,-1.019712164998054504e-02,3.221207112073898315e-02,-1.016726531088352203e-02,-1.695507764816284180e-01,7.616608589887619019e-02,1.160463243722915649e-01,7.365243881940841675e-02,-9.687113575637340546e-03,6.730046123266220093e-02,1.465688049793243408e-01,6.143660098314285278e-02,-9.310874342918395996e-02,1.297352910041809082e-01,-1.630054116249084473e-01,-9.982847422361373901e-02,-8.460219949483871460e-02,-3.736158087849617004e-02,-1.347956508398056030e-01,4.654821380972862244e-02,6.072149425745010376e-02,-7.536255568265914917e-02,6.127996370196342468e-02,3.203425928950309753e-02,8.464311808347702026e-02,-1.682645678520202637e-01,5.418328195810317993e-02,1.269736289978027344e-01,3.292199596762657166e-02,-7.899102568626403809e-02,-7.817915640771389008e-03,1.769024878740310669e-02,1.244610697031021118e-01,-1.503457725048065186e-01,-1.891546398401260376e-01,-1.033370662480592728e-02,-9.539579600095748901e-02,1.770561933517456055e-01,-1.606046035885810852e-02,-1.873133145272731781e-02,5.034883692860603333e-02,-1.487128734588623047e-01,-1.050354763865470886e-01,-1.141405198723077774e-02,4.209865629673004150e-02,1.584431380033493042e-01,7.262210547924041748e-02,-2.103422209620475769e-02,-9.004508703947067261e-02,-4.179883003234863281e-02,-1.398532390594482422e-01,4.455910250544548035e-02,-1.416546851396560669e-01,-2.996244467794895172e-02,-9.540724754333496094e-02,-3.370298072695732117e-02,-9.727425128221511841e-02,4.429289326071739197e-02,2.549005486071109772e-02,1.229555997997522354e-02,5.382245406508445740e-02,1.848029643297195435e-01,-1.183718070387840271e-01,-2.760063484311103821e-02,-1.585368961095809937e-01,1.178140416741371155e-01,1.184541359543800354e-01,-8.218056522309780121e-03,-1.624870747327804565e-01,-3.213820233941078186e-02,1.667651534080505371e-01,-9.294091165065765381e-02,3.877948224544525146e-02,3.431475162506103516e-02,-1.051011905074119568e-01,-9.122171252965927124e-02,-1.335133053362369537e-02,2.521747350692749023e-02,7.249923050403594971e-02,1.770977862179279327e-02,-5.447288230061531067e-02,-1.444910615682601929e-01,1.237764284014701843e-01,1.679364778101444244e-02,-1.535771936178207397e-01,1.044258102774620056e-01,4.987615346908569336e-02,1.626881957054138184e-01,6.424831598997116089e-02,1.263898611068725586e-01,1.628163754940032959e-01,4.803035035729408264e-02,4.623864963650703430e-02,8.144591003656387329e-02,-8.067578077316284180e-02,-1.887853294610977173e-01,-1.067794486880302429e-01,-2.378646517172455788e-03,8.241779357194900513e-02,1.418958902359008789e-01,7.923454046249389648e-02,1.224446073174476624e-01,-1.734520196914672852e-01,4.437466710805892944e-02,-8.709590183570981026e-04,-1.217036843299865723e-01,7.182390987873077393e-02,9.972897171974182129e-02,-1.340596824884414673e-01,-4.112490639090538025e-02,-1.335251182317733765e-01,-9.713675826787948608e-02,6.893303990364074707e-02,-1.214084308594465256e-02,1.247039660811424255e-01,3.188492357730865479e-02,-5.535830277949571609e-03,-1.308134049177169800e-01,-5.192033201456069946e-02,7.393407821655273438e-02,-3.598843142390251160e-02,1.153820902109146118e-01,4.240757226943969727e-02,-7.771900389343500137e-03,4.713594540953636169e-02,8.132757246494293213e-02,4.483613371849060059e-02,1.121344491839408875e-01,1.072927610948681831e-03,2.513404190540313721e-02,-1.290652006864547729e-01,-6.098589301109313965e-02,-9.044896811246871948e-02,6.537094712257385254e-02,-1.617920957505702972e-02,1.860068291425704956e-01,-1.270999014377593994e-02,1.346185654401779175e-01,5.145297851413488388e-03,1.332061141729354858e-01,2.273603342473506927e-02,-5.436627194285392761e-02,2.356799319386482239e-02,-8.873372524976730347e-02,-3.397833928465843201e-02,-8.385376632213592529e-02,-2.063528820872306824e-02,-1.027251854538917542e-01,-1.615229994058609009e-02,9.360516816377639771e-02,-7.776867598295211792e-02,-3.193429484963417053e-02,-1.020168662071228027e-01,1.041125282645225525e-01,5.551953986287117004e-02,-6.766822189092636108e-02,-3.275721147656440735e-02,4.441361874341964722e-02,5.438929889351129532e-03,-1.368545810692012310e-03,-8.151348680257797241e-02,-6.624371744692325592e-03,-2.924026921391487122e-02,-2.070119418203830719e-02,5.161703750491142273e-02,-6.637602299451828003e-02,-1.241740956902503967e-01,-3.707036003470420837e-02,-1.225124225020408630e-01,-3.999379277229309082e-02,3.524905815720558167e-02,-1.486855447292327881e-01,5.361029505729675293e-02,4.511629790067672729e-02,-4.620031267404556274e-02,-5.305274203419685364e-02,9.814986586570739746e-02,-4.221235588192939758e-02,-1.906068436801433563e-02,-5.112732574343681335e-02,-9.342341870069503784e-02,-1.822292655706405640e-01,9.399428963661193848e-02,-3.670769184827804565e-02,7.402528822422027588e-02,-1.345851551741361618e-02,1.016980409622192383e-01,1.396111547946929932e-01,-5.980608519166707993e-03,4.055815935134887695e-02,2.505537867546081543e-02,3.979186713695526123e-02,1.406531184911727905e-01,-1.350533664226531982e-01,7.039391994476318359e-02,-1.013494953513145447e-01,8.561898767948150635e-02,-1.970163583755493164e-01,5.825549364089965820e-02,4.387588426470756531e-02,1.522799283266067505e-01,-1.784490980207920074e-02,1.417174041271209717e-01,2.481164969503879547e-02,9.492065012454986572e-02,-6.767721381038427353e-03,-9.762521833181381226e-02,1.085813790559768677e-01,-7.339316606521606445e-02,1.162417083978652954e-01,-7.614863663911819458e-02,-9.373991936445236206e-02,9.952790290117263794e-02,-2.603745460510253906e-02,4.220649227499961853e-02,-1.194984912872314453e-01,4.199127852916717529e-02,1.636044830083847046e-01,-5.251277238130569458e-02,-5.988232418894767761e-02,1.963352560997009277e-01,-1.711627840995788574e-01,8.866184949874877930e-02,-5.246572569012641907e-02,1.167132183909416199e-01,-6.392071396112442017e-02,-8.859217166900634766e-03,-4.512483999133110046e-02,-6.007365416735410690e-03,7.621806114912033081e-02,9.528162330389022827e-02,1.601726375520229340e-02,-1.288807839155197144e-01,4.523630440235137939e-02,-2.175790956243872643e-03,-1.268146932125091553e-01,3.713008388876914978e-02,1.212961450219154358e-01,-6.293757259845733643e-02,-9.862335771322250366e-02,-9.775052219629287720e-02,7.474840432405471802e-02,-2.482848428189754486e-02,2.471887134015560150e-02,6.077522784471511841e-02,1.857682317495346069e-02,-8.177854865789413452e-02,9.642311185598373413e-02,-1.248708460479974747e-02,4.655380919575691223e-02,6.912110745906829834e-02,-3.400214761495590210e-02,-4.063483327627182007e-02,-1.002651229500770569e-01,-1.041566953063011169e-01,-1.590604037046432495e-01,1.895315498113632202e-01,8.435219526290893555e-02,-4.101080074906349182e-02,-9.276955574750900269e-02,5.015170201659202576e-02,1.222105026245117188e-01,-4.143254831433296204e-02,-5.656066536903381348e-02,-7.271066308021545410e-02,-7.632223516702651978e-02,-6.819153670221567154e-03,-1.159334927797317505e-01,1.273635625839233398e-01,-7.067821919918060303e-03,2.167232567444443703e-03,-1.097308769822120667e-01,-6.790902465581893921e-02,9.505687654018402100e-02,3.274883376434445381e-03,6.847914308309555054e-02,-1.295442879199981689e-01,-1.966263651847839355e-01,-1.594716459512710571e-01,-4.700943827629089355e-03,1.709479093551635742e-01,-1.308879703283309937e-01,1.771880127489566803e-02,1.088288426399230957e-01,8.053557947278022766e-03,1.569550633430480957e-01,5.315059423446655273e-02,-3.158269450068473816e-02,5.002268776297569275e-02,-1.522841155529022217e-01,-1.649957597255706787e-01,-1.209340915083885193e-01,6.316864490509033203e-02,1.115751918405294418e-02,1.722153276205062866e-02,-7.232149690389633179e-02,-1.640327870845794678e-01,-8.382754772901535034e-02,-8.573582023382186890e-02,3.681930527091026306e-02,1.183459162712097168e-01,-1.647628545761108398e-01,7.614249736070632935e-02,-3.220717608928680420e-02,-4.171670973300933838e-02,-5.340494588017463684e-02,-5.005131289362907410e-02,-3.624236583709716797e-02,-6.788711994886398315e-02,1.524238195270299911e-02,-1.198143139481544495e-01,-2.725690603256225586e-02,2.854543738067150116e-02,-3.359495475888252258e-02,-2.784208022058010101e-02,1.271127164363861084e-01,-2.055499143898487091e-02,1.371825337409973145e-01,-6.483360379934310913e-02,6.614807248115539551e-02,-3.134945780038833618e-02,1.764593720436096191e-01,2.660269103944301605e-02,1.926971524953842163e-01,-2.066428586840629578e-02,1.116531267762184143e-01,-6.991092860698699951e-02,1.013055443763732910e-01,-3.996034339070320129e-02,-7.821489870548248291e-02,9.217341989278793335e-02,1.328849345445632935e-01,3.779431432485580444e-02,-1.365795284509658813e-01,9.970437735319137573e-02,3.150064870715141296e-02,-9.210981428623199463e-02,-2.588165737688541412e-02,-7.919397205114364624e-02,-3.055056370794773102e-02,3.699513897299766541e-02,-8.993176370859146118e-02,-1.008782386779785156e-01,-6.423787027597427368e-02,1.854832842946052551e-02,-3.221265599131584167e-02,2.154235355556011200e-02,1.985440403223037720e-01,7.857861369848251343e-02,-1.469002217054367065e-01,-1.008139848709106445e-01,1.101323887705802917e-01,5.650040134787559509e-02,-3.247903659939765930e-02,-4.715722054243087769e-02,-1.107346937060356140e-01,-2.651593089103698730e-02,1.293443441390991211e-01,-9.918147325515747070e-02,-1.180675998330116272e-01,-9.460880607366561890e-02,-1.909106783568859100e-02,-6.653202325105667114e-02,6.272377073764801025e-02,3.206431493163108826e-02,-5.793528165668249130e-03,-1.304360926151275635e-01,-3.466068953275680542e-02,1.492446102201938629e-02,9.930811822414398193e-02,9.686153382062911987e-02,4.701796546578407288e-02,1.562606096267700195e-01,4.015043750405311584e-02,-1.647274009883403778e-02,-3.404618054628372192e-02,-2.128593623638153076e-02,-8.427509665489196777e-02,3.763384371995925903e-02,1.028797626495361328e-01,-1.931874603033065796e-01,1.973472535610198975e-01,9.898630529642105103e-02,5.964471772313117981e-02,9.190895408391952515e-02,-5.578033253550529480e-02,-1.250996589660644531e-01,9.851232916116714478e-02,-3.164799138903617859e-02,2.604483067989349365e-02,-1.356739737093448639e-02,1.468416750431060791e-01,-3.595580905675888062e-02,-3.380930051207542419e-02,-5.584795027971267700e-02,9.678424894809722900e-02,-1.477986723184585571e-01,2.784497477114200592e-02,9.941357374191284180e-02,-7.313870824873447418e-03,-1.512091010808944702e-01,3.114636801183223724e-02,-6.976753007620573044e-03,2.610459737479686737e-02,2.089802175760269165e-02,-2.811588719487190247e-02,8.599117427365854383e-05,6.518723908811807632e-03,1.996393874287605286e-02,4.213693737983703613e-02,1.044374033808708191e-01,-1.372924596071243286e-01,3.970542177557945251e-02,-1.411508172750473022e-01,9.959294646978378296e-02,6.207745149731636047e-02,7.228045910596847534e-02,-4.825402423739433289e-02,-1.451397836208343506e-01,7.270990312099456787e-02,-2.228957600891590118e-03,-3.939994797110557556e-02,5.705779418349266052e-02,-1.998653858900070190e-01,5.806360393762588501e-02,-7.808989286422729492e-02,9.101914614439010620e-02,3.914107754826545715e-02,-4.619929194450378418e-02,-3.495119139552116394e-02,1.680891215801239014e-01,1.018187925219535828e-01,2.182004414498806000e-02,-5.157364532351493835e-02,7.632850855588912964e-02,-3.526774421334266663e-02,-1.617122739553451538e-01,3.707602247595787048e-02,4.327160492539405823e-02
2.078195661306381226e-02,-1.473120599985122681e-01,-7.793033123016357422e-02,9.396931156516075134e-03,-8.420660346746444702e-02,1.301281303167343140e-01,1.132811084389686584e-01,1.441958397626876831e-01,-7.703612744808197021e-02,6.751040369272232056e-02,2.960922755300998688e-02,1.210693866014480591e-01,7.749065011739730835e-02,7.233571261167526245e-02,1.364037543535232544e-01,6.804390996694564819e-02,1.760623604059219360e-01,-1.862495541572570801e-01,-1.519986242055892944e-01,1.982346028089523315e-01,1.367832869291305542e-01,-1.723973751068115234e-01,8.797041326761245728e-02,1.059164777398109436e-01,-6.799191236495971680e-02,-3.368784487247467041e-02,-8.344833739101886749e-03,6.691958755254745483e-02,1.151712462306022644e-01,5.967389419674873352e-02,1.708102226257324219e-02,3.253389149904251099e-02,-1.822032779455184937e-01,3.343966975808143616e-02,-2.063475176692008972e-02,-8.999248594045639038e-02,9.228940121829509735e-03,5.647918209433555603e-02,-1.217817813158035278e-01,2.477676048874855042e-02,-3.897945582866668701e-02,-1.662000864744186401e-01,-4.566233139485120773e-03,-1.000703573226928711e-01,-1.272302865982055664e-02,-1.537001430988311768e-01,-1.033341065049171448e-01,1.034026890993118286e-01,-6.367568671703338623e-02,-9.132973849773406982e-03,1.665899455547332764e-01,9.818000346422195435e-02,-1.354242563247680664e-01,9.995814412832260132e-02,-7.363720983266830444e-02,2.182379551231861115e-02,-1.515729725360870361e-01,-5.929915979504585266e-02,-9.713823348283767700e-02,1.962260454893112183e-01,2.194068394601345062e-02,-2.660504542291164398e-02,-8.557645976543426514e-02,3.507100045680999756e-02,8.332897722721099854e-02,3.616111725568771362e-02,3.293382748961448669e-02,-5.159276351332664490e-02,-5.317644029855728149e-02,-1.578429937362670898e-01,-8.781896531581878662e-02,1.313348859548568726e-01,-9.502442926168441772e-02,2.660309150815010071e-02,-9.422778338193893433e-02,-1.354315727949142456e-01,-1.361448317766189575e-01,-7.289548963308334351e-02,-1.123339906334877014e-01,2.678802423179149628e-02,3.963056206703186035e-02,1.106223687529563904e-01,-5.456038191914558411e-02,-2.456525340676307678e-02,-1.584074646234512329e-01,-1.334820538759231567e-01,-6.165162473917007446e-02,1.062360685318708420e-02,5.079077556729316711e-03,-1.699253767728805542e-01,-8.561301976442337036e-02,-1.978361159563064575e-01,7.371998578310012817e-02,2.629792317748069763e-03,-2.641987241804599762e-02,2.404455654323101044e-02,1.654858440160751343e-01,7.043673843145370483e-02,1.301936060190200806e-02,-1.421478390693664551e-01,-3.083153627812862396e-02,2.697992697358131409e-02,2.563606575131416321e-02,1.251389533281326294e-01,-1.704714819788932800e-02,4.639756679534912109e-02,-9.419374912977218628e-02,1.860866993665695190e-01,-3.070473670959472656e-02,-5.963655933737754822e-02,6.892742961645126343e-02,1.943895779550075531e-02,1.412406414747238159e-01,1.074037477374076843e-01,1.363041251897811890e-01,1.900644414126873016e-02,-1.384303569793701172e-01,1.045274138450622559e-01,-6.933563202619552612e-02,1.413962692022323608e-01,1.124670431017875671e-01,5.560633167624473572e-02,-1.150445565581321716e-01,-1.238098666071891785e-01,9.478750079870223999e-02,8.014007471501827240e-03,4.565073549747467041e-02,-1.996940933167934418e-02,8.861048519611358643e-02,9.924381226301193237e-02,-1.154483780264854431e-01,-3.461391851305961609e-02,-5.256828665733337402e-02,5.207487940788269043e-02,1.402712911367416382e-01,1.167253032326698303e-01,-1.764266379177570343e-02,-1.326560527086257935e-01,1.040583010762929916e-03,3.781364066526293755e-03,7.256036996841430664e-02,-1.663288623094558716e-01,1.382251530885696411e-01,1.357677020132541656e-02,-1.277981847524642944e-01,6.224390491843223572e-02,-4.485471174120903015e-02,7.384964264929294586e-03,7.954853028059005737e-02,2.634320966899394989e-02,-1.883294582366943359e-01,1.171652693301439285e-02,1.679202467203140259e-01,-5.368445068597793579e-02,5.239671468734741211e-02,-5.698030814528465271e-02,1.338089704513549805e-01,7.641228288412094116e-02,-2.520483173429965973e-02,3.172363713383674622e-02,-1.447703130543231964e-02,1.067605391144752502e-01,-7.890913635492324829e-02,-3.893122449517250061e-02,1.038158461451530457e-01,-3.146382793784141541e-02,-3.721453621983528137e-02,-5.287802219390869141e-02,-4.064322635531425476e-02,-1.144042834639549255e-01,1.118933316320180893e-02,8.421997725963592529e-02,-9.219899028539657593e-02,-7.668028771877288818e-02,-5.969770718365907669e-03,1.544533222913742065e-01,-7.424199581146240234e-02,1.798319071531295776e-01,-2.324000932276248932e-02,1.437011808156967163e-01,-1.210896745324134827e-01,-2.174336276948451996e-02,-6.906981021165847778e-02,-1.175425872206687927e-01,-1.238452568650245667e-01,-1.190083995461463928e-01,-1.065733060240745544e-01,-1.491632014513015747e-01,-4.817230254411697388e-02,-3.242171928286552429e-02,-1.565097570419311523e-01,8.317676931619644165e-02,1.013660579919815063e-01,-1.011278182268142700e-01,-8.420982211828231812e-02,-4.280035849660634995e-03,-1.672485023736953735e-01,1.248537749052047729e-02,-1.089191660284996033e-01,-6.715811789035797119e-02,7.547842711210250854e-02,9.025540947914123535e-02,-1.521743237972259521e-01,-2.572569809854030609e-02,1.067519560456275940e-01,-9.429442137479782104e-02,-1.038281098008155823e-01,-7.951724529266357422e-02,-4.405662044882774353e-02,-1.368417870253324509e-02,1.224009320139884949e-01,-7.186405360698699951e-02,-6.048535928130149841e-02,-3.840992227196693420e-02,-6.005820259451866150e-02,-1.209495440125465393e-01,-9.912785887718200684e-02,-6.856971234083175659e-02,-4.258990660309791565e-02,-1.195490509271621704e-01,6.772844493389129639e-02,-7.812351733446121216e-02,-3.019999526441097260e-02,1.368450373411178589e-01,6.237269192934036255e-02,-3.621412441134452820e-03,6.322093307971954346e-02,4.012986272573471069e-02,2.649009600281715393e-02,-1.785467118024826050e-01,9.041547775268554688e-03,1.166106462478637695e-01,1.125632897019386292e-01,9.028165787458419800e-02,-7.748635858297348022e-02,-7.400075346231460571e-02,-2.517656981945037842e-02,-2.026501111686229706e-02,-7.463895529508590698e-02,-1.018114946782588959e-02,-1.669407933950424194e-01,2.007726021111011505e-02,-1.848543137311935425e-01,5.470998957753181458e-02,1.441814750432968140e-01,-1.143860816955566406e-01,3.805893287062644958e-02,-5.886074900627136230e-02,-1.500038057565689087e-02,1.424124687910079956e-01,1.003132984042167664e-01,4.070068523287773132e-02,-8.590118587017059326e-02,-1.231173649430274963e-01,3.069328330457210541e-02,-8.454790711402893066e-02,1.440798789262771606e-01,1.078993231058120728e-01,1.195293441414833069e-01,-1.625545881688594818e-02,8.070976287126541138e-02,-4.350579157471656799e-02,-5.681836232542991638e-02,7.827270746929571033e-05,-9.195055812597274780e-02,1.449793111532926559e-02,3.602945059537887573e-02,-1.715955734252929688e-01,1.355393379926681519e-01,-9.891440719366073608e-02,1.778662763535976410e-02,3.846509149298071861e-03,-2.104034274816513062e-02,-2.601252309978008270e-02,1.402997374534606934e-01,-5.865676328539848328e-03,-7.111807912588119507e-02,6.177080422639846802e-02,8.521962910890579224e-02,-1.073945984244346619e-01,3.601219877600669861e-02,9.620928764343261719e-02,-1.556691247969865799e-02,-6.474532186985015869e-02,4.898712038993835449e-02,-1.161066889762878418e-01,-4.661784321069717407e-02,6.444622762501239777e-03,-5.440348386764526367e-02,4.190983995795249939e-02,-2.899769879877567291e-02,-9.658405557274818420e-03,1.955037862062454224e-01,-5.879376456141471863e-02,6.639470905065536499e-02,1.907831281423568726e-01,-6.216100603342056274e-02,7.318358123302459717e-02,5.276964232325553894e-02,9.925553202629089355e-02,-1.641760207712650299e-02,5.595640465617179871e-02,5.136121436953544617e-02,-9.709363430738449097e-02,5.363803729414939880e-02,-7.965818792581558228e-02,5.632080719806253910e-04,-1.293063759803771973e-01,7.698328117839992046e-04,1.523531973361968994e-02,-7.295013964176177979e-02,-1.704264581203460693e-01,3.853041306138038635e-02,-8.770313113927841187e-02,6.366641260683536530e-03,-7.182452827692031860e-02,-1.086948066949844360e-01,-1.860405877232551575e-02,-2.584891580045223236e-02,1.357583999633789062e-01,-2.314404956996440887e-02,-1.045903787016868591e-01,-1.471197605133056641e-01,-2.496813191100955009e-03,-2.059211395680904388e-02,-4.987269267439842224e-02,2.332848310470581055e-02,1.630552113056182861e-01,1.025838181376457214e-01,-9.906910359859466553e-03,-1.149629708379507065e-02,-8.545647561550140381e-02,1.611702591180801392e-01,-7.476066052913665771e-02,1.914920806884765625e-01,-1.409346312284469604e-01,1.075886487960815430e-01,2.605991438031196594e-02,1.092253252863883972e-01,-1.488771140575408936e-01,2.832601033151149750e-02,-4.616928845643997192e-02,-4.273451492190361023e-02,5.556543543934822083e-02,-4.619028046727180481e-02,-9.743519872426986694e-02,-6.063367798924446106e-02,-1.811505407094955444e-01,7.663231343030929565e-02,-3.704390302300453186e-02,-1.029539853334426880e-02,-5.436789989471435547e-02,1.836047880351543427e-02,-5.884703621268272400e-02,-8.957077562808990479e-02,6.974708288908004761e-02,4.629370942711830139e-02,-1.277019232511520386e-01,5.706078559160232544e-02,-6.923989951610565186e-02,-4.232370853424072266e-02,-4.683686792850494385e-02,9.023620933294296265e-02,2.656608819961547852e-02,-1.837167739868164062e-01,4.081013798713684082e-02,7.112042605876922607e-02,-7.489003986120223999e-02,-1.397456377744674683e-01,8.694828301668167114e-02,1.056568250060081482e-01,3.909820318222045898e-02,2.526921965181827545e-02,3.181871026754379272e-02,-7.204269617795944214e-02,5.414828192442655563e-03,6.388017535209655762e-02,3.043697774410247803e-02,-1.272610127925872803e-01,1.141547113656997681e-01,1.342155635356903076e-01,-9.174700081348419189e-02,4.597806558012962341e-02,-4.606597870588302612e-02,1.063575781881809235e-02,-1.747565716505050659e-01,-5.662797018885612488e-02,6.858544051647186279e-02,3.586783632636070251e-02,-2.836455963551998138e-02,-1.217152830213308334e-02,2.480699494481086731e-02,-1.793369501829147339e-01,-3.138762339949607849e-02,-3.151608258485794067e-02,-9.286274760961532593e-02,6.379361450672149658e-02,-4.292042180895805359e-02,-1.190700531005859375e-01,-5.966931581497192383e-02,1.132636666297912598e-01,-5.752731114625930786e-02,1.307136099785566330e-02,1.780073791742324829e-01,-3.355183452367782593e-02,-1.115333065390586853e-01,3.046040795743465424e-02,1.994065009057521820e-02,1.057964786887168884e-01,-1.437017787247896194e-02,-1.458534877747297287e-02,3.024980984628200531e-02,-4.628046974539756775e-02,-1.339664310216903687e-01,1.133108660578727722e-01,-2.059273608028888702e-02,-4.850482568144798279e-02,1.502102799713611603e-02,3.822335228323936462e-02,6.821382790803909302e-02,5.429023504257202148e-02,1.263445615768432617e-02,9.652604162693023682e-02,-4.300809279084205627e-02,-3.688458725810050964e-02,-5.288470908999443054e-02,1.477421522140502930e-01,5.862658098340034485e-02,-1.328517030924558640e-02,3.915992099791765213e-03,7.173425704240798950e-02,1.584919095039367676e-01,6.692999508231878281e-03,6.355696171522140503e-02,-2.642401121556758881e-02,-1.936033219099044800e-01,5.568237975239753723e-02,2.723399735987186432e-02,-3.292588889598846436e-02,3.118653409183025360e-02,-8.203695528209209442e-03,-2.503804303705692291e-02,5.775852873921394348e-02,-9.317316859960556030e-02,5.123654380440711975e-03,-6.910406798124313354e-02,-6.743092834949493408e-02,-5.702728033065795898e-02,-1.128223314881324768e-01,1.259202212095260620e-01,8.241143822669982910e-02,-1.288786977529525757e-01,9.485334157943725586e-02,8.873795717954635620e-02,-9.306058287620544434e-02,-4.430031869560480118e-03,-7.075933273881673813e-03,6.513219326734542847e-02,2.011576853692531586e-02,1.937821391038596630e-03,1.674867607653141022e-02,9.730363637208938599e-02,-1.880953907966613770e-01,1.195567026734352112e-01,-1.940450631082057953e-02,8.024618774652481079e-02,4.417687281966209412e-02,1.522724777460098267e-01,5.704262480139732361e-02,-2.388762868940830231e-02,3.914549574255943298e-02,9.524582885205745697e-03,-3.072053194046020508e-02,-1.455513387918472290e-01,5.282495543360710144e-02,-1.484387833625078201e-02,-3.771061822772026062e-02,5.717256292700767517e-02,-1.125268116593360901e-01,-7.800319790840148926e-02,-6.823959201574325562e-02,-1.340762432664632797e-02,-8.573241531848907471e-02,1.097600720822811127e-02,-6.265904754400253296e-02,-2.553814649581909180e-02,1.970519423484802246e-01,-1.676243394613265991e-01,8.413717895746231079e-02,5.009656772017478943e-02,-4.566688835620880127e-02,1.110799536108970642e-01,-1.467365026473999023e-01,-1.764971576631069183e-02,-1.439796388149261475e-02,5.125166103243827820e-02,-7.399413269013166428e-03,1.151886507868766785e-01,3.689198568463325500e-02,1.026403680443763733e-01,5.564371868968009949e-02,5.030862241983413696e-02,9.703074395656585693e-02,1.369781699031591415e-02,1.346540451049804688e-01,-1.773433089256286621e-01,6.783255189657211304e-02,-7.526874542236328125e-02,4.791957885026931763e-02,1.648141890764236450e-01,1.010068655014038086e-01,-7.299754768610000610e-02
