9.786012768745422363e-02,2.618702594190835953e-03,-1.415164768695831299e-01,9.951550513505935669e-03,1.272194534540176392e-01,-2.397263422608375549e-02,1.432885825634002686e-01,-3.529175743460655212e-02,-8.626381895737722516e-05,1.755312085151672363e-01,9.083638340234756470e-02,8.117932826280593872e-02,1.673244088888168335e-01,5.545659735798835754e-02,1.112376078963279724e-01,1.123885251581668854e-02,7.981391996145248413e-02,5.053114891052246094e-02,8.297690004110336304e-02,-4.903005436062812805e-02,-3.100257553160190582e-02,-1.291621774435043335e-01,4.049346968531608582e-02,8.606462925672531128e-02,-8.801974356174468994e-02,8.024227619171142578e-02,-8.376108855009078979e-02,1.428257375955581665e-01,-4.945150017738342285e-02,6.568814814090728760e-02,-9.517950564622879028e-02,-9.057684987783432007e-02,8.888547867536544800e-02,5.975631065666675568e-03,-6.296110898256301880e-02,8.579289168119430542e-02,-1.173350140452384949e-01,-2.769036963582038879e-02,-4.480923339724540710e-02,7.081633061170578003e-02,-3.676373884081840515e-02,-7.862367480993270874e-02,1.523994188755750656e-02,-4.339992068707942963e-03,-3.992739319801330566e-02,-2.971744909882545471e-02,4.221988469362258911e-02,9.958384186029434204e-02,1.304567903280258179e-01,-1.928656101226806641e-01,-7.916095852851867676e-02,2.197219431400299072e-02,1.090571507811546326e-01,5.191795900464057922e-02,-3.113717772066593170e-02,6.182448193430900574e-02,4.021974280476570129e-02,1.242103576660156250e-01,-1.226186528801918030e-01,6.949032098054885864e-02,2.048066444694995880e-02,-9.643052180763334036e-05,5.747454985976219177e-02,1.772314310073852539e-01,2.548964135348796844e-02,2.845939062535762787e-02,1.078049764037132263e-01,7.026442140340805054e-02,-1.762399077415466309e-01,-1.136394888162612915e-01,4.491416364908218384e-02,-1.100695505738258362e-01,1.073660776019096375e-01,1.567480266094207764e-01,4.968136176466941833e-02,1.308706998825073242e-01,-2.794765867292881012e-02,-1.113881394267082214e-01,2.524085901677608490e-02,1.564916782081127167e-02,8.538016676902770996e-02,1.090213805437088013e-01,-1.170421764254570007e-01,-6.968962401151657104e-02,9.356089681386947632e-02,5.287920590490102768e-03,9.849376976490020752e-02,1.339957565069198608e-01,-1.048220172524452209e-01,1.153763309121131897e-01,7.368168979883193970e-02,1.074448786675930023e-02,-8.914666622877120972e-02,-4.268587008118629456e-02,8.042212575674057007e-02,1.064644847065210342e-02,-4.559545312076807022e-03,-9.598580747842788696e-02,1.462517678737640381e-02,7.215372473001480103e-02,5.561488866806030273e-02,-7.471991330385208130e-02,-5.468509346246719360e-02,-2.394574321806430817e-02,-1.109672114253044128e-01,-1.076965481042861938e-01,-5.216974765062332153e-02,-3.359698131680488586e-02,4.555318132042884827e-02,-8.238416165113449097e-02,-1.605841517448425293e-01,-1.408912390470504761e-01,-6.573110818862915039e-02,7.052136957645416260e-02,-5.969544872641563416e-02,-9.597152471542358398e-02,-7.014762610197067261e-02,-1.269874125719070435e-01,-5.817313864827156067e-02,6.824774295091629028e-02,-3.716754540801048279e-02,1.080768629908561707e-01,-4.980013892054557800e-02,-7.495798915624618530e-02,5.094724521040916443e-02,7.948615401983261108e-02,-4.968359693884849548e-02,7.128389552235603333e-04,1.155867949128150940e-01,-1.224477309733629227e-02,3.900925442576408386e-02,-7.910194993019104004e-02,1.714621484279632568e-01,6.688448041677474976e-02,-2.061541751027107239e-02,-1.602146625518798828e-01,-6.330927461385726929e-02,5.829698592424392700e-02,-5.759039428085088730e-03,1.921669095754623413e-01,-1.138728037476539612e-01,-9.319294989109039307e-02,5.603077635169029236e-02,1.897249929606914520e-02,1.036750823259353638e-01,4.317015781998634338e-02,4.471410438418388367e-02,4.893956240266561508e-03,1.087989732623100281e-01,2.952995337545871735e-02,-9.472545236349105835e-02,1.964669078588485718e-01,1.611315831542015076e-02,-2.271460555493831635e-02,-1.402471512556076050e-01,-6.732740439474582672e-03,1.828512549400329590e-01,3.504652529954910278e-02,8.545976877212524414e-02,1.699552536010742188e-01,2.286377549171447754e-02,-1.502378750592470169e-02,8.505125343799591064e-02,-1.699696034193038940e-01,1.941209845244884491e-02,-1.370267122983932495e-01,5.614137649536132812e-02,4.153076093643903732e-03,4.633114149328321218e-04,1.094211935997009277e-01,-4.253558069467544556e-02,-3.581306710839271545e-02,4.783956333994865417e-02,-1.053700447082519531e-01,1.455679237842559814e-01,-2.947073616087436676e-02,-1.487458031624555588e-02,4.608811438083648682e-02,1.827683448791503906e-01,1.237547397613525391e-01,-7.616513967514038086e-02,-9.150698781013488770e-03,1.169235329143702984e-03,1.126245781779289246e-01,6.604909151792526245e-02,4.360734671354293823e-02,-4.421756789088249207e-02,-9.039036929607391357e-02,-1.109610199928283691e-01,-2.119760774075984955e-02,2.672019600868225098e-02,-1.400221418589353561e-02,1.461502611637115479e-01,1.402693241834640503e-01,-3.230307623744010925e-02,1.700169593095779419e-01,-9.823374450206756592e-02,6.183400377631187439e-02,4.443888738751411438e-02,-1.025325246155261993e-02,1.169027611613273621e-01,-9.698696434497833252e-02,-1.123740430921316147e-02,1.005361899733543396e-01,-1.344603598117828369e-01,7.181953638792037964e-02,1.017689611762762070e-02,-7.193008810281753540e-02,-8.389168977737426758e-02,1.602140441536903381e-02,-1.790682971477508545e-02,-6.705744564533233643e-02,-3.160241618752479553e-02,9.354353696107864380e-02,-1.473836600780487061e-01,2.796677313745021820e-02,-4.857096448540687561e-02,6.604755669832229614e-02,1.454943716526031494e-01,-1.751267164945602417e-01,-9.097695350646972656e-02,1.735175848007202148e-01,-1.333249360322952271e-01,-7.036086916923522949e-02,1.247721817344427109e-02,-1.074934378266334534e-01,-1.127164140343666077e-01,1.533427834510803223e-01,1.243303343653678894e-01,-1.209002286195755005e-01,-2.835014462471008301e-02,-3.732936084270477295e-02,-1.255796104669570923e-02,8.550780266523361206e-02,-1.952184247784316540e-03,-6.415978074073791504e-02,-5.234533175826072693e-02,-5.628939345479011536e-02,-3.672198951244354248e-02,3.102712146937847137e-02,-1.766387373208999634e-01,-1.815510331653058529e-03,-9.898488968610763550e-02,1.423140019178390503e-01,-3.894346579909324646e-02,1.723425276577472687e-02,-1.428002119064331055e-01,-8.065643161535263062e-02,-5.622085556387901306e-02,6.041915621608495712e-03,2.236720733344554901e-02,-1.933445930480957031e-01,3.578754886984825134e-02,1.048301234841346741e-01,3.609365969896316528e-02,-2.512751519680023193e-02,2.835736051201820374e-02,-2.164312638342380524e-02,1.036283522844314575e-01,-1.025114208459854126e-01,2.827784419059753418e-02,8.852627128362655640e-02,4.809862747788429260e-02,6.074701622128486633e-02,-3.075798228383064270e-02,1.323601752519607544e-01,1.397724747657775879e-01,1.202528476715087891e-01,-7.795378565788269043e-02,-2.473400719463825226e-02,1.317861527204513550e-01,1.078213080763816833e-01,-1.212707683444023132e-01,-1.240039989352226257e-01,3.400948271155357361e-02,3.844879195094108582e-02,-5.260745994746685028e-03,-6.262721121311187744e-02,1.089891791343688965e-01,1.128916069865226746e-01,5.019206946599297225e-05,-1.979014836251735687e-02,1.081092506647109985e-01,-8.460178971290588379e-03,1.197170615196228027e-01,-6.067604571580886841e-02,2.788113616406917572e-02,2.752712368965148926e-02,-6.047204136848449707e-02,9.976833313703536987e-02,1.717808656394481659e-02,1.087482124567031860e-01,-1.143200770020484924e-01,7.970234006643295288e-02,7.672233879566192627e-02,5.148918833583593369e-03,-3.253239393234252930e-02,-2.408659458160400391e-02,-9.894855320453643799e-02,3.036666428670287132e-03,6.501253694295883179e-03,-4.481096193194389343e-02,6.647835834883153439e-04,-3.938819840550422668e-02,1.944588720798492432e-01,2.516538463532924652e-02,7.492125779390335083e-02,-1.185899376869201660e-01,1.912153529701754451e-04,1.954845618456602097e-03,-4.691120609641075134e-02,9.758106432855129242e-03,-5.448285862803459167e-02,-3.586172685027122498e-02,-1.660438999533653259e-02,1.999452412128448486e-01,1.619419828057289124e-02,-2.532641810830682516e-04,6.846001744270324707e-02,-9.847695380449295044e-02,-1.175426468253135681e-01,1.534527391195297241e-01,-1.721676439046859741e-01,5.309244990348815918e-02,2.354626776650547981e-03,-1.927556656301021576e-02,5.129375681281089783e-02,-1.613911688327789307e-01,-1.714886277914047241e-01,9.428819641470909119e-03,-8.008150756359100342e-02,-1.201878786087036133e-01,2.144810371100902557e-02,-5.652898550033569336e-02,-1.070735082030296326e-01,-4.356360062956809998e-02,2.352030016481876373e-02,2.559936605393886566e-02,-1.061937958002090454e-01,6.680659134872257710e-04,-1.849982738494873047e-01,1.045304164290428162e-01,-2.591029182076454163e-02,-1.176550611853599548e-01,1.688927859067916870e-01,2.918554283678531647e-02,-1.649262607097625732e-01,1.208948045969009399e-01,-1.458091437816619873e-01,5.426353216171264648e-02,8.055504411458969116e-02,-9.269463270902633667e-02,-7.249765098094940186e-02,-1.050811037421226501e-01,3.571919351816177368e-02,-8.486768603324890137e-02,-4.230648279190063477e-02,-5.363938212394714355e-02,-2.878809347748756409e-02,-1.428792178630828857e-01,-6.925895065069198608e-02,2.925622276961803436e-02,-1.236667856574058533e-01,-8.774444460868835449e-02,1.840620785951614380e-01,-7.384281139820814133e-03,1.901473850011825562e-01,1.324247010052204132e-02,1.111591383814811707e-01,-1.055071968585252762e-02,7.886261492967605591e-02,-2.846280671656131744e-02,-5.942053347826004028e-02,3.093083575367927551e-02,5.868429690599441528e-02,-9.724790602922439575e-02,1.142261549830436707e-01,9.379554539918899536e-02,-3.252668306231498718e-02,1.951542310416698456e-02,-1.313640028238296509e-01,3.546876832842826843e-02,-3.963895142078399658e-02,1.544630676507949829e-01,-6.169414520263671875e-02,1.112101674079895020e-01,-1.594634503126144409e-01,5.207172036170959473e-02,5.037832260131835938e-02,1.876115985214710236e-02,-1.429776102304458618e-02,1.397323161363601685e-01,1.743444055318832397e-01,1.340795606374740601e-01,-6.998913735151290894e-02,-4.330776166170835495e-03,6.024602800607681274e-02,-3.052742779254913330e-02,-2.793086506426334381e-02,1.512696146965026855e-01,-1.207172796130180359e-01,5.528927594423294067e-02,-8.061864972114562988e-02,-1.192913763225078583e-02,-1.590082049369812012e-01,-1.606254279613494873e-01,-8.032468706369400024e-02,2.072912827134132385e-02,-1.970807835459709167e-02,8.702805638313293457e-02,-1.147104054689407349e-01,-1.084804087877273560e-01,4.501282796263694763e-02,8.494418859481811523e-02,1.372011154890060425e-01,1.034151092171669006e-01,6.658583879470825195e-02,-1.021983027458190918e-01,-1.346234530210494995e-01,1.370727121829986572e-01,8.888878673315048218e-02,3.318487107753753662e-02,6.773188710212707520e-02,1.277364231646060944e-02,-1.712596118450164795e-01,-3.478184342384338379e-02,-1.457468271255493164e-01,-9.208556264638900757e-02,-3.124281577765941620e-02,5.837407335638999939e-02,-3.115968778729438782e-02,-1.101155281066894531e-01,-1.402782946825027466e-01,-7.932060211896896362e-02,-5.271874740719795227e-02,6.764252483844757080e-02,1.292518526315689087e-01,1.472138147801160812e-02,4.101049154996871948e-02,-2.349703572690486908e-02,-3.358357399702072144e-02,-3.575320914387702942e-02,1.072578653693199158e-01,3.879059478640556335e-02,3.515144065022468567e-02,-1.527633070945739746e-01,-1.593935340642929077e-01,1.024552956223487854e-01,1.347559988498687744e-01,1.689187064766883850e-02,-1.259546130895614624e-01,2.269057929515838623e-02,-1.404063403606414795e-01,1.956864148378372192e-01,1.753608137369155884e-02,9.115381538867950439e-02,-9.098979830741882324e-02,-8.029757440090179443e-02,-5.048161745071411133e-02,2.983042970299720764e-02,-3.869101032614707947e-02,3.192549571394920349e-02,-3.686137869954109192e-02,1.454529911279678345e-01,-1.334024011157453060e-03,9.459003061056137085e-02,1.401478648185729980e-01,-1.182033307850360870e-02,1.218119543045759201e-02,8.578376471996307373e-02,-1.209534555673599243e-01,-1.245035156607627869e-01,1.148430258035659790e-01,-9.824176877737045288e-02,-1.175699755549430847e-01,3.802443668246269226e-02,4.448703676462173462e-02,-1.379177719354629517e-02,5.321681126952171326e-02,-1.820600181818008423e-01,-2.672629198059439659e-04,-1.203495785593986511e-01,2.265270613133907318e-02,9.892386198043823242e-02,1.199897751212120056e-01,8.940882235765457153e-02,-2.318207733333110809e-02,1.605298742651939392e-02,-1.001680046319961548e-01,1.553370803594589233e-02,-8.934336900711059570e-02,-8.053799718618392944e-02,-9.943515807390213013e-02,-1.811771281063556671e-02,2.713155560195446014e-02,8.075871318578720093e-02,1.289432197809219360e-01,4.323602840304374695e-02,5.314260348677635193e-02,1.816857904195785522e-01,-3.070580959320068359e-02,-9.632188081741333008e-02,-1.116280108690261841e-01,8.960810303688049316e-02,1.998497843742370605e-01,-3.522704541683197021e-02,-7.254481315612792969e-02,3.322426974773406982e-02,1.619354821741580963e-02,1.305132508277893066e-01,-5.469010397791862488e-02,1.332332491874694824e-01
7.016102317720651627e-03,1.485992223024368286e-02,-2.045444957911968231e-02,-1.142091527581214905e-01,-5.217708274722099304e-02,1.118827890604734421e-02,-1.168799921870231628e-01,1.285776793956756592e-01,-8.004695177078247070e-02,-1.309637259691953659e-02,1.007584109902381897e-01,-9.882161021232604980e-02,1.082926522940397263e-02,-1.043910756707191467e-01,1.373753231018781662e-02,-6.608266383409500122e-02,8.029919862747192383e-02,-1.665098369121551514e-01,-1.452984511852264404e-01,5.490333959460258484e-02,-3.238355740904808044e-02,1.616236381232738495e-02,-8.386944234371185303e-02,1.243880391120910645e-01,-2.748966775834560394e-02,1.179734095931053162e-01,8.802085369825363159e-02,-9.966412931680679321e-02,8.893754333257675171e-02,4.641088470816612244e-02,-1.273192763328552246e-01,7.738807797431945801e-02,1.226713284850120544e-01,1.051841974258422852e-01,1.326416581869125366e-01,1.627587080001831055e-01,1.322729736566543579e-01,-6.542752962559461594e-03,-1.676384918391704559e-02,5.491541698575019836e-02,-8.328636735677719116e-02,1.653415560722351074e-01,1.806856244802474976e-01,-1.692571938037872314e-01,-4.706113785505294800e-02,2.682745270431041718e-02,7.619813084602355957e-02,6.035600975155830383e-02,9.401758015155792236e-02,2.785097749438136816e-04,5.860840901732444763e-02,-1.385441869497299194e-01,1.373022794723510742e-01,1.921035945415496826e-01,-8.841728419065475464e-02,-4.847828671336174011e-02,9.769476205110549927e-02,4.751294478774070740e-02,3.813713556155562401e-03,1.528521627187728882e-01,2.233246900141239166e-02,-6.401558965444564819e-02,-8.713434450328350067e-03,3.629331290721893311e-02,-1.499274224042892456e-01,-4.486688226461410522e-02,-1.223247591406106949e-02,-2.069706842303276062e-02,7.621160149574279785e-02,-6.082003936171531677e-02,1.408051997423171997e-01,-3.739824984222650528e-03,-3.457465767860412598e-02,-2.837460674345493317e-02,-1.704073995351791382e-01,1.413125265389680862e-02,1.865470111370086670e-01,-5.222098901867866516e-02,1.277891844511032104e-01,-1.846864819526672363e-03,-1.546334358863532543e-03,1.063671335577964783e-01,1.476692408323287964e-01,3.761943057179450989e-02,-6.791129708290100098e-04,1.452877968549728394e-01,-6.523066014051437378e-02,4.904579743742942810e-02,-3.740187501534819603e-03,9.485323727130889893e-02,-3.413332998752593994e-02,3.258598968386650085e-02,-5.205608159303665161e-02,3.547848388552665710e-02,-1.421469636261463165e-02,-2.567885816097259521e-02,-5.118446424603462219e-02,-6.548240035772323608e-02,-1.329543441534042358e-01,-1.207264661788940430e-01,1.196586713194847107e-01,-2.745699696242809296e-02,1.288685649633407593e-01,1.082889437675476074e-01,-1.253876835107803345e-01,1.266942471265792847e-01,-1.355450302362442017e-01,-3.159901127219200134e-02,8.842458575963973999e-02,4.342918470501899719e-02,1.735033541917800903e-01,-1.946488469839096069e-01,1.329309195280075073e-01,-1.277792602777481079e-01,-1.139880642294883728e-01,5.926821380853652954e-02,4.959302768111228943e-02,-6.920607388019561768e-02,3.333397582173347473e-02,1.629359871149063110e-01,-4.409458115696907043e-02,-5.931311845779418945e-02,-3.839756175875663757e-02,-9.296882152557373047e-02,1.218509674072265625e-01,-6.440543383359909058e-02,-7.404453307390213013e-02,1.817100346088409424e-01,1.469063907861709595e-01,7.735668867826461792e-02,-8.309819549322128296e-02,5.678842589259147644e-02,-5.025411397218704224e-02,1.113309487700462341e-01,-1.065977811813354492e-01,-1.444990485906600952e-01,-2.048199297860264778e-03,2.787379920482635498e-02,-1.125336345285177231e-02,6.023637205362319946e-02,-1.205323860049247742e-01,-8.244060911238193512e-03,-1.511810868978500366e-01,8.773666620254516602e-02,1.321696341037750244e-01,2.187851071357727051e-02,-1.942180469632148743e-02,5.384158715605735779e-02,-4.602680727839469910e-02,2.103229239583015442e-02,-4.068423435091972351e-02,-2.834259532392024994e-02,3.648222982883453369e-02,3.648382052779197693e-02,-1.698492616415023804e-01,-1.297122389078140259e-01,1.095249056816101074e-01,-7.868528366088867188e-02,-1.738313883543014526e-01,8.464081585407257080e-02,7.842711359262466431e-02,-1.120294481515884399e-01,-1.299081295728683472e-01,-1.163314506411552429e-01,9.542085975408554077e-02,-9.893619269132614136e-02,-6.417282670736312866e-02,-1.011636946350336075e-02,2.582812868058681488e-02,-1.051976084709167480e-01,6.719487160444259644e-02,5.745215341448783875e-02,-2.315626665949821472e-02,-9.349785745143890381e-02,-9.973194450139999390e-02,5.149070639163255692e-03,-1.176967844367027283e-01,9.802839159965515137e-02,-7.616295665502548218e-02,-6.314925104379653931e-02,3.346590697765350342e-02,-4.849848151206970215e-02,1.177275702357292175e-01,-4.249568656086921692e-02,-8.473499864339828491e-02,-1.680629514157772064e-02,-2.392577938735485077e-02,8.143198676407337189e-03,-1.394430845975875854e-01,-1.096070930361747742e-01,8.232246153056621552e-03,6.948496401309967041e-02,4.048271849751472473e-02,4.548503458499908447e-02,-1.990402787923812866e-01,-4.016218706965446472e-02,5.254162009805440903e-03,7.074787467718124390e-02,-2.810011804103851318e-02,1.020072102546691895e-01,1.528306957334280014e-02,1.216882839798927307e-01,4.957198165357112885e-03,-1.212549861520528793e-02,2.941016294062137604e-02,1.696533560752868652e-01,-3.214620798826217651e-02,-6.924194097518920898e-02,8.586655557155609131e-02,-6.150837615132331848e-02,-1.263613551855087280e-01,1.579964607954025269e-01,1.554109901189804077e-02,-5.619480833411216736e-02,1.853302270174026489e-01,2.262454852461814880e-02,-1.628114841878414154e-02,-1.569170206785202026e-01,-3.702323883771896362e-02,-2.313123783096671104e-03,-7.610102742910385132e-02,9.931557625532150269e-02,-7.829590886831283569e-02,1.339257061481475830e-01,5.065904185175895691e-02,1.306580286473035812e-02,-3.265944495797157288e-02,1.127250399440526962e-02,-9.107220172882080078e-02,1.257818341255187988e-01,1.473069787025451660e-01,-3.839515149593353271e-02,1.298402398824691772e-01,-1.109003424644470215e-01,4.699852317571640015e-02,1.315800398588180542e-01,1.215763017535209656e-01,9.844332933425903320e-02,1.902534998953342438e-02,1.680105179548263550e-01,2.992762438952922821e-02,4.839706700295209885e-03,-7.554882764816284180e-02,-5.403810366988182068e-02,1.210041437298059464e-02,-6.774666905403137207e-02,-4.747740551829338074e-02,2.658360078930854797e-02,1.440681219100952148e-01,8.709927648305892944e-02,-2.981596626341342926e-02,-4.436684772372245789e-03,8.881372958421707153e-02,1.320890933275222778e-01,6.443112343549728394e-02,-8.222458884119987488e-03,-1.003842875361442566e-01,-1.234007701277732849e-01,-2.999362722039222717e-02,4.362448677420616150e-02,1.137195061892271042e-02,-1.491137892007827759e-01,-8.872007578611373901e-02,-4.021349176764488220e-02,1.817527115345001221e-01,1.251973360776901245e-01,7.219319045543670654e-02,-1.876717433333396912e-02,-6.901556998491287231e-02,4.499733820557594299e-02,-6.671136617660522461e-02,-1.152848526835441589e-01,1.791902929544448853e-01,-1.804504096508026123e-01,1.113474741578102112e-01,-6.892263889312744141e-03,-1.535112112760543823e-01,2.310940623283386230e-02,6.555180996656417847e-02,2.884465269744396210e-02,8.230289071798324585e-02,-1.832452416419982910e-01,1.889805309474468231e-02,1.989535614848136902e-02,-1.632578372955322266e-01,1.074204668402671814e-01,-1.354509126394987106e-02,4.980286583304405212e-02,2.557654678821563721e-02,1.088221669197082520e-01,-8.217918127775192261e-02,5.761444568634033203e-02,-1.815240532159805298e-01,-5.804932862520217896e-02,1.203978061676025391e-02,-1.587493866682052612e-01,-2.413529343903064728e-02,5.080932378768920898e-02,-5.390971899032592773e-03,-4.922550544142723083e-02,6.794469896703958511e-03,1.449261326342821121e-02,1.294653862714767456e-01,-3.876694664359092712e-02,-1.872517168521881104e-02,-1.600809693336486816e-01,-8.269266784191131592e-02,-1.473158504813909531e-02,-1.804374754428863525e-01,3.131038323044776917e-02,1.781009137630462646e-01,-3.817017003893852234e-02,-4.075995460152626038e-02,1.810990422964096069e-01,-3.531397134065628052e-02,-8.939054608345031738e-02,-1.269993185997009277e-01,7.658853381872177124e-02,7.651713490486145020e-02,-2.632764866575598717e-03,-1.015354171395301819e-01,-8.332723379135131836e-02,-1.465696543455123901e-01,-9.725919924676418304e-03,-7.400354743003845215e-02,1.612254530191421509e-01,1.208042278885841370e-01,-2.145578525960445404e-02,-5.618700385093688965e-02,7.864397019147872925e-03,6.259177625179290771e-02,4.521863162517547607e-02,1.615216284990310669e-01,-9.599180519580841064e-02,8.358438313007354736e-02,-1.016209051012992859e-01,-6.664301455020904541e-02,3.731242939829826355e-02,-1.099442392587661743e-01,-1.103275194764137268e-01,3.537781909108161926e-02,2.326733432710170746e-02,-8.492657542228698730e-02,-4.445630125701427460e-03,5.381103977560997009e-02,-2.525701001286506653e-02,-6.730289012193679810e-02,1.491972655057907104e-01,-9.495896287262439728e-03,1.944397538900375366e-01,1.729274392127990723e-01,-4.769445583224296570e-02,1.426508575677871704e-01,2.916912315413355827e-03,-1.085117012262344360e-01,2.261312119662761688e-02,4.062416777014732361e-02,-1.639589518308639526e-01,-8.067645877599716187e-02,7.320854812860488892e-02,6.296405196189880371e-02,7.113002240657806396e-02,-9.325587004423141479e-02,4.332182928919792175e-02,-4.477384686470031738e-02,-8.255164325237274170e-02,-8.872171491384506226e-02,-7.610105723142623901e-02,8.962360769510269165e-02,-6.785457581281661987e-02,7.048346847295761108e-02,-9.578330814838409424e-02,7.687681913375854492e-02,7.917778939008712769e-02,1.339755356311798096e-01,-1.276196241378784180e-01,-3.272037580609321594e-02,9.665062651038169861e-03,-2.404568484053015709e-03,-1.459431350231170654e-01,2.654348872601985931e-02,-8.997986465692520142e-02,1.438880413770675659e-01,-3.525004908442497253e-02,2.687742747366428375e-02,-2.900389395654201508e-02,-3.722009062767028809e-02,-1.488974094390869141e-01,-4.190301150083541870e-02,3.618421405553817749e-02,3.434341400861740112e-02,-1.394332498311996460e-01,-8.386420458555221558e-02,1.282533109188079834e-01,1.516615748405456543e-01,-3.438467904925346375e-02,-1.599781401455402374e-02,6.017180904746055603e-02,-1.027111187577247620e-01,5.872299429029226303e-03,6.575035303831100464e-02,-5.949672684073448181e-02,-8.208438009023666382e-02,-1.720191836357116699e-01,-1.565492857480421662e-04,1.277643293142318726e-01,1.721022576093673706e-01,-3.209227696061134338e-02,1.135951802134513855e-01,-5.853358656167984009e-02,1.200366392731666565e-02,1.038953661918640137e-01,2.739971876144409180e-02,4.225876182317733765e-02,-3.474594652652740479e-02,-3.193080052733421326e-02,-1.951889842748641968e-01,4.356250539422035217e-02,5.026243254542350769e-02,-1.722823679447174072e-01,1.031339392066001892e-01,4.015473276376724243e-02,3.835260868072509766e-02,-1.949694566428661346e-02,-7.364949584007263184e-02,-6.310310214757919312e-02,-1.001519151031970978e-02,1.221836432814598083e-01,4.746098443865776062e-02,1.103072892874479294e-02,1.247456111013889313e-02,6.765522062778472900e-02,1.498397905379533768e-02,-4.138249903917312622e-02,1.270406227558851242e-02,1.680928282439708710e-02,4.878893122076988220e-02,-1.014738306403160095e-01,6.932556629180908203e-02,-1.303556710481643677e-01,-3.285299241542816162e-02,1.183907389640808105e-01,5.391246080398559570e-02,-7.106230594217777252e-03,3.124646283686161041e-02,5.922675877809524536e-02,-4.201584681868553162e-02,2.845413424074649811e-02,1.953059583902359009e-01,6.449052691459655762e-02,1.065654531121253967e-01,1.346535682678222656e-01,1.715169101953506470e-01,-4.220814257860183716e-02,-1.506423801183700562e-01,6.513153761625289917e-02,-3.772568330168724060e-02,-4.684633761644363403e-02,-6.857048720121383667e-02,1.341393044640426524e-06,5.133667588233947754e-02,1.418062448501586914e-01,1.186446174979209900e-01,-1.003324314951896667e-01,1.206617336720228195e-02,3.722239285707473755e-02,-1.036197319626808167e-01,7.944165915250778198e-02,-1.046376973390579224e-01,-3.576826676726341248e-02,4.573844373226165771e-02,-7.496154308319091797e-02,1.929610669612884521e-01,3.710788115859031677e-02,-9.723960608243942261e-02,3.523602336645126343e-02,-1.504678577184677124e-01,8.659572154283523560e-02,-5.606375262141227722e-02,1.847078949213027954e-01,5.889806896448135376e-02,-2.547597326338291168e-02,-7.760992739349603653e-03,-1.649538725614547729e-01,1.167360972613096237e-02,4.963726922869682312e-02,8.784050494432449341e-02,9.254242479801177979e-02,-1.224075108766555786e-01,8.508168905973434448e-02,-1.517049670219421387e-01,1.460232585668563843e-01,1.149638220667839050e-01,-1.476753223687410355e-02,-7.840667665004730225e-02,-3.207792714238166809e-02,-1.147922277450561523e-01,-2.641196548938751221e-02,1.319372355937957764e-01,-4.932292923331260681e-02,1.175990235060453415e-02,-3.283192170783877373e-03,-1.165255531668663025e-02,1.682838648557662964e-01,2.755081653594970703e-02,-9.836053848266601562e-02,1.051523834466934204e-01,1.586134731769561768e-02,1.272855252027511597e-01,-5.798404291272163391e-02,1.204537749290466309e-01,8.193658292293548584e-02
-4.454782232642173767e-02,3.202020749449729919e-02,-8.365062624216079712e-02,1.108588371425867081e-02,-6.273380713537335396e-04,-1.134275123476982117e-01,-9.587987512350082397e-02,1.034282967448234558e-01,2.274248935282230377e-02,-1.119784712791442871e-01,-6.546884775161743164e-02,-3.253247961401939392e-02,4.066325351595878601e-02,-1.178946867585182190e-01,1.652891039848327637e-01,7.146502286195755005e-02,-1.127050071954727173e-01,1.673453748226165771e-01,-3.048065677285194397e-02,-2.033638022840023041e-02,-4.925571920466609299e-05,4.252131620887666941e-04,-1.016992703080177307e-01,-7.431218028068542480e-02,-6.487680226564407349e-02,6.463554501533508301e-02,-3.281721845269203186e-02,1.192458998411893845e-02,1.032714843750000000e-01,1.917703896760940552e-01,-5.569539219141006470e-02,4.669398814439773560e-02,4.045928269624710083e-02,-9.566352516412734985e-02,-3.763313218951225281e-02,6.584771722555160522e-02,-7.288775593042373657e-02,-1.335559338331222534e-01,1.901179179549217224e-02,-1.714843511581420898e-01,3.474486246705055237e-02,1.707880757749080658e-02,8.987908251583576202e-03,-6.779220700263977051e-02,1.463491767644882202e-01,-6.868997216224670410e-02,1.017736569046974182e-01,-5.312023684382438660e-02,-3.719234094023704529e-02,-1.102258116006851196e-01,-1.095779910683631897e-01,8.850245922803878784e-02,5.686260387301445007e-02,4.358328506350517273e-02,3.488177433609962463e-02,-1.143420562148094177e-01,-1.105242967605590820e-01,-2.944837324321269989e-02,-3.556079929694533348e-03,9.700105339288711548e-02,4.190655052661895752e-02,1.931797526776790619e-02,-3.779130429029464722e-02,-3.408505395054817200e-02,1.558515615761280060e-02,-1.767817884683609009e-02,-1.064907535910606384e-01,9.811142086982727051e-02,-8.504139631986618042e-02,-7.944222539663314819e-02,5.856866762042045593e-02,-2.520730532705783844e-02,-4.523831978440284729e-02,7.564342767000198364e-02,2.025572024285793304e-02,1.615058444440364838e-02,8.622227236628532410e-03,-1.279978603124618530e-01,1.110865250229835510e-01,-1.387680023908615112e-01,1.193781122565269470e-01,1.303247511386871338e-01,-3.231402859091758728e-02,-1.340453475713729858e-01,-1.135844513773918152e-01,2.324970066547393799e-02,2.919195033609867096e-02,9.132659435272216797e-02,-6.265120953321456909e-02,4.989261180162429810e-02,5.940076708793640137e-02,9.272884577512741089e-02,-7.257915288209915161e-02,1.571898758411407471e-01,5.789208039641380310e-02,-7.316987216472625732e-02,4.195107147097587585e-02,4.285184293985366821e-02,-1.107010617852210999e-01,1.071478724479675293e-01,-8.263778686523437500e-02,-1.115002259612083435e-01,-1.051896959543228149e-01,-7.242317777127027512e-03,4.227411374449729919e-02,8.178627490997314453e-02,-1.285684574395418167e-02,-9.695956110954284668e-02,-1.578384190797805786e-01,2.964622154831886292e-02,1.408388763666152954e-01,9.140474349260330200e-02,-1.061128526926040649e-01,4.498803243041038513e-02,6.886573135852813721e-02,-2.648408524692058563e-02,-1.313703972846269608e-02,-1.248564273118972778e-01,-3.979146853089332581e-02,-1.708646267652511597e-01,3.908115252852439880e-02,-1.501545906066894531e-01,3.697066009044647217e-02,-6.342204660177230835e-02,-9.897207468748092651e-02,-2.367172390222549438e-02,2.224644832313060760e-02,5.835358053445816040e-02,9.581168740987777710e-02,-5.552113056182861328e-02,-3.186273202300071716e-02,-1.178512442857027054e-02,1.580130606889724731e-01,6.101454421877861023e-02,-6.935941427946090698e-02,4.594272933900356293e-03,-5.900250747799873352e-02,8.119907230138778687e-02,-7.739662379026412964e-02,-4.653163999319076538e-02,-1.058754883706569672e-02,-8.729656785726547241e-02,-1.113100871443748474e-01,-4.910954087972640991e-02,-1.450864523649215698e-01,1.239663735032081604e-02,1.314213722944259644e-01,6.848303973674774170e-02,4.755560308694839478e-02,1.189173385500907898e-01,3.006793558597564697e-02,1.649295389652252197e-01,-1.032200977206230164e-01,1.911232993006706238e-02,1.602865755558013916e-01,2.747003175318241119e-02,-1.195562705397605896e-01,-4.555110260844230652e-02,7.545929402112960815e-02,1.549855023622512817e-01,1.177277341485023499e-01,-6.820020731538534164e-03,1.799037903547286987e-01,3.007502062246203423e-03,1.438125222921371460e-01,-1.506704092025756836e-02,-5.386846140027046204e-02,-4.127802792936563492e-03,9.297075122594833374e-02,-8.299726992845535278e-02,1.365818977355957031e-01,1.690862476825714111e-01,-4.171198233962059021e-02,5.975266173481941223e-02,-1.426100730895996094e-01,9.651320427656173706e-02,-8.618639782071113586e-03,1.036507114768028259e-01,-1.524969190359115601e-01,-6.551291048526763916e-02,9.614811092615127563e-02,4.211680963635444641e-03,1.406654268503189087e-01,-1.791419237852096558e-01,4.376865550875663757e-02,7.445632014423608780e-03,1.472668796777725220e-01,2.323128841817378998e-02,-9.920154511928558350e-02,4.595293849706649780e-02,6.604942679405212402e-02,-6.938512623310089111e-02,4.970777034759521484e-02,-6.697869300842285156e-02,-7.657735794782638550e-02,-1.021295562386512756e-01,6.579211354255676270e-02,3.926239535212516785e-02,-2.353430911898612976e-02,7.656493782997131348e-02,-5.501843243837356567e-02,-7.901156204752624035e-04,-1.129128690809011459e-02,2.964415587484836578e-02,-5.080890282988548279e-02,-1.264488995075225830e-01,-1.928343065083026886e-02,6.229094415903091431e-02,6.470135599374771118e-02,-1.295879669487476349e-02,5.421267822384834290e-02,8.601658791303634644e-02,-9.741222113370895386e-02,-2.262834692373871803e-03,2.490643598139286041e-02,-1.100992187857627869e-01,4.296757280826568604e-02,-9.382514283061027527e-03,-1.503914892673492432e-01,1.555915325880050659e-01,-9.838587604463100433e-03,9.927830100059509277e-02,6.378880888223648071e-02,-4.391845688223838806e-02,-8.239307254552841187e-02,1.934169605374336243e-02,7.711680978536605835e-02,7.668136060237884521e-02,-5.776861310005187988e-02,3.397986292839050293e-02,9.973733872175216675e-02,-2.202910743653774261e-02,-1.152834221720695496e-01,7.728186994791030884e-02,2.212515100836753845e-02,-5.008295923471450806e-02,-1.653247699141502380e-02,1.317583322525024414e-01,-8.411794900894165039e-02,1.130954027175903320e-01,1.341671347618103027e-01,-2.410363219678401947e-02,-3.078112006187438965e-02,9.265755861997604370e-02,-1.449832785874605179e-02,1.027591824531555176e-01,-6.812595576047897339e-02,-4.406778514385223389e-02,6.960498634725809097e-03,-1.639764755964279175e-01,1.483372896909713745e-01,2.203481085598468781e-02,7.219528406858444214e-02,7.380098104476928711e-02,-9.000192949315533042e-05,6.527370214462280273e-02,-1.279817223548889160e-01,1.502257883548736572e-01,-8.104101568460464478e-02,5.979552492499351501e-02,-1.501197665929794312e-01,-1.744260452687740326e-02,3.427272289991378784e-02,3.040611557662487030e-02,2.386410161852836609e-02,2.553375624120235443e-02,-6.360549479722976685e-02,-6.418102234601974487e-02,1.323032230138778687e-01,1.023271828889846802e-01,8.401234447956085205e-02,-6.977611780166625977e-02,-9.119889698922634125e-03,-1.572628468275070190e-01,2.855748310685157776e-02,3.678677231073379517e-02,4.636200889945030212e-02,6.350640952587127686e-02,-1.652919054031372070e-01,1.360150873661041260e-01,1.599271297454833984e-01,-4.048462212085723877e-02,1.081468444317579269e-02,-3.157287836074829102e-03,7.325171679258346558e-02,1.027698442339897156e-01,-1.364343613386154175e-01,7.104228436946868896e-02,-3.805229440331459045e-02,8.101961016654968262e-02,1.278202831745147705e-01,3.216926008462905884e-02,-6.729798763990402222e-02,5.448408797383308411e-02,-1.252375543117523193e-01,-2.690284326672554016e-02,-6.713119801133871078e-04,-1.971573084592819214e-01,8.116809278726577759e-02,-1.868313401937484741e-01,-6.672277301549911499e-02,-5.313531961292028427e-03,9.282286465167999268e-02,-4.729590192437171936e-02,-2.795574441552162170e-02,-7.997738569974899292e-02,1.302838325500488281e-01,2.671022526919841766e-02,9.318151324987411499e-02,-1.532707810401916504e-01,1.887779124081134796e-02,4.970521479845046997e-02,-4.673410579562187195e-02,-1.463676150888204575e-02,9.077503532171249390e-02,1.207600068300962448e-02,2.920104376971721649e-02,1.811726391315460205e-01,-4.299004748463630676e-02,-6.285435706377029419e-02,5.704051349312067032e-03,-3.392853587865829468e-02,-4.761011525988578796e-02,1.126975342631340027e-01,-1.105688735842704773e-01,-3.289940580725669861e-02,-1.474376302212476730e-02,-7.691585272550582886e-02,-4.381722211837768555e-02,9.971798211336135864e-02,1.126813441514968872e-01,-1.730992496013641357e-01,-3.671414777636528015e-02,-5.239340290427207947e-02,1.429709196090698242e-01,5.778054520487785339e-02,-1.158384829759597778e-01,9.670405648648738861e-03,1.709965914487838745e-01,5.335223302245140076e-02,2.887365035712718964e-02,-9.331035614013671875e-02,1.833522319793701172e-01,1.458126604557037354e-01,-1.685771346092224121e-02,2.903603389859199524e-02,5.691771861165761948e-03,1.424735635519027710e-01,6.009249016642570496e-02,5.236653238534927368e-02,1.529481858015060425e-01,1.053872033953666687e-01,4.672580584883689880e-02,1.703229099512100220e-01,-1.477786749601364136e-01,1.429070085287094116e-01,-7.110258936882019043e-02,1.159990653395652771e-01,2.560295164585113525e-02,-9.814321249723434448e-02,-1.530774384737014771e-01,5.128768086433410645e-02,3.898102417588233948e-02,1.608466953039169312e-01,-5.909201130270957947e-02,-1.071429774165153503e-01,5.794276483356952667e-03,-2.596496045589447021e-02,-5.074238404631614685e-02,9.051164984703063965e-02,8.709184825420379639e-02,-1.175578013062477112e-01,-8.363804779946804047e-03,1.695703947916626930e-03,1.712937504053115845e-01,-1.613609045743942261e-01,-8.942546695470809937e-02,-1.191357523202896118e-01,-5.918343737721443176e-02,-1.503540277481079102e-01,-9.565474838018417358e-02,-8.684635162353515625e-02,5.435332655906677246e-02,-4.914799355901777744e-04,1.376584470272064209e-01,-7.460080832242965698e-02,-5.778793245553970337e-02,-1.238418817520141602e-01,4.432607814669609070e-02,-9.207306057214736938e-02,-6.129240617156028748e-02,1.813261024653911591e-02,-1.112861856818199158e-01,4.217149689793586731e-02,-1.495373845100402832e-01,-9.516183286905288696e-02,-3.968397527933120728e-02,3.420956432819366455e-02,-1.027504429221153259e-01,-2.764861099421977997e-02,1.132076010107994080e-01,3.385670483112335205e-02,-1.414199024438858032e-01,-5.597784742712974548e-02,4.659180995076894760e-04,-8.003479242324829102e-02,8.905047178268432617e-02,3.017096221446990967e-02,4.360860213637351990e-02,1.893437355756759644e-01,-1.057538986206054688e-01,9.575054049491882324e-02,3.358733654022216797e-02,-3.527836129069328308e-02,-1.409945935010910034e-01,6.954755634069442749e-02,-8.615078404545783997e-04,-2.553227124735713005e-03,3.117700852453708649e-02,1.049277707934379578e-01,-6.792731583118438721e-02,5.801766645163297653e-03,-1.231501325964927673e-01,-9.010125696659088135e-02,-1.857346594333648682e-01,-3.318094462156295776e-02,-9.639938920736312866e-02,-3.159382939338684082e-02,-4.364711698144674301e-03,4.684326052665710449e-02,1.310885231941938400e-02,1.283289045095443726e-01,1.009505614638328552e-02,-6.708536297082901001e-02,4.656231775879859924e-02,9.631000459194183350e-03,-4.376740381121635437e-02,5.039195343852043152e-02,-9.672074019908905029e-02,-4.492189362645149231e-02,-1.045003160834312439e-01,-3.052492998540401459e-02,3.477262333035469055e-02,-1.878969967365264893e-01,-3.515912219882011414e-02,7.949750870466232300e-02,8.700275421142578125e-02,2.229424379765987396e-02,6.491547822952270508e-02,-4.490642622113227844e-02,4.414711147546768188e-02,-1.069753542542457581e-01,-6.211576610803604126e-02,-7.545532286167144775e-02,-1.585550010204315186e-01,-5.981621891260147095e-02,2.784613706171512604e-02,5.776114016771316528e-02,7.660809904336929321e-02,-6.470268219709396362e-02,-7.995291799306869507e-02,-6.514977663755416870e-02,-1.325049847364425659e-01,1.503816097974777222e-01,2.052545174956321716e-02,-7.635333575308322906e-03,-2.815221063792705536e-02,3.783257678151130676e-02,-1.242016330361366272e-01,8.014936745166778564e-02,5.033826455473899841e-02,3.761326894164085388e-02,-3.434927389025688171e-02,5.312409996986389160e-02,3.276203526183962822e-03,-1.094201207160949707e-01,-8.925131522119045258e-03,9.368430823087692261e-02,1.040213257074356079e-01,1.341034471988677979e-01,-4.516655951738357544e-02,6.073595955967903137e-02,-3.752895817160606384e-02,5.243531614542007446e-02,-1.451880089007318020e-03,-9.407515823841094971e-02,2.567189000546932220e-02,8.377793128602206707e-04,9.849072992801666260e-02,2.438013255596160889e-02,-3.251364454627037048e-02,-6.905307620763778687e-02,-1.238180398941040039e-01,8.318071812391281128e-02,3.339841589331626892e-02,2.014116011559963226e-02,2.401832677423954010e-02,7.061122357845306396e-02,4.737431649118661880e-03,9.091553092002868652e-02,-1.221789941191673279e-01,-1.056804433465003967e-01,1.758190691471099854e-01,-1.117025851272046566e-03,9.487686306238174438e-02,-3.576605767011642456e-02,9.666366875171661377e-02,5.420502275228500366e-03,4.380448535084724426e-02,-1.225272193551063538e-01,-9.601477533578872681e-02,1.337960809469223022e-01
1.294485777616500854e-01,5.254168063402175903e-02,1.892003566026687622e-01,-1.183770522475242615e-01,-4.606261476874351501e-02,-6.444917619228363037e-02,1.068919450044631958e-01,1.636040396988391876e-02,2.014990709722042084e-02,-1.238909736275672913e-01,2.498812042176723480e-02,-4.436327610164880753e-03,-2.250630967319011688e-02,1.688990183174610138e-02,2.427164837718009949e-02,-8.183475583791732788e-02,5.561941489577293396e-02,6.475459784269332886e-02,3.456842526793479919e-02,3.508177772164344788e-02,-8.131249994039535522e-02,-5.387786310166120529e-03,-1.810746639966964722e-01,-1.032949909567832947e-01,-9.127577394247055054e-02,2.741920948028564453e-02,4.924964532256126404e-02,1.152576729655265808e-01,2.682997286319732666e-02,1.494797170162200928e-01,3.762285038828849792e-02,-7.178553938865661621e-02,3.461607918143272400e-02,1.377690732479095459e-01,3.487583994865417480e-02,-2.380960248410701752e-02,-9.350056946277618408e-02,-4.242207854986190796e-02,1.113387942314147949e-01,5.753299593925476074e-02,7.307474501430988312e-03,-6.721924245357513428e-02,-1.235402598977088928e-01,-6.494478881359100342e-02,6.434892863035202026e-02,1.309248208999633789e-01,-1.770850270986557007e-01,-1.632116548717021942e-02,-4.753541573882102966e-02,2.220926992595195770e-02,9.142572432756423950e-02,1.824003271758556366e-02,1.047914549708366394e-01,1.752130314707756042e-02,-1.640313863754272461e-01,-8.639725297689437866e-02,-1.287787109613418579e-01,-1.684500277042388916e-01,-7.659962773323059082e-02,-8.435980230569839478e-02,-2.667815797030925751e-02,-1.940828263759613037e-01,6.500203907489776611e-02,1.175408959388732910e-01,1.274226158857345581e-01,-1.373759061098098755e-01,-4.851381480693817139e-02,-5.012087896466255188e-02,-3.571497648954391479e-02,5.358743667602539062e-02,-7.335173338651657104e-02,8.640344254672527313e-03,-4.274277016520500183e-02,-5.054911598563194275e-02,-1.128072962164878845e-01,5.599734187126159668e-02,-7.661201804876327515e-02,5.220396444201469421e-02,2.832114696502685547e-02,-9.884492307901382446e-02,3.804055973887443542e-02,-1.217907443642616272e-01,3.676033392548561096e-02,1.015451699495315552e-01,7.309599965810775757e-02,-2.900038380175828934e-03,9.515205398201942444e-03,-9.281432628631591797e-02,1.434468477964401245e-01,-1.573077887296676636e-01,1.916727572679519653e-01,6.575051695108413696e-02,-9.272389113903045654e-02,5.082418676465749741e-03,-1.268435269594192505e-01,-6.973852217197418213e-02,-9.197367727756500244e-02,-7.312294095754623413e-02,-1.432577371597290039e-01,-1.149187088012695312e-01,2.230030857026576996e-02,3.185164928436279297e-02,4.957951232790946960e-02,3.749133646488189697e-02,2.064306475222110748e-02,-1.070223450660705566e-01,3.698734939098358154e-02,-1.283940970897674561e-01,4.677806422114372253e-02,-1.153601557016372681e-01,1.861167512834072113e-02,-5.455712229013442993e-02,1.191894412040710449e-01,-8.519658818840980530e-03,6.908970326185226440e-02,-1.070712730288505554e-01,-1.417607301846146584e-03,-1.253017634153366089e-01,1.527473330497741699e-01,3.086408972740173340e-02,8.844705671072006226e-02,5.030926689505577087e-02,-3.388209268450737000e-02,-1.437932997941970825e-01,-1.478387564420700073e-01,-1.267256587743759155e-01,-9.417935460805892944e-02,1.984823681414127350e-02,6.064892560243606567e-02,-2.626237086951732635e-02,-6.176942586898803711e-02,-7.162465155124664307e-02,-1.251467224210500717e-02,8.438133448362350464e-02,-6.476291455328464508e-03,1.817317605018615723e-01,-3.265520557761192322e-02,-1.634851098060607910e-01,1.579290628433227539e-02,2.826632000505924225e-03,7.510183844715356827e-03,-2.217025123536586761e-02,-1.089984327554702759e-01,-1.923799216747283936e-01,-1.298756152391433716e-02,-4.851682484149932861e-02,-1.147835981100797653e-03,-1.948929578065872192e-01,-3.360054688528180122e-03,-7.232329994440078735e-02,-5.081553012132644653e-02,1.885837758891284466e-03,-7.053973525762557983e-02,-1.001558173447847366e-02,1.105784997344017029e-01,7.465081661939620972e-02,-5.206903442740440369e-02,1.429269164800643921e-01,-1.542627364397048950e-01,4.346087109297513962e-03,-1.226087436079978943e-01,5.067421589046716690e-03,1.532142013311386108e-01,5.195595696568489075e-02,3.808119893074035645e-02,-1.207772549241781235e-02,-8.406289853155612946e-03,8.805956691503524780e-02,-1.839747875928878784e-01,-8.825152367353439331e-02,-6.833151727914810181e-02,1.640911400318145752e-01,-8.014997839927673340e-02,8.395370095968246460e-02,6.109719350934028625e-02,-1.381831336766481400e-02,-3.825643286108970642e-02,1.583781093358993530e-01,1.324248760938644409e-01,1.782823055982589722e-01,-6.539135426282882690e-02,-8.513954281806945801e-02,2.484655240550637245e-03,8.060338348150253296e-02,1.825992576777935028e-02,-2.996662072837352753e-02,-2.688533067703247070e-02,-1.025232672691345215e-01,1.248957514762878418e-01,-9.918753057718276978e-02,1.499465107917785645e-01,-6.220582872629165649e-02,-8.347623795270919800e-02,-1.760021224617958069e-02,-9.873841702938079834e-02,-2.228633733466267586e-03,1.005270853638648987e-01,-1.505104638636112213e-02,3.676832094788551331e-02,4.117773473262786865e-02,2.200338616967201233e-02,5.960073694586753845e-02,-8.509307354688644409e-02,3.079087845981121063e-02,4.023174755275249481e-03,1.202070862054824829e-01,-2.477921359241008759e-02,-9.713006764650344849e-02,1.827943772077560425e-01,-7.771269977092742920e-02,6.392363458871841431e-02,1.528813689947128296e-01,6.562723964452743530e-02,-1.549486536532640457e-02,3.600222989916801453e-02,5.948380753397941589e-02,-6.747339665889739990e-02,-6.101011857390403748e-02,-6.276697665452957153e-02,-1.522731035947799683e-02,-1.808084994554519653e-01,-9.841998666524887085e-02,2.528157643973827362e-02,3.106193244457244873e-02,4.507172852754592896e-02,4.871007427573204041e-02,7.259750366210937500e-02,1.773572713136672974e-02,-6.201155856251716614e-02,3.023937158286571503e-02,6.215224415063858032e-02,-3.881812840700149536e-02,-8.397148922085762024e-03,-4.793515428900718689e-02,-8.784504607319831848e-03,-2.325167320668697357e-02,-7.531368732452392578e-02,6.761100143194198608e-02,8.196720480918884277e-02,3.655415773391723633e-02,-4.378584399819374084e-02,-5.967644974589347839e-02,4.700491577386856079e-02,1.097594872117042542e-01,-1.507630199193954468e-01,1.896581947803497314e-01,1.357195824384689331e-01,-6.490957736968994141e-02,-1.103333383798599243e-01,9.162070602178573608e-02,6.207114458084106445e-02,-4.996716603636741638e-02,-1.423712819814682007e-01,-7.430662214756011963e-02,1.008898392319679260e-01,6.373976916074752808e-02,1.338259428739547729e-01,2.123292721807956696e-02,1.512733399868011475e-01,6.758426874876022339e-02,1.578607112169265747e-01,-1.543842256069183350e-01,-1.159150525927543640e-01,6.808700412511825562e-02,1.267345398664474487e-01,-8.791302889585494995e-02,-8.149347454309463501e-02,-8.905737847089767456e-02,-2.212283760309219360e-02,1.290207803249359131e-01,-1.077945828437805176e-01,-2.026949264109134674e-02,-3.102106787264347076e-02,5.835927277803421021e-02,-3.657642751932144165e-02,-2.242475375533103943e-02,-7.195753278210759163e-04,-3.016297332942485809e-02,3.973750025033950806e-02,-5.042562633752822876e-02,1.302746981382369995e-01,-1.030354481190443039e-02,-7.224965374916791916e-03,1.137823686003684998e-01,6.480639427900314331e-02,7.844997197389602661e-02,-6.262135505676269531e-02,2.855391800403594971e-02,-4.659833386540412903e-02,2.097243256866931915e-02,1.428364496678113937e-02,-7.091868668794631958e-03,1.260173767805099487e-01,-1.283846497535705566e-01,-4.932783171534538269e-02,1.350955069065093994e-01,-4.323282465338706970e-02,-2.820339798927307129e-02,-8.828826993703842163e-02,-1.210719347000122070e-01,-1.643793098628520966e-02,-5.453516170382499695e-02,-1.024204865097999573e-01,-4.620872065424919128e-02,1.458091437816619873e-01,-1.270589679479598999e-01,2.014273218810558319e-02,-8.119595050811767578e-02,1.656763255596160889e-02,1.405278295278549194e-01,-1.086666509509086609e-01,1.271592825651168823e-02,2.355610765516757965e-02,2.504336275160312653e-02,-2.627639472484588623e-02,6.526211649179458618e-02,-6.961011886596679688e-02,-1.849424652755260468e-02,-1.192831397056579590e-01,1.341148018836975098e-01,-1.435646563768386841e-01,1.884927749633789062e-01,1.569953048601746559e-03,1.478401571512222290e-01,-1.409243792295455933e-01,5.591124296188354492e-02,-1.730047538876533508e-02,-3.098095022141933441e-02,6.625337898731231689e-02,4.299816861748695374e-02,-1.168069168925285339e-01,-7.056786864995956421e-02,-2.791433967649936676e-02,-1.993235200643539429e-02,-5.528191477060317993e-02,7.647206634283065796e-02,-5.074793845415115356e-02,-1.245447769761085510e-01,-1.689626649022102356e-02,-5.942916497588157654e-02,5.413994193077087402e-02,5.167986080050468445e-02,3.860866650938987732e-02,7.998364418745040894e-02,-9.156716614961624146e-02,-4.241631552577018738e-02,1.696402952075004578e-02,1.068580970168113708e-01,1.941065117716789246e-02,1.263350248336791992e-01,8.867681026458740234e-04,2.287539467215538025e-02,-4.180191084742546082e-03,3.970749303698539734e-02,4.289154335856437683e-02,4.351056739687919617e-02,8.361448347568511963e-02,1.892906427383422852e-01,5.648795515298843384e-02,-1.440256237983703613e-01,-1.308134496212005615e-01,2.102924697101116180e-02,-7.602345198392868042e-02,-1.626885496079921722e-02,3.049069782719016075e-03,-1.503082960844039917e-01,6.480086594820022583e-02,7.339546829462051392e-02,-6.591133028268814087e-02,1.175826415419578552e-01,5.967290326952934265e-02,-2.509945631027221680e-02,-1.778012365102767944e-01,-5.683096125721931458e-02,1.192128937691450119e-02,-7.168171554803848267e-02,3.905169293284416199e-02,-1.094379946589469910e-01,-7.573264092206954956e-02,4.446604289114475250e-03,-1.211441755294799805e-01,-6.342079490423202515e-02,-7.794338464736938477e-02,-7.620847970247268677e-02,-3.212449327111244202e-02,-8.020552806556224823e-03,-7.208158820867538452e-02,3.432409092783927917e-02,-4.900890868157148361e-03,8.861669898033142090e-02,1.960181258618831635e-02,-4.998580086976289749e-03,-1.018584594130516052e-01,7.501160353422164917e-02,-3.277060016989707947e-02,8.120275288820266724e-02,9.771671146154403687e-02,3.203674405813217163e-02,-3.325618430972099304e-02,-3.244441002607345581e-02,-7.297465205192565918e-02,-3.346769139170646667e-02,-9.524744004011154175e-02,3.317863121628761292e-02,1.483694016933441162e-01,-1.446532458066940308e-01,-1.237262859940528870e-01,-3.852315247058868408e-02,-2.945857681334018707e-02,6.835276633501052856e-02,-1.111936569213867188e-01,-1.038738638162612915e-01,-4.185239598155021667e-02,-1.102956533432006836e-01,5.453043151646852493e-03,-8.803311735391616821e-02,1.988675072789192200e-02,3.945092484354972839e-02,-4.925230145454406738e-02,1.205988898873329163e-01,-8.560612797737121582e-02,4.015458375215530396e-02,1.964039355516433716e-02,3.591397078707814217e-03,-2.411853783996775746e-04,-4.548056051135063171e-02,-7.544843107461929321e-02,1.157082840800285339e-01,2.077031508088111877e-02,1.026450768113136292e-01,-9.623766690492630005e-02,1.662447750568389893e-01,-8.131387829780578613e-02,-2.794567123055458069e-02,-9.349703043699264526e-02,-1.542928861454129219e-03,1.049049869179725647e-01,1.196969076991081238e-01,6.430031359195709229e-02,3.040010633412748575e-04,4.388516768813133240e-02,-1.905650645494461060e-02,9.166177362203598022e-02,-1.384037435054779053e-01,8.089946955442428589e-02,8.170904964208602905e-02,1.164764314889907837e-01,-2.012557536363601685e-02,2.269004844129085541e-02,-1.213874369859695435e-01,-1.467649638652801514e-01,9.821160882711410522e-02,-1.719346269965171814e-03,2.310778573155403137e-02,2.025773376226425171e-02,2.231257967650890350e-02,-4.460521414875984192e-02,1.030008345842361450e-01,-4.179747030138969421e-02,1.304834485054016113e-01,-6.778276991099119186e-03,3.536557406187057495e-02,-4.377085343003273010e-02,1.581422388553619385e-01,3.063964657485485077e-02,4.075038433074951172e-02,-2.815838716924190521e-02,-3.144612535834312439e-02,9.073562175035476685e-02,-6.126153469085693359e-02,1.536108404397964478e-01,-1.816165000200271606e-01,-1.468970328569412231e-01,4.454574733972549438e-02,-1.312739104032516479e-01,8.067014813423156738e-02,-6.699825823307037354e-02,-1.042036414146423340e-01,-7.774337381124496460e-02,2.727920189499855042e-02,-9.035773575305938721e-02,-8.117631077766418457e-02,-7.245330512523651123e-02,9.149763733148574829e-02,1.136271189898252487e-02,7.186915609054267406e-04,7.535342872142791748e-02,-9.002645313739776611e-02,1.501359790563583374e-01,2.999999187886714935e-02,-1.514661461114883423e-01,1.007775403559207916e-02,1.259488333016633987e-02,-1.176757216453552246e-01,-1.597282141447067261e-01,7.995539903640747070e-02,5.019102245569229126e-02,2.954818867146968842e-02,-2.189181558787822723e-02,9.743674099445343018e-02,6.527279969304800034e-03,7.697900384664535522e-02,1.741084456443786621e-02,7.063009589910507202e-02,-7.261360436677932739e-02,8.640294522047042847e-02,-6.822667783126235008e-04,1.250195503234863281e-01,-4.213417693972587585e-02,1.176880151033401489e-01,-3.480230644345283508e-02,8.064759522676467896e-02
-1.302400697022676468e-02,7.350265234708786011e-02,1.675422638654708862e-01,-1.801518052816390991e-01,1.419010013341903687e-01,-4.464010149240493774e-02,3.076301328837871552e-02,-6.050522252917289734e-02,4.167968407273292542e-02,-1.633310019969940186e-01,6.089348718523979187e-02,-5.039231851696968079e-02,-1.541067380458116531e-02,-1.060835942625999451e-01,7.907601445913314819e-02,-2.349975705146789551e-02,-4.354190826416015625e-02,-4.518818855285644531e-02,-1.141630634665489197e-01,-2.217123052105307579e-03,1.615058816969394684e-02,1.408895701169967651e-01,-5.023225024342536926e-02,-1.365346927195787430e-02,-6.476064026355743408e-02,-2.802804810926318169e-03,9.275864064693450928e-02,1.793337911367416382e-01,-5.728225037455558777e-02,-8.105411380529403687e-02,-3.877761960029602051e-02,-4.969314485788345337e-02,1.360254436731338501e-01,3.871230408549308777e-02,-9.580184519290924072e-02,6.490426603704690933e-03,1.606263965368270874e-01,1.134601458907127380e-01,-1.770435087382793427e-02,7.269595563411712646e-02,1.940820068120956421e-01,1.941805928945541382e-01,-3.144845739006996155e-02,-1.007389798760414124e-01,9.359889477491378784e-02,-5.641660839319229126e-02,1.997359329834580421e-03,1.716356128454208374e-01,-1.495026350021362305e-01,-1.376278549432754517e-01,2.113033086061477661e-02,2.712102793157100677e-02,6.948033720254898071e-02,1.092152744531631470e-01,1.711293756961822510e-01,-9.748357534408569336e-02,1.125546023249626160e-01,4.970431327819824219e-02,1.395734697580337524e-01,1.461452990770339966e-01,8.375070057809352875e-03,1.422893255949020386e-01,1.740265823900699615e-02,-7.486604154109954834e-02,1.647756695747375488e-01,-8.144521154463291168e-03,6.815660744905471802e-02,8.611312508583068848e-02,-1.981152221560478210e-02,1.250779479742050171e-01,2.943124808371067047e-02,-1.244545504450798035e-01,1.114133521914482117e-01,5.674632266163825989e-02,3.659544885158538818e-02,-1.357660740613937378e-01,2.247644215822219849e-02,-1.079103872179985046e-01,1.947381794452667236e-01,-2.384645491838455200e-02,5.472477152943611145e-02,5.961472913622856140e-02,6.071725394576787949e-03,2.193892560899257660e-02,-7.174309343099594116e-02,-1.322302222251892090e-01,-8.237299323081970215e-02,-1.774546205997467041e-01,-1.704575866460800171e-01,-1.365691572427749634e-01,3.455670177936553955e-02,-1.625413149595260620e-01,1.198293757624924183e-03,-5.427205190062522888e-02,-3.853284940123558044e-02,1.065421923995018005e-01,1.697283238172531128e-01,1.713200658559799194e-01,-1.006190702319145203e-01,-1.376024335622787476e-01,-9.101570397615432739e-02,-1.268696635961532593e-01,8.563788980245590210e-02,2.499426715075969696e-02,-5.361154302954673767e-02,6.552293896675109863e-02,7.674761116504669189e-03,1.334953159093856812e-01,4.880040511488914490e-02,7.007815688848495483e-02,-4.737212881445884705e-02,1.068935990333557129e-01,1.804287582635879517e-01,-3.280016034841537476e-02,1.020219060592353344e-03,1.239807009696960449e-01,4.067181795835494995e-02,7.891020737588405609e-03,-1.395030319690704346e-01,-7.244857400655746460e-02,-1.531583219766616821e-01,5.658220872282981873e-02,-1.067548394203186035e-01,-9.916334599256515503e-02,5.479004979133605957e-02,-1.914055794477462769e-01,-5.561168864369392395e-02,1.271389573812484741e-01,2.479683235287666321e-02,-1.013394817709922791e-01,5.106427147984504700e-02,-1.849669590592384338e-02,-4.116247966885566711e-02,5.155243352055549622e-02,-3.309461846947669983e-02,2.217652834951877594e-02,-1.293538957834243774e-01,-5.745295435190200806e-02,-1.735439598560333252e-01,-1.722979992628097534e-01,-9.737604111433029175e-02,1.563125848770141602e-02,2.908015064895153046e-02,-9.004338644444942474e-03,-8.733220398426055908e-02,-1.362082660198211670e-01,-1.111649256199598312e-02,6.153231859207153320e-02,-1.297647058963775635e-01,-4.542610049247741699e-02,-2.443953230977058411e-02,-1.789663583040237427e-01,-1.007317230105400085e-01,1.564117381349205971e-03,1.447711437940597534e-01,4.406070709228515625e-02,3.518819063901901245e-02,-4.483594745397567749e-02,3.511398285627365112e-02,-6.135319545865058899e-02,-1.513497382402420044e-01,5.174857378005981445e-02,-1.027961969375610352e-01,-1.025051698088645935e-01,-2.884792163968086243e-02,-2.061728388071060181e-02,4.196706414222717285e-02,-1.029961332678794861e-01,4.890538752079010010e-02,-3.945473954081535339e-02,-7.266437262296676636e-02,-9.511884301900863647e-02,4.128634929656982422e-03,-1.457449942827224731e-01,-1.094641014933586121e-01,1.073658615350723267e-01,9.786449372768402100e-04,-1.093877330422401428e-01,-4.321390390396118164e-02,-1.577680744230747223e-02,-1.056558415293693542e-01,-2.194023691117763519e-02,-6.289243698120117188e-02,-6.430415064096450806e-02,-6.904241442680358887e-02,-8.808912336826324463e-02,-3.473446518182754517e-02,-9.507700800895690918e-02,-5.473989248275756836e-02,-8.872754126787185669e-02,-7.148424047045409679e-04,1.406947523355484009e-02,9.663554839789867401e-03,-5.448478087782859802e-02,-5.401748931035399437e-04,5.632764101028442383e-02,3.767678141593933105e-02,-4.345691576600074768e-02,4.809354990720748901e-02,-1.772748082876205444e-01,-1.566845364868640900e-02,-9.392308443784713745e-02,1.824448108673095703e-01,6.986402720212936401e-02,1.267014592885971069e-01,1.289442460983991623e-02,-1.645280122756958008e-01,-1.044412031769752502e-01,1.002560481429100037e-01,-3.298949822783470154e-02,-1.778355054557323456e-02,-1.371721085160970688e-02,1.485848277807235718e-01,4.385975375771522522e-02,1.360311657190322876e-01,-6.234357506036758423e-02,-7.463178783655166626e-02,6.232111528515815735e-02,2.316536754369735718e-02,3.222925215959548950e-02,8.910994976758956909e-02,1.466068476438522339e-01,-5.788568407297134399e-02,8.288285136222839355e-02,-5.579105019569396973e-02,-3.985888883471488953e-02,-1.050774008035659790e-01,7.349348161369562149e-03,8.474212139844894409e-02,1.109040379524230957e-01,-1.453640908002853394e-01,1.109334975481033325e-01,2.010710909962654114e-02,4.422239959239959717e-02,-3.390850499272346497e-02,-2.962600905448198318e-03,1.569052934646606445e-01,1.130176708102226257e-01,-7.989216595888137817e-02,-1.817110329866409302e-01,-1.571050137281417847e-01,9.874738752841949463e-03,8.969862014055252075e-03,-1.295604463666677475e-02,8.303520828485488892e-02,1.212930679321289062e-01,5.308394506573677063e-02,-3.271107003092765808e-02,5.234183743596076965e-02,-1.388250291347503662e-02,3.021997585892677307e-02,-1.345049738883972168e-01,1.291529387235641479e-01,-3.185839578509330750e-02,9.944563731551170349e-03,3.146086260676383972e-02,-1.797848613932728767e-03,7.579384744167327881e-02,-1.898244395852088928e-02,5.543896183371543884e-02,1.209568902850151062e-01,-1.087856069207191467e-01,9.780260920524597168e-02,-3.730518743395805359e-02,-9.457518346607685089e-03,-1.050875931978225708e-01,-3.897679969668388367e-02,1.255443990230560303e-01,-9.883922338485717773e-02,-1.185444146394729614e-01,1.071818098425865173e-01,-5.217841267585754395e-02,-2.697410620748996735e-02,9.337107837200164795e-02,2.000934444367885590e-02,-8.343078941106796265e-02,5.919823795557022095e-02,1.145521551370620728e-01,-1.617483943700790405e-01,7.806745357811450958e-03,-1.558800507336854935e-02,-1.991811692714691162e-01,-6.318900734186172485e-02,-1.103416010737419128e-01,-6.745948642492294312e-02,5.333973560482263565e-03,6.499744206666946411e-02,-1.053119078278541565e-01,2.968686632812023163e-02,1.778942160308361053e-02,2.960979938507080078e-02,-3.510007262229919434e-02,-7.326750457286834717e-02,-1.032189875841140747e-01,-4.314882308244705200e-02,6.552451755851507187e-03,-1.373826712369918823e-01,-1.771119609475135803e-02,7.380067557096481323e-02,-1.149020418524742126e-01,-1.723918691277503967e-02,-1.104279756546020508e-01,-1.713871359825134277e-01,2.004481665790081024e-02,-1.446125060319900513e-01,-1.206411272287368774e-01,4.256236180663108826e-02,1.746252030134201050e-01,4.317707940936088562e-02,-1.007970571517944336e-01,1.469043195247650146e-01,-1.526822596788406372e-01,1.211229711771011353e-01,7.523127645254135132e-02,9.753378480672836304e-02,1.313638538122177124e-01,-4.993940889835357666e-02,-8.179749548435211182e-02,-1.249355673789978027e-01,-1.664778403937816620e-02,8.010475896298885345e-03,5.599934980273246765e-02,1.964646950364112854e-02,6.922618299722671509e-02,-1.699713245034217834e-02,-8.872018754482269287e-02,3.543499112129211426e-02,1.632565632462501526e-02,-7.679663598537445068e-02,7.989596575498580933e-02,-5.731923040002584457e-03,-1.545847114175558090e-02,7.450243830680847168e-02,-7.837238907814025879e-02,9.129184484481811523e-02,-5.365290679037570953e-03,2.287204377353191376e-02,-3.335831314325332642e-02,-3.176298458129167557e-03,2.882805280387401581e-02,2.324088662862777710e-02,-5.793522670865058899e-02,-4.023651778697967529e-02,6.403116136789321899e-02,4.047232866287231445e-02,-1.172445416450500488e-01,-1.135591641068458557e-01,1.589646786451339722e-01,1.275024097412824631e-02,-7.037469744682312012e-02,-8.735770732164382935e-02,-1.465145051479339600e-01,-7.350844796746969223e-03,4.943671822547912598e-02,-3.300223127007484436e-02,-3.665279597043991089e-02,4.461326822638511658e-02,1.018980145454406738e-01,1.652507856488227844e-02,1.168311238288879395e-01,-8.676721900701522827e-02,-9.312138706445693970e-02,-5.044361948966979980e-02,-1.983322016894817352e-02,-1.195802725851535797e-02,-6.290201097726821899e-02,-1.086678132414817810e-01,1.953945495188236237e-02,-9.329876303672790527e-02,-4.400534182786941528e-02,1.852415353059768677e-01,-4.896045103669166565e-02,8.762680739164352417e-02,-8.886831253767013550e-02,1.252198498696088791e-02,7.696732133626937866e-02,7.746999710798263550e-02,-3.911739215254783630e-02,5.921242758631706238e-03,-1.134277954697608948e-01,1.708664745092391968e-01,1.722321212291717529e-01,-5.674756318330764771e-02,2.505653910338878632e-02,-7.404899597167968750e-02,8.904021233320236206e-02,4.489719867706298828e-02,-1.328127086162567139e-01,1.069229468703269958e-01,1.712546348571777344e-01,-1.789474785327911377e-01,1.366783212870359421e-02,1.891699880361557007e-01,2.386632002890110016e-02,8.052610605955123901e-02,-1.434639990329742432e-01,-2.081165648996829987e-02,6.502185016870498657e-02,3.360157832503318787e-02,1.548656076192855835e-01,6.850264966487884521e-03,-1.924355030059814453e-01,4.026364535093307495e-02,1.184809729456901550e-01,7.693669945001602173e-02,-2.460463903844356537e-03,-8.816235698759555817e-03,-6.978105753660202026e-02,6.607394665479660034e-02,-4.838739335536956787e-02,1.691409945487976074e-01,1.161606237292289734e-01,2.935087541118264198e-03,-2.112965844571590424e-02,4.499188065528869629e-02,7.334834337234497070e-02,3.924817964434623718e-02,4.065591841936111450e-02,7.171474397182464600e-03,-3.182695806026458740e-02,1.870641559362411499e-01,1.889336109161376953e-01,4.097159486263990402e-03,5.677730659954249859e-04,-1.720112375915050507e-02,-1.888935565948486328e-01,-1.621771007776260376e-01,6.013378500938415527e-02,-8.102191984653472900e-02,-1.027910225093364716e-02,5.307466536760330200e-02,-1.776839345693588257e-01,7.693327218294143677e-02,2.531367354094982147e-02,-9.234018623828887939e-02,-5.648210272192955017e-02,-3.012339118868112564e-03,-1.331176841631531715e-03,-3.863623365759849548e-02,1.238186135888099670e-01,-5.957029387354850769e-02,-1.971588283777236938e-02,1.151451840996742249e-01,-6.767794489860534668e-02,-4.514069855213165283e-02,-6.891855597496032715e-02,-1.165906246751546860e-02,2.621110528707504272e-03,2.781923674046993256e-02,2.927623456344008446e-03,-1.360467076301574707e-01,1.712890714406967163e-02,-1.795068532228469849e-01,1.186330094933509827e-01,1.025069952011108398e-01,-1.276134252548217773e-01,1.405176967382431030e-01,1.170825511217117310e-01,-6.707672029733657837e-02,-1.893487013876438141e-02,1.754514575004577637e-01,1.192882284522056580e-01,2.885851310566067696e-03,-1.570756286382675171e-01,-6.088299304246902466e-02,1.342388242483139038e-01,-9.561215341091156006e-02,1.595064997673034668e-01,-3.673948813229799271e-03,1.378499716520309448e-01,3.376428782939910889e-02,-1.372049897909164429e-01,8.244257420301437378e-02,8.983088284730911255e-02,9.377901256084442139e-02,-1.513384561985731125e-02,-4.234146326780319214e-02,8.041000925004482269e-03,-5.541624967008829117e-03,8.393961936235427856e-02,-1.477835029363632202e-01,8.851329982280731201e-02,1.741914004087448120e-01,6.068218965083360672e-03,5.938058719038963318e-02,1.219681724905967712e-01,-2.072909101843833923e-02,-7.750508934259414673e-02,-5.170116946101188660e-02,-1.307580024003982544e-01,-2.366945380344986916e-03,1.015589460730552673e-01,-9.286183863878250122e-02,2.774800360202789307e-02,7.947774603962898254e-03,-6.162535026669502258e-02,8.233398944139480591e-02,-1.494661420583724976e-01,-1.484435703605413437e-02,-9.702810645103454590e-02,-7.907685637474060059e-02,-9.135152213275432587e-03,-6.715954095125198364e-02,6.878159474581480026e-03,1.570194810628890991e-01,2.725067734718322754e-02,2.939257537946105003e-03,-6.628055870532989502e-02,1.471363157033920288e-01,-2.474200446158647537e-03,-7.572746276855468750e-02,-1.790935732424259186e-02
-4.616130888462066650e-02,-8.253412693738937378e-02,5.531999468803405762e-02,3.332683816552162170e-02,2.547607757151126862e-02,-1.717953234910964966e-01,-2.892793528735637665e-02,-1.279283612966537476e-01,-5.567204579710960388e-02,-9.416987746953964233e-02,7.584612071514129639e-02,3.708768635988235474e-02,1.087824106216430664e-01,5.795834586024284363e-02,-1.033783480525016785e-01,-1.485568732023239136e-01,-9.730648994445800781e-02,-4.838190972805023193e-02,-1.019429229199886322e-02,-3.979501128196716309e-02,4.836387932300567627e-02,5.089182406663894653e-02,1.284216623753309250e-02,-4.328190162777900696e-02,-6.289967149496078491e-02,-2.474374137818813324e-02,1.727137528359889984e-02,-1.078796163201332092e-01,2.490997128188610077e-02,-4.206288233399391174e-02,4.804240539669990540e-02,-8.374697715044021606e-02,5.762263201177120209e-03,3.862732276320457458e-02,1.378343105316162109e-01,1.990585178136825562e-01,-9.289319813251495361e-02,-2.606729231774806976e-02,-8.029865473508834839e-02,5.084563046693801880e-02,4.829046130180358887e-02,1.559665650129318237e-01,-6.068743020296096802e-02,9.878464788198471069e-02,-7.806470245122909546e-02,6.136306002736091614e-02,-6.164271384477615356e-02,-4.786455631256103516e-02,-3.938862308859825134e-02,-1.164104230701923370e-02,1.662038266658782959e-02,-7.462865859270095825e-02,-3.420717641711235046e-02,1.330490559339523315e-01,-5.776906758546829224e-02,-3.960570693016052246e-02,9.733293205499649048e-02,1.355879157781600952e-01,5.670571327209472656e-02,-3.743939846754074097e-02,1.353510320186614990e-01,-6.818310916423797607e-02,-7.146237045526504517e-02,4.244204983115196228e-02,1.650411635637283325e-01,-9.616038948297500610e-02,5.934371426701545715e-02,6.235280632972717285e-02,-1.001789495348930359e-01,8.177811279892921448e-03,-1.483671274036169052e-02,2.038872055709362030e-02,8.836688846349716187e-02,3.728960081934928894e-02,2.363388612866401672e-02,-1.457369234412908554e-02,1.019739881157875061e-01,-2.834543958306312561e-02,-7.831128686666488647e-02,-4.127032682299613953e-02,-2.517390623688697815e-02,1.844909973442554474e-02,-1.239172834903001785e-02,1.345307976007461548e-01,-3.913700114935636520e-03,6.024394556879997253e-02,6.403712183237075806e-02,3.132092207670211792e-02,-6.697704643011093140e-02,-1.659995615482330322e-01,-1.493294239044189453e-01,-1.586530357599258423e-01,4.622272774577140808e-02,-1.223661825060844421e-01,-9.559506922960281372e-02,-1.152294650673866272e-01,4.670194908976554871e-02,-7.250224053859710693e-02,8.132318407297134399e-02,-2.249662764370441437e-02,1.585198640823364258e-01,4.043893888592720032e-02,1.911427527666091919e-01,-2.787536382675170898e-02,-2.838193811476230621e-02,1.159442290663719177e-01,-6.457632035017013550e-02,-5.332700163125991821e-02,-1.229452267289161682e-01,-3.252350538969039917e-02,-8.254147320985794067e-02,-8.764009922742843628e-02,-1.040214896202087402e-01,-9.931901097297668457e-02,5.332675203680992126e-02,4.050902277231216431e-02,8.889585733413696289e-02,8.840648084878921509e-02,-5.231188610196113586e-02,-1.777654141187667847e-01,-1.083672866225242615e-01,5.310344509780406952e-03,3.847035393118858337e-02,-3.950310871005058289e-02,6.157520692795515060e-03,-8.895356208086013794e-02,-9.935431182384490967e-02,9.766211360692977905e-02,1.713909767568111420e-02,-1.765096932649612427e-02,2.336104214191436768e-02,5.292267724871635437e-02,6.962702423334121704e-02,-4.858666658401489258e-02,1.537644714117050171e-01,-1.204725267598405480e-04,-1.038175970315933228e-01,-6.872846931219100952e-02,4.323438182473182678e-02,-7.059151679277420044e-02,-2.596911601722240448e-02,-1.046265959739685059e-01,4.690378159284591675e-02,1.997352950274944305e-02,-8.385603874921798706e-02,-1.224338635802268982e-01,-1.228936761617660522e-02,1.242408305406570435e-01,1.292444616556167603e-01,1.986015588045120239e-02,2.016067318618297577e-02,-1.116302236914634705e-01,-1.820989102125167847e-01,-1.323670297861099243e-01,5.819061025977134705e-02,3.317879140377044678e-02,-8.228565752506256104e-02,8.891295641660690308e-02,1.557352580130100250e-02,-1.452268566936254501e-02,8.854586631059646606e-02,-3.304680809378623962e-02,1.033387407660484314e-01,-1.086653023958206177e-01,6.719869375228881836e-02,3.027927875518798828e-02,-2.528885938227176666e-02,-1.100561954081058502e-02,6.734286248683929443e-02,1.118622645735740662e-01,6.893955916166305542e-02,7.569982111454010010e-02,8.639764040708541870e-02,-8.647739142179489136e-02,7.180627435445785522e-02,-3.566838055849075317e-02,-5.751430988311767578e-02,-2.085513621568679810e-02,1.035890821367502213e-02,-5.353567004203796387e-02,8.581423014402389526e-02,1.266283243894577026e-01,4.162195324897766113e-02,1.451889723539352417e-01,-4.427595436573028564e-02,1.135778576135635376e-01,1.411488950252532959e-01,5.434163287281990051e-02,-7.115455716848373413e-02,-5.358803551644086838e-03,1.203835709020495415e-03,-1.876730658113956451e-02,1.323329657316207886e-01,-1.428952664136886597e-01,-5.960292369127273560e-02,-8.414127677679061890e-02,4.519324377179145813e-02,7.281014323234558105e-02,-8.287703245878219604e-02,-2.938626101240515709e-03,-5.980524048209190369e-02,-7.416973356157541275e-03,4.134416207671165466e-02,-6.929980218410491943e-02,2.572285570204257965e-02,-7.001642882823944092e-02,1.165093332529067993e-01,-1.248812489211559296e-02,8.027954399585723877e-02,1.505397260189056396e-02,-1.461022254079580307e-02,-9.763239324092864990e-02,2.048981608822941780e-03,1.424530148506164551e-01,3.491302579641342163e-02,5.909517034888267517e-02,1.856043748557567596e-02,-8.414782583713531494e-02,4.998773708939552307e-02,9.008539468050003052e-02,-1.459078788757324219e-01,2.455345354974269867e-02,-6.595423072576522827e-02,5.820701271295547485e-02,2.918640384450554848e-03,-2.985050715506076813e-02,-2.910831384360790253e-02,3.836654871702194214e-02,4.048898443579673767e-02,1.712377518415451050e-01,1.164450030773878098e-02,-1.096195504069328308e-01,-1.370322611182928085e-02,9.155547618865966797e-02,-9.667444974184036255e-02,-7.133338600397109985e-02,-7.954081147909164429e-02,8.845448493957519531e-02,-7.976009696722030640e-02,3.746020048856735229e-02,5.422501824796199799e-03,8.131676912307739258e-02,1.057277917861938477e-01,3.477277979254722595e-02,-9.412435442209243774e-02,1.219313144683837891e-01,-6.610895693302154541e-02,-6.158119067549705505e-02,9.468486160039901733e-02,-1.605648845434188843e-01,1.010907292366027832e-01,-6.014677509665489197e-02,1.596267707645893097e-02,6.181065365672111511e-02,1.099582239985466003e-01,-1.906532347202301025e-01,1.033919006586074829e-01,-7.692667841911315918e-02,1.889179646968841553e-01,-7.589211314916610718e-02,-9.057059139013290405e-02,3.668437898159027100e-02,1.612423174083232880e-02,1.385307163000106812e-01,1.061899028718471527e-02,-4.860790446400642395e-02,-6.537648290395736694e-02,1.784747242927551270e-01,-4.236605949699878693e-03,6.826677173376083374e-02,5.543676018714904785e-02,5.855515599250793457e-03,-1.246448904275894165e-01,-1.006081933155655861e-03,-3.093620575964450836e-02,1.764081716537475586e-01,-1.250280626118183136e-02,1.237729564309120178e-01,1.927471160888671875e-01,1.800241172313690186e-01,-1.150794848799705505e-01,1.347927898168563843e-01,-5.610523745417594910e-02,-8.399150520563125610e-02,-1.345471292734146118e-01,-1.168349198997020721e-02,6.148461252450942993e-02,7.574114948511123657e-02,1.080966144800186157e-01,1.023932844400405884e-01,-8.999782055616378784e-02,1.065545082092285156e-01,1.373675912618637085e-01,-3.161900117993354797e-02,7.427685707807540894e-02,-3.380683064460754395e-02,8.627115748822689056e-03,1.090692821890115738e-02,-1.911672800779342651e-01,-1.149176955223083496e-01,1.360562443733215332e-01,-1.913054436445236206e-01,1.398001760244369507e-01,-1.314437836408615112e-01,-2.546291425824165344e-02,-4.343069717288017273e-02,1.235577017068862915e-01,3.056138753890991211e-02,1.238871142268180847e-01,-8.230521529912948608e-02,-4.604252427816390991e-02,7.916792482137680054e-02,-3.404919430613517761e-02,-1.974703185260295868e-02,-6.004735827445983887e-02,-9.609235078096389771e-02,1.313992440700531006e-01,-9.812702238559722900e-02,-2.836054377257823944e-02,-1.714298725128173828e-01,-5.717823654413223267e-02,-4.472510889172554016e-03,-1.201991066336631775e-01,3.065237402915954590e-02,-8.934693038463592529e-02,1.884227842092514038e-01,-4.423538967967033386e-02,4.741199687123298645e-02,-1.535135805606842041e-01,6.316453963518142700e-02,-1.070704869925975800e-02,-2.341329865157604218e-02,6.725183874368667603e-02,1.002638973295688629e-02,-8.667773008346557617e-02,-7.078417390584945679e-02,9.604109823703765869e-02,8.422341197729110718e-02,-4.247732460498809814e-03,3.212244436144828796e-02,1.157832797616720200e-02,1.391526460647583008e-01,1.313059031963348389e-01,1.143332477658987045e-02,-1.396066695451736450e-02,-3.459657356142997742e-02,-4.692200198769569397e-02,1.009502932429313660e-01,1.651397198438644409e-01,-5.015082191675901413e-03,7.367053534835577011e-03,1.729244738817214966e-01,1.848854422569274902e-01,-3.466043248772621155e-02,-7.657870650291442871e-02,-4.708754271268844604e-02,-3.513731807470321655e-02,9.359470009803771973e-02,1.354207843542098999e-01,1.169771049171686172e-02,-8.228415995836257935e-02,-6.721035391092300415e-02,8.233170211315155029e-02,-6.793370097875595093e-02,1.252106726169586182e-01,-1.197709441184997559e-01,1.579029858112335205e-01,3.103267587721347809e-02,7.681184262037277222e-02,3.137831389904022217e-02,1.579817980527877808e-01,1.295879781246185303e-01,9.245208464562892914e-03,-1.520620584487915039e-01,-1.417928487062454224e-01,1.344901025295257568e-01,-4.970691725611686707e-02,-8.601494878530502319e-02,5.605272576212882996e-02,-5.975723266601562500e-02,-3.182459622621536255e-02,-1.534211635589599609e-02,-1.740731112658977509e-02,-5.306797847151756287e-02,-3.929486498236656189e-02,1.057224199175834656e-01,-8.041433244943618774e-02,3.808003291487693787e-02,-5.305314809083938599e-02,7.024320960044860840e-02,6.900206208229064941e-02,3.863477334380149841e-02,-6.677934527397155762e-02,6.015333160758018494e-02,-1.509492248296737671e-01,-6.054191663861274719e-02,-5.463340878486633301e-02,-7.993490248918533325e-02,-7.881426066160202026e-02,7.721022516489028931e-02,-1.404953896999359131e-01,3.873989358544349670e-02,-1.107434183359146118e-01,1.874553114175796509e-01,-4.258155822753906250e-02,-1.096479818224906921e-01,-4.298891872167587280e-02,-1.158697754144668579e-01,-7.915834896266460419e-03,5.781337246298789978e-02,8.440373837947845459e-02,2.144981734454631805e-02,8.574086427688598633e-02,-1.147447433322668076e-02,-1.387760490179061890e-01,-3.076845547184348106e-03,1.524042189121246338e-01,1.632754504680633545e-01,2.175418846309185028e-02,4.034787416458129883e-02,1.079381331801414490e-01,5.665035918354988098e-02,1.517553627490997314e-01,-7.026296108961105347e-02,1.350258588790893555e-01,4.204442724585533142e-02,-1.115353628993034363e-01,-9.365388751029968262e-02,2.247889526188373566e-02,1.119585633277893066e-01,5.023719742894172668e-02,4.010905325412750244e-02,-1.417897641658782959e-01,1.926891319453716278e-02,-3.474831581115722656e-02,6.988967955112457275e-02,1.064203158020973206e-01,3.387252986431121826e-02,-1.169147621840238571e-02,-1.231034770607948303e-01,-9.116756170988082886e-02,3.972880169749259949e-02,-5.417170003056526184e-02,-9.033302217721939087e-02,-1.139932498335838318e-01,8.206481486558914185e-02,5.883039161562919617e-02,5.261109396815299988e-02,2.613098919391632080e-02,1.014901399612426758e-01,1.681610643863677979e-01,4.855519160628318787e-02,3.720995411276817322e-02,4.266988858580589294e-02,-9.815336763858795166e-02,8.820143528282642365e-03,1.353496164083480835e-01,1.012800335884094238e-01,4.579891450703144073e-03,-2.276301383972167969e-02,-1.749558933079242706e-02,8.378497324883937836e-03,-1.374194025993347168e-02,4.260125569999217987e-03,-1.631614565849304199e-01,-3.055283986032009125e-02,2.865434065461158752e-02,1.203843951225280762e-01,1.177757531404495239e-01,1.009650751948356628e-01,-3.261747583746910095e-02,4.284162819385528564e-02,-9.902562946081161499e-02,-2.688441053032875061e-02,-8.698665350675582886e-02,1.304928958415985107e-01,3.247245913371443748e-03,-1.223913207650184631e-02,-5.003822967410087585e-02,-1.640815138816833496e-01,-5.152369849383831024e-03,-8.727381378412246704e-02,1.441923826932907104e-01,1.332221478223800659e-01,8.366519957780838013e-02,-4.011313617229461670e-02,-2.642824314534664154e-02,-8.028036914765834808e-03,-1.180479303002357483e-01,1.777485907077789307e-01,4.870517924427986145e-02,-7.816978543996810913e-02,1.846845895051956177e-01,1.429428309202194214e-01,-1.449178010225296021e-01,9.402557462453842163e-02,-4.331632703542709351e-02,-3.803664073348045349e-02,-1.407101750373840332e-01,-1.320518106222152710e-01,-1.259677857160568237e-01,3.793637081980705261e-02,-7.108334451913833618e-02,-1.425013393163681030e-01,1.473567485809326172e-01,1.118571907281875610e-01,-1.290147453546524048e-01,6.751654203981161118e-03,5.611148476600646973e-02,-1.491810232400894165e-01,8.898058877093717456e-05,-8.899478614330291748e-02
2.538328804075717926e-02,-9.069564938545227051e-02,-6.202315911650657654e-03,-5.493632983416318893e-03,-1.478438973426818848e-01,-2.135053649544715881e-02,1.136348843574523926e-01,-1.187450159341096878e-02,7.576240599155426025e-02,8.224807679653167725e-02,4.712957143783569336e-02,-2.836341969668865204e-02,-4.034112766385078430e-02,6.954561686143279076e-04,1.559591591358184814e-01,-3.074870072305202484e-02,-1.164236664772033691e-01,-6.201877072453498840e-02,4.690534994006156921e-02,-6.127478554844856262e-02,7.491318881511688232e-02,2.730390522629022598e-03,1.752098351716995239e-01,-1.980684883892536163e-02,1.445095986127853394e-01,-1.018770113587379456e-01,-4.078293964266777039e-02,1.054084524512290955e-01,7.621327042579650879e-02,-6.549241393804550171e-02,-2.791164629161357880e-02,1.030951514840126038e-01,-2.666586451232433319e-02,2.414659969508647919e-02,1.417953427881002426e-02,1.893037557601928711e-02,3.590470924973487854e-02,-1.450396627187728882e-01,1.712628453969955444e-01,1.169895082712173462e-01,1.143738776445388794e-01,6.176713388413190842e-03,-2.877371944487094879e-02,-8.059603720903396606e-02,9.257053583860397339e-02,-1.254005581140518188e-01,-1.070152297616004944e-01,-5.343682598322629929e-03,-7.055443525314331055e-02,-7.805595546960830688e-02,-3.796821087598800659e-02,-4.408496245741844177e-02,-1.453220099210739136e-01,-2.099433541297912598e-02,5.393635109066963196e-02,-2.722616307437419891e-02,-4.693703353404998779e-02,5.871246382594108582e-02,8.988404273986816406e-02,2.927750162780284882e-02,-2.654767036437988281e-02,-1.205325499176979065e-01,1.543240398168563843e-01,-1.586486697196960449e-01,-8.959022164344787598e-02,-7.276131957769393921e-02,5.756761506199836731e-02,6.284412741661071777e-02,1.902841776609420776e-01,-1.997573859989643097e-02,-2.605947852134704590e-02,9.663838148117065430e-02,2.282493188977241516e-02,1.081081293523311615e-02,3.648487105965614319e-02,-1.538391560316085815e-01,-5.685219168663024902e-02,1.130884215235710144e-01,-1.734686791896820068e-01,8.469302952289581299e-02,1.229612231254577637e-01,-1.328190416097640991e-01,8.634993433952331543e-02,-1.126765236258506775e-01,-1.506270933896303177e-02,1.151225343346595764e-02,-2.243182249367237091e-02,1.246881857514381409e-01,2.336591295897960663e-02,1.741321682929992676e-01,-1.050289273262023926e-01,4.561882466077804565e-02,8.613915741443634033e-02,7.403943687677383423e-02,1.150016114115715027e-01,-9.909085184335708618e-02,-1.419573426246643066e-01,-9.685204178094863892e-02,1.074156686663627625e-01,2.101106010377407074e-02,1.713099926710128784e-01,-1.956584453582763672e-01,-1.572829671204090118e-02,-1.197966113686561584e-01,9.533518925309181213e-03,7.277465611696243286e-02,4.657755140215158463e-03,-1.919152587652206421e-02,-1.073872670531272888e-01,1.094343885779380798e-01,-1.291443556547164917e-01,-6.975761801004409790e-02,1.383833289146423340e-01,6.091003492474555969e-02,-9.713489562273025513e-02,1.135326828807592392e-02,-1.338863074779510498e-01,-2.404279075562953949e-02,9.968082606792449951e-02,-9.836855530738830566e-02,-1.082444116473197937e-01,1.594659686088562012e-01,-1.246905699372291565e-01,2.504650130867958069e-02,-1.932761967182159424e-01,-8.834495395421981812e-02,1.083873212337493896e-02,5.414105206727981567e-02,1.213228236883878708e-02,6.157401949167251587e-02,6.696930527687072754e-02,6.594704836606979370e-02,1.792021989822387695e-01,-3.186522226314991713e-04,6.043372675776481628e-02,1.147635728120803833e-01,7.357778400182723999e-02,1.089920178055763245e-01,2.015402168035507202e-02,1.126187592744827271e-01,-1.413085460662841797e-01,-1.295090615749359131e-01,-1.020662672817707062e-02,-6.912650167942047119e-02,-8.201649039983749390e-02,-1.488414853811264038e-01,6.977536529302597046e-02,5.025389790534973145e-02,-8.357354253530502319e-02,-9.307741373777389526e-02,-9.803732484579086304e-02,-1.802640855312347412e-01,1.715453574433922768e-03,-4.061907157301902771e-02,2.831685123965144157e-03,2.307119779288768768e-02,4.207856580615043640e-02,3.697324916720390320e-02,7.111184298992156982e-02,-1.461758464574813843e-01,2.801314555108547211e-02,-3.232682868838310242e-02,1.837900131940841675e-01,-1.556105762720108032e-01,-6.273960322141647339e-02,-1.628668159246444702e-01,-7.995771616697311401e-02,-9.005954861640930176e-02,1.141612753272056580e-01,-1.074308902025222778e-01,-1.570054292678833008e-01,-1.115058287978172302e-01,-8.469446562230587006e-03,8.878811448812484741e-02,-1.425135433673858643e-01,-6.820807605981826782e-02,4.188393428921699524e-02,-2.525947056710720062e-02,-5.695913359522819519e-02,1.189368497580289841e-02,3.594654379412531853e-03,-1.288694143295288086e-01,9.133236110210418701e-02,7.385342568159103394e-02,3.722211113199591637e-03,-9.223775006830692291e-03,-2.821225486695766449e-02,3.622012957930564880e-02,4.360974580049514771e-02,2.346022753044962883e-03,-2.689877711236476898e-02,9.662910364568233490e-03,-1.031737253069877625e-01,-8.086889982223510742e-02,1.099308859556913376e-02,-1.151159033179283142e-01,-1.656308621168136597e-01,-6.578082591295242310e-02,2.738663367927074432e-02,1.041534170508384705e-02,-9.834115207195281982e-02,2.836507931351661682e-02,7.062107324600219727e-02,3.833992779254913330e-02,-3.201418742537498474e-02,2.703416161239147186e-02,-1.896310481242835522e-03,4.217497631907463074e-02,1.907958276569843292e-02,-1.945358887314796448e-02,8.143457025289535522e-02,5.437596514821052551e-02,-1.213182210922241211e-01,-9.839922934770584106e-02,1.908469572663307190e-02,-1.198288425803184509e-01,2.048068307340145111e-02,5.040180310606956482e-02,8.120851963758468628e-02,1.154336333274841309e-02,-8.335794508457183838e-02,-6.777033954858779907e-02,7.459241896867752075e-02,1.143312677741050720e-01,4.282662644982337952e-03,-1.184140890836715698e-02,2.419132180511951447e-02,5.083633121103048325e-03,-5.709768459200859070e-02,-6.958244740962982178e-02,-3.090953826904296875e-02,-1.800821870565414429e-01,5.195573717355728149e-02,-3.596609458327293396e-02,-1.198930479586124420e-02,-1.130515709519386292e-01,9.304463118314743042e-02,-1.843602024018764496e-02,-4.257462918758392334e-02,-1.180312633514404297e-01,4.881418496370315552e-02,-4.634289070963859558e-03,9.178142994642257690e-02,-1.428904384374618530e-01,8.337792009115219116e-02,-1.184638515114784241e-01,4.569708183407783508e-02,5.590007454156875610e-02,8.129494637250900269e-02,1.892651617527008057e-02,1.582821905612945557e-01,2.309546619653701782e-02,1.500308662652969360e-01,5.384611710906028748e-02,8.407896757125854492e-02,8.571799844503402710e-02,-9.111807495355606079e-02,-1.769101470708847046e-01,-1.251236498355865479e-01,-1.400028318166732788e-01,-7.450117170810699463e-02,-1.508026104420423508e-02,-3.979782015085220337e-02,1.737305521965026855e-01,-7.052963972091674805e-02,-1.700046705082058907e-03,-1.602446883916854858e-01,7.991486042737960815e-02,1.004837173968553543e-02,1.041594892740249634e-01,8.610647916793823242e-02,-1.058394461870193481e-01,-1.733541302382946014e-02,-2.920512855052947998e-02,2.236239984631538391e-02,1.676884293556213379e-02,-3.503483894746750593e-04,5.008437205106019974e-03,-6.704469025135040283e-02,1.308996975421905518e-01,-4.124065488576889038e-02,-5.092811211943626404e-02,-1.611888222396373749e-02,-2.943083643913269043e-02,3.501149639487266541e-02,-6.978624314069747925e-02,-3.437232598662376404e-02,-7.368060201406478882e-02,2.168436162173748016e-02,-1.398367583751678467e-01,-3.104678727686405182e-02,8.005005307495594025e-03,5.209708213806152344e-02,-1.319078952074050903e-01,-1.073632389307022095e-01,-1.456254422664642334e-01,6.946321576833724976e-02,-1.400985848158597946e-02,-3.528434410691261292e-02,-4.762320965528488159e-02,-5.258757993578910828e-02,2.639151923358440399e-02,-5.173438787460327148e-02,1.036009937524795532e-01,-1.245325133204460144e-01,2.452078275382518768e-02,-1.045686826109886169e-01,-6.689845118671655655e-03,-8.862223476171493530e-02,1.781377643346786499e-01,-6.845577806234359741e-02,6.415480375289916992e-02,5.932397767901420593e-02,1.195097714662551880e-01,3.152195736765861511e-02,-1.194630786776542664e-01,-4.705530032515525818e-02,-4.876309633255004883e-02,1.218686029314994812e-01,-5.002027377486228943e-02,2.928985469043254852e-02,1.394523531198501587e-01,-5.125189572572708130e-02,4.871354624629020691e-02,9.515794366598129272e-02,2.473780326545238495e-02,-4.541670158505439758e-02,-2.632469497621059418e-02,1.616759896278381348e-01,-9.693416208028793335e-02,-1.362472921609878540e-01,-1.121655702590942383e-01,5.685494467616081238e-02,4.156752023845911026e-03,-1.588057726621627808e-01,-1.209796890616416931e-01,1.972015202045440674e-01,7.695203274488449097e-02,-5.255328491330146790e-02,-2.146130427718162537e-02,-7.571829855442047119e-02,7.410704344511032104e-02,-8.532977104187011719e-02,2.561582066118717194e-02,-3.089830093085765839e-02,-3.245194256305694580e-02,-1.951996609568595886e-02,6.214938312768936157e-02,3.184795007109642029e-02,-6.676586717367172241e-02,-2.439499087631702423e-02,-2.663690783083438873e-02,-1.096590384840965271e-01,-1.497175842523574829e-01,-2.265514992177486420e-02,-1.084245592355728149e-01,2.632500790059566498e-02,-2.443352481350302696e-03,-1.824798807501792908e-02,-5.997437238693237305e-02,-3.700591623783111572e-02,7.040001451969146729e-02,-1.827575415372848511e-01,-7.253160327672958374e-02,7.073096185922622681e-02,1.734317839145660400e-02,4.390839859843254089e-02,4.792054742574691772e-02,1.763748973608016968e-01,-1.848970502614974976e-01,-1.131732836365699768e-01,3.808262944221496582e-02,3.930759429931640625e-02,-5.015033110976219177e-02,6.069070845842361450e-02,-5.372208356857299805e-02,4.153211414813995361e-02,-9.292908757925033569e-02,-1.951790414750576019e-02,-1.943214088678359985e-01,4.451469331979751587e-02,-2.211234346032142639e-02,-4.209597408771514893e-02,-2.609290555119514465e-02,-8.626328408718109131e-02,-4.904984310269355774e-02,1.734338700771331787e-01,-1.338333934545516968e-01,-5.466086417436599731e-02,1.749644428491592407e-02,-8.969891071319580078e-02,-1.508841849863529205e-02,6.945791840553283691e-02,-1.131205186247825623e-01,-9.258594363927841187e-02,8.062370866537094116e-02,-1.103754341602325439e-02,7.912857830524444580e-02,-1.945810578763484955e-02,1.467707604169845581e-01,6.913974136114120483e-02,-2.009771764278411865e-02,-3.098041191697120667e-02,2.035795152187347412e-02,1.456466168165206909e-01,4.957818612456321716e-02,-2.521755173802375793e-02,7.801800966262817383e-02,-8.825533837080001831e-02,5.972666665911674500e-02,-1.515032947063446045e-01,-1.075411215424537659e-01,5.214529111981391907e-02,5.795824155211448669e-02,4.392997547984123230e-02,-1.414682865142822266e-01,-1.297848522663116455e-01,-8.817930519580841064e-02,1.804862730205059052e-02,1.664033383131027222e-01,-1.918588727712631226e-01,-9.372259676456451416e-02,-1.183650270104408264e-01,-1.490315794944763184e-02,-3.771285712718963623e-02,1.184480935335159302e-01,7.194932550191879272e-02,1.404842138290405273e-01,6.651517748832702637e-02,1.232117507606744766e-02,-5.976812168955802917e-02,2.568599954247474670e-02,-1.906225457787513733e-02,-5.692633986473083496e-02,-8.769662678241729736e-02,-1.067388989031314850e-02,1.277617365121841431e-01,8.991783484816551208e-03,4.137650504708290100e-02,1.027435660362243652e-01,1.324066370725631714e-01,1.258753091096878052e-01,-1.423334181308746338e-01,-7.341001182794570923e-02,6.727617979049682617e-02,1.763062030076980591e-01,-3.639513999223709106e-02,4.099996760487556458e-02,-5.588794872164726257e-02,9.787006676197052002e-02,1.088524088263511658e-01,1.613799333572387695e-01,1.162514314055442810e-01,-6.516061723232269287e-02,-9.337993711233139038e-02,2.910087071359157562e-02,8.591320365667343140e-02,2.081265673041343689e-02,-6.008808687329292297e-02,-1.551709920167922974e-01,-5.137771368026733398e-02,7.915367931127548218e-02,1.361213042400777340e-03,1.716703027486801147e-01,-1.341692544519901276e-02,9.918184578418731689e-02,-4.419022426009178162e-02,-6.407089531421661377e-02,1.363610923290252686e-01,-6.461278349161148071e-02,-6.517412513494491577e-02,-1.424345821142196655e-01,6.183885410428047180e-02,1.367061119526624680e-02,1.134799346327781677e-01,-2.106877975165843964e-02,1.593472212553024292e-01,-8.577855676412582397e-02,-1.548042148351669312e-01,9.933291375637054443e-02,5.585733801126480103e-03,1.212762370705604553e-01,-1.000643968582153320e-01,5.723034963011741638e-02,8.299345523118972778e-02,1.070893555879592896e-01,-3.165820613503456116e-03,-1.360521186143159866e-02,3.001480735838413239e-02,-3.332197293639183044e-02,-9.155090898275375366e-02,9.119543433189392090e-02,-1.558890193700790405e-01,2.771382406353950500e-02,-9.175583720207214355e-02,6.266688462346792221e-03,-5.783525854349136353e-02,-5.787477642297744751e-02,-9.173118323087692261e-02,-9.784449636936187744e-02,1.085635647177696228e-01,-6.396640092134475708e-02,1.284819692373275757e-01,5.060547590255737305e-02,8.601140230894088745e-02,-2.965082786977291107e-02,4.753803089261054993e-02,-8.292560279369354248e-02,7.570393383502960205e-02,-6.606727093458175659e-02,1.178539171814918518e-01,-9.281712025403976440e-02
