4.594363272190093994e-02,5.920277908444404602e-02
-1.292069852352142334e-01,-1.496994961053133011e-02
5.002203583717346191e-02,4.911571741104125977e-02
-5.471273884177207947e-02,-5.768173560500144958e-02
7.734404411166906357e-03,-1.011019572615623474e-01
-5.817669257521629333e-02,4.664055537432432175e-03
1.016953587532043457e-01,9.065750241279602051e-02
-1.053886413574218750e-01,-1.853206306695938110e-01
1.467640250921249390e-01,-7.236173003911972046e-02
7.192555814981460571e-02,-9.658496826887130737e-02
3.569370135664939880e-02,-1.237139254808425903e-01
7.360709458589553833e-02,-1.948789656162261963e-01
1.458452641963958740e-02,-1.400729715824127197e-01
1.022669449448585510e-01,3.082698676735162735e-03
4.245461151003837585e-02,-3.330724686384201050e-02
-1.131587848067283630e-01,-4.421613737940788269e-02
7.666096091270446777e-02,-5.921834334731101990e-02
-1.033663153648376465e-01,9.595047682523727417e-02
-1.644223928451538086e-01,-1.192592754960060120e-01
1.134502813220024109e-01,1.220224052667617798e-01
9.535222500562667847e-02,3.011646308004856110e-02
3.060007095336914062e-02,7.658412307500839233e-02
7.330007851123809814e-02,7.622272521257400513e-02
-4.668510053306818008e-03,1.369746178388595581e-01
-9.703912585973739624e-02,-7.909560948610305786e-02
-1.928253024816513062e-01,9.208445996046066284e-02
2.691633813083171844e-02,1.444802619516849518e-02
-1.013872772455215454e-01,2.977439202368259430e-02
1.257283538579940796e-01,-6.281680613756179810e-02
1.552793830633163452e-01,1.728364825248718262e-01
-8.056538552045822144e-02,-1.925699263811111450e-01
1.013078093528747559e-01,-5.696895346045494080e-02
6.038066744804382324e-02,1.120636090636253357e-01
-8.225671201944351196e-02,1.284371465444564819e-01
8.550392836332321167e-02,-4.744861274957656860e-02
-8.651836216449737549e-02,1.330150514841079712e-01
2.399986796081066132e-02,1.219549179077148438e-01
5.241369828581809998e-02,1.871071197092533112e-02
2.302853390574455261e-02,6.537101417779922485e-02
8.992870897054672241e-02,1.771007850766181946e-02
1.745704002678394318e-02,-1.187499985098838806e-01
-3.569580242037773132e-02,-4.272799566388130188e-02
1.309946179389953613e-01,1.708671301603317261e-01
-3.404994308948516846e-02,-2.679642289876937866e-03
8.075460046529769897e-02,-7.441689074039459229e-02
-7.314340025186538696e-02,-6.694240868091583252e-02
-7.583919912576675415e-02,-6.218221411108970642e-02
-6.494342535734176636e-02,5.118247866630554199e-02
-3.820028528571128845e-02,-5.453714728355407715e-02
-5.183735489845275879e-02,-5.249173566699028015e-02
1.218615397810935974e-01,-9.566559642553329468e-02
7.230175286531448364e-02,2.329159155488014221e-02
1.240596408024430275e-03,-1.338846888393163681e-02
-1.430557388812303543e-02,-5.670248996466398239e-03
-1.677040308713912964e-01,-7.615870982408523560e-02
4.553675279021263123e-02,-1.559283733367919922e-01
-1.564010083675384521e-01,-1.046078801155090332e-01
-4.941655322909355164e-02,1.381649076938629150e-01
1.163639649748802185e-01,6.008792552165687084e-04
2.010177448391914368e-02,-3.612901270389556885e-02
3.498150035738945007e-02,8.825244754552841187e-02
1.347020734101533890e-02,-4.117136821150779724e-02
-2.658440545201301575e-02,2.338069863617420197e-02
-1.663183048367500305e-02,-1.334586180746555328e-02
-1.765141934156417847e-01,5.355260521173477173e-02
-6.300877779722213745e-02,1.502201408147811890e-01
7.673619687557220459e-02,6.013551354408264160e-02
-7.090882956981658936e-02,4.360402747988700867e-02
-1.578579396009445190e-01,-4.391516372561454773e-02
1.256809085607528687e-01,5.046760663390159607e-02
-1.880895197391510010e-01,1.043490916490554810e-01
-5.253323540091514587e-02,6.153219938278198242e-02
1.279737520962953568e-02,1.072977408766746521e-01
3.844961151480674744e-02,-1.038348227739334106e-01
-3.208569809794425964e-02,2.521041966974735260e-02
3.754534944891929626e-02,-5.178790166974067688e-02
2.082226984202861786e-02,-5.050034075975418091e-02
-7.161500398069620132e-03,2.003198489546775818e-02
-1.000588852912187576e-02,6.830662488937377930e-02
-9.316969662904739380e-02,-8.565203845500946045e-02
-3.653239831328392029e-02,-7.456978410482406616e-02
-1.418480928987264633e-02,-8.164962381124496460e-02
1.739767640829086304e-01,1.921772807836532593e-01
2.242019400000572205e-04,-8.384447544813156128e-02
-8.906321227550506592e-02,1.109342500567436218e-01
-7.388718426227569580e-02,4.972028359770774841e-02
-6.784339994192123413e-02,-8.251243084669113159e-02
-2.642916701734066010e-02,1.233068928122520447e-01
3.855447983369231224e-03,-8.091898262500762939e-02
-1.534149050712585449e-01,2.735545672476291656e-02
-7.798504084348678589e-02,1.565492749214172363e-01
1.648863554000854492e-01,-4.921985045075416565e-02
-3.876828774809837341e-02,5.559734255075454712e-02
-2.768866531550884247e-02,6.420021504163742065e-02
1.025812253355979919e-01,-1.761604659259319305e-02
7.126500457525253296e-02,8.376344293355941772e-02
-2.988176187500357628e-03,-4.448374360799789429e-02
2.693518437445163727e-02,-1.784075349569320679e-01
2.876783721148967743e-02,1.053412556648254395e-01
4.149758256971836090e-03,-2.785247936844825745e-02
1.759438514709472656e-01,1.060458347201347351e-01
9.594550728797912598e-02,1.084275394678115845e-01
-1.043850705027580261e-01,-7.051023188978433609e-03
-8.135601878166198730e-02,-1.549187581986188889e-02
8.864716440439224243e-02,2.866728603839874268e-02
6.014483049511909485e-02,-3.651078790426254272e-02
1.231583878397941589e-01,-5.391637608408927917e-02
8.283535949885845184e-03,-4.540050867944955826e-03
-8.751621097326278687e-02,1.491150557994842529e-01
-9.925815276801586151e-03,-5.625513195991516113e-02
-1.488469075411558151e-02,1.133217960596084595e-01
1.682784110307693481e-01,-5.369242653250694275e-02
-4.436124488711357117e-02,2.217474021017551422e-02
1.276395171880722046e-01,-1.331318169832229614e-02
1.688931733369827271e-01,5.342620238661766052e-02
-1.850634068250656128e-01,1.741015166044235229e-01
5.568705126643180847e-02,8.565085940062999725e-03
-3.149379417300224304e-02,-3.792943805456161499e-02
6.776263564825057983e-02,5.568512156605720520e-02
-1.688558310270309448e-01,1.365419477224349976e-01
-1.233307868242263794e-01,8.253844827413558960e-02
-3.385138884186744690e-02,1.599959582090377808e-01
1.759317354299128056e-03,-1.277009993791580200e-01
8.984318375587463379e-02,-6.038548424839973450e-02
7.457073777914047241e-02,-8.926077932119369507e-02
1.727702915668487549e-01,6.067262217402458191e-02
-1.316563487052917480e-01,-6.200594827532768250e-02
-5.532624945044517517e-02,-1.913925260305404663e-02
-7.668616622686386108e-02,-1.191514357924461365e-01
1.039179563522338867e-01,-1.345313191413879395e-01
-6.027004867792129517e-02,1.268109530210494995e-01
-6.812522560358047485e-02,-1.251806039363145828e-02
-6.015605479478836060e-02,3.540486842393875122e-02
-8.602090924978256226e-02,7.615966256707906723e-03
-9.444671869277954102e-02,-7.982990145683288574e-02
-1.292926371097564697e-01,5.265068635344505310e-02
2.356153540313243866e-02,2.197354659438133240e-02
4.640311747789382935e-02,4.865195229649543762e-02
-9.367440640926361084e-02,-1.460668891668319702e-01
-1.085824891924858093e-01,8.200250566005706787e-02
-4.042253643274307251e-02,-9.861537069082260132e-02
2.912132255733013153e-02,1.746997684240341187e-01
-1.721177250146865845e-02,7.517275959253311157e-02
2.743550017476081848e-02,-9.845052845776081085e-03
7.807909697294235229e-02,7.411135733127593994e-02
1.034714803099632263e-01,2.826022170484066010e-02
-5.040260031819343567e-02,5.976761132478713989e-02
4.980986565351486206e-02,1.106516942381858826e-01
1.592052429914474487e-01,3.435828164219856262e-02
3.145397454500198364e-02,5.482760816812515259e-02
-5.796531960368156433e-02,5.314794182777404785e-02
5.079408362507820129e-02,4.464265331625938416e-02
5.415051802992820740e-02,1.499050110578536987e-01
2.665406838059425354e-02,-1.600324362516403198e-01
-1.894407533109188080e-02,5.716405436396598816e-02
-3.564954549074172974e-02,1.471679061651229858e-01
1.261812746524810791e-01,9.929575026035308838e-03
-1.044412627816200256e-01,1.324785351753234863e-01
2.485904656350612640e-02,1.647897660732269287e-01
1.541414558887481689e-01,-2.660861425101757050e-02
1.354630887508392334e-01,-1.573820412158966064e-01
7.654058188199996948e-02,-2.683514496311545372e-03
1.147830039262771606e-01,-1.535170525312423706e-01
1.257509142160415649e-01,5.918337777256965637e-02
8.160492288880050182e-04,-2.085416205227375031e-02
5.043358355760574341e-02,-1.994509547948837280e-01
1.024026498198509216e-01,-1.780943125486373901e-01
-2.543989382684230804e-02,2.269114367663860321e-03
1.487838476896286011e-01,-8.867517113685607910e-02
-6.338400393724441528e-02,8.705878257751464844e-02
5.378278717398643494e-02,-6.483091413974761963e-02
5.951029807329177856e-02,-6.476894766092300415e-02
2.282538264989852905e-02,1.009603869169950485e-02
1.439714729785919189e-01,-1.501955389976501465e-01
-4.858354479074478149e-02,-1.358387321233749390e-01
-1.622459888458251953e-01,1.727710813283920288e-01
-6.251186877489089966e-02,-1.065251138061285019e-02
1.220112815499305725e-01,8.970947563648223877e-02
3.984938841313123703e-03,-7.905920036137104034e-03
5.016371142119169235e-03,4.923515394330024719e-02
-7.355561852455139160e-02,-1.185257062315940857e-01
1.956529319286346436e-01,4.543823748826980591e-02
-1.178486570715904236e-01,-1.459334641695022583e-01
-3.299690410494804382e-02,8.496151119470596313e-02
9.219824522733688354e-02,-1.197656895965337753e-02
-1.873746365308761597e-01,-3.950421512126922607e-02
-6.461740285158157349e-02,-5.697787553071975708e-02
1.041778847575187683e-01,1.543637481518089771e-03
-1.413130164146423340e-01,-1.118389740586280823e-01
1.149362847208976746e-01,1.988490670919418335e-02
-4.959877952933311462e-02,5.078016594052314758e-02
9.082474559545516968e-02,1.273398697376251221e-01
-2.028864109888672829e-03,1.898507028818130493e-01
7.716038078069686890e-02,-1.991364955902099609e-01
2.734639123082160950e-02,1.525266468524932861e-02
-1.969659477472305298e-01,1.067920848727226257e-01
2.196253975853323936e-03,-4.803442209959030151e-02
-1.459332276135683060e-02,2.772116102278232574e-02
1.627168655395507812e-01,-1.490323990583419800e-01
-3.135237097740173340e-02,6.959383189678192139e-02
-1.350539922714233398e-01,-8.958348073065280914e-03
1.829982735216617584e-02,-8.583626709878444672e-03
6.879308819770812988e-02,8.467967808246612549e-02
-1.173261329531669617e-01,4.889845848083496094e-02
-2.034244500100612640e-02,1.270515769720077515e-01
6.027759984135627747e-02,-1.905580461025238037e-01
-1.275161951780319214e-01,1.333840340375900269e-01
1.027748808264732361e-01,1.539913751184940338e-02
-1.553962379693984985e-01,-7.632698118686676025e-02
-2.307897899299860001e-03,-2.005818299949169159e-02
5.228886753320693970e-02,-6.708203256130218506e-02
-3.201987221837043762e-02,1.529910862445831299e-01
-6.985481828451156616e-02,-2.028730325400829315e-02
8.044358342885971069e-02,1.300754100084304810e-01
1.425602585077285767e-01,1.815462135709822178e-03
8.138124644756317139e-02,3.297249600291252136e-02
4.434392973780632019e-02,1.293264329433441162e-01
3.078358806669712067e-02,5.687428638339042664e-02
-9.345722198486328125e-02,-8.525019139051437378e-02
-5.910372734069824219e-02,-7.057105749845504761e-02
-1.645607054233551025e-01,-7.458145916461944580e-02
-5.286643747240304947e-03,6.517823785543441772e-02
-1.269349157810211182e-01,1.318454160355031490e-03
-1.194598674774169922e-01,1.283955425024032593e-01
-1.698629707098007202e-01,6.562568247318267822e-02
1.906328648328781128e-01,-5.535728484392166138e-02
-2.686499617993831635e-02,2.262785797938704491e-03
-9.824872016906738281e-02,4.462845623493194580e-02
-1.254350095987319946e-01,2.026912942528724670e-02
-1.697639971971511841e-01,4.396890476346015930e-02
-1.650091111660003662e-01,-1.136878281831741333e-01
3.913089260458946228e-02,-6.068107485771179199e-02
1.304878573864698410e-02,8.526296168565750122e-02
-7.017861306667327881e-02,1.301181167364120483e-01
-2.105208300054073334e-02,8.038671687245368958e-03
4.961283877491950989e-02,-5.244233831763267517e-02
1.392196714878082275e-01,-1.066420301795005798e-01
1.833989173173904419e-01,-5.519435927271842957e-02
1.885925233364105225e-01,6.996917072683572769e-03
-1.713182330131530762e-01,1.415521372109651566e-02
-1.580604761838912964e-01,-1.247987151145935059e-01
-2.611363306641578674e-02,3.467818489298224449e-03
-1.015359163284301758e-01,-6.312559708021581173e-04
1.861534081399440765e-02,1.616864949464797974e-01
7.068941742181777954e-02,1.513515133410692215e-02
3.536940366029739380e-02,1.092978343367576599e-01
1.066170111298561096e-01,-2.244736300781369209e-03
4.689692705869674683e-02,-4.503615945577621460e-02
1.890807971358299255e-02,-9.789892286062240601e-02
-1.310675740242004395e-01,6.429371889680624008e-03
2.991125546395778656e-02,5.503837019205093384e-02
6.374470889568328857e-02,1.481116861104965210e-01
-8.754104375839233398e-02,-8.402314037084579468e-02
-9.075751155614852905e-02,-8.267064578831195831e-03
-9.094902127981185913e-02,-9.417866170406341553e-02
7.893367856740951538e-02,-6.371176242828369141e-02
-4.701100662350654602e-02,3.639518981799483299e-03
1.133787557482719421e-01,-6.555127352476119995e-02
9.612128138542175293e-02,-5.910976603627204895e-02
-8.642181009054183960e-02,4.595186095684766769e-03
-1.536719948053359985e-01,6.920854002237319946e-02
-1.904507279396057129e-01,5.517108365893363953e-02
-8.492523431777954102e-02,-5.880635976791381836e-02
5.018740519881248474e-02,7.146374136209487915e-02
2.390980347990989685e-02,1.551225334405899048e-01
1.554681546986103058e-02,-1.599671877920627594e-02
6.511311978101730347e-02,-1.713179796934127808e-02
1.180733321234583855e-03,2.098035253584384918e-02
1.252060234546661377e-01,7.187037169933319092e-02
5.614930018782615662e-02,6.975115090608596802e-02
-5.938984081149101257e-02,1.470315456390380859e-01
7.690396904945373535e-02,6.752579659223556519e-02
-3.202373161911964417e-02,1.024541407823562622e-01
7.713686674833297729e-02,-6.115392595529556274e-02
-9.226042777299880981e-02,1.938030868768692017e-01
1.060939654707908630e-01,1.121582761406898499e-01
1.120324879884719849e-01,-9.792765229940414429e-02
1.220593973994255066e-01,-1.665179878473281860e-01
-1.648003309965133667e-01,8.054739981889724731e-02
7.034789025783538818e-02,-3.659443557262420654e-02
-1.071438342332839966e-01,6.018439680337905884e-02
-1.123195514082908630e-01,-6.535342335700988770e-02
3.717629238963127136e-02,-9.760467708110809326e-02
1.349121332168579102e-02,-1.999232620000839233e-01
3.677961602807044983e-02,6.164849922060966492e-02
1.140656396746635437e-01,-8.121497184038162231e-02
-4.127127304673194885e-02,1.630040109157562256e-01
-1.140387877821922302e-01,-6.456799805164337158e-02
1.116219162940979004e-01,-4.851714184042066336e-04
1.002016812562942505e-01,1.368683483451604843e-02
2.960018813610076904e-02,-5.115109309554100037e-02
-6.257663667201995850e-02,2.380260033532977104e-03
6.044625863432884216e-02,5.318771675229072571e-02
1.500574499368667603e-01,1.285862177610397339e-01
-9.423369914293289185e-02,-8.403511345386505127e-02
-1.717997528612613678e-02,-5.418204888701438904e-02
-7.408266514539718628e-02,-1.976499520242214203e-02
1.720618605613708496e-01,2.012639772146940231e-03
-3.293683694209903479e-04,-2.404933795332908630e-03
-1.666318923234939575e-01,-6.754764914512634277e-02
5.566399171948432922e-02,-1.105197053402662277e-02
-7.756678760051727295e-02,1.099278852343559265e-01
-1.600652635097503662e-01,1.246840413659811020e-02
-1.576054990291595459e-01,-1.084569469094276428e-01
-8.938018232583999634e-02,-1.902340650558471680e-01
7.771627604961395264e-02,-3.232269734144210815e-02
-5.277469754219055176e-02,1.232085842639207840e-02
2.374536544084548950e-02,-4.745662736240774393e-04
-8.426658809185028076e-02,-1.074849888682365417e-01
-4.381967708468437195e-02,-1.370782107114791870e-01
-2.869213931262493134e-02,1.153302341699600220e-01
3.887613490223884583e-02,-2.001637220382690430e-02
-1.564222574234008789e-01,1.583423465490341187e-01
-4.784926399588584900e-02,1.582697592675685883e-02
-1.391668897122144699e-02,6.680040154606103897e-03
6.966540962457656860e-02,1.248678788542747498e-01
1.052390486001968384e-01,1.491966694593429565e-01
-1.401256769895553589e-01,2.338574267923831940e-02
-1.925481706857681274e-01,3.702684864401817322e-02
5.925524234771728516e-02,-5.436925962567329407e-02
-1.405218094587326050e-01,1.394830048084259033e-01
-2.056051604449748993e-02,4.504308849573135376e-02
-4.421443864703178406e-02,3.890201076865196228e-02
-7.741831988096237183e-02,-6.715800613164901733e-02
-8.039169013500213623e-02,-9.308363497257232666e-02
9.271818399429321289e-02,6.348882615566253662e-02
-4.979259148240089417e-02,6.618889421224594116e-02
8.291128277778625488e-02,-1.309776902198791504e-01
6.096345186233520508e-02,7.370978593826293945e-02
-1.120711117982864380e-02,-3.183174133300781250e-02
-7.889135926961898804e-02,-1.688452437520027161e-02
-1.146269962191581726e-01,-8.680123090744018555e-02
1.004822850227355957e-01,1.480189114809036255e-01
7.481780648231506348e-02,1.105498895049095154e-02
2.190110832452774048e-02,4.695828631520271301e-02
-1.416753381490707397e-01,1.757827959954738617e-02
-5.062181875109672546e-02,-6.984268128871917725e-02
9.872990846633911133e-02,-1.547469049692153931e-01
-7.462848722934722900e-02,1.252448111772537231e-01
-4.394305869936943054e-02,-1.635479778051376343e-01
4.756254330277442932e-02,-6.758748739957809448e-02
8.051203936338424683e-02,2.813383005559444427e-02
-1.818652004003524780e-01,-1.546992659568786621e-01
-2.875460498034954071e-02,-3.746903687715530396e-02
5.832510069012641907e-02,7.945492118597030640e-02
-1.090501770377159119e-01,9.267876297235488892e-02
8.451770991086959839e-02,7.344119995832443237e-02
8.003160357475280762e-02,1.692624539136886597e-01
6.044419482350349426e-02,1.118598729372024536e-01
1.250101067125797272e-02,-1.730474233627319336e-01
1.324692517518997192e-01,-7.144478708505630493e-02
-1.101501807570457458e-01,-1.974781975150108337e-02
9.554865770041942596e-03,3.823163732886314392e-02
1.722412928938865662e-02,-3.935728967189788818e-02
-1.762277632951736450e-02,8.521507680416107178e-02
8.553885668516159058e-02,2.952738432213664055e-03
1.938959024846553802e-02,-2.741495706140995026e-02
-3.978398069739341736e-02,9.927567094564437866e-02
3.582565858960151672e-02,-8.122021332383155823e-03
1.662556380033493042e-01,1.200882121920585632e-01
5.792851001024246216e-02,-1.352519840002059937e-01
7.009626715444028378e-04,-1.108229309320449829e-01
-7.693644613027572632e-02,-2.511325292289257050e-02
1.554335206747055054e-01,4.025890305638313293e-02
-1.524422019720077515e-01,1.306005865335464478e-01
-3.924473375082015991e-02,-1.749333553016185760e-02
2.630292251706123352e-02,8.011235296726226807e-02
-1.080867648124694824e-01,3.025619499385356903e-02
-1.742755062878131866e-02,2.765401639044284821e-02
-5.433403328061103821e-02,-2.033420465886592865e-02
1.380182355642318726e-01,1.037974581122398376e-01
3.775072051212191582e-03,-6.829401105642318726e-02
2.266590297222137451e-02,1.786778867244720459e-02
-8.031515032052993774e-02,-1.188689097762107849e-01
-6.332363188266754150e-02,1.567028611898422241e-01
-1.081644650548696518e-02,1.306958049535751343e-01
-1.182841584086418152e-01,1.664298325777053833e-01
1.631252467632293701e-01,-1.126174479722976685e-01
-5.462739150971174240e-03,-3.378820372745394707e-03
1.057716980576515198e-01,3.909134492278099060e-02
-9.208665043115615845e-02,1.066843792796134949e-01
6.650643050670623779e-02,8.618706464767456055e-02
-1.504894345998764038e-01,6.415306031703948975e-02
-9.517472982406616211e-02,-5.212596803903579712e-02
2.715009264647960663e-02,1.518052518367767334e-01
6.310326512902975082e-03,-1.227656006813049316e-01
6.124784424901008606e-02,6.840556859970092773e-02
-1.380989998579025269e-01,-3.158866614103317261e-02
-5.011759325861930847e-02,-1.876746416091918945e-01
8.470027148723602295e-02,-1.079595088958740234e-01
-1.458091586828231812e-01,1.067410130053758621e-02
6.055596098303794861e-02,1.219011768698692322e-01
8.943624794483184814e-02,-1.458133310079574585e-01
1.671004444360733032e-01,5.294777825474739075e-02
4.921824857592582703e-02,-6.576542556285858154e-02
-1.556456387042999268e-01,-5.107023194432258606e-02
-2.734815515577793121e-02,-4.408473148941993713e-02
6.599970906972885132e-02,9.145983494818210602e-04
-9.709211438894271851e-02,-1.387190073728561401e-01
-1.158314943313598633e-01,-1.546580046415328979e-01
1.270104497671127319e-01,4.835068248212337494e-03
-6.968539953231811523e-02,-2.611233107745647430e-02
-7.728608697652816772e-02,2.883509732782840729e-02
1.752418130636215210e-01,-1.137898117303848267e-01
8.387110382318496704e-02,-1.754274219274520874e-01
1.350139677524566650e-01,-2.657473087310791016e-02
-2.833092026412487030e-02,1.015216857194900513e-01
1.186515018343925476e-01,-1.075205132365226746e-01
-1.944489181041717529e-01,8.813955634832382202e-02
5.219237878918647766e-02,5.389764904975891113e-02
-9.707116335630416870e-02,-1.597242243587970734e-02
-1.984064700081944466e-03,1.866162866353988647e-01
-4.490103945136070251e-02,-7.035007234662771225e-03
-7.642628625035285950e-04,1.017187610268592834e-01
1.328900158405303955e-01,-4.616111144423484802e-02
6.359674781560897827e-02,-1.729041337966918945e-01
8.228500932455062866e-02,5.266931280493736267e-02
-1.092517599463462830e-01,-7.617020048201084137e-03
1.328080445528030396e-01,5.212906748056411743e-02
-7.192702591419219971e-02,2.342953346669673920e-02
1.553059369325637817e-02,1.863854974508285522e-01
-8.957400918006896973e-03,1.772219687700271606e-01
-9.493403136730194092e-02,-6.513090431690216064e-02
-7.075629383325576782e-02,-1.040523052215576172e-01
-4.063633736222982407e-03,-2.806932665407657623e-02
-1.248168349266052246e-01,-1.635238975286483765e-01
8.759324252605438232e-02,-2.403919585049152374e-02
1.298783272504806519e-01,5.234379693865776062e-02
8.643034845590591431e-02,7.585962116718292236e-02
1.443771179765462875e-02,2.461002022027969360e-02
7.364828139543533325e-02,-2.186281373724341393e-03
1.280406564474105835e-01,-2.446062676608562469e-02
-2.751420438289642334e-02,-4.597375914454460144e-02
-7.707925140857696533e-02,-5.183833837509155273e-02
-8.643417060375213623e-02,1.788327544927597046e-01
-3.498742729425430298e-02,1.387272179126739502e-01
5.737590789794921875e-02,-5.724121257662773132e-02
-2.400739118456840515e-02,6.227581761777400970e-03
5.997819826006889343e-02,-9.902869910001754761e-02
2.670492790639400482e-02,1.541544646024703979e-01
1.996253430843353271e-02,-7.563500851392745972e-02
3.807590529322624207e-02,-1.017066612839698792e-01
-6.233063992112874985e-03,1.882579992525279522e-03
7.481042295694351196e-02,-1.469572037458419800e-01
-7.020219415426254272e-02,-1.474906206130981445e-01
5.634077265858650208e-02,1.559340674430131912e-02
7.598549127578735352e-03,-7.793686818331480026e-03
3.666670992970466614e-02,8.351499587297439575e-02
-5.130125954747200012e-02,-1.368839442729949951e-01
-1.335254311561584473e-01,-9.068930149078369141e-02
-8.798327296972274780e-02,1.629475317895412445e-02
4.606195166707038879e-02,1.062392517924308777e-01
-1.273038089275360107e-01,-6.700985878705978394e-02
1.009682640433311462e-01,2.811805345118045807e-02
-3.162942454218864441e-02,7.843866199254989624e-02
1.149650216102600098e-01,-6.312300264835357666e-02
5.065573379397392273e-02,1.140569616109132767e-02
-1.471618097275495529e-02,1.622809767723083496e-01
5.053898692131042480e-02,4.787743836641311646e-02
-5.187592655420303345e-02,2.654254809021949768e-02
5.751397088170051575e-02,3.380509838461875916e-02
7.114883512258529663e-02,3.774207457900047302e-02
3.030247427523136139e-02,-1.112600937485694885e-01
6.242805626243352890e-03,1.218345761299133301e-02
-4.354424402117729187e-02,-6.403122097253799438e-03
2.999856136739253998e-02,8.352146297693252563e-02
-1.559835523366928101e-01,-4.808315634727478027e-02
-1.045382544398307800e-01,2.452920936048030853e-02
-8.273100107908248901e-02,-8.397058583796024323e-03
1.539447926916182041e-03,6.179887056350708008e-02
1.780910417437553406e-02,7.016295194625854492e-02
1.119281258434057236e-02,-6.769613176584243774e-02
-1.898085325956344604e-01,4.003392066806554794e-03
-6.978338211774826050e-02,6.306235492229461670e-02
-1.247305274009704590e-01,1.318808495998382568e-01
-1.872213743627071381e-02,-2.180857397615909576e-02
1.820324175059795380e-02,1.414138376712799072e-01
-6.660652905702590942e-02,1.305770408362150192e-02
1.273728013038635254e-01,-1.571146547794342041e-01
4.792295023798942566e-02,7.251697778701782227e-02
5.380035191774368286e-02,5.676202848553657532e-02
-1.285928040742874146e-01,-1.308770179748535156e-01
1.957992166280746460e-01,1.846599206328392029e-02
-1.059328839182853699e-01,-5.537027865648269653e-02
-3.960920497775077820e-02,1.236186251044273376e-01
1.596530228853225708e-01,1.121666654944419861e-01
9.096961468458175659e-02,-1.155211552977561951e-01
1.520628761500120163e-02,-1.301613152027130127e-01
-8.792986162006855011e-03,4.376185685396194458e-02
-1.881989301182329655e-03,2.509509027004241943e-02
-4.003910347819328308e-02,9.252554154954850674e-04
-9.987749159336090088e-02,1.181597858667373657e-01
-7.831127196550369263e-02,-6.931374967098236084e-02
5.515347048640251160e-02,7.846374064683914185e-02
-8.029147982597351074e-02,-3.300549089908599854e-02
-3.180309385061264038e-02,-4.421090241521596909e-03
1.280375421047210693e-01,-3.403056412935256958e-02
-3.223912417888641357e-02,-1.060642004013061523e-01
1.531497109681367874e-02,1.238787397742271423e-01
5.806725844740867615e-02,-1.032711043953895569e-01
1.040780544281005859e-01,-7.874844968318939209e-02
-1.104685198515653610e-02,2.932833507657051086e-02
-1.586662046611309052e-02,1.878542266786098480e-02
-1.190487891435623169e-01,9.872573614120483398e-02
2.121605165302753448e-02,-4.795713350176811218e-02
-1.617587655782699585e-01,2.568539790809154510e-02
7.662720978260040283e-03,-1.564699225127696991e-02
9.503623098134994507e-02,-2.294354140758514404e-02
1.543595790863037109e-01,-4.865203425288200378e-02
1.333244293928146362e-01,-3.517808765172958374e-02
1.054362282156944275e-01,8.936931192874908447e-02
-8.457081019878387451e-02,6.723406165838241577e-02
