-2.546099387109279633e-02 2.905822172760963440e-02 3.842772683128714561e-03 1.677615940570831299e-01 1.004832014441490173e-01 -3.335668146610260010e-02 1.533981561660766602e-01 -3.925270959734916687e-02 -3.688396140933036804e-02 1.220844537019729614e-01 -1.004494950175285339e-01 7.885833829641342163e-02 -1.055514588952064514e-01 -1.530063599348068237e-01 7.459672540426254272e-02 4.393455013632774353e-02 -8.445506542921066284e-02 1.392825096845626831e-01 1.672072522342205048e-02 1.854747682809829712e-01 -1.244924589991569519e-01 -9.245415776968002319e-02 9.649164974689483643e-02 1.458275020122528076e-01 -4.108061268925666809e-02 -7.270891219377517700e-02 1.449965126812458038e-02 4.336513578891754150e-02 3.232301399111747742e-02 -8.835088461637496948e-02 1.476421952247619629e-01 -1.414373964071273804e-01 -1.156823262572288513e-01 -8.278580754995346069e-02 -1.429061740636825562e-01 -1.181974411010742188e-01 7.116829510778188705e-03 1.459324806928634644e-01 3.569922968745231628e-02 2.286958508193492889e-02 5.078537389636039734e-02 -5.562935024499893188e-02 -3.608892485499382019e-02 1.448664348572492599e-02 -2.717887423932552338e-02 -1.192980557680130005e-01 -1.090243831276893616e-01 4.042234644293785095e-02 6.869380176067352295e-02 -1.569799631834030151e-01 -2.263316325843334198e-02 4.177256673574447632e-02 9.938926994800567627e-02 -2.576748467981815338e-02 -1.924941390752792358e-01 -9.450064599514007568e-02 6.294266879558563232e-02 -7.294880598783493042e-02 -5.525355413556098938e-02 5.294789001345634460e-02 4.416528716683387756e-02 -2.458844333887100220e-02 1.275167316198348999e-01 4.010324552655220032e-02 8.115767687559127808e-02 -5.021974071860313416e-02 -1.814423874020576477e-02 1.399305015802383423e-01 -5.693571642041206360e-02 -2.702737785875797272e-02 1.652695387601852417e-01 6.070727109909057617e-02 8.511426858603954315e-03 5.288377031683921814e-02 -1.647706516087055206e-02 9.573382884263992310e-02 -7.295665144920349121e-02 -7.699733972549438477e-02 1.504785567522048950e-01 -1.018342003226280212e-01 2.186183584854006767e-03 -1.418337672948837280e-01 7.769403606653213501e-02 -3.729717282112687826e-04 4.685194045305252075e-02 -5.129010230302810669e-02 1.491998732089996338e-01 1.723875850439071655e-02 7.772474735975265503e-02 1.735701560974121094e-01 -1.614262759685516357e-01 -1.399344205856323242e-02 -1.923693865537643433e-01 5.820177122950553894e-02 -1.344410181045532227e-01 6.009550765156745911e-02 4.290991649031639099e-02 -1.096004471182823181e-01 -5.506404116749763489e-02 4.996325820684432983e-02 -9.099832177162170410e-02 -3.384216874837875366e-02 1.283589657396078110e-02 4.192622005939483643e-02 -1.980565488338470459e-01 9.547203034162521362e-02 5.114204809069633484e-02 1.977388560771942139e-02 -1.376914232969284058e-01 5.088197812438011169e-02 4.686617851257324219e-02 8.150214701890945435e-02 -2.774031274020671844e-02 -1.213235408067703247e-01 -7.658956199884414673e-02 5.910152196884155273e-02 -7.743937522172927856e-02 -5.688117071986198425e-02 -5.654386430978775024e-02 -1.552727073431015015e-02 -1.165748387575149536e-01 1.078815087676048279e-01 -4.357109311968088150e-03 1.347628701478242874e-02 3.640289604663848877e-02 -6.700834631919860840e-02 4.909012466669082642e-02 1.341601461172103882e-01 1.594042330980300903e-01 8.967176824808120728e-02 1.167438551783561707e-01 1.559531986713409424e-01 -1.198131963610649109e-01 1.132203713059425354e-01 1.481310278177261353e-02 1.913761952891945839e-03 1.380811184644699097e-01 1.328580826520919800e-01 2.447631675750017166e-03 4.415255412459373474e-02 1.996778696775436401e-02 -8.977068960666656494e-02 -5.864319205284118652e-02 5.631433054804801941e-02 -9.758161008358001709e-02 -1.034223288297653198e-02 1.907513737678527832e-01 -3.621422871947288513e-02 -5.378285795450210571e-02 2.208357118070125580e-02 1.154484376311302185e-01 7.611870765686035156e-02 -8.282140642404556274e-02 1.003284454345703125e-01 -1.004273351281881332e-02 1.808504164218902588e-01 -6.698738783597946167e-02 3.297653421759605408e-02 4.319165647029876709e-02 2.773192338645458221e-02 -3.552925959229469299e-02 4.663967713713645935e-02 3.301772102713584900e-02 3.729296103119850159e-02 -1.415296643972396851e-01 -1.833999603986740112e-01 9.431277215480804443e-02 5.808722600340843201e-02 2.162529341876506805e-02 5.690639838576316833e-02 7.633604109287261963e-02 -1.717233657836914062e-01 -1.762955635786056519e-01 -2.048817835748195648e-02 -1.687607616186141968e-01 2.317884936928749084e-03 7.680846005678176880e-02 7.370649278163909912e-02 7.914370298385620117e-02 -2.066453918814659119e-02 -9.778442233800888062e-02 1.577880419790744781e-02 1.672937124967575073e-01 -6.488177180290222168e-02 5.340686440467834473e-02 2.548938058316707611e-02 1.480965465307235718e-01 -9.439936839044094086e-03 -2.297160914167761803e-03 -1.355644017457962036e-01 6.713198870420455933e-02 -8.454937487840652466e-02 -1.096348538994789124e-01 -1.287754029035568237e-01 -9.192668646574020386e-02 -4.390537366271018982e-02 8.961638063192367554e-02 2.989813126623630524e-02 5.230408534407615662e-02 -1.514130681753158569e-01 3.874235600233078003e-02 9.207801520824432373e-02 1.900936476886272430e-03 -7.751252502202987671e-02 9.427808225154876709e-02 2.446399629116058350e-02 7.769831269979476929e-02 1.075909882783889771e-01 7.493048906326293945e-02 4.503292217850685120e-02 -1.093155052512884140e-02 9.603008627891540527e-03 2.624646201729774475e-02 5.012468248605728149e-02 -1.067495122551918030e-01 -1.195539459586143494e-01 -5.389573518186807632e-03 6.561777740716934204e-02 -1.038472577929496765e-01 -1.995951384305953979e-01 1.032829433679580688e-01 9.725371748208999634e-02 -1.195003744214773178e-02 -4.538950510323047638e-03 -7.689269632101058960e-02 -3.063436411321163177e-02 -7.471039146184921265e-02 -1.139156445860862732e-01 3.622325882315635681e-02 -8.170481771230697632e-02 -6.336630135774612427e-02 -6.355320662260055542e-02 -7.005687803030014038e-03 6.198970228433609009e-02 3.430410847067832947e-02 -4.862046800553798676e-03 1.049644947052001953e-01 4.348642751574516296e-02 7.262881845235824585e-02 -1.643250733613967896e-01 5.439493805170059204e-02 4.489547107368707657e-03 -9.189817309379577637e-02 -6.028886511921882629e-02 -1.288257390260696411e-01 -1.911169732920825481e-03 5.533146485686302185e-02 -7.870372384786605835e-03 1.786297112703323364e-01 1.540587991476058960e-01 9.546645730733871460e-02 -1.050342544913291931e-01 8.495540171861648560e-02 5.019013956189155579e-02 5.418413504958152771e-02 -1.064680591225624084e-01 -5.098320171236991882e-02 8.562278002500534058e-02 -1.270224004983901978e-01 1.857737451791763306e-02 1.434790194034576416e-01 -1.130535528063774109e-01 -5.121054872870445251e-02 -2.161035686731338501e-02 -1.409356947988271713e-02 -1.658385444898158312e-04 -3.334025666117668152e-02 1.218179836869239807e-01 -1.211364939808845520e-02 -9.862598031759262085e-02 1.650456041097640991e-01 -1.217098757624626160e-01 -1.556691378355026245e-01 8.589740842580795288e-02 1.162016913294792175e-01 3.287567570805549622e-02 8.565118163824081421e-02 -4.290200769901275635e-02 -2.606362476944923401e-02 5.711832642555236816e-02 6.138688325881958008e-02 -2.544570341706275940e-02 -4.514633864164352417e-02 1.368906348943710327e-01 -1.047947183251380920e-01 5.301775410771369934e-02 -7.026650011539459229e-02 -3.808819502592086792e-02 3.603565692901611328e-02 -2.450496517121791840e-02 -4.556468501687049866e-02 -9.857121109962463379e-02 -3.285546228289604187e-02 2.932123839855194092e-02 1.888714544475078583e-02 1.391037851572036743e-01 -6.782826781272888184e-02 -1.279859542846679688e-01 4.372714553028345108e-03 -1.490031629800796509e-01 -1.010033860802650452e-01 -6.857409328222274780e-02 1.388859283179044724e-02 2.939390018582344055e-02 5.454915389418601990e-02 -1.059493795037269592e-01 5.709120258688926697e-02 -4.835715144872665405e-02 -1.727690361440181732e-02 4.427300021052360535e-02 -1.085921674966812134e-01 1.824792101979255676e-02 -7.743569463491439819e-02 1.253705620765686035e-01 -9.215988963842391968e-02 1.042723562568426132e-02 -5.537812784314155579e-02 3.336248919367790222e-02 1.602019816637039185e-01 1.683103293180465698e-01 -3.069987334311008453e-02 -1.906983703374862671e-01 8.088596165180206299e-02 -1.609289795160293579e-01 1.653607189655303955e-01 -5.981496721506118774e-02 7.988848537206649780e-02 -5.155227705836296082e-02 -1.087666377425193787e-01 -1.900457590818405151e-02 6.564160436391830444e-02 -5.779271945357322693e-02 1.256577819585800171e-01 3.537143394351005554e-02 1.874717473983764648e-01 -1.115566045045852661e-01 -3.001127019524574280e-02 6.317570805549621582e-02 -2.369996719062328339e-02 -6.516186147928237915e-02 6.339070200920104980e-02 6.818798184394836426e-02 -1.679724454879760742e-01 -3.958318009972572327e-02 -4.038914293050765991e-02 6.022027228027582169e-03 -5.539235472679138184e-02 -6.552340346388518810e-04 2.720251493155956268e-02 -7.737459987401962280e-02 -4.164160415530204773e-02 3.619202598929405212e-02 -6.152232363820075989e-02 -1.212260350584983826e-01 -3.579155728220939636e-02 -2.363941632211208344e-02 1.598907820880413055e-02 6.212271004915237427e-02 -7.743651513010263443e-03 -1.346677541732788086e-02 1.083681806921958923e-01 1.689959615468978882e-01 8.569409698247909546e-02 8.897222578525543213e-02 9.147492051124572754e-02 5.932819843292236328e-02 -3.730614110827445984e-02 -1.064075827598571777e-01 1.289443392306566238e-02 2.489483356475830078e-02 -6.095012649893760681e-02 4.229329898953437805e-02 9.763001650571823120e-02 -7.474672794342041016e-02 -1.748078502714633942e-03 1.806514337658882141e-02 4.301419481635093689e-02 8.414579927921295166e-02 -1.239378079771995544e-01 -1.599539965391159058e-01 1.327660083770751953e-01 3.632571548223495483e-02 5.470974370837211609e-02 -5.120462924242019653e-02 -3.538850694894790649e-02 3.499284759163856506e-02 -5.053390935063362122e-02 7.846025750041007996e-03 -9.494622796773910522e-02 -3.140742331743240356e-02 4.080259799957275391e-02 -9.351386129856109619e-02 -6.194228678941726685e-02 -1.948462873697280884e-01 1.032850518822669983e-01 -7.222347706556320190e-02 -6.452610343694686890e-02 9.457013569772243500e-03 5.473919585347175598e-02 -4.126505181193351746e-02 6.293272972106933594e-02 -9.172308444976806641e-02 -3.531081601977348328e-02 2.755555883049964905e-02 6.958837807178497314e-02 9.982787072658538818e-03 -1.664664000272750854e-01 1.118414849042892456e-02 6.630034185945987701e-03 1.753988713026046753e-01 1.831161379814147949e-01 7.431353628635406494e-02 -3.487933427095413208e-02 1.530329417437314987e-02 -9.393651038408279419e-03 6.630573421716690063e-03 -1.057333499193191528e-01 1.312925387173891068e-02 8.347963541746139526e-02 -9.554771333932876587e-02 -6.224278733134269714e-02 5.179451778531074524e-02 1.422045230865478516e-01 -1.779602095484733582e-02 -6.740039587020874023e-02 1.471131294965744019e-02 -1.432108730077743530e-01 -6.337731331586837769e-02 -1.435115933418273926e-01 5.746632814407348633e-02 9.658232331275939941e-02 -1.336966007947921753e-01 -4.388193041086196899e-02 1.306326687335968018e-02 1.161402985453605652e-01 4.091797396540641785e-02 -6.855175644159317017e-02 -7.073957473039627075e-03 8.677061647176742554e-02 -2.820495748892426491e-03 1.162052676081657410e-01 -2.861380018293857574e-02 1.661602705717086792e-01 5.900534614920616150e-02 1.270358860492706299e-01 2.074296353384852409e-03 -9.987237304449081421e-02 1.178107187151908875e-01 1.195863857865333557e-01 1.080474182963371277e-01 -5.013868957757949829e-02 -7.006116211414337158e-02 -5.628945305943489075e-02 -1.435699500143527985e-02 9.052809327840805054e-02 1.011044438928365707e-02 -1.722834706306457520e-01 -6.489556282758712769e-02 -1.037247776985168457e-01 3.630682453513145447e-02 -7.998091727495193481e-02 1.213091388344764709e-01 -1.733448356389999390e-01 8.714779280126094818e-03 -3.701343387365341187e-02 5.268749594688415527e-02 -7.237368077039718628e-02 2.304365113377571106e-02 -4.366580769419670105e-02 1.742838025093078613e-01 2.273948863148689270e-02 3.385237231850624084e-02 -9.341578930616378784e-02 9.181457012891769409e-02 8.601761423051357269e-03 1.411509662866592407e-01 -1.640565544366836548e-01 -1.082708239555358887e-01 1.035990100353956223e-02 8.443674445152282715e-02 -1.076176986098289490e-01 1.144085079431533813e-01 -1.291664391756057739e-01 -6.670550256967544556e-02 8.523818105459213257e-02 -2.764048986136913300e-02 1.330282837152481079e-01 -4.966938123106956482e-02 -1.189908906817436218e-01 -5.261605978012084961e-02 7.527296990156173706e-02 -1.104638352990150452e-01 1.854514926671981812e-01 3.561013564467430115e-02 -7.798290252685546875e-02 -1.280792355537414551e-01 -8.562406152486801147e-02 6.826438754796981812e-02 4.585894942283630371e-02 1.180011630058288574e-01 4.340249672532081604e-02 -2.328558079898357391e-02 -7.721749693155288696e-02 1.212020684033632278e-02 -1.239371895790100098e-01 -9.771317243576049805e-02 -1.760222166776657104e-01 5.648552998900413513e-02 -1.338555710390210152e-03 1.324045062065124512e-01 -2.727944031357765198e-02 -5.639233067631721497e-02
2.989897038787603378e-03 3.086763620376586914e-02 2.328044734895229340e-02 6.895870901644229889e-03 3.928635641932487488e-02 4.801919683814048767e-02 1.446318067610263824e-02 4.452766105532646179e-02 -4.397697374224662781e-02 1.223250385373830795e-02 -6.045680120587348938e-02 -3.688600286841392517e-02 -9.752371907234191895e-02 -8.913169614970684052e-03 -1.116895899176597595e-01 1.113634631037712097e-01 -1.326199173927307129e-01 -1.359888762235641479e-01 -1.054973602294921875e-01 -4.162425920367240906e-02 5.611057206988334656e-02 -2.602226100862026215e-02 -3.904267773032188416e-02 -3.949736058712005615e-02 1.482865680009126663e-02 8.228237926959991455e-02 -4.314871504902839661e-02 -8.084045350551605225e-02 -4.095035046339035034e-02 -4.925980791449546814e-02 3.636045753955841064e-02 -1.329598873853683472e-01 -7.174035161733627319e-02 4.222778230905532837e-02 -7.273533195257186890e-02 -7.220414280891418457e-02 7.324095070362091064e-02 1.101670414209365845e-02 -3.359072282910346985e-02 5.115553364157676697e-02 2.263659425079822540e-02 -3.339722007513046265e-02 1.641167514026165009e-02 3.772917017340660095e-02 3.127631265670061111e-03 1.787192076444625854e-01 6.117921695113182068e-02 -6.704705208539962769e-02 -3.708709729835391045e-03 5.235929414629936218e-02 8.951228857040405273e-02 -2.412281744182109833e-02 -8.747338317334651947e-03 1.827541552484035492e-02 -9.360329061746597290e-02 2.718087844550609589e-02 -6.091218814253807068e-02 1.863557547330856323e-01 -2.662789821624755859e-02 -6.586461514234542847e-02 1.057503744959831238e-01 1.484018266201019287e-01 1.325388848781585693e-01 -2.317995578050613403e-02 2.761694602668285370e-02 -3.660660982131958008e-02 -1.237094625830650330e-01 -4.678644984960556030e-02 -1.104964762926101685e-01 1.257957667112350464e-01 1.245550736784934998e-01 8.091252297163009644e-02 1.409415453672409058e-01 -1.642982065677642822e-01 1.433001607656478882e-01 -1.256785243749618530e-01 -1.333693116903305054e-01 1.050810795277357101e-02 2.575598098337650299e-02 -1.304679661989212036e-01 1.687745004892349243e-01 -1.332458108663558960e-01 -9.605433046817779541e-02 5.094071105122566223e-02 -1.976271346211433411e-02 1.110733747482299805e-01 -1.056808754801750183e-01 1.589890941977500916e-02 -8.316280320286750793e-03 6.922698765993118286e-02 1.477744430303573608e-01 -1.365470793098211288e-02 -1.457444764673709869e-02 1.167320162057876587e-01 -1.019799113273620605e-01 -8.422674983739852905e-02 1.526010483503341675e-01 1.052387952804565430e-01 -7.111247628927230835e-02 -1.469926238059997559e-01 6.898873299360275269e-02 -1.900935769081115723e-01 -1.097353845834732056e-01 -4.738708585500717163e-02 -7.610876858234405518e-02 -1.786068230867385864e-01 4.225843399763107300e-02 -5.012485384941101074e-02 1.732446812093257904e-02 1.722902059555053711e-02 1.079592704772949219e-01 -1.476567983627319336e-01 1.260661035776138306e-01 1.751811504364013672e-01 -5.314672738313674927e-02 -1.369245946407318115e-01 -5.936614796519279480e-02 -1.795060001313686371e-02 7.396274805068969727e-02 -1.701056808233261108e-01 -4.740286618471145630e-03 5.130515247583389282e-02 -2.419541031122207642e-02 1.468635071069002151e-02 2.925875224173069000e-02 6.730385124683380127e-02 9.832651913166046143e-02 -5.117137357592582703e-02 -1.021036133170127869e-01 -4.196584969758987427e-02 1.310875918716192245e-02 -1.856048032641410828e-02 2.957522310316562653e-02 1.859981417655944824e-01 8.214078098535537720e-02 6.737106479704380035e-03 9.341429104097187519e-04 7.176687568426132202e-02 1.589199900627136230e-01 4.658719152212142944e-02 -6.387543864548206329e-03 4.285006225109100342e-02 -1.632083207368850708e-01 -1.283755451440811157e-01 6.889378279447555542e-02 5.832591280341148376e-02 8.036948740482330322e-02 -5.705514550209045410e-02 -1.154571101069450378e-01 -3.477482497692108154e-02 -5.349408462643623352e-02 -9.611147642135620117e-02 4.086243361234664917e-02 -5.149507522583007812e-02 5.214428529143333435e-02 2.952312305569648743e-02 7.198698073625564575e-02 9.836068749427795410e-02 -7.167457789182662964e-02 -1.105695143342018127e-01 3.593725711107254028e-02 5.121530964970588684e-02 9.321134537458419800e-02 -2.425404451787471771e-02 -2.427691034972667694e-02 3.347145393490791321e-02 1.648640446364879608e-02 1.027572154998779297e-01 -1.327520608901977539e-01 -5.948566272854804993e-02 -1.471172124147415161e-01 -3.152036294341087341e-02 -1.370015144348144531e-01 -1.559056639671325684e-01 9.128576517105102539e-02 -6.626787036657333374e-02 1.900456473231315613e-02 5.091482028365135193e-02 1.280776262283325195e-01 4.421914741396903992e-02 -1.357915699481964111e-01 -1.522195190191268921e-01 -4.731492698192596436e-02 2.344653755426406860e-02 2.285600267350673676e-02 -1.230871602892875671e-01 5.318895727396011353e-02 -3.178369626402854919e-02 6.890799850225448608e-02 7.636173814535140991e-02 6.700546294450759888e-02 -1.054359301924705505e-01 -8.767681568861007690e-02 1.812350451946258545e-01 -5.452556163072586060e-02 -2.386591956019401550e-02 -3.318838775157928467e-03 -1.208055019378662109e-01 -1.435440331697463989e-01 1.784688085317611694e-01 5.917408689856529236e-02 -7.763051241636276245e-02 -5.674944445490837097e-02 2.850471064448356628e-03 -3.137459978461265564e-02 -1.365941017866134644e-01 -4.050283133983612061e-02 8.599103987216949463e-02 -6.593248993158340454e-02 7.195573300123214722e-02 3.147745877504348755e-02 1.071562767028808594e-01 -4.141012206673622131e-02 -1.881928592920303345e-01 2.267690841108560562e-03 8.532601594924926758e-02 -6.172895058989524841e-02 -8.003737777471542358e-02 -5.827257782220840454e-02 1.536307185888290405e-01 -2.296607755124568939e-02 -1.268656086176633835e-02 5.830706283450126648e-02 -9.803893417119979858e-02 6.560831796377897263e-03 -3.031833795830607414e-03 5.983011052012443542e-02 -8.496832847595214844e-02 7.200167514383792877e-03 5.693625286221504211e-02 -6.047291681170463562e-02 1.984734833240509033e-01 -5.804703384637832642e-02 -1.641768068075180054e-01 8.286931365728378296e-02 -5.340797454118728638e-02 3.367288038134574890e-02 -3.986773267388343811e-02 9.079515188932418823e-02 6.970747560262680054e-02 1.113670617341995239e-01 3.589162603020668030e-02 9.506015479564666748e-02 4.163986071944236755e-02 1.298660486936569214e-01 -3.696357458829879761e-02 9.606418013572692871e-02 5.322055146098136902e-02 3.279495239257812500e-02 -1.851454190909862518e-02 -5.441534146666526794e-02 -1.707757078111171722e-02 -4.658496007323265076e-02 4.265468567609786987e-03 1.877553947269916534e-02 3.403694182634353638e-02 1.405355241149663925e-02 -6.107879430055618286e-02 -2.364391647279262543e-02 1.073426380753517151e-01 -9.460159577429294586e-03 6.749280542135238647e-02 -8.791395276784896851e-02 -1.764464676380157471e-01 8.574984967708587646e-02 4.263021051883697510e-02 5.804912000894546509e-02 5.237949639558792114e-02 6.892620027065277100e-02 6.908952444791793823e-02 -5.101316794753074646e-02 6.921601481735706329e-03 1.369317919015884399e-01 -1.780556514859199524e-02 9.166613221168518066e-02 -4.802891239523887634e-02 -1.075461655855178833e-01 -5.376003216952085495e-03 6.567344814538955688e-02 -4.238922894001007080e-02 -9.682124108076095581e-02 -8.566006273031234741e-02 -1.874685585498809814e-01 3.803436877205967903e-03 -5.284472834318876266e-03 2.857823111116886139e-02 1.308993697166442871e-01 1.239943783730268478e-02 7.549111545085906982e-02 4.929572343826293945e-02 -9.815206378698348999e-02 -5.918221548199653625e-02 4.420242831110954285e-02 -1.338410824537277222e-01 -1.519641280174255371e-02 6.262474507093429565e-02 5.519245192408561707e-02 2.260611020028591156e-02 7.115229219198226929e-02 -1.556978095322847366e-02 1.464497894048690796e-01 1.864451915025711060e-01 -1.831632554531097412e-01 -7.534781843423843384e-02 -8.904920518398284912e-02 -2.381924539804458618e-02 7.437771558761596680e-02 1.779947313480079174e-03 9.899982064962387085e-02 1.109250187873840332e-01 -1.333339810371398926e-01 -4.643078148365020752e-02 3.607738018035888672e-02 -8.444809913635253906e-02 9.219237836077809334e-04 -6.298995763063430786e-02 -1.484292000532150269e-01 7.865995168685913086e-02 -1.341423243284225464e-01 -3.178011998534202576e-02 1.334129422903060913e-01 2.672922611236572266e-02 1.956656277179718018e-01 -6.753966445103287697e-04 5.417297407984733582e-02 1.374318916350603104e-02 -2.747324109077453613e-02 2.682974375784397125e-02 3.794659674167633057e-02 -1.371473520994186401e-01 -2.790391258895397186e-02 6.257059425115585327e-02 -1.181832328438758850e-01 7.208419591188430786e-02 7.358770072460174561e-02 -1.130631491541862488e-01 3.391588851809501648e-02 -6.742058694362640381e-02 1.797205060720443726e-01 3.585821017622947693e-02 -4.231094941496849060e-02 2.862233482301235199e-02 1.874540373682975769e-02 -6.837853789329528809e-02 9.653580933809280396e-02 1.866969913244247437e-01 -1.064604520797729492e-02 1.064428612589836121e-01 3.017661534249782562e-02 1.227280311286449432e-02 1.684617698192596436e-01 1.919099129736423492e-02 1.157983765006065369e-01 7.154531031847000122e-02 1.525762863457202911e-02 3.436110541224479675e-02 -1.186533495783805847e-01 -1.031081676483154297e-01 5.722228810191154480e-02 1.510476171970367432e-01 -2.281456999480724335e-02 -4.355953633785247803e-02 7.836117595434188843e-02 -2.018572948873043060e-02 -5.628523975610733032e-02 4.837467521429061890e-02 4.200803861021995544e-02 -8.646233379840850830e-02 1.078886613249778748e-01 6.962351500988006592e-02 1.428171098232269287e-01 -5.428453907370567322e-02 5.614086985588073730e-03 -7.780717313289642334e-02 3.375853970646858215e-02 -2.898705191910266876e-03 1.186378598213195801e-01 9.285714477300643921e-02 3.074429929256439209e-02 -9.496235102415084839e-02 -6.028894335031509399e-02 -1.115967612713575363e-02 1.811641640961170197e-02 1.166134513914585114e-02 -5.004764348268508911e-02 -9.363731369376182556e-03 -4.708976298570632935e-02 1.715698689222335815e-01 -1.636969856917858124e-02 1.428758352994918823e-01 3.764559701085090637e-02 -4.639469832181930542e-02 -5.349241569638252258e-02 1.267973482608795166e-01 -1.319705545902252197e-01 1.568298935890197754e-01 6.269376724958419800e-02 -1.288161724805831909e-01 -1.266455650329589844e-01 -1.480625011026859283e-02 -1.013243123888969421e-01 -3.280186653137207031e-02 6.569518893957138062e-02 -6.509465631097555161e-03 -1.106434836983680725e-01 9.298761934041976929e-02 7.330452650785446167e-02 1.541256904602050781e-02 9.858404844999313354e-02 -1.051335111260414124e-01 -6.609378755092620850e-02 1.960981264710426331e-02 -1.126232519745826721e-01 2.079527638852596283e-02 -1.235264688730239868e-01 -1.227346211671829224e-01 -3.125959262251853943e-02 -2.502138353884220123e-02 4.951214417815208435e-02 -4.441621899604797363e-02 -3.768763039261102676e-03 8.801729232072830200e-02 -2.560525573790073395e-02 -1.250068992376327515e-01 -1.146775856614112854e-02 -4.018393903970718384e-02 7.099471241235733032e-02 3.343040496110916138e-02 -1.486810296773910522e-01 -1.020920202136039734e-01 -2.430223673582077026e-02 -1.827433556318283081e-01 -3.314837440848350525e-02 1.456589698791503906e-01 -3.697330597788095474e-03 -8.337751030921936035e-02 -8.439400047063827515e-02 -5.998076871037483215e-02 1.681048721075057983e-01 -3.039748035371303558e-02 -1.022307109087705612e-02 1.850126683712005615e-01 -1.416816469281911850e-02 9.548115544021129608e-03 -1.618160456418991089e-01 8.560720086097717285e-02 -2.917520515620708466e-02 -2.898791804909706116e-02 6.729435175657272339e-02 1.975171416997909546e-01 3.769303113222122192e-02 -1.559966802597045898e-02 -8.525200933218002319e-02 -1.855362355709075928e-01 -5.391684826463460922e-03 -1.110741496086120605e-01 -2.894262038171291351e-02 -4.476314038038253784e-02 -1.878666691482067108e-02 1.354645043611526489e-01 4.488339275121688843e-02 1.446369439363479614e-01 -6.095861271023750305e-02 -1.357695460319519043e-01 2.922266721725463867e-02 1.132624745368957520e-01 -7.264512032270431519e-02 -2.944500558078289032e-02 -6.377814710140228271e-02 -3.064302168786525726e-02 -2.286225929856300354e-02 9.364579617977142334e-02 -5.902906134724617004e-02 8.271544426679611206e-02 -1.255760192871093750e-01 -1.143402829766273499e-01 -5.944472178816795349e-02 -2.094915136694908142e-03 -8.991073817014694214e-02 -5.654131248593330383e-02 -5.014093127101659775e-03 8.354543894529342651e-02 1.985096782445907593e-01 -1.555740982294082642e-01 -1.781767457723617554e-01 2.359023131430149078e-02 -1.354202330112457275e-01 1.500701345503330231e-02 1.021735072135925293e-01 2.117797359824180603e-02 -7.003914564847946167e-03 -1.628009527921676636e-01 6.735532730817794800e-02 9.012718498706817627e-02 -5.530622228980064392e-02 4.103901982307434082e-02 -1.966556012630462646e-01 -1.339866127818822861e-02 -6.101131439208984375e-02 -1.178897172212600708e-01 -1.818261295557022095e-01 8.156459778547286987e-02 -1.438751816749572754e-01 -1.054434403777122498e-01 -1.081882044672966003e-01 -5.334917828440666199e-02 -1.141154319047927856e-01 -4.513317719101905823e-02 5.584464594721794128e-02 1.218859329819679260e-01 -1.368902921676635742e-01 -4.321189597249031067e-02
7.989995926618576050e-02 5.979919433593750000e-02 1.168917194008827209e-01 4.163788259029388428e-02 -1.296759843826293945e-01 -6.652047485113143921e-02 -2.874613739550113678e-02 6.903645582497119904e-03 5.839006230235099792e-02 1.515320986509323120e-01 1.910878419876098633e-01 -3.267355030402541161e-03 -1.731577813625335693e-01 -1.724963039159774780e-01 -6.746213883161544800e-02 1.099034175276756287e-01 -8.280476555228233337e-03 -3.193325176835060120e-02 -5.581715703010559082e-02 -1.231382414698600769e-01 -4.433054849505424500e-02 -1.278467196971178055e-02 -2.519086375832557678e-02 -3.053195774555206299e-02 -3.858627518638968468e-03 8.306723088026046753e-02 -1.317378282546997070e-01 -1.263236254453659058e-01 -1.002260390669107437e-02 6.726424396038055420e-02 -1.439039558172225952e-01 -1.029839832335710526e-02 9.283998608589172363e-02 -1.887657344341278076e-01 2.388394623994827271e-02 4.732571076601743698e-03 1.697223186492919922e-01 1.075204182416200638e-02 2.941485680639743805e-02 -2.574517205357551575e-02 -2.173141203820705414e-02 -5.432590469717979431e-02 9.348250925540924072e-03 2.787604369223117828e-02 -4.354823753237724304e-02 -1.147373318672180176e-01 -3.111479990184307098e-02 5.194631870836019516e-03 2.758035436272621155e-02 3.352439403533935547e-02 6.552869826555252075e-02 5.232138186693191528e-02 3.599078580737113953e-02 9.982111863791942596e-03 -2.209511958062648773e-02 -5.836696177721023560e-02 3.546756133437156677e-02 1.541218608617782593e-01 7.866672426462173462e-02 -1.341959238052368164e-01 8.028470724821090698e-02 -1.204285025596618652e-01 2.184498123824596405e-03 -4.949580132961273193e-02 8.592933416366577148e-03 -1.631654798984527588e-01 -5.624021217226982117e-02 -2.925210259854793549e-02 6.621155142784118652e-02 4.477829858660697937e-02 -1.148960515856742859e-01 -4.397304728627204895e-02 -6.435245275497436523e-02 4.632784426212310791e-02 -1.747510135173797607e-01 2.415618859231472015e-02 4.601820558309555054e-02 -1.018118783831596375e-01 8.919089287519454956e-02 9.473160840570926666e-03 -8.040454238653182983e-03 1.056142449378967285e-01 -4.018892720341682434e-02 -7.178959902375936508e-03 -9.042148292064666748e-02 -2.827353216707706451e-02 1.035693660378456116e-01 -7.899548858404159546e-02 8.179891109466552734e-02 2.695647254586219788e-02 6.735275685787200928e-02 1.055205464363098145e-01 7.572998106479644775e-02 -1.696668267250061035e-01 -1.442490518093109131e-01 4.548632353544235229e-02 1.150333881378173828e-01 3.191965445876121521e-02 -6.640702486038208008e-02 1.430701464414596558e-01 1.029753610491752625e-01 -6.860418617725372314e-02 1.052868515253067017e-01 -1.087919101119041443e-01 -4.869532957673072815e-02 6.486888974905014038e-02 -5.532593652606010437e-02 6.119653210043907166e-02 1.208707243204116821e-01 -7.010452449321746826e-03 1.162779554724693298e-01 -7.963659614324569702e-02 1.015758141875267029e-01 1.713826656341552734e-01 1.129328180104494095e-02 1.336585730314254761e-01 -2.600042894482612610e-02 9.257538616657257080e-02 1.703255251049995422e-02 5.806777626276016235e-02 1.585757583379745483e-01 1.434931606054306030e-01 -5.254727229475975037e-02 8.076833933591842651e-02 2.218819037079811096e-02 -7.781988382339477539e-02 8.568992465734481812e-02 7.578582316637039185e-02 3.964966908097267151e-02 4.614876210689544678e-02 -1.365805715322494507e-01 8.620350807905197144e-02 -8.043884485960006714e-02 -8.916767686605453491e-02 -4.949360713362693787e-02 1.066367607563734055e-02 1.253557503223419189e-01 1.363643258810043335e-01 9.411510080099105835e-02 4.675081744790077209e-02 9.127029031515121460e-02 -1.168422922492027283e-01 -4.963073413819074631e-03 -1.100731715559959412e-01 -1.641683429479598999e-01 -1.014036759734153748e-01 1.533582508563995361e-01 5.151454731822013855e-02 -1.576995290815830231e-02 -2.760999463498592377e-02 -1.626786589622497559e-01 7.229893654584884644e-02 1.524046510457992554e-01 1.281684339046478271e-01 -1.775153577327728271e-01 -1.041627675294876099e-01 -6.116059049963951111e-02 1.912397593259811401e-01 -3.939668089151382446e-02 6.049177050590515137e-02 -2.967751398682594299e-02 1.969404965639114380e-01 1.708578690886497498e-02 1.839058659970760345e-02 -2.913105301558971405e-02 -1.234404966235160828e-01 1.943645812571048737e-02 3.237633034586906433e-02 -2.337956428527832031e-02 4.045866057276725769e-02 -1.413358300924301147e-01 -1.234186664223670959e-01 -1.978978812694549561e-01 1.090612784028053284e-01 3.609906136989593506e-02 -1.148026138544082642e-01 1.140323057770729065e-01 9.640388190746307373e-02 -6.122741103172302246e-02 -1.316246390342712402e-02 1.884578317403793335e-01 -8.525821566581726074e-02 2.452442795038223267e-02 2.633106522262096405e-02 1.843276806175708771e-02 -1.355402320623397827e-01 -5.213516578078269958e-02 9.290014207363128662e-02 -6.373130530118942261e-02 3.167365491390228271e-02 3.931499645113945007e-02 -2.554717473685741425e-02 1.804188787937164307e-01 -4.701253399252891541e-02 -3.753619641065597534e-02 8.400014787912368774e-02 -2.615599334239959717e-02 -1.571419066749513149e-03 1.632960513234138489e-02 8.101095259189605713e-02 8.612449280917644501e-03 -1.276303082704544067e-03 1.133078709244728088e-02 1.460209209471940994e-02 1.645886749029159546e-01 8.352115005254745483e-02 8.491747826337814331e-02 2.428803406655788422e-02 -6.482931226491928101e-02 -8.631549775600433350e-02 2.357238437980413437e-03 5.845414474606513977e-02 1.021967753767967224e-01 1.623776368796825409e-02 -6.890465319156646729e-02 -7.540253549814224243e-02 1.063826680183410645e-01 2.539979480206966400e-02 -1.141987442970275879e-01 2.570804953575134277e-02 6.941510830074548721e-03 -7.945932447910308838e-02 1.352526433765888214e-02 -1.784872263669967651e-02 -1.320634484291076660e-01 1.311118341982364655e-02 8.299745619297027588e-02 -8.610283583402633667e-02 -1.157260760664939880e-01 -5.109635740518569946e-02 -4.226761683821678162e-02 1.567088514566421509e-01 6.953649967908859253e-02 6.025265529751777649e-02 7.305202633142471313e-02 4.384372755885124207e-02 -6.658269464969635010e-02 9.187238663434982300e-02 -3.241018205881118774e-02 -1.529150307178497314e-01 1.301609128713607788e-01 1.009224280714988708e-01 -1.137388348579406738e-01 1.109806075692176819e-01 1.795662790536880493e-01 -2.715182118117809296e-02 -8.569069206714630127e-02 -1.068404912948608398e-01 -1.246333867311477661e-01 -2.209910564124584198e-02 -1.644465923309326172e-01 1.763211339712142944e-01 -9.064919501543045044e-02 -1.077721547335386276e-02 1.009476408362388611e-01 -8.351594954729080200e-02 1.300062388181686401e-01 5.667153000831604004e-02 -2.867380715906620026e-02 -5.909187719225883484e-02 4.120032116770744324e-02 1.226343140006065369e-01 -8.614420145750045776e-02 1.387580484151840210e-02 7.300870865583419800e-02 -5.714172124862670898e-02 -1.849911063909530640e-01 2.185714058578014374e-02 1.635202020406723022e-01 4.287780076265335083e-02 8.731146901845932007e-02 6.399516761302947998e-02 1.925696991384029388e-02 3.704657405614852905e-02 1.345394104719161987e-01 1.992138177156448364e-01 -8.282858878374099731e-02 -7.113512605428695679e-02 8.227797597646713257e-02 2.846098877489566803e-02 -3.175053000450134277e-02 -2.396391518414020538e-02 -2.148171141743659973e-02 -5.394426733255386353e-02 1.887013167142868042e-01 1.348599046468734741e-01 2.825884334743022919e-02 5.432489514350891113e-02 -1.914522610604763031e-02 -9.672241657972335815e-02 1.144463047385215759e-01 3.050917200744152069e-02 5.194060876965522766e-02 1.084809005260467529e-02 1.469677872955799103e-02 1.144627854228019714e-01 8.523348718881607056e-02 -4.496968910098075867e-02 2.590150013566017151e-02 -6.384371966123580933e-02 1.017894372344017029e-01 6.036909297108650208e-02 -1.709204353392124176e-02 -6.735167652368545532e-02 8.701725862920284271e-03 1.078599691390991211e-01 -7.667060941457748413e-02 1.074583902955055237e-01 -4.564271494746208191e-02 -1.406726241111755371e-01 -1.643853336572647095e-01 -1.213665753602981567e-01 9.884362667798995972e-02 1.413748711347579956e-01 -1.681479066610336304e-01 6.421601283363997936e-04 1.878066062927246094e-01 -3.262913227081298828e-02 4.961186274886131287e-02 -5.846291780471801758e-02 2.121027745306491852e-02 -8.458474278450012207e-02 -1.511402707546949387e-02 -1.847249716520309448e-01 -5.983002111315727234e-02 1.944833546876907349e-01 3.972263261675834656e-02 -1.957816444337368011e-02 4.076916724443435669e-02 1.073342934250831604e-02 7.201307266950607300e-02 -4.672323167324066162e-02 -1.223048567771911621e-01 8.390923589468002319e-02 6.392708420753479004e-02 1.394920796155929565e-01 4.642031621187925339e-03 -1.879140287637710571e-01 -4.366889968514442444e-02 -1.388926506042480469e-01 -1.615593135356903076e-01 -7.500513643026351929e-02 4.013903066515922546e-02 -5.637738108634948730e-02 -1.504537612199783325e-01 -1.070847064256668091e-01 -8.536270260810852051e-02 -1.021937727928161621e-01 4.490386694669723511e-03 -6.459084153175354004e-02 1.292402017861604691e-02 -1.552720814943313599e-01 2.445537969470024109e-02 5.192696675658226013e-02 -6.197614222764968872e-02 6.662593781948089600e-02 -6.294904649257659912e-02 9.892106987535953522e-03 -9.886940568685531616e-02 8.921580389142036438e-03 -1.550054997205734253e-01 -1.886576861143112183e-01 3.155848756432533264e-02 1.957159191370010376e-01 1.261436641216278076e-01 3.514814004302024841e-02 7.583960145711898804e-02 1.306543797254562378e-01 -3.902012482285499573e-02 2.752096951007843018e-02 9.592726081609725952e-02 7.590090483427047729e-02 2.015442773699760437e-02 -7.509157992899417877e-03 -2.451839484274387360e-02 -2.113711833953857422e-02 -4.840256273746490479e-02 -1.870466768741607666e-02 -2.430776134133338928e-03 1.244410425424575806e-01 5.510645732283592224e-02 -1.671095564961433411e-02 1.813988238573074341e-01 8.214493095874786377e-02 -8.543592691421508789e-02 -1.156007796525955200e-01 1.302124708890914917e-01 9.434588998556137085e-02 1.201980113983154297e-01 5.405174102634191513e-03 -1.068227514624595642e-01 -3.724175319075584412e-02 8.158472925424575806e-02 -3.916369285434484482e-03 1.225751452147960663e-02 -7.478950172662734985e-02 1.756215542554855347e-01 -2.172162570059299469e-02 8.397889137268066406e-02 -7.122175395488739014e-02 1.208293437957763672e-01 -1.013727933168411255e-01 -1.173693090677261353e-01 -7.999897352419793606e-04 -1.434251219034194946e-01 1.054746136069297791e-01 6.006022449582815170e-03 -1.639389991760253906e-01 5.518785212188959122e-03 -5.394111946225166321e-02 -5.505443084985017776e-03 -2.710150182247161865e-02 1.974916160106658936e-01 -5.997546389698982239e-02 -4.503323882818222046e-02 5.683556944131851196e-02 -3.971227910369634628e-03 -4.719544947147369385e-02 -8.618174493312835693e-02 -5.954016000032424927e-02 5.720109492540359497e-02 1.577606052160263062e-01 -3.157339245080947876e-02 -1.953606009483337402e-01 8.299271017313003540e-02 -6.157760694622993469e-02 1.149720177054405212e-01 -1.494960039854049683e-01 1.141908392310142517e-01 1.671773791313171387e-01 -1.396308839321136475e-01 1.093796864151954651e-01 1.744084432721138000e-02 5.442241579294204712e-02 8.994673192501068115e-02 1.349872201681137085e-01 6.061930581927299500e-02 1.967700943350791931e-02 -7.401556521654129028e-02 -6.035565957427024841e-02 5.979387089610099792e-02 -5.122022703289985657e-03 8.833909779787063599e-02 -4.873478785157203674e-02 -5.019816756248474121e-02 1.433526128530502319e-01 9.394048154354095459e-02 1.276419013738632202e-01 -1.328008323907852173e-01 -2.936048619449138641e-02 4.653064534068107605e-02 -6.712998729199171066e-03 2.404251508414745331e-02 -3.838407620787620544e-02 -1.951740831136703491e-01 8.276313543319702148e-03 1.651259511709213257e-02 -1.669886521995067596e-02 1.618252694606781006e-01 -1.088925153017044067e-01 -8.328162878751754761e-02 -6.895279139280319214e-02 -5.926662310957908630e-02 2.569231390953063965e-02 3.792499750852584839e-02 1.788952201604843140e-01 -9.796100854873657227e-02 1.675524562597274780e-02 -1.023708209395408630e-01 -1.546031683683395386e-01 -1.264817863702774048e-01 2.338972873985767365e-02 -8.054229617118835449e-02 5.320749804377555847e-02 -6.149606034159660339e-02 -1.180515289306640625e-01 -3.325454518198966980e-02 1.509495675563812256e-01 5.981085821986198425e-02 8.921696804463863373e-03 8.916214108467102051e-02 5.572013184428215027e-02 -1.208834201097488403e-01 -9.486081451177597046e-02 -1.174514275044202805e-02 6.261689215898513794e-02 -4.662241786718368530e-02 1.638386994600296021e-01 1.243523135781288147e-01 5.033434182405471802e-02 -1.357577182352542877e-02 -1.171546708792448044e-02 1.186407580971717834e-01 -1.903268098831176758e-01 6.564076244831085205e-02 -4.697773233056068420e-02 -6.892640888690948486e-02 9.800656139850616455e-02 -1.679887324571609497e-01 -3.195194154977798462e-02 1.128831133246421814e-02 -2.398270368576049805e-02 1.190041303634643555e-01 -7.292409986257553101e-02 -1.698409318923950195e-01 -1.951318792998790741e-02 2.664433792233467102e-02 7.524038106203079224e-02 7.011902332305908203e-02 -1.797899454832077026e-01 -3.504085913300514221e-02 -1.433146297931671143e-01
-3.694726526737213135e-02 3.530856221914291382e-03 1.684090942144393921e-01 -8.888909965753555298e-02 5.365142226219177246e-02 4.370779544115066528e-02 -8.718612790107727051e-02 -1.241377592086791992e-01 -1.049024462699890137e-01 1.624668836593627930e-01 8.418339490890502930e-02 3.953558951616287231e-02 -2.392803085967898369e-03 -1.356895118951797485e-01 -7.604532688856124878e-02 1.175016164779663086e-01 -5.535264965146780014e-03 -1.816730760037899017e-02 -6.416881829500198364e-02 -8.929225057363510132e-02 -4.134738445281982422e-02 1.244999319314956665e-01 -2.860652469098567963e-02 7.348347455263137817e-02 -1.012764722108840942e-01 -2.737455442547798157e-02 1.030461937189102173e-01 -4.988966137170791626e-02 8.377646654844284058e-02 -1.321334093809127808e-01 -2.601586841046810150e-02 -5.536912009119987488e-02 1.071733161807060242e-01 -1.213953047990798950e-01 -1.139583736658096313e-01 -1.220870167016983032e-01 3.510874137282371521e-02 -4.677383229136466980e-02 -9.203924238681793213e-02 8.108358830213546753e-02 -1.128003597259521484e-01 -1.726035475730895996e-01 -4.925107955932617188e-02 -1.381775736808776855e-01 -1.035044714808464050e-01 2.640542760491371155e-02 -6.988943368196487427e-02 7.323697209358215332e-02 9.418886899948120117e-02 7.061312347650527954e-02 8.885876089334487915e-02 -4.012858495116233826e-02 -1.118554826825857162e-02 7.142028957605361938e-02 -1.831811070442199707e-01 1.056604310870170593e-01 9.419864043593406677e-03 4.774397611618041992e-02 -1.457946002483367920e-01 1.498193442821502686e-01 1.423001140356063843e-01 -4.002203419804573059e-02 6.039804220199584961e-02 -1.215092930942773819e-02 9.233706630766391754e-03 4.810739681124687195e-02 7.189770787954330444e-02 5.952742695808410645e-02 -9.683085605502128601e-03 -2.444820292294025421e-02 4.924787208437919617e-02 3.092654980719089508e-02 1.546826362609863281e-01 1.125984191894531250e-01 1.951532065868377686e-02 -1.081772074103355408e-01 5.457637459039688110e-02 -2.505198493599891663e-02 2.175187878310680389e-02 1.487278044223785400e-01 -2.267609909176826477e-02 -1.323195546865463257e-01 -7.529149204492568970e-02 -1.070592552423477173e-01 1.147448197007179260e-01 -4.316977784037590027e-02 4.185699671506881714e-02 1.469902098178863525e-01 -2.920790016651153564e-02 -8.056669682264328003e-02 -3.130192309617996216e-02 -6.019341945648193359e-02 1.578156836330890656e-02 6.727553438395261765e-03 3.834449127316474915e-02 1.698663830757141113e-01 -1.297693848609924316e-01 -3.165821358561515808e-02 5.996478348970413208e-02 1.813813857734203339e-02 -1.494700461626052856e-01 -1.059215813875198364e-01 -1.837866902351379395e-01 1.650949120521545410e-01 1.372454464435577393e-01 9.612984210252761841e-02 -1.016386672854423523e-01 3.181398287415504456e-02 -1.681282967329025269e-01 6.639032810926437378e-02 -1.394223272800445557e-01 -1.251730769872665405e-01 4.447674378752708435e-02 2.434196881949901581e-02 -6.560992449522018433e-02 1.063507422804832458e-01 -1.500601600855588913e-02 -9.390980005264282227e-02 -1.009684801101684570e-01 -1.398555655032396317e-02 -8.284993469715118408e-03 -4.319414123892784119e-02 1.194578185677528381e-01 3.876545699313282967e-03 9.790455549955368042e-02 -1.270696707069873810e-02 5.953360348939895630e-02 -2.106926776468753815e-02 -1.093869358301162720e-01 -1.174661442637443542e-01 5.774834752082824707e-02 -5.203939229249954224e-02 1.589075103402137756e-02 6.927281618118286133e-03 5.257112532854080200e-02 1.321671437472105026e-02 -1.483730226755142212e-01 1.243443861603736877e-01 2.652862481772899628e-02 9.503310173749923706e-02 1.978821605443954468e-01 -1.604717224836349487e-02 -1.526275277137756348e-01 5.265786126255989075e-02 2.074506506323814392e-02 1.087190136313438416e-01 -8.736623078584671021e-02 -4.510199651122093201e-02 -1.571423858404159546e-01 5.377073306590318680e-03 6.137139350175857544e-02 2.862443402409553528e-02 7.898562401533126831e-02 -3.711614059284329414e-03 3.509167954325675964e-02 1.524233818054199219e-02 -4.414116963744163513e-02 2.520054392516613007e-02 1.367081254720687866e-01 7.509098853915929794e-03 -4.096118733286857605e-02 -3.877529129385948181e-02 4.719033371657133102e-03 1.733240932226181030e-01 -4.361255094408988953e-02 2.412524260580539703e-02 -1.911830157041549683e-02 -1.387354433536529541e-01 1.411340087652206421e-01 1.075878143310546875e-01 -1.528927981853485107e-01 1.467204838991165161e-01 -1.718797534704208374e-01 -1.613257452845573425e-02 1.388549059629440308e-01 -1.301457136869430542e-01 2.397620677947998047e-02 2.761880867183208466e-02 1.794754117727279663e-01 5.204413086175918579e-02 -3.857801109552383423e-02 2.137863449752330780e-02 -1.092588678002357483e-01 -5.779206380248069763e-02 3.181638568639755249e-02 2.084290049970149994e-02 1.301396936178207397e-01 -2.425575628876686096e-02 5.308054015040397644e-02 -1.092078089714050293e-01 -1.915191113948822021e-02 -1.726837269961833954e-02 -1.759761124849319458e-01 1.007353663444519043e-01 8.314827829599380493e-02 -1.574747823178768158e-02 1.030258759856224060e-01 1.090567633509635925e-01 4.773643240332603455e-02 -3.986536711454391479e-02 -1.716176420450210571e-01 -1.703537069261074066e-02 -5.269113183021545410e-02 1.372634619474411011e-01 -8.489317446947097778e-02 -3.119055368006229401e-02 -6.935580819845199585e-02 6.360530853271484375e-02 -8.387448638677597046e-02 9.813699871301651001e-02 9.470240026712417603e-02 7.688131183385848999e-02 -4.999220371246337891e-02 2.041999250650405884e-02 4.315777868032455444e-02 8.319561928510665894e-02 1.420019268989562988e-01 -5.423875525593757629e-02 -9.215882979333400726e-03 -9.136348962783813477e-02 -1.471097320318222046e-01 4.815816879272460938e-02 9.556652605533599854e-02 1.531854122877120972e-01 3.764485940337181091e-02 1.150198355317115784e-01 1.324392259120941162e-01 -3.170156851410865784e-02 1.999036595225334167e-02 -1.015021204948425293e-01 7.093124836683273315e-02 8.851540833711624146e-02 6.379256397485733032e-02 2.044265717267990112e-02 -1.395210176706314087e-01 7.863333076238632202e-02 6.013401970267295837e-02 -6.883952766656875610e-02 3.035692684352397919e-02 1.085797548294067383e-01 1.726515144109725952e-01 9.428213536739349365e-02 -1.820261590182781219e-02 1.258034110069274902e-01 1.444095373153686523e-01 4.613071680068969727e-02 -6.276166439056396484e-02 -1.112514063715934753e-01 1.078183203935623169e-02 4.311856627464294434e-02 5.189953371882438660e-02 -1.211768575012683868e-02 -6.054486613720655441e-03 -2.426484599709510803e-02 7.006609346717596054e-03 -8.890815824270248413e-02 1.205320656299591064e-02 4.257379099726676941e-02 -5.909867212176322937e-02 -1.333484649658203125e-01 3.873130306601524353e-02 -9.865592233836650848e-03 -5.552745610475540161e-02 -1.862537674605846405e-02 5.763220414519309998e-02 -6.387855857610702515e-02 2.622553706169128418e-02 8.717899210751056671e-03 -1.530019789934158325e-01 3.427455201745033264e-02 -9.606453031301498413e-02 -7.670543342828750610e-02 -5.542030557990074158e-02 -1.405701190233230591e-01 8.044283092021942139e-02 -1.691322177648544312e-01 2.962324582040309906e-02 8.908509463071823120e-02 1.048344373703002930e-01 4.368479549884796143e-02 -8.001693338155746460e-02 4.541622102260589600e-02 3.023951128125190735e-02 1.684566587209701538e-01 -1.769610792398452759e-01 2.328933961689472198e-02 -6.933333724737167358e-02 4.827216267585754395e-02 -1.084745302796363831e-01 -1.765557378530502319e-01 6.586453318595886230e-02 7.843026518821716309e-02 1.519711781293153763e-02 -1.728605479001998901e-01 -1.217380166053771973e-01 3.242916613817214966e-02 -4.074313491582870483e-02 -1.443800050765275955e-02 -1.028396040201187134e-01 5.364934727549552917e-02 -3.955885395407676697e-02 1.324428468942642212e-01 -4.858071729540824890e-02 -5.449510738253593445e-02 2.382686361670494080e-02 -6.470227986574172974e-02 -1.081088781356811523e-01 -4.115151986479759216e-02 8.962791413068771362e-02 1.103337183594703674e-01 -1.499827485531568527e-02 -1.459057629108428955e-01 1.735572516918182373e-01 1.390803009271621704e-01 -1.278262287378311157e-01 4.204156994819641113e-02 -1.130871400237083435e-01 -7.478206604719161987e-02 2.887146174907684326e-02 -7.701231632381677628e-03 8.388923853635787964e-02 -2.640552259981632233e-02 -5.172103643417358398e-02 -1.727164955809712410e-03 -8.641362190246582031e-02 -2.107841335237026215e-02 4.198709502816200256e-03 -3.634397312998771667e-02 1.013388857245445251e-02 7.257231324911117554e-02 3.465853631496429443e-02 -1.161196455359458923e-01 -8.199711889028549194e-02 -8.424814790487289429e-02 -2.250301651656627655e-02 4.663963243365287781e-02 -5.085118487477302551e-02 4.031588882207870483e-02 1.611422747373580933e-03 7.213394343852996826e-02 1.050289422273635864e-01 -1.198943406343460083e-01 -1.471749395132064819e-01 -1.616799682378768921e-01 -1.870024204254150391e-01 -7.305571436882019043e-02 1.017973423004150391e-01 -2.426366880536079407e-02 2.896552905440330505e-03 6.934692151844501495e-03 -3.785098716616630554e-02 -1.552478373050689697e-01 6.471966952085494995e-02 -1.445132344961166382e-01 7.309465110301971436e-02 -2.542303176596760750e-03 2.211453951895236969e-02 7.590376585721969604e-02 1.078934669494628906e-01 -6.469906121492385864e-02 5.751336365938186646e-02 5.189332365989685059e-02 5.807228758931159973e-02 -4.498386383056640625e-02 2.862840890884399414e-02 -1.486031115055084229e-01 1.120661664754152298e-02 3.894161432981491089e-02 5.521052982658147812e-03 -1.101499143987894058e-02 -1.595704816281795502e-02 1.325388997793197632e-01 9.702220559120178223e-02 -1.273377984762191772e-01 -1.299368441104888916e-01 3.889283165335655212e-02 -1.031202897429466248e-01 1.569342240691184998e-02 -1.071564108133316040e-01 -2.453018352389335632e-02 -1.352084875106811523e-01 -7.925044745206832886e-03 8.016130886971950531e-03 -8.937110751867294312e-02 1.753635518252849579e-02 -1.313521713018417358e-01 -4.246626421809196472e-02 1.342664062976837158e-01 -1.103562265634536743e-01 -8.388885296881198883e-03 9.027691558003425598e-03 2.485276013612747192e-02 7.764264196157455444e-02 -9.614507667720317841e-03 1.208139285445213318e-01 -5.804682895541191101e-02 1.639121025800704956e-02 1.824921518564224243e-01 -9.945766627788543701e-02 1.804344938136637211e-03 -1.503640860319137573e-01 -2.481786720454692841e-02 -1.628249585628509521e-01 1.208227500319480896e-01 -2.195208333432674408e-02 -1.871295422315597534e-01 5.632861331105232239e-02 -3.038041666150093079e-02 1.286105066537857056e-01 -4.627103731036186218e-02 -6.493353750556707382e-03 -8.298634737730026245e-02 -5.616877693682909012e-03 9.574802964925765991e-02 -5.658392235636711121e-02 2.521829865872859955e-02 -3.059144876897335052e-02 -1.340610235929489136e-01 2.616451820358633995e-03 -7.853718474507331848e-03 -6.252991408109664917e-02 8.343321830034255981e-02 -2.193298004567623138e-02 1.309131272137165070e-02 -5.441103503108024597e-02 4.493061080574989319e-02 4.676197096705436707e-02 1.008560508489608765e-02 -9.480532258749008179e-02 5.151150748133659363e-02 -2.447652630507946014e-02 -2.148520201444625854e-02 -2.909555844962596893e-02 -5.320603400468826294e-02 -5.308873206377029419e-02 -2.492143400013446808e-02 -7.762697339057922363e-02 4.385093972086906433e-02 -1.891447752714157104e-01 5.225191637873649597e-02 -1.455321907997131348e-02 -8.104387670755386353e-03 9.856276959180831909e-02 -2.348956093192100525e-02 9.574775397777557373e-02 1.736946962773799896e-02 1.780420988798141479e-01 2.958665601909160614e-02 -1.215743795037269592e-01 -1.459270566701889038e-01 7.221822440624237061e-02 6.533408910036087036e-02 -3.251104056835174561e-02 1.782179772853851318e-01 1.275947690010070801e-01 -1.010615006089210510e-01 -1.682647615671157837e-01 -2.148727327585220337e-02 8.256404101848602295e-02 -6.483877450227737427e-02 8.691893517971038818e-02 6.699993461370468140e-02 1.408216953277587891e-01 -6.039607524871826172e-02 -1.133225560188293457e-01 -1.148645654320716858e-01 -1.308217528276145458e-03 -6.249203160405158997e-02 -9.704798460006713867e-02 -9.292930364608764648e-02 -1.609296351671218872e-01 -1.511132568120956421e-01 -6.123433262109756470e-02 -5.035763978958129883e-02 -6.937951594591140747e-02 -1.067889928817749023e-01 -1.054147705435752869e-01 1.251874417066574097e-01 2.603535726666450500e-02 -1.279778927564620972e-01 -5.377080664038658142e-02 9.243037551641464233e-02 9.334323555231094360e-02 1.378964632749557495e-02 -7.596621662378311157e-02 -4.255608841776847839e-02 -2.405099011957645416e-02 5.478334426879882812e-02 8.613784611225128174e-02 -1.324148625135421753e-01 6.886879354715347290e-02 -3.135666949674487114e-03 -7.901461422443389893e-02 8.286241441965103149e-02 -1.913502998650074005e-02 1.097333803772926331e-01 -5.182662606239318848e-02 6.256302446126937866e-02 -1.057447027415037155e-02 -1.104104891419410706e-01 -6.938628107309341431e-02 -4.813984036445617676e-02 1.132162213325500488e-01 -1.179521307349205017e-01 -4.055489972233772278e-02 7.090803980827331543e-02 -1.112946495413780212e-01 -7.682149857282638550e-02 5.682918429374694824e-02 8.171667903661727905e-02 -4.553691670298576355e-02 2.173441089689731598e-02
4.332690965384244919e-03 1.725228130817413330e-01 -3.777910396456718445e-02 5.916817858815193176e-02 -6.202007457613945007e-02 -1.203204542398452759e-01 1.527413167059421539e-02 -1.525147110223770142e-01 -9.364579617977142334e-02 -1.603284105658531189e-02 -6.824954599142074585e-02 -2.128331549465656281e-02 1.288929115980863571e-02 -4.486998543143272400e-02 1.162360832095146179e-01 -1.496509909629821777e-01 1.889347657561302185e-02 1.379143446683883667e-01 -1.450106799602508545e-01 -2.181135676801204681e-02 4.276860971003770828e-03 1.400709152221679688e-02 -3.246241807937622070e-02 1.385481189936399460e-02 2.163702249526977539e-02 8.766761049628257751e-03 1.673979163169860840e-01 -2.622202970087528229e-02 -6.531745195388793945e-03 2.547330968081951141e-02 -1.349782049655914307e-01 2.603084314614534378e-03 -4.156142007559537888e-03 8.434750139713287354e-02 2.743625640869140625e-02 4.702873528003692627e-02 -3.531167283654212952e-02 -6.414001435041427612e-02 -4.561285302042961121e-02 1.306556016206741333e-01 1.038957983255386353e-01 1.232055202126502991e-01 -1.478175371885299683e-01 1.777102425694465637e-02 1.930864304304122925e-01 4.041695222258567810e-02 1.138723865151405334e-01 1.998287588357925415e-01 3.845019266009330750e-02 -1.980970352888107300e-01 -2.468064986169338226e-02 -5.489801242947578430e-02 -2.504595182836055756e-02 -1.101678516715764999e-02 9.115107357501983643e-03 -6.790166348218917847e-02 1.145149022340774536e-01 8.722165226936340332e-02 5.455917865037918091e-02 1.490508615970611572e-01 4.234394431114196777e-02 -5.541601404547691345e-02 -1.603713631629943848e-02 2.071961015462875366e-02 2.929051592946052551e-02 -4.800327122211456299e-02 3.951928019523620605e-02 4.746324568986892700e-02 -5.949004366993904114e-02 2.016146294772624969e-02 -9.828700870275497437e-02 -9.510558098554611206e-02 1.163062453269958496e-01 6.066500768065452576e-02 -1.111999154090881348e-01 -2.749659493565559387e-02 7.890398055315017700e-02 -3.638608008623123169e-02 -1.402783964294940233e-04 -1.780044883489608765e-01 4.405795410275459290e-02 5.447257310152053833e-02 4.717075824737548828e-02 -5.217340216040611267e-02 6.679355919914087281e-06 -1.223034970462322235e-02 -7.739310711622238159e-02 5.430651828646659851e-02 8.174521476030349731e-02 -1.319870203733444214e-01 3.868118301033973694e-02 -5.802405625581741333e-02 -4.501744639128446579e-03 -3.029951453208923340e-02 -1.090154610574245453e-02 4.288909211754798889e-02 1.340003758668899536e-01 -8.766932040452957153e-02 1.463481457903981209e-03 6.916572153568267822e-02 -1.093592643737792969e-01 5.224202945828437805e-02 -1.095270738005638123e-01 -1.638027280569076538e-01 -4.475677758455276489e-02 1.464659720659255981e-01 3.724615275859832764e-02 -1.542975939810276031e-02 2.492036484181880951e-02 -9.426820091903209686e-03 -5.585440993309020996e-02 -3.769702464342117310e-02 7.815996557474136353e-02 7.680863887071609497e-02 -3.466553613543510437e-02 -1.304528559558093548e-03 1.107430979609489441e-01 -2.811252512037754059e-02 -7.290192693471908569e-02 -6.712158769369125366e-02 -4.065032675862312317e-02 1.893367022275924683e-01 4.468118399381637573e-02 1.796481460332870483e-01 7.665919512510299683e-02 -3.832072392106056213e-02 1.080973725765943527e-02 5.790641903877258301e-02 -1.671938896179199219e-01 2.447048202157020569e-02 1.603643745183944702e-01 2.973365224897861481e-02 5.511425063014030457e-02 -7.390942424535751343e-02 4.629202187061309814e-02 -9.718629717826843262e-02 1.470290720462799072e-01 2.319679223001003265e-02 2.929639257490634918e-02 1.543067693710327148e-01 -8.034081757068634033e-02 1.539566963911056519e-01 -4.790749400854110718e-02 -2.294702921062707901e-03 -2.213560789823532104e-02 2.259563282132148743e-02 -1.609517633914947510e-02 4.896869137883186340e-02 -4.317604750394821167e-02 5.994626879692077637e-02 -4.556406661868095398e-02 -8.259191177785396576e-03 2.196127735078334808e-02 3.382692486047744751e-02 4.546082392334938049e-02 2.071220986545085907e-02 8.891317062079906464e-03 -1.849475353956222534e-01 -6.321080029010772705e-02 4.644829407334327698e-02 1.368638277053833008e-01 1.154605075716972351e-01 3.807629644870758057e-02 7.052791863679885864e-02 1.644217967987060547e-02 7.058735191822052002e-02 -1.459039598703384399e-01 4.321826621890068054e-03 -1.705592572689056396e-01 -5.457025393843650818e-02 -6.792714446783065796e-02 -1.494431984610855579e-03 -1.155113987624645233e-02 9.593232721090316772e-02 -6.070087105035781860e-02 -5.124930664896965027e-02 1.361281722784042358e-01 2.077974937856197357e-02 -6.817879527807235718e-02 5.774816032499074936e-03 -6.360745429992675781e-02 2.601077221333980560e-02 1.079996582120656967e-02 -2.567582204937934875e-02 4.852094501256942749e-02 -6.970390211790800095e-03 1.022642254829406738e-01 -2.154372073709964752e-02 4.520357772707939148e-02 6.139814481139183044e-02 -4.821304604411125183e-02 -6.559407711029052734e-02 7.107522338628768921e-03 1.298590749502182007e-01 -8.364298194646835327e-02 5.468781571835279465e-03 -5.155708268284797668e-02 -1.365958899259567261e-01 -1.294543445110321045e-01 -5.730943009257316589e-02 -1.942933052778244019e-01 -1.581410877406597137e-02 2.569220028817653656e-02 2.289242111146450043e-02 -1.595193445682525635e-01 4.325143247842788696e-02 -1.227289661765098572e-01 8.199816197156906128e-02 1.228825077414512634e-01 -9.222088009119033813e-02 -3.240764886140823364e-02 -9.256760776042938232e-02 -8.737958222627639771e-02 -2.027220465242862701e-02 3.948949649930000305e-02 5.445056036114692688e-02 6.339119374752044678e-02 -1.201465502381324768e-01 1.205404177308082581e-01 9.636618196964263916e-02 -2.942482568323612213e-02 2.469360642135143280e-02 6.843069940805435181e-02 -4.812193568795919418e-03 1.176663041114807129e-01 -9.505646675825119019e-02 -7.914292812347412109e-02 1.386867016553878784e-01 8.173196762800216675e-02 -1.167888641357421875e-01 -2.245810348540544510e-03 1.366623342037200928e-01 3.070508874952793121e-02 -7.421083748340606689e-02 6.509164720773696899e-02 -4.761150479316711426e-02 1.083461195230484009e-01 9.187149256467819214e-02 9.560235589742660522e-02 6.063738092780113220e-02 -8.191674202680587769e-02 3.625225275754928589e-02 6.236606463789939880e-02 1.909901797771453857e-01 4.598480463027954102e-02 6.927671283483505249e-02 -4.029952920973300934e-03 -1.920340396463871002e-02 1.867654174566268921e-01 -1.166404131799936295e-02 -4.300889000296592712e-02 6.835698336362838745e-02 9.515930712223052979e-02 -7.532864063978195190e-02 1.014412865042686462e-01 -9.345631301403045654e-02 1.249202042818069458e-01 -9.657686203718185425e-02 -8.537226915359497070e-02 -5.232243612408638000e-02 -7.435686886310577393e-02 -4.216907545924186707e-02 2.650674059987068176e-02 -1.182287707924842834e-01 1.909006088972091675e-01 8.854620903730392456e-02 -8.982975780963897705e-02 -6.222980841994285583e-02 -2.640452049672603607e-02 6.505213677883148193e-02 -1.438188999891281128e-01 -3.431204706430435181e-03 -8.721767924726009369e-03 1.023613810539245605e-01 6.164965778589248657e-02 -4.889669641852378845e-02 5.898970365524291992e-02 3.941080346703529358e-02 3.005746565759181976e-02 1.814522594213485718e-02 1.214373763650655746e-02 -7.512865122407674789e-03 -5.720665678381919861e-02 1.003084927797317505e-01 7.140280306339263916e-02 1.801234781742095947e-01 -2.587738446891307831e-02 -9.187535941600799561e-02 5.453851446509361267e-02 5.280181393027305603e-02 -5.720912292599678040e-02 2.164619229733943939e-02 -1.387451775372028351e-02 -4.594174772500991821e-02 1.900128722190856934e-01 -4.434700310230255127e-02 1.574240773916244507e-01 6.101427599787712097e-02 -2.309598587453365326e-02 1.240546479821205139e-01 -5.465323477983474731e-02 4.053815826773643494e-02 -5.460043624043464661e-02 -1.287930309772491455e-01 3.077833913266658783e-02 1.705709099769592285e-02 -1.307706087827682495e-01 1.170925870537757874e-01 -6.941343192011117935e-03 -2.601000480353832245e-03 1.020423769950866699e-01 8.852198719978332520e-02 2.948489785194396973e-02 1.088399440050125122e-01 3.598045930266380310e-02 1.581905782222747803e-02 -1.982272602617740631e-02 3.193444386124610901e-02 4.141539335250854492e-02 6.794036924839019775e-02 1.510623544454574585e-01 -7.417473476380109787e-03 3.009580075740814209e-03 2.680360712110996246e-02 -7.412195205688476562e-02 9.648136049509048462e-02 -6.066064350306987762e-03 -8.186125010251998901e-02 9.573522210121154785e-02 -1.413037925958633423e-01 -1.716959103941917419e-02 -1.218967810273170471e-01 -6.104652211070060730e-02 -1.219500042498111725e-02 -7.192536722868680954e-03 -9.405391290783882141e-03 -1.962112030014395714e-03 7.762703299522399902e-02 -3.127887099981307983e-02 -3.292835876345634460e-02 8.976027369499206543e-03 -1.264733076095581055e-01 -2.764302864670753479e-02 -1.014721915125846863e-01 -1.019031405448913574e-01 9.117162972688674927e-02 -4.918657243251800537e-02 -6.810656283050775528e-03 -3.952688723802566528e-02 -1.011599227786064148e-01 -1.288305371999740601e-01 -5.250641331076622009e-02 -4.697808623313903809e-02 -1.637458652257919312e-01 -9.542912989854812622e-02 -1.643504761159420013e-02 -7.552701234817504883e-02 4.338056966662406921e-02 6.409030407667160034e-02 7.581240683794021606e-02 3.993481397628784180e-02 -6.849484890699386597e-02 1.544336695224046707e-02 1.460405439138412476e-01 -1.399873197078704834e-01 7.260746508836746216e-02 1.123933419585227966e-01 -6.811273843050003052e-02 1.425405442714691162e-01 -1.389780789613723755e-01 -1.037496551871299744e-01 6.491772364825010300e-04 -3.218667954206466675e-02 1.783404201269149780e-01 -5.323590710759162903e-02 -1.063629146665334702e-02 7.303863018751144409e-02 8.096052706241607666e-02 1.375686377286911011e-01 -1.111345216631889343e-01 -7.706838101148605347e-02 3.269989043474197388e-02 1.242770776152610779e-01 -6.675624102354049683e-02 -7.593981176614761353e-02 1.034660935401916504e-01 5.144177004694938660e-02 6.008228287100791931e-02 -1.343453526496887207e-01 6.063390895724296570e-02 -2.404675073921680450e-02 -1.359256953001022339e-01 1.662063449621200562e-01 -3.491971641778945923e-02 5.856521800160408020e-02 -9.512381255626678467e-02 2.998848259449005127e-02 -6.435107439756393433e-02 6.451799720525741577e-02 5.606205388903617859e-02 1.894230544567108154e-01 -2.476663701236248016e-02 -1.545635312795639038e-01 -3.764794766902923584e-02 -5.749080330133438110e-02 -1.283941566944122314e-01 -7.763344794511795044e-03 -4.342000558972358704e-02 -2.298804558813571930e-02 1.945647411048412323e-02 1.580723375082015991e-01 1.146752610802650452e-01 8.980486541986465454e-02 -1.324322670698165894e-01 -1.446904093027114868e-01 -1.157599687576293945e-01 9.981374442577362061e-02 8.848115056753158569e-02 1.219514533877372742e-01 -8.813792467117309570e-02 -2.841178141534328461e-02 -1.722033321857452393e-01 7.292568683624267578e-02 1.114321276545524597e-01 7.523705065250396729e-02 -2.387846261262893677e-02 -1.364021152257919312e-01 1.954975426197052002e-01 -4.685346037149429321e-02 -1.714141815900802612e-01 -5.135039240121841431e-02 8.604336529970169067e-03 -8.510933071374893188e-02 -6.672105938196182251e-02 1.361485868692398071e-01 3.860750421881675720e-02 4.647703468799591064e-02 5.485546216368675232e-02 -1.298751533031463623e-01 -4.522506147623062134e-02 6.149422843009233475e-03 -7.903221994638442993e-02 -4.746200516819953918e-03 -1.375901978462934494e-02 -9.584194421768188477e-02 -9.829960763454437256e-02 -1.443392932415008545e-01 -4.058370366692543030e-03 1.990859508514404297e-01 -3.124843537807464600e-02 -7.558234035968780518e-02 1.491304934024810791e-01 -1.425831019878387451e-01 2.683471702039241791e-02 -1.276830285787582397e-01 -5.590329691767692566e-02 -1.457436382770538330e-01 -1.082298532128334045e-01 -1.404926180839538574e-02 1.471659541130065918e-01 -7.578244060277938843e-02 -3.951274976134300232e-02 -1.114563941955566406e-01 -3.689167648553848267e-02 1.359926313161849976e-01 8.118326775729656219e-03 2.423934638500213623e-02 1.142628192901611328e-01 8.114811033010482788e-02 -9.823734313249588013e-02 -4.821334406733512878e-02 -3.472480550408363342e-02 -8.363473229110240936e-03 -1.108279600739479065e-01 4.003975912928581238e-02 -5.508347228169441223e-02 9.092484414577484131e-02 1.216017752885818481e-01 -5.531499907374382019e-02 1.234157234430313110e-01 9.290268272161483765e-02 -1.923062354326248169e-01 -5.523230065591633320e-04 -8.838085457682609558e-03 5.547896772623062134e-02 3.861679881811141968e-02 -1.897048577666282654e-02 7.888834923505783081e-02 1.921853572130203247e-01 9.219730645418167114e-02 1.338490378111600876e-02 6.400102376937866211e-02 -4.556615278124809265e-02 -8.158919215202331543e-02 5.241824313998222351e-02 7.593253999948501587e-02 1.342669278383255005e-01 3.100104443728923798e-02 -3.085834160447120667e-02 -2.328614331781864166e-02 -2.589254081249237061e-02 1.037399992346763611e-01 7.942429929971694946e-02 -1.153669580817222595e-01 -1.352486312389373779e-01 -1.193553730845451355e-01 -9.044589102268218994e-02 -9.738919138908386230e-02 1.381750870496034622e-02 -6.200385838747024536e-02 4.607774317264556885e-03 4.060496017336845398e-02
2.734410762786865234e-02 2.487877570092678070e-02 5.620816349983215332e-02 1.286734938621520996e-01 6.950441747903823853e-02 1.383273452520370483e-01 -3.411832079291343689e-02 3.800816461443901062e-02 1.921343989670276642e-02 -1.624925620853900909e-02 1.759040914475917816e-02 1.573773622512817383e-01 -1.442905515432357788e-01 -1.097454950213432312e-01 8.490914478898048401e-03 1.879642903804779053e-01 4.557016491889953613e-02 7.428781688213348389e-02 -1.019748225808143616e-01 6.061724573373794556e-02 -8.573999255895614624e-02 3.319137543439865112e-02 8.545549958944320679e-02 -9.479492902755737305e-02 3.878667205572128296e-02 1.872138679027557373e-02 6.593028455972671509e-02 8.967476338148117065e-02 -1.406210362911224365e-01 1.404345184564590454e-01 -8.968773484230041504e-02 7.371347397565841675e-02 -1.619198620319366455e-01 1.327403187751770020e-01 -7.753329724073410034e-02 2.698219381272792816e-02 -1.009333282709121704e-01 -5.523853376507759094e-02 1.728870719671249390e-01 1.210479289293289185e-01 1.274162679910659790e-01 5.497046746313571930e-03 3.884756937623023987e-02 -1.517412513494491577e-01 8.809617161750793457e-02 -1.785456389188766479e-02 -1.085686013102531433e-01 1.238693133927881718e-03 5.916370823979377747e-02 1.149910688400268555e-01 -5.406361818313598633e-02 6.238224729895591736e-02 -2.082009613513946533e-02 5.840691924095153809e-02 -1.713309735059738159e-01 -1.794365495443344116e-01 -1.596659608185291290e-02 -1.335036475211381912e-02 -1.998322755098342896e-01 1.301538944244384766e-01 1.135365013033151627e-02 -1.905223578214645386e-01 1.268651932477951050e-01 -4.970749467611312866e-02 9.410271421074867249e-03 2.484062500298023224e-02 5.493962392210960388e-02 4.121388122439384460e-02 5.738991498947143555e-02 -9.889996051788330078e-02 9.933228045701980591e-02 5.602511763572692871e-02 -2.188604883849620819e-02 -1.379383821040391922e-02 4.818521067500114441e-02 -1.034091860055923462e-01 4.188767820596694946e-02 1.501630395650863647e-01 1.372697800397872925e-01 -2.196432836353778839e-02 -3.477640822529792786e-02 1.387007683515548706e-01 -9.069737792015075684e-02 -7.124757766723632812e-02 -1.724748313426971436e-01 -1.331294029951095581e-01 -1.863447874784469604e-01 -5.362161621451377869e-02 -1.266975104808807373e-01 2.292195893824100494e-02 4.217458143830299377e-02 -7.466643303632736206e-02 5.267454311251640320e-02 1.071452647447586060e-01 4.728484153747558594e-02 1.141791716217994690e-01 -1.282757222652435303e-01 -6.377088278532028198e-02 -1.167873740196228027e-01 7.256392389535903931e-02 -1.572448462247848511e-01 -1.477997601032257080e-01 1.016223579645156860e-01 -2.795780263841152191e-02 -5.984986573457717896e-02 -2.631633356213569641e-02 -4.756186529994010925e-02 5.019209533929824829e-02 -3.834484145045280457e-02 -8.691079914569854736e-03 -1.022014245390892029e-01 -6.257259100675582886e-02 -1.103575006127357483e-01 -7.046185433864593506e-03 1.234929785132408142e-01 -2.770767547190189362e-02 1.028188839554786682e-01 1.727007776498794556e-01 -2.035880461335182190e-02 6.320007145404815674e-02 1.070132181048393250e-01 6.578621268272399902e-02 6.623817142099142075e-03 -2.850005403161048889e-02 -1.453863829374313354e-01 8.398913592100143433e-02 -6.487172096967697144e-02 3.390163928270339966e-02 1.068425700068473816e-01 -5.409534648060798645e-02 5.041677504777908325e-02 -3.836636990308761597e-02 1.264222115278244019e-01 -3.844191133975982666e-02 -1.941646188497543335e-01 1.813530772924423218e-01 -3.497061505913734436e-02 1.681472361087799072e-02 -9.453710168600082397e-03 9.165065735578536987e-02 -5.999263003468513489e-02 -1.849562376737594604e-01 -4.471117630600929260e-02 1.140882894396781921e-01 9.600377082824707031e-02 1.208851560950279236e-01 1.251564640551805496e-02 5.680850706994533539e-03 1.418270915746688843e-01 -2.087426371872425079e-02 -4.565139859914779663e-02 -7.327594608068466187e-02 -1.434842497110366821e-01 -1.126394420862197876e-01 -1.084889695048332214e-01 -6.058661267161369324e-02 7.297372072935104370e-02 -1.953985989093780518e-01 3.823987767100334167e-02 -1.488327514380216599e-02 -8.196792006492614746e-02 1.442516297101974487e-01 6.472474336624145508e-02 -1.957700103521347046e-01 -7.474128901958465576e-02 -1.353909671306610107e-01 1.354792118072509766e-01 1.203448325395584106e-01 -1.796528249979019165e-01 7.046988606452941895e-02 1.528414636850357056e-01 1.309963595122098923e-02 -5.273456498980522156e-02 1.978880912065505981e-01 -7.776024285703897476e-03 2.069577388465404510e-02 9.568905085325241089e-02 -1.187413111329078674e-01 -1.407370418310165405e-01 8.928445726633071899e-02 6.725733727216720581e-02 -1.812331676483154297e-01 -2.173692174255847931e-02 1.774120889604091644e-02 -1.945909410715103149e-01 7.622487097978591919e-02 -1.019234862178564072e-02 8.873611688613891602e-02 1.452934443950653076e-01 -4.212559014558792114e-02 2.686755731701850891e-02 -7.852434366941452026e-02 -1.067443415522575378e-01 2.035509049892425537e-02 3.057893365621566772e-03 -1.048828586935997009e-01 7.978416979312896729e-02 -1.468434780836105347e-01 9.672973304986953735e-02 -9.957787394523620605e-02 7.245948165655136108e-02 -6.605315208435058594e-02 6.820343434810638428e-03 6.375732272863388062e-02 2.244347706437110901e-02 1.422702372074127197e-01 1.262897700071334839e-01 -6.788922939449548721e-03 -8.730293065309524536e-02 4.785934463143348694e-02 6.118910387158393860e-02 3.614943241700530052e-03 -4.789007827639579773e-02 9.304019063711166382e-02 -6.330619752407073975e-02 9.537251293659210205e-02 4.368516430258750916e-02 -8.163504302501678467e-02 1.825694292783737183e-01 1.711173504590988159e-01 -7.473479956388473511e-02 -5.006570741534233093e-02 -5.883175879716873169e-02 -4.973189532756805420e-02 5.731676146388053894e-02 -2.189617417752742767e-02 -1.204771623015403748e-01 6.575723737478256226e-02 -1.032987236976623535e-01 7.372906804084777832e-02 -4.392862319946289062e-03 1.310097705572843552e-02 -7.739646732807159424e-02 -4.976381734013557434e-02 -1.521736234426498413e-01 -9.456000477075576782e-02 -5.306587368249893188e-02 -3.633147105574607849e-02 -4.476040974259376526e-02 -7.873116433620452881e-02 -1.785194426774978638e-01 -1.568180471658706665e-01 -8.760819584131240845e-02 2.881663851439952850e-02 -4.798714071512222290e-02 -4.447723180055618286e-02 -5.671601742506027222e-03 1.126430034637451172e-01 1.431703120470046997e-01 1.668780893087387085e-01 -9.672694653272628784e-02 9.160566143691539764e-03 4.370073601603507996e-02 -6.298344582319259644e-02 -2.745825052261352539e-02 4.246033355593681335e-02 -7.805794477462768555e-02 -1.759221404790878296e-02 -2.825958095490932465e-02 3.686396405100822449e-02 3.156642196699976921e-03 -9.757766872644424438e-02 5.830852896906435490e-04 1.374954637140035629e-02 2.883612411096692085e-03 -2.152237854897975922e-02 4.249757900834083557e-02 -8.405005931854248047e-02 -1.664713174104690552e-01 3.283731406554579735e-03 -1.132623776793479919e-01 2.212028764188289642e-02 -1.126092597842216492e-01 1.228165440261363983e-02 7.818847149610519409e-02 5.135441944003105164e-02 8.098790794610977173e-02 -1.208376809954643250e-01 7.768139988183975220e-02 1.515499502420425415e-01 3.877449780702590942e-02 1.814892888069152832e-01 1.437851637601852417e-01 -8.782868087291717529e-02 6.880588829517364502e-02 -4.137653112411499023e-02 7.906385511159896851e-02 1.646347045898437500e-01 1.223293468356132507e-01 -1.117779240012168884e-01 -5.009142309427261353e-02 3.944590315222740173e-02 7.739077555015683174e-04 1.114462986588478088e-01 4.600786045193672180e-02 1.449968665838241577e-02 1.898332983255386353e-01 1.104260310530662537e-01 -4.374745767563581467e-03 -1.540207415819168091e-01 8.871205151081085205e-02 6.216659676283597946e-03 1.104488968849182129e-01 9.605764597654342651e-02 -9.273242950439453125e-02 2.674325369298458099e-02 1.131604835391044617e-01 -1.190345659852027893e-01 -9.430544823408126831e-02 1.155295297503471375e-01 -6.342906504869461060e-02 3.633116721175611019e-04 1.340337097644805908e-01 -6.804460193961858749e-03 5.492582917213439941e-02 2.514941990375518799e-02 -8.208691142499446869e-03 -3.666207566857337952e-02 2.298345416784286499e-02 4.792691674083471298e-03 -1.776125095784664154e-02 -1.181719675660133362e-01 6.750787794589996338e-02 -1.236141845583915710e-01 -6.982674449682235718e-02 4.594525322318077087e-02 -4.730387777090072632e-02 6.118576601147651672e-02 -1.481390744447708130e-02 -1.324662417173385620e-01 -1.642834395170211792e-01 1.627873480319976807e-01 -8.226828277111053467e-02 1.516024470329284668e-01 -1.028863340616226196e-01 6.670822948217391968e-02 -1.234833151102066040e-01 -1.662928983569145203e-02 1.843136036768555641e-03 -6.205924227833747864e-02 -1.466150730848312378e-01 -3.882162272930145264e-02 4.506728053092956543e-02 -2.667566016316413879e-02 -7.063405215740203857e-02 6.771754473447799683e-02 9.861740469932556152e-02 -1.296255886554718018e-01 1.342807859182357788e-01 -1.472929865121841431e-01 -3.365573287010192871e-02 -5.872687324881553650e-02 8.419802039861679077e-02 1.332388073205947876e-01 -7.402909547090530396e-02 1.562724821269512177e-02 8.743030950427055359e-03 -1.610358804464340210e-01 1.999424099922180176e-01 5.758304521441459656e-02 -5.423031374812126160e-02 3.178948909044265747e-02 -1.271791290491819382e-02 9.992582350969314575e-02 4.593865200877189636e-02 -1.489212960004806519e-01 3.603268414735794067e-02 -1.463132798671722412e-01 1.287276744842529297e-01 8.681648969650268555e-02 -1.149294376373291016e-01 -3.918440639972686768e-02 -1.422075927257537842e-01 -2.071853540837764740e-02 -4.809126723557710648e-03 9.844861924648284912e-02 1.218898128718137741e-02 6.344860047101974487e-02 -5.048280581831932068e-02 1.316228657960891724e-01 -4.059557802975177765e-03 1.741621457040309906e-02 1.307422667741775513e-01 -7.077502459287643433e-02 1.509240120649337769e-01 -1.100551486015319824e-01 3.542124852538108826e-02 -8.368026465177536011e-02 -1.454268693923950195e-01 3.423638641834259033e-03 1.041093394160270691e-01 -5.658522248268127441e-02 -3.263403475284576416e-02 1.212725564837455750e-01 9.836398810148239136e-02 -1.214833632111549377e-01 1.120560914278030396e-01 -9.518296271562576294e-02 -5.549919605255126953e-02 -1.383725106716156006e-01 -1.799775101244449615e-02 -2.336839586496353149e-02 5.579433590173721313e-02 -2.259206213057041168e-02 -2.833946421742439270e-02 -5.228574946522712708e-02 -1.426570862531661987e-01 6.040597707033157349e-02 7.927078753709793091e-02 -6.811858620494604111e-03 -1.020070747472345829e-03 3.983147069811820984e-02 3.305685147643089294e-02 -2.892287215217947960e-03 -2.274571917951107025e-02 1.278009265661239624e-01 7.612665742635726929e-02 5.468618497252464294e-02 4.978208616375923157e-02 9.047679603099822998e-02 -1.428757328540086746e-02 -1.744916103780269623e-02 8.698285371065139771e-02 -4.578161239624023438e-02 -4.271780326962471008e-02 -1.820292137563228607e-02 8.026885241270065308e-02 1.001976355910301208e-01 -7.625348120927810669e-02 5.748050287365913391e-02 4.749641753733158112e-03 -2.904371358454227448e-02 1.459484267979860306e-02 7.292748987674713135e-02 -1.053317114710807800e-01 7.734833750873804092e-03 -3.385213389992713928e-02 -2.634075842797756195e-02 1.283026672899723053e-02 9.162496030330657959e-02 -2.499061077833175659e-02 -5.761089548468589783e-02 -1.355156153440475464e-01 -1.234271302819252014e-01 -5.815561488270759583e-02 -3.028472699224948883e-02 -8.447020500898361206e-02 -5.218894407153129578e-02 -1.519690901041030884e-01 1.251254528760910034e-01 -1.344489455223083496e-01 9.707888215780258179e-02 -1.233148109167814255e-02 1.211690902709960938e-01 -1.019429489970207214e-01 1.036565564572811127e-02 6.174962595105171204e-02 -2.532911300659179688e-02 1.471949964761734009e-01 1.227454543113708496e-01 1.835371255874633789e-01 1.359444707632064819e-01 -4.091616254299879074e-03 3.282802877947688103e-03 -1.048016920685768127e-01 5.050125718116760254e-02 1.022858843207359314e-01 6.407361477613449097e-02 -7.731106132268905640e-02 -4.853779450058937073e-02 9.014704078435897827e-02 9.987955540418624878e-02 -4.771041497588157654e-02 -5.970581993460655212e-02 2.239654771983623505e-02 -5.403763800859451294e-02 -1.866018176078796387e-01 -4.911468550562858582e-02 -3.522606939077377319e-02 -1.736660487949848175e-02 -9.406039491295814514e-03 1.316385716199874878e-01 1.144343987107276917e-01 1.058754473924636841e-01 1.874807626008987427e-01 -1.944139227271080017e-02 -1.790610402822494507e-01 -3.191876783967018127e-02 -1.328363269567489624e-01 -1.309855431318283081e-01 -1.290585845708847046e-01 -7.431697100400924683e-03 9.213673323392868042e-02 -1.956671625375747681e-01 -3.758032247424125671e-02 -2.972044423222541809e-02 4.946097731590270996e-02 1.193815395236015320e-01 1.154599245637655258e-02 2.969796955585479736e-02 -2.839463017880916595e-02 1.651377044618129730e-02 8.976702392101287842e-02 -1.697912663221359253e-01 7.115059532225131989e-03 7.446636259555816650e-02 -7.147763669490814209e-02 -4.816621541976928711e-02 1.252278834581375122e-01 -1.723712496459484100e-02 9.650814346969127655e-03 9.389103949069976807e-02
7.499062269926071167e-02 3.154691308736801147e-02 -1.481502205133438110e-01 -2.158094011247158051e-02 6.197458133101463318e-02 -5.688497424125671387e-02 -8.205767720937728882e-02 1.624233871698379517e-01 -5.350213870406150818e-02 -7.770888507366180420e-02 1.373511552810668945e-02 -1.912933588027954102e-01 4.605078324675559998e-02 1.114111915230751038e-01 5.065839365124702454e-02 7.792703062295913696e-02 2.989266812801361084e-02 -5.964283272624015808e-02 -8.996294811367988586e-03 -5.010208114981651306e-02 1.468198150396347046e-01 -3.691414743661880493e-02 2.808305621147155762e-02 -1.280885487794876099e-01 3.345885500311851501e-02 6.326048821210861206e-02 1.445222049951553345e-01 3.362599015235900879e-02 -4.167631268501281738e-02 6.090528797358274460e-03 -1.636425703763961792e-01 1.381358653306961060e-01 1.105013303458690643e-02 7.678439468145370483e-02 6.254013627767562866e-02 -1.255233734846115112e-01 4.198116436600685120e-02 -1.262183785438537598e-01 1.588155478239059448e-01 3.894713148474693298e-02 2.298059500753879547e-02 3.462287411093711853e-02 -7.014168053865432739e-02 9.184841066598892212e-03 -4.111778363585472107e-02 1.126122474670410156e-01 1.621019840240478516e-01 1.550135612487792969e-01 9.530904144048690796e-02 -6.058115884661674500e-02 -2.574329636991024017e-02 -5.991139635443687439e-02 -8.983477018773555756e-03 -6.697659939527511597e-02 -7.714194059371948242e-02 -1.227020844817161560e-01 -8.220385760068893433e-02 -1.127731129527091980e-01 7.802516222000122070e-02 -2.241674624383449554e-02 2.305281721055507660e-02 1.381429936736822128e-02 1.654907017946243286e-01 4.951689764857292175e-02 -5.500651150941848755e-02 1.517759449779987335e-02 -1.941853612661361694e-01 2.457780204713344574e-02 2.031633071601390839e-02 -6.431616097688674927e-02 -5.799054726958274841e-02 -5.143368244171142578e-02 -7.763209193944931030e-02 -1.553160846233367920e-01 -3.036738745868206024e-02 -2.459046803414821625e-02 -4.617710597813129425e-03 -9.153478592634201050e-02 -4.378607496619224548e-02 -2.557875774800777435e-02 -5.029402300715446472e-02 1.007378380745649338e-02 1.019264981150627136e-01 1.708572804927825928e-01 -7.472436130046844482e-02 2.863791584968566895e-02 -9.461872279644012451e-03 1.592137515544891357e-01 1.365818530321121216e-01 -8.319588750600814819e-02 -3.944408893585205078e-02 -1.887017674744129181e-02 -9.908296167850494385e-02 5.119401495903730392e-03 -2.255111746490001678e-02 -2.838421799242496490e-02 -1.317272037267684937e-01 -3.178169950842857361e-03 7.469350844621658325e-02 8.005132526159286499e-02 1.253250688314437866e-01 2.065785601735115051e-02 -1.972932815551757812e-01 -1.372606009244918823e-01 -4.773589968681335449e-02 1.064488217234611511e-01 6.350085139274597168e-02 1.247571967542171478e-02 -7.321999967098236084e-02 -1.731089949607849121e-01 -1.729361414909362793e-01 -7.710027421126142144e-05 -1.127809211611747742e-01 8.181031048297882080e-02 -7.022664695978164673e-02 1.826159954071044922e-01 -6.963436491787433624e-03 -4.603322967886924744e-02 -1.634920090436935425e-01 4.444009810686111450e-02 -6.321366876363754272e-02 1.238517537713050842e-01 -3.373466804623603821e-02 -9.037657640874385834e-03 -1.619172096252441406e-01 1.234898436814546585e-02 1.530194878578186035e-01 -1.626381874084472656e-01 -1.488609313964843750e-01 -6.790293846279382706e-04 -9.180189669132232666e-02 -2.068940736353397369e-02 1.144616752862930298e-01 4.925663769245147705e-02 -6.579603999853134155e-03 -1.687487959861755371e-02 -6.932253390550613403e-02 -9.627050906419754028e-02 4.148399829864501953e-02 -7.818488031625747681e-02 1.779454201459884644e-01 2.183762192726135254e-02 2.280675619840621948e-02 -1.876151375472545624e-02 1.044225469231605530e-01 1.008030306547880173e-02 6.273915618658065796e-02 3.649548161774873734e-03 -4.283016920089721680e-02 9.960814565420150757e-02 -1.109712645411491394e-01 -8.083828538656234741e-02 -2.129351161420345306e-02 -9.800915420055389404e-02 4.768257960677146912e-02 -2.852544188499450684e-02 -2.319013513624668121e-02 -1.297607719898223877e-01 1.803867332637310028e-02 -1.882229000329971313e-01 1.184692755341529846e-01 -1.925297379493713379e-01 3.632751479744911194e-02 1.842385083436965942e-01 -4.257018491625785828e-02 -2.691694535315036774e-02 1.390517950057983398e-01 1.249753758311271667e-01 -1.135308369994163513e-01 1.479289494454860687e-03 7.666533440351486206e-02 8.802566677331924438e-03 7.372847199440002441e-02 -1.954687088727951050e-01 -4.945759847760200500e-02 -1.445554941892623901e-01 -8.466085046529769897e-02 1.807312667369842529e-01 -5.644522234797477722e-02 1.066470518708229065e-01 -8.745678514242172241e-02 6.938376277685165405e-02 -5.780548322945833206e-03 1.219468191266059875e-02 -1.682962328195571899e-01 -1.988414973020553589e-01 3.506172820925712585e-02 2.340653352439403534e-02 -6.118813157081604004e-02 -3.922272846102714539e-02 -8.808637410402297974e-02 -2.224462106823921204e-02 8.444306999444961548e-02 4.567176848649978638e-02 -7.250462472438812256e-02 -1.554794162511825562e-01 7.919761352241039276e-03 -2.635426260530948639e-02 -6.851449608802795410e-02 7.104840129613876343e-02 1.042719483375549316e-01 4.594966024160385132e-02 5.839721485972404480e-02 1.786635965108871460e-01 2.752835489809513092e-02 -1.318545788526535034e-01 -1.875360682606697083e-02 -5.321961641311645508e-02 -1.552324444055557251e-01 4.099591448903083801e-02 -1.050626784563064575e-01 1.200046539306640625e-01 1.768562011420726776e-02 -1.157062649726867676e-01 1.167052984237670898e-01 3.350529447197914124e-02 -1.195420548319816589e-01 -1.020146720111370087e-02 1.276599615812301636e-01 3.767185285687446594e-02 2.336835674941539764e-02 -5.120331794023513794e-02 -4.423257336020469666e-02 -6.978621240705251694e-03 -7.674073427915573120e-02 -8.163291215896606445e-02 -1.160518452525138855e-01 6.848315894603729248e-02 1.609603688120841980e-02 6.710743159055709839e-02 -6.468150531873106956e-04 -1.695221960544586182e-01 -1.565540283918380737e-01 -2.060802839696407318e-02 -8.338820189237594604e-02 4.920705407857894897e-02 -7.880938239395618439e-03 2.493447437882423401e-02 1.033178120851516724e-01 -2.900278940796852112e-02 -8.392893522977828979e-02 1.796933859586715698e-01 -5.605260282754898071e-02 -1.092522889375686646e-01 9.689687937498092651e-02 -6.079114601016044617e-02 -1.796787604689598083e-02 -4.766491428017616272e-02 -1.848114430904388428e-01 -1.014042645692825317e-01 -4.213694483041763306e-02 -3.566294163465499878e-02 1.693873107433319092e-01 8.351911604404449463e-02 1.799372881650924683e-01 -1.669159717857837677e-02 -6.815440952777862549e-02 1.707992330193519592e-02 -8.474245667457580566e-02 -9.110742062330245972e-02 3.892264515161514282e-02 3.578701242804527283e-02 3.894275054335594177e-02 1.937510520219802856e-01 2.992128394544124603e-02 -1.069230772554874420e-02 -5.990089103579521179e-02 -4.920741077512502670e-03 8.171680383384227753e-03 9.648370742797851562e-02 7.483272999525070190e-02 -3.732340410351753235e-02 -1.967455595731735229e-01 1.011953279376029968e-01 -1.953916398633737117e-05 6.743638962507247925e-02 -6.221031770110130310e-02 -4.898628592491149902e-02 1.010589599609375000e-01 -7.026600092649459839e-02 -1.254617720842361450e-01 2.944073453545570374e-02 -4.775113239884376526e-02 3.745446354150772095e-02 -5.335829779505729675e-02 -6.891646981239318848e-02 1.163577213883399963e-01 2.530511282384395599e-02 -3.069826029241085052e-02 -9.773101657629013062e-02 -2.933107130229473114e-02 -1.372285336256027222e-01 -3.181083593517541885e-03 1.214136034250259399e-01 -1.551389098167419434e-01 -2.562830224633216858e-02 1.541335880756378174e-01 9.699597209692001343e-02 6.436770409345626831e-02 -1.575209498405456543e-01 7.512816786766052246e-02 -4.275373741984367371e-02 -7.965137809514999390e-02 1.737332902848720551e-02 2.154216729104518890e-02 -5.451049283146858215e-02 3.218401968479156494e-02 -4.416472464799880981e-02 -1.262003183364868164e-01 2.993675880134105682e-02 -1.748233884572982788e-01 -9.006515145301818848e-02 -1.313888877630233765e-01 9.006925672292709351e-02 -1.387161761522293091e-01 5.654984712600708008e-02 -4.188061878085136414e-02 -9.995438903570175171e-02 8.087082952260971069e-02 9.871103614568710327e-02 -3.908009454607963562e-02 5.817152932286262512e-02 -2.921084128320217133e-02 -1.953801885247230530e-02 1.492072828114032745e-02 1.262983381748199463e-01 -7.822453230619430542e-02 4.041082784533500671e-02 -5.000072717666625977e-02 1.107230186462402344e-01 -7.450526207685470581e-02 -4.975705593824386597e-02 1.243263389915227890e-02 -1.455493923276662827e-02 -8.839448913931846619e-03 -1.099955365061759949e-01 -1.368991881608963013e-01 -1.892279237508773804e-01 -1.163482442498207092e-01 3.162824735045433044e-02 -1.600107550621032715e-01 -2.088113687932491302e-02 1.564566642045974731e-01 -3.746342658996582031e-02 -1.716200262308120728e-01 -1.874297708272933960e-01 1.691079884767532349e-02 -4.671285673975944519e-02 -3.090051189064979553e-02 1.187238618731498718e-01 4.742491245269775391e-02 4.499408975243568420e-02 1.720836572349071503e-02 3.387515200302004814e-03 -5.924444273114204407e-02 7.943826913833618164e-02 -1.361061483621597290e-01 7.108832150697708130e-02 6.448292732238769531e-02 -3.451517596840858459e-02 1.825933903455734253e-01 1.225747838616371155e-01 6.586767733097076416e-02 1.583459526300430298e-01 7.339031249284744263e-02 -1.045182272791862488e-01 -3.143478557467460632e-02 8.181202429113909602e-05 5.709603894501924515e-03 2.659632079303264618e-02 1.893233805894851685e-01 -4.061806481331586838e-03 -8.242986351251602173e-02 9.580548852682113647e-02 -1.392663270235061646e-01 1.240380480885505676e-02 1.109588891267776489e-01 1.065037865191698074e-02 -1.253687739372253418e-01 8.266773074865341187e-02 -2.141099981963634491e-02 -5.303309485316276550e-02 3.714001178741455078e-02 1.148868352174758911e-01 -2.090116031467914581e-02 -1.019534096121788025e-01 5.037419125437736511e-02 -5.593187734484672546e-02 -3.175943717360496521e-02 -3.249573707580566406e-02 -5.538577958941459656e-02 -1.787883788347244263e-02 -3.656174987554550171e-02 -2.962328866124153137e-02 1.326107769273221493e-03 8.592586964368820190e-02 6.166818737983703613e-02 -9.844719618558883667e-02 1.111714616417884827e-01 -1.022608876228332520e-01 7.071399688720703125e-02 -2.402787841856479645e-02 -1.186650898307561874e-02 9.906765818595886230e-02 9.533011168241500854e-02 3.152632340788841248e-02 6.606031209230422974e-02 -1.320431232452392578e-01 -9.264814108610153198e-02 1.861733943223953247e-01 -1.070017591118812561e-01 -1.102825552225112915e-01 -1.070857644081115723e-01 -9.696589410305023193e-02 3.240483626723289490e-02 5.105446651577949524e-02 7.574477046728134155e-02 -1.550041586160659790e-01 1.042571216821670532e-01 1.541036069393157959e-01 9.134285897016525269e-02 5.304053053259849548e-02 4.498016834259033203e-02 9.371224045753479004e-02 -7.333864923566579819e-03 -7.153218239545822144e-02 -1.376950591802597046e-01 -1.568554639816284180e-01 5.346506461501121521e-02 -6.705465167760848999e-02 -1.014939099550247192e-01 4.198394890408962965e-04 -8.248969167470932007e-02 7.138851284980773926e-02 -1.405608952045440674e-01 1.070668920874595642e-01 -3.033937327563762665e-02 -7.829991728067398071e-02 -1.394943892955780029e-01 -8.314966410398483276e-02 3.347655874677002430e-04 -1.202388331294059753e-01 3.817017003893852234e-02 7.981655001640319824e-02 1.299439221620559692e-01 -1.780011951923370361e-01 1.783850602805614471e-02 1.101490035653114319e-01 -1.169380918145179749e-02 1.319650709629058838e-01 1.875022612512111664e-02 8.307483047246932983e-02 5.381442233920097351e-02 -7.024984806776046753e-02 2.453266642987728119e-02 -7.225167006254196167e-02 -2.682416466996073723e-03 4.796393960714340210e-02 -8.932745084166526794e-03 6.903648376464843750e-02 1.721534579992294312e-01 -1.202309131622314453e-01 -6.739225238561630249e-02 -5.882811546325683594e-02 4.450575634837150574e-02 5.952256917953491211e-02 1.559925377368927002e-01 4.574320465326309204e-02 1.137057542800903320e-01 -8.167222887277603149e-02 2.238654298707842827e-03 -9.476052969694137573e-02 5.956753715872764587e-02 -7.330783456563949585e-02 -1.213110238313674927e-02 1.046223044395446777e-01 -3.183141723275184631e-02 6.124402955174446106e-02 -6.654190272092819214e-02 -8.078102022409439087e-02 9.592422097921371460e-02 -3.562905639410018921e-02 4.725487530231475830e-02 2.755846641957759857e-02 1.880281791090965271e-02 -8.282547444105148315e-02 4.086356982588768005e-02 -1.405724138021469116e-01 6.276189535856246948e-02 2.291638217866420746e-02 -8.370654541067779064e-04 5.537175759673118591e-02 -1.047161370515823364e-01 1.232691034674644470e-01 -1.921924203634262085e-02 -1.940567046403884888e-02 -4.893406108021736145e-02 -1.761244051158428192e-02 -5.046445876359939575e-02 1.495135761797428131e-02 -1.958789117634296417e-02 -9.031674265861511230e-02 1.255491822957992554e-01 2.419876307249069214e-02 -4.972998797893524170e-02 1.021042391657829285e-01 -1.386837810277938843e-01 -1.243157219141721725e-02 6.045098975300788879e-02 -1.238490361720323563e-02 1.242658719420433044e-01 7.412198930978775024e-02
