-7.646391540765762329e-02 1.726740300655364990e-01 5.646307021379470825e-02 6.338283419609069824e-02 -1.736831502057611942e-03 1.054247543215751648e-01 7.436135411262512207e-02 1.961011625826358795e-02 4.372017085552215576e-02 -1.338220387697219849e-01 -5.814249441027641296e-02 -7.025495171546936035e-02 5.294087156653404236e-02 -8.487664908170700073e-02 -4.394472017884254456e-02 -3.926011919975280762e-02 -4.814894497394561768e-02 -1.108347997069358826e-01 -8.317188173532485962e-02 6.619281321763992310e-02 1.065414100885391235e-01 -7.185038924217224121e-02 -1.147028729319572449e-01 -1.255132108926773071e-01 1.775982677936553955e-01 4.406880959868431091e-02 8.724435418844223022e-02 1.311942636966705322e-01 -3.736155107617378235e-03 -1.063688620924949646e-01 -1.565368324518203735e-01 -3.995395824313163757e-02 1.557497978210449219e-01 3.900262713432312012e-02 9.013338387012481689e-02 4.918599873781204224e-02 -2.520755492150783539e-02 3.237896785140037537e-02 -1.901316046714782715e-01 -7.297435402870178223e-02 8.604313246905803680e-03 4.336985573172569275e-02 1.220606341958045959e-01 -4.243689030408859253e-02 5.433356389403343201e-02 -2.345642261207103729e-02 1.427349001169204712e-01 5.322464182972908020e-02 -6.942573189735412598e-02 -5.421931669116020203e-02 6.174835842102766037e-03 9.098913520574569702e-02 -1.078161876648664474e-02 2.753670886158943176e-02 -1.511854231357574463e-01 -6.948473304510116577e-02 -1.339775510132312775e-02 9.712857753038406372e-02 -5.161518603563308716e-02 9.113761596381664276e-03 -1.109959464520215988e-02 -1.650389656424522400e-02 9.834241867065429688e-02 4.571161698549985886e-03 -8.534558117389678955e-02 -1.275097834877669811e-03 -1.162785440683364868e-01 6.710992753505706787e-02 7.914583384990692139e-02 -1.012427639216184616e-02 2.491014264523983002e-02 -3.701838105916976929e-02 -6.072575598955154419e-02 -4.855404421687126160e-02 -2.588516473770141602e-02 1.194768324494361877e-01 1.929183304309844971e-02 -3.804143518209457397e-02 -1.817888468503952026e-01 2.765464596450328827e-02 6.211064010858535767e-02 7.286791503429412842e-02 -6.466224044561386108e-02 -1.010866761207580566e-01 -9.595384448766708374e-02 1.314058434218168259e-02 9.597840905189514160e-02 7.026156038045883179e-02 -4.984439536929130554e-02 5.845904350280761719e-02 -6.288888305425643921e-02 -1.829742826521396637e-02 2.232285402715206146e-02 -3.160417079925537109e-02 -4.227875918149948120e-02 9.706359356641769409e-02 8.650463819503784180e-02 -1.852040737867355347e-01 -5.103684589266777039e-02 4.563517495989799500e-02 -1.064637824892997742e-01 1.294079869985580444e-01 1.082514896988868713e-01 -6.520878523588180542e-02 -1.944803744554519653e-01 1.593409031629562378e-01 -2.069473080337047577e-02 1.959208399057388306e-01 1.689425557851791382e-01 1.649370640516281128e-01 -8.822336047887802124e-02 -9.275930374860763550e-02 1.768097281455993652e-02 6.212054565548896790e-02 1.943556405603885651e-02 -9.767363965511322021e-02 -2.593342959880828857e-02 2.778443135321140289e-02 3.266894444823265076e-02 7.739007472991943359e-02 1.642697304487228394e-01 8.395742624998092651e-02 -3.972781077027320862e-02 -7.380313426256179810e-02 -6.135962530970573425e-02 -8.429377526044845581e-02 4.196033254265785217e-02 -4.560524970293045044e-02 6.521907448768615723e-02 -4.168758168816566467e-02 1.562235802412033081e-01 -1.162244658917188644e-02 1.039619818329811096e-01 5.741999298334121704e-02 -1.341787260025739670e-02 -1.230556294322013855e-01 1.589360237121582031e-01 3.696345910429954529e-02 2.234214916825294495e-02 5.105582997202873230e-02 2.465163171291351318e-02 1.649520546197891235e-02 4.602298606187105179e-03 -4.743037372827529907e-02 -3.900061175227165222e-02 -1.554332859814167023e-02 -3.871437627822160721e-03 -4.513926431536674500e-02 -7.580050081014633179e-02 4.706171527504920959e-02 -1.244985014200210571e-01 1.247188001871109009e-01 1.298243105411529541e-01 -4.659045860171318054e-02 -1.078783795237541199e-01 -1.062617525458335876e-01 -1.132552996277809143e-01 -1.712936013936996460e-01 1.532687526196241379e-02 -5.090717226266860962e-02 6.133253499865531921e-02 -9.809820912778377533e-03 -3.092800080776214600e-02 8.671309798955917358e-02 -6.165268830955028534e-03 6.119954586029052734e-02 1.580354273319244385e-01 -7.849898189306259155e-02 1.779676377773284912e-01 -9.742345660924911499e-02 1.024142932146787643e-02 -1.076570153236389160e-01 -2.650326304137706757e-02 -1.699415147304534912e-01 2.386615984141826630e-02 -6.883837282657623291e-02 -5.100452899932861328e-02 -7.478569634258747101e-03 -6.172997877001762390e-02 1.157765537500381470e-01 1.802725903689861298e-02 8.395048230886459351e-02 8.606892079114913940e-02 -5.720024183392524719e-02 5.641883611679077148e-02 -3.043016791343688965e-02 -6.365643348544836044e-03 -7.165941596031188965e-02 7.173671573400497437e-02 -1.564167141914367676e-01 -1.454439610242843628e-01 3.614959493279457092e-02 -6.114592775702476501e-02 -1.127680316567420959e-01 -2.472443692386150360e-02 -7.002615369856357574e-03 -1.088416110724210739e-02 1.026188954710960388e-01 -1.010696887969970703e-01 5.080300197005271912e-02 6.310107558965682983e-02 -8.260677754878997803e-02 3.203753381967544556e-02 4.439931735396385193e-02 -1.082347780466079712e-01 -8.984415978193283081e-02 -7.451497018337249756e-02 8.790907263755798340e-02 -9.759585559368133545e-02 3.503946587443351746e-02 -3.630134044215083122e-03 4.709357395768165588e-02 2.098370576277375221e-03 1.101395040750503540e-01 7.888294756412506104e-02 -3.644241020083427429e-02 8.087339252233505249e-02 -6.316773593425750732e-02 8.316195756196975708e-02 -4.342689737677574158e-02 -1.066593751311302185e-01 -9.673358500003814697e-02 2.951371483504772186e-02 3.281505033373832703e-02 1.187573298811912537e-01 1.641993373632431030e-01 9.040425717830657959e-02 -9.090266376733779907e-02 -1.410935670137405396e-01 4.713723063468933105e-02 1.586907804012298584e-01 -8.300898224115371704e-02 1.372682303190231323e-01 1.252544373273849487e-01 5.208517983555793762e-02 7.927311956882476807e-02 9.896696358919143677e-02 -1.381809264421463013e-01 5.532225593924522400e-02 5.420876666903495789e-02 3.727223491296172142e-03 -1.283827889710664749e-02 -1.148115918040275574e-01 -4.381956160068511963e-02 -7.718650251626968384e-02 -3.881965950131416321e-02 4.604545980691909790e-02 6.207384541630744934e-02 -5.426278710365295410e-02 -1.124971881508827209e-01 -1.162292286753654480e-01 -3.783596307039260864e-02 3.183456510305404663e-02 -9.194036573171615601e-02 -7.252579927444458008e-02 4.354239627718925476e-02 -1.058962270617485046e-01 1.300515085458755493e-01 1.320353299379348755e-01 5.786995962262153625e-02 -7.066407240927219391e-03 1.230404004454612732e-01 3.930467739701271057e-02 -1.263935416936874390e-01 4.604669287800788879e-02 5.766629055142402649e-02 -1.391631085425615311e-02 3.573590144515037537e-02 -9.218598715960979462e-03 -4.071436449885368347e-02 -7.765098661184310913e-02 -8.942960947751998901e-02 -7.636354863643646240e-02 -1.485629379749298096e-02 9.463682025671005249e-02 -1.115397214889526367e-01 -3.034872189164161682e-02 -1.041567251086235046e-01 7.787241134792566299e-03 -4.499540850520133972e-02 -1.218788232654333115e-02 -1.068080440163612366e-01 3.913429751992225647e-02 1.581833809614181519e-01 7.802958041429519653e-02 -3.026253357529640198e-02 -1.509041935205459595e-01 -8.997817523777484894e-03 2.150673605501651764e-02 -5.613794922828674316e-02 -2.012593485414981842e-02 -1.043054740875959396e-02 -2.747203409671783447e-02 7.808750867843627930e-02 4.901587590575218201e-02 1.263653635978698730e-01 -7.693842053413391113e-02 -1.055368185043334961e-01 -1.595473289489746094e-01 -3.052755072712898254e-02 -6.258644908666610718e-02 3.160315379500389099e-02 1.441399157047271729e-01 1.069094911217689514e-01 -2.870163321495056152e-02 1.034385245293378830e-02 1.787197440862655640e-01 9.958844631910324097e-02 5.843235924839973450e-02 -7.859887927770614624e-02 1.531228423118591309e-01 -1.599014252424240112e-01 2.265587821602821350e-02 -6.195170432329177856e-02 2.462805807590484619e-02 5.044674500823020935e-02 -3.156565502285957336e-02 1.199460774660110474e-01 1.778691262006759644e-02 -1.090342178940773010e-01 -8.552844822406768799e-02 3.886664286255836487e-02 6.476325541734695435e-02 8.245123177766799927e-02 -1.009952351450920105e-01 -4.350649937987327576e-02 -1.483683288097381592e-02 -7.295002788305282593e-02 9.399311989545822144e-02 -6.201580166816711426e-02 1.997627317905426025e-02 -2.900396846234798431e-02 -2.975732088088989258e-02 -3.409100696444511414e-02 1.132421493530273438e-01 -9.740926325321197510e-02 -2.342501841485500336e-02 3.144141286611557007e-02 5.060576274991035461e-02 -5.363711714744567871e-02 -2.046093903481960297e-02 1.098807379603385925e-01 -1.279373168945312500e-01 -5.885867029428482056e-02 -9.688039124011993408e-02 -3.414782509207725525e-02 8.748228847980499268e-02 1.009438857436180115e-01 1.861095279455184937e-01 7.698947191238403320e-02 -8.955308794975280762e-02 -1.752045601606369019e-01 -1.400824785232543945e-01 9.238362312316894531e-03 -2.368990704417228699e-02 1.244102492928504944e-01 4.158490523695945740e-02 1.002913340926170349e-02 1.081434711813926697e-01 -2.552952803671360016e-02 5.965766310691833496e-02 -1.428275257349014282e-01 -5.896303802728652954e-02 7.432053238153457642e-02 1.939187408424913883e-03 -5.793243274092674255e-02 1.098825931549072266e-01 -5.242594704031944275e-02 -1.475867182016372681e-01 1.065741181373596191e-01 -4.170528426766395569e-02 9.386961162090301514e-02 -1.121290922164916992e-01 -1.543352194130420685e-02 1.568524092435836792e-01 -2.467004023492336273e-02 8.904071897268295288e-02 -1.872310489416122437e-01 -7.468765228986740112e-02 6.155074760317802429e-02 3.493266925215721130e-02 -7.286569569259881973e-03 -1.809731125831604004e-01 -1.964107155799865723e-01 -4.322760924696922302e-02 -1.555109918117523193e-01 1.229867339134216309e-01 1.263840049505233765e-01 4.476103276829235256e-05 6.722151488065719604e-02 -6.696216017007827759e-02 -7.946560531854629517e-02 7.528511341661214828e-03 1.337895840406417847e-01 -6.083206459879875183e-02 1.197861582040786743e-01 -6.724896281957626343e-02 -6.589403748512268066e-02 -7.966187782585620880e-03 1.908903382718563080e-02 -3.103947639465332031e-02 1.720694154500961304e-01 3.185353055596351624e-02 -3.341794386506080627e-02 -9.686166793107986450e-02 -7.405241578817367554e-02 1.992779374122619629e-01 8.595266938209533691e-02 -1.346128880977630615e-01 3.254347015172243118e-03 5.896930582821369171e-03 -1.421210169792175293e-01 5.504586920142173767e-02 -3.647672757506370544e-02 -1.632392257452011108e-01 4.574184492230415344e-02 -1.719195693731307983e-01 5.115599185228347778e-02 3.789005428552627563e-02 2.059180103242397308e-02 1.080029234290122986e-01 1.745981723070144653e-02 1.088412329554557800e-01 -4.745937883853912354e-02 1.288293153047561646e-01 -6.012070924043655396e-02 -1.018272787332534790e-01 6.077286228537559509e-02 8.563430607318878174e-02 8.846508711576461792e-02 9.624239988625049591e-03 -1.061042025685310364e-02 8.549454808235168457e-02 4.882116243243217468e-02 -5.302743241190910339e-02 6.993682682514190674e-02 1.339180469512939453e-01 -1.482553780078887939e-02 1.222636029124259949e-01 5.540368705987930298e-02 -3.783655166625976562e-02 -4.300101101398468018e-02 7.101172953844070435e-02 -6.997062265872955322e-02 7.664335519075393677e-02 5.229492112994194031e-02 -1.359756011515855789e-02 -4.482549428939819336e-02 6.690945476293563843e-02 9.592010080814361572e-02 -6.502153724431991577e-02 -1.136483158916234970e-02 -3.586817532777786255e-02 -2.456075884401798248e-02 -6.572112441062927246e-02 -1.691384464502334595e-01 5.501834675669670105e-02 -4.227292910218238831e-02 1.176782790571451187e-02 -8.977973461151123047e-02 1.005052682012319565e-02 -2.528461627662181854e-02 -6.782896816730499268e-02 -1.528865832369774580e-04 -1.604960560798645020e-01 8.798461407423019409e-02 6.309753656387329102e-02 1.620239019393920898e-02 3.018704615533351898e-02 1.532060932368040085e-02 5.406225845217704773e-02 1.184186935424804688e-01 -1.194723993539810181e-01 -1.085670813918113708e-01 5.026698112487792969e-02 -1.185619980096817017e-01 6.967422552406787872e-03 1.001018285751342773e-01 3.150396514683961868e-03 -1.654687672853469849e-01 8.528281748294830322e-02 2.146929473383352160e-04 -2.398894540965557098e-02 -3.992804884910583496e-02 -1.243864297866821289e-01 5.435390025377273560e-02 1.041560992598533630e-01 -2.673822082579135895e-02 -6.607210636138916016e-02 -1.126766428351402283e-01 7.431354373693466187e-02 3.947992995381355286e-02 -7.866433262825012207e-02 -1.033379584550857544e-01 -1.548734605312347412e-01 -7.466423511505126953e-02 1.054551750421524048e-01 -1.005742177367210388e-01 -3.544596955180168152e-02 -2.669265866279602051e-02 1.711966842412948608e-01 -5.001096799969673157e-02 6.844004243612289429e-02 1.151997502893209457e-02 2.818023227155208588e-02 -1.452625840902328491e-01 4.282696172595024109e-02 -1.524150073528289795e-01 1.209902297705411911e-02 3.665438620373606682e-03 1.049889326095581055e-01 -1.484574377536773682e-01
-3.077766112983226776e-02 -8.506624028086662292e-03 1.128256842494010925e-01 -2.256438694894313812e-02 -6.552104651927947998e-02 -1.013595685362815857e-01 3.617961704730987549e-02 6.524059176445007324e-02 1.572280074469745159e-03 -1.092316433787345886e-01 4.865304753184318542e-02 -6.991722434759140015e-02 -3.567305579781532288e-02 -1.936417631804943085e-02 2.732719480991363525e-02 2.092436701059341431e-02 1.445278078317642212e-01 -2.566188946366310120e-02 6.460800021886825562e-02 8.974069356918334961e-02 -3.432681038975715637e-02 -2.270310418680310249e-03 1.196550726890563965e-01 1.438551116734743118e-02 -4.709334671497344971e-02 1.414628624916076660e-01 -7.845841348171234131e-02 -1.094586029648780823e-01 -5.085284635424613953e-02 4.670456983149051666e-03 -8.328910917043685913e-02 1.316788978874683380e-02 5.336209014058113098e-02 -1.037220358848571777e-01 -7.761924713850021362e-02 1.112314015626907349e-01 1.109931841492652893e-01 2.678415179252624512e-02 -1.110635325312614441e-01 -3.302820492535829544e-03 -6.148348376154899597e-02 8.601978421211242676e-02 1.979896984994411469e-02 -5.495518445968627930e-02 -5.091846734285354614e-02 8.407179266214370728e-02 -7.379438728094100952e-02 4.964464902877807617e-02 -2.473782561719417572e-02 5.650696158409118652e-02 3.015683963894844055e-02 -8.309081196784973145e-03 -1.495577841997146606e-01 -1.080501824617385864e-01 2.867651544511318207e-02 -1.074100509285926819e-01 -2.702444233000278473e-02 -1.685159355401992798e-01 -4.871895909309387207e-02 -8.768478408455848694e-03 1.619813591241836548e-01 1.260844320058822632e-01 1.317559033632278442e-01 1.391087025403976440e-01 4.232011735439300537e-03 -5.005952715873718262e-02 -8.178435266017913818e-03 -1.206581853330135345e-02 -1.275251037441194057e-03 1.442568898200988770e-01 -2.019579894840717316e-02 1.396822333335876465e-01 5.784070491790771484e-02 -1.195809338241815567e-02 -2.463109232485294342e-02 6.002986431121826172e-02 1.064576394855976105e-02 -7.320816069841384888e-02 -1.163568422198295593e-01 -7.951200008392333984e-02 1.717295348644256592e-01 5.511758849024772644e-02 1.441140193492174149e-02 1.090341955423355103e-01 1.104808971285820007e-01 6.439616531133651733e-02 -4.781128093600273132e-02 2.570858038961887360e-02 -7.421153038740158081e-02 4.503034055233001709e-02 -3.545014932751655579e-02 9.236616641283035278e-02 8.817356824874877930e-02 -1.000030040740966797e-01 -7.986796647310256958e-02 1.124560460448265076e-01 8.687072247266769409e-02 1.108507439494132996e-01 -8.196448534727096558e-02 -1.017222031950950623e-01 1.114958450198173523e-01 6.988032907247543335e-02 3.203839063644409180e-02 -4.895825986750423908e-04 4.869927093386650085e-02 -6.172904372215270996e-02 -1.028087511658668518e-01 -1.999454349279403687e-01 2.126106247305870056e-02 5.419413372874259949e-02 -2.325279079377651215e-02 3.687995672225952148e-02 -1.426075547933578491e-01 1.488695740699768066e-01 1.503314524888992310e-01 -4.192360863089561462e-02 1.138195581734180450e-02 6.225582584738731384e-02 3.756351023912429810e-02 1.448419690132141113e-01 2.865036763250827789e-02 -4.295313265174627304e-03 -9.793339297175407410e-03 -1.621607840061187744e-01 5.254653748124837875e-03 4.896537587046623230e-02 -1.743122786283493042e-01 7.320926338434219360e-02 1.265373528003692627e-01 -6.282636523246765137e-02 -9.774888306856155396e-02 1.560386735945940018e-02 1.645319908857345581e-02 1.277451366186141968e-01 -3.221955150365829468e-02 -8.332265168428421021e-02 -2.498731575906276703e-02 5.482304096221923828e-02 1.635267585515975952e-01 5.885741859674453735e-02 1.894985437393188477e-01 -1.549998372793197632e-01 -1.259987801313400269e-01 6.457111239433288574e-02 -1.343462914228439331e-01 4.512702580541372299e-03 6.679796427488327026e-02 8.565729111433029175e-02 2.779705263674259186e-02 -1.630380563437938690e-02 -9.631518274545669556e-02 4.768304154276847839e-02 1.384649872779846191e-01 6.889282912015914917e-02 -9.359645098447799683e-02 -1.477126777172088623e-01 4.281273577362298965e-03 -3.195367380976676941e-02 4.974719509482383728e-02 -1.820011250674724579e-02 1.684768050909042358e-01 -9.392589330673217773e-02 -3.657529829069972038e-03 7.986278086900711060e-02 -4.030385985970497131e-03 6.656298041343688965e-02 2.948246337473392487e-02 5.678083375096321106e-02 1.160012651234865189e-02 -5.195527151226997375e-02 -2.174567244946956635e-02 1.545424461364746094e-01 6.172761321067810059e-02 1.479284018278121948e-01 3.863010322675108910e-03 6.861031986773014069e-03 -6.129072234034538269e-02 1.190456151962280273e-01 -1.253201812505722046e-01 -2.773180976510047913e-02 7.891134917736053467e-02 4.144176840782165527e-02 7.336573302745819092e-02 2.098133228719234467e-02 1.331094354391098022e-01 1.803954094648361206e-01 -6.952897459268569946e-02 -7.754778116941452026e-02 -7.975416630506515503e-02 -9.908842295408248901e-02 1.374593228101730347e-01 5.338817834854125977e-02 5.190853029489517212e-02 3.708869218826293945e-03 3.362352773547172546e-02 -1.903653703629970551e-02 1.241873651742935181e-01 3.458928316831588745e-02 -1.525575965642929077e-01 8.407109230756759644e-02 3.297893330454826355e-02 -9.512001276016235352e-02 9.020288288593292236e-02 1.070045828819274902e-01 2.052008872851729393e-03 -2.534138970077037811e-02 -1.498412340879440308e-01 1.182500720024108887e-01 -7.460490614175796509e-02 1.446099858731031418e-02 -1.232749596238136292e-01 -9.350593388080596924e-02 1.287203133106231689e-01 -1.345514971762895584e-02 1.144574489444494247e-02 1.469734474085271358e-03 -7.955437153577804565e-02 8.519659750163555145e-04 -5.308631807565689087e-02 1.520899385213851929e-01 -5.376438051462173462e-02 -6.789746135473251343e-02 -3.882138058543205261e-02 -1.100216507911682129e-01 1.395863145589828491e-01 -1.822972893714904785e-01 4.724684357643127441e-02 -1.711558364331722260e-02 2.314421534538269043e-02 -1.047220006585121155e-01 -1.433117985725402832e-01 1.103041917085647583e-01 1.780412904918193817e-02 1.359164901077747345e-02 -1.244119331240653992e-01 -2.685615792870521545e-02 1.104514952749013901e-02 -1.006522774696350098e-01 1.262349933385848999e-01 -1.122360229492187500e-01 -4.671874269843101501e-02 -1.145267263054847717e-01 -1.233412399888038635e-01 -7.860239595174789429e-03 6.290676444768905640e-02 4.285114631056785583e-02 9.692996740341186523e-02 1.988040842115879059e-02 -2.714365161955356598e-02 1.199124008417129517e-01 1.816467046737670898e-01 2.232283167541027069e-02 5.678795650601387024e-02 6.285326089709997177e-03 3.790277615189552307e-02 -2.988577261567115784e-02 3.501129150390625000e-02 -1.582590043544769287e-01 -1.089517250657081604e-01 1.060876175761222839e-01 -1.981671303510665894e-01 -4.789405688643455505e-02 1.782995164394378662e-01 -2.691288292407989502e-02 -1.786775738000869751e-01 3.412185236811637878e-02 -4.647174105048179626e-02 9.292197972536087036e-02 -6.977374851703643799e-02 1.053476706147193909e-01 -4.466342926025390625e-02 -5.019544437527656555e-02 -8.302404731512069702e-02 -1.035408377647399902e-01 -1.304938048124313354e-01 1.835647076368331909e-01 -2.862011454999446869e-02 -8.733832091093063354e-02 9.464498609304428101e-02 1.151374801993370056e-01 1.460151076316833496e-01 -1.483318656682968140e-01 4.935346543788909912e-02 1.941419579088687897e-02 6.372743099927902222e-02 -3.362986072897911072e-02 -5.899233743548393250e-02 1.588561572134494781e-03 7.470946758985519409e-02 7.633842062205076218e-03 1.061012521386146545e-01 1.136001721024513245e-01 3.605723381042480469e-02 -4.067749902606010437e-02 -1.621652096509933472e-01 -2.482523908838629723e-03 4.249659925699234009e-02 -7.441822439432144165e-02 -1.422713845968246460e-01 7.117398828268051147e-02 1.492990106344223022e-01 -1.468953397125005722e-02 1.465702801942825317e-01 -3.532397374510765076e-02 2.445550076663494110e-02 3.192616626620292664e-03 9.701070189476013184e-02 -6.115790456533432007e-03 3.695134446024894714e-02 -1.202346011996269226e-01 9.939502924680709839e-02 -2.275363169610500336e-02 3.543646633625030518e-02 -1.195850372314453125e-01 6.942891329526901245e-02 -2.001714520156383514e-02 -1.512246765196323395e-02 9.418115019798278809e-02 5.817530676722526550e-02 6.854338943958282471e-02 -7.137058675289154053e-02 -1.450231522321701050e-01 -8.785018324851989746e-02 4.611819982528686523e-02 -8.811944164335727692e-03 1.112079024314880371e-01 3.922262415289878845e-02 -6.625982373952865601e-02 -3.788074105978012085e-02 1.967843621969223022e-01 8.405698835849761963e-02 -8.199258148670196533e-02 2.069499902427196503e-02 -1.553857773542404175e-01 1.283303946256637573e-01 -4.704893752932548523e-02 -9.994857758283615112e-02 -4.915807396173477173e-02 9.150222688913345337e-02 -6.298432499170303345e-02 -4.296023398637771606e-03 -1.129124537110328674e-01 1.133300811052322388e-01 -1.217798516154289246e-01 9.257262200117111206e-02 -1.332030445337295532e-01 -4.827115219086408615e-03 1.041780859231948853e-01 -4.841843247413635254e-02 1.281196027994155884e-01 1.622477769851684570e-01 -3.085858188569545746e-02 -1.821659654378890991e-01 8.723587729036808014e-03 1.400129348039627075e-01 6.805407255887985229e-02 5.171860381960868835e-02 5.854387953877449036e-02 -9.147279709577560425e-02 -1.404992341995239258e-01 -2.357058599591255188e-02 -1.395223438739776611e-01 8.555481582880020142e-02 3.486296907067298889e-02 1.322243064641952515e-01 -3.025236772373318672e-03 -2.967246249318122864e-02 -1.861658245325088501e-01 -1.961351037025451660e-01 -1.945717632770538330e-01 -1.228684186935424805e-01 -4.867946729063987732e-02 -3.763755038380622864e-02 -1.574212014675140381e-01 -9.992443770170211792e-02 -1.149414181709289551e-01 1.335917413234710693e-01 3.478739177808165550e-03 5.243609100580215454e-02 1.453325897455215454e-01 -2.011783653870224953e-03 -1.824713498353958130e-02 4.008070379495620728e-02 6.906642112880945206e-03 1.238657860085368156e-04 4.240290075540542603e-02 -2.412140555679798126e-02 -4.354348033666610718e-02 7.217459380626678467e-02 5.635762214660644531e-02 -1.275881379842758179e-01 -1.471136063337326050e-01 1.364193856716156006e-01 6.248529627919197083e-02 -5.928589776158332825e-02 1.437638103961944580e-01 -1.918487250804901123e-02 1.418090015649795532e-01 8.397137373685836792e-02 7.792577892541885376e-02 1.586776524782180786e-01 1.414456218481063843e-01 -9.434907138347625732e-02 5.178904160857200623e-02 -8.847420103847980499e-03 1.092860922217369080e-01 7.041534781455993652e-02 -4.236112162470817566e-02 -3.639732673764228821e-02 1.977137476205825806e-02 1.018302962183952332e-01 -3.054879046976566315e-02 5.099503323435783386e-02 4.909067973494529724e-02 -1.632308214902877808e-01 2.211393974721431732e-02 -8.291537873446941376e-03 1.281196922063827515e-01 -1.440009325742721558e-01 7.918569445610046387e-02 1.618164032697677612e-01 6.390234082937240601e-02 1.612769663333892822e-01 -1.037451550364494324e-01 -2.913833595812320709e-02 -1.455252617597579956e-01 -1.394901722669601440e-01 1.396260261535644531e-01 -1.912732571363449097e-01 1.268680989742279053e-01 7.874140143394470215e-02 7.223045825958251953e-02 1.693245209753513336e-02 9.158201515674591064e-02 6.015058141201734543e-03 2.591814100742340088e-02 -7.642714679241180420e-02 1.247114688158035278e-01 -1.031504496932029724e-01 6.299954652786254883e-02 -9.937053173780441284e-02 -1.293278932571411133e-01 -1.045222379616461694e-04 -1.183462515473365784e-01 1.622269116342067719e-02 1.323985308408737183e-01 -1.628608554601669312e-01 -3.687987849116325378e-02 -1.362124532461166382e-01 1.307494491338729858e-01 8.507318794727325439e-02 1.397285610437393188e-01 1.129536852240562439e-01 -3.783091530203819275e-02 -6.947211921215057373e-02 1.127438899129629135e-02 -2.880894113332033157e-03 2.565961144864559174e-02 -1.699503138661384583e-02 -1.853488013148307800e-02 -3.511814400553703308e-02 -3.898790106177330017e-02 -6.463268399238586426e-02 -1.824717596173286438e-02 -4.558880627155303955e-02 -6.093249656260013580e-03 6.917931605130434036e-04 4.888283461332321167e-02 -1.431767549365758896e-02 1.138544920831918716e-02 -1.290796995162963867e-01 4.511791467666625977e-02 -1.680732890963554382e-02 -6.297768652439117432e-02 -7.663046475499868393e-03 -1.940475851297378540e-01 -1.014381796121597290e-01 3.413259750232100487e-03 -7.861562818288803101e-02 -1.332602351903915405e-01 5.188361927866935730e-02 -4.883031547069549561e-02 1.110299378633499146e-01 -9.721688926219940186e-02 -1.307838875800371170e-02 -1.319625508040189743e-02 1.305664777755737305e-01 1.098105832934379578e-01 -6.198909599334001541e-03 1.557552218437194824e-01 1.023875698447227478e-01 -7.122586667537689209e-02 -9.433083981275558472e-02 1.220322400331497192e-01 1.092404276132583618e-01 8.665501326322555542e-02 6.391671951860189438e-03 9.279518574476242065e-02 5.543769150972366333e-02 5.499491840600967407e-02 5.422119423747062683e-02 1.099078580737113953e-01 -1.885135620832443237e-01 -1.940048858523368835e-02 -2.058000117540359497e-02 1.072240620851516724e-01 6.649478524923324585e-02 7.848300784826278687e-02 1.063144132494926453e-01 -1.241532564163208008e-01 5.197676643729209900e-02 -2.139892242848873138e-02
3.794295340776443481e-02 -6.225381419062614441e-02 1.880493611097335815e-01 5.632829666137695312e-02 -6.734609138220548630e-03 3.700640797615051270e-02 2.049658074975013733e-02 6.748669780790805817e-03 1.782484166324138641e-02 1.041557937860488892e-01 1.560718268156051636e-01 -9.659486822783946991e-03 -1.427219063043594360e-01 1.020122412592172623e-02 5.791103467345237732e-02 -1.118903309106826782e-01 -8.829393982887268066e-02 -9.467988274991512299e-03 -4.534711688756942749e-02 -7.863660901784896851e-02 1.276998966932296753e-01 3.055124916136264801e-02 4.606304690241813660e-02 -8.315030485391616821e-02 1.653407812118530273e-01 9.460731595754623413e-02 -5.964139848947525024e-02 3.108908236026763916e-02 4.576386883854866028e-02 -8.127849549055099487e-02 8.061341196298599243e-02 -6.331412494182586670e-02 2.419945085421204567e-03 -2.084775269031524658e-02 -6.940724700689315796e-02 -4.966380447149276733e-02 -7.945524156093597412e-02 -1.149996519088745117e-01 5.374142155051231384e-02 1.208276837132871151e-03 1.490720827132463455e-02 4.591329023241996765e-02 8.081566542387008667e-02 6.099239108152687550e-04 -1.064645126461982727e-02 -5.843568127602338791e-03 5.003123357892036438e-02 7.655382901430130005e-02 -1.033506728708744049e-02 1.469596624374389648e-01 7.176699489355087280e-02 7.284811884164810181e-02 2.162305079400539398e-02 -6.207340955734252930e-02 1.050920709967613220e-01 -2.654623985290527344e-02 -1.426789611577987671e-01 4.084706306457519531e-02 7.801654934883117676e-02 1.295482665300369263e-01 5.470370873808860779e-02 4.637289047241210938e-02 -1.789971441030502319e-01 4.102587327361106873e-02 1.734660007059574127e-03 6.908456236124038696e-02 -6.943875551223754883e-02 -8.216029405593872070e-02 1.485615670680999756e-01 1.466934829950332642e-01 3.462743759155273438e-02 3.268029540777206421e-02 -1.433701720088720322e-03 8.480058610439300537e-02 -6.544496864080429077e-02 -1.567973643541336060e-01 -1.908717900514602661e-01 -1.313279718160629272e-01 -4.710060358047485352e-02 4.464441165328025818e-02 1.062469407916069031e-01 2.878739498555660248e-02 1.511123627424240112e-01 -1.311156600713729858e-01 -2.372737787663936615e-02 -1.374064981937408447e-01 -8.503008633852005005e-03 1.632838994264602661e-01 1.315507739782333374e-01 -1.556236748001538217e-05 6.609581410884857178e-02 -4.993873462080955505e-02 -1.472616475075483322e-02 -1.428968757390975952e-01 5.670544132590293884e-02 -1.318920999765396118e-01 -2.405118383467197418e-02 5.628569051623344421e-02 5.772282555699348450e-02 6.517794728279113770e-02 -9.043780714273452759e-02 -5.682087689638137817e-02 5.497704073786735535e-02 2.240533754229545593e-02 -1.566227525472640991e-01 7.137306779623031616e-02 1.402022689580917358e-01 1.765545606613159180e-01 9.609024226665496826e-02 7.319524139165878296e-02 -1.054027676582336426e-01 1.306212972849607468e-02 -1.034320145845413208e-01 -2.597722411155700684e-02 5.880618095397949219e-02 1.264925301074981689e-01 -4.638753365725278854e-03 -1.208587433211505413e-03 -1.692612171173095703e-01 1.752694696187973022e-01 1.899012550711631775e-02 1.102687940001487732e-01 1.997620314359664917e-01 -1.110058575868606567e-01 -5.885813757777214050e-02 7.468739897012710571e-02 -1.425044536590576172e-01 -4.910440370440483093e-02 -4.676717519760131836e-02 6.682344526052474976e-02 7.932392507791519165e-02 -9.537275880575180054e-02 -1.511260028928518295e-02 1.240818500518798828e-01 -5.416516680270433426e-03 7.410916034132242203e-03 1.611938774585723877e-01 1.297717541456222534e-01 6.262067705392837524e-03 -5.969923734664916992e-02 -1.886791549623012543e-02 -4.999873787164688110e-02 6.390436738729476929e-02 -1.209454908967018127e-01 -1.299517452716827393e-01 -1.580308564007282257e-02 -7.812963426113128662e-02 2.505783736705780029e-02 -2.552241459488868713e-02 3.998340666294097900e-02 1.873478144407272339e-01 -1.214159131050109863e-01 -1.312171518802642822e-01 -1.572736352682113647e-01 1.358249038457870483e-01 8.707783184945583344e-03 1.250481009483337402e-01 -1.792531162500381470e-01 -1.956075280904769897e-01 -2.032512240111827850e-02 3.949684277176856995e-02 -8.640190213918685913e-02 3.874400258064270020e-02 -1.967247761785984039e-02 -1.054315455257892609e-02 6.331240385770797729e-02 -8.269041031599044800e-02 -4.959033802151679993e-02 -2.223486825823783875e-02 -1.318256705999374390e-01 1.062214747071266174e-01 -1.904484629631042480e-02 -3.074458800256252289e-02 5.725864320993423462e-02 -1.950659155845642090e-01 -5.859306082129478455e-02 6.334664672613143921e-02 -3.256727755069732666e-02 -4.543148353695869446e-02 6.468172371387481689e-02 1.754076033830642700e-02 3.231045603752136230e-02 6.718514859676361084e-02 1.889568269252777100e-01 8.198671857826411724e-04 -5.187455564737319946e-02 3.821638971567153931e-02 7.646089047193527222e-02 2.686533890664577484e-02 1.633293479681015015e-01 -2.624987997114658356e-02 -2.747073583304882050e-02 3.327619284391403198e-02 -1.286434680223464966e-01 1.825362294912338257e-01 1.195700317621231079e-01 -2.787979878485202789e-02 7.770630717277526855e-02 4.746238887310028076e-02 -7.013781368732452393e-02 1.014018878340721130e-01 1.271796524524688721e-01 -6.247317790985107422e-02 -1.434223502874374390e-01 -1.344285160303115845e-01 7.298965007066726685e-02 -4.967870190739631653e-02 6.619814783334732056e-02 4.982114955782890320e-02 1.081890836358070374e-01 -1.056952476501464844e-01 3.886301442980766296e-02 -5.718214437365531921e-02 -1.471738368272781372e-01 -2.747932076454162598e-02 -1.034152060747146606e-01 1.037007197737693787e-01 -9.292289614677429199e-02 5.648761615157127380e-02 1.066541075706481934e-01 4.271853715181350708e-02 -6.916843354701995850e-02 -1.559295505285263062e-01 4.829484224319458008e-02 6.534857302904129028e-02 -5.856330320239067078e-02 9.498594328761100769e-03 -4.021181911230087280e-02 -7.813045382499694824e-02 -3.579014539718627930e-02 5.394351109862327576e-02 -8.838602155447006226e-02 -1.358730942010879517e-01 -1.234423443675041199e-01 3.302961215376853943e-02 1.424432694911956787e-01 -3.479109331965446472e-02 -2.193477191030979156e-02 1.987037621438503265e-02 -6.443798542022705078e-02 7.053624093532562256e-02 8.015361428260803223e-02 -3.495415672659873962e-02 1.289635337889194489e-02 -1.764599531888961792e-01 8.844228088855743408e-02 1.384591013193130493e-01 -2.458032220602035522e-03 -3.332352265715599060e-02 -3.386760130524635315e-02 7.412230223417282104e-02 -9.485011547803878784e-02 -1.404472291469573975e-01 -1.407594084739685059e-01 5.838235840201377869e-02 -4.731326177716255188e-02 -9.519062936305999756e-02 8.562576770782470703e-02 -2.879535593092441559e-02 2.149778604507446289e-02 -1.240533310920000076e-02 -5.852162837982177734e-02 -4.077884927392005920e-02 1.001568958163261414e-01 2.047125622630119324e-02 6.754842400550842285e-02 -6.589787453413009644e-02 2.764276228845119476e-02 -2.130993641912937164e-02 -8.926128596067428589e-02 1.563512161374092102e-02 -1.517679076641798019e-02 -3.587667271494865417e-02 1.293145418167114258e-01 -6.690669804811477661e-02 -1.422820389270782471e-01 -8.108719438314437866e-02 1.462490409612655640e-01 -1.118495091795921326e-01 9.096439927816390991e-02 -2.896398119628429413e-02 -4.156066104769706726e-02 -5.952336266636848450e-02 -1.343852579593658447e-01 -8.785878121852874756e-02 3.309929743409156799e-02 -1.592017859220504761e-01 -7.870102673768997192e-02 4.630169272422790527e-02 5.919326469302177429e-02 -2.020349912345409393e-02 -1.019072458148002625e-01 -6.420934945344924927e-02 1.041543632745742798e-01 -6.810159888118505478e-03 9.077825397253036499e-02 -9.166304022073745728e-02 -1.105047464370727539e-01 -7.114891707897186279e-02 1.028843410313129425e-02 -6.170479208230972290e-02 6.038598343729972839e-02 -2.849251963198184967e-02 6.766030937433242798e-02 3.368980437517166138e-02 -1.076555848121643066e-01 3.049117326736450195e-02 -5.213735252618789673e-02 5.150634795427322388e-02 -2.332500740885734558e-02 3.405203297734260559e-02 -7.877516001462936401e-02 -1.441078037023544312e-01 4.931781068444252014e-02 -3.577607497572898865e-02 -1.889247000217437744e-01 4.228460043668746948e-02 5.782155320048332214e-02 -2.999432943761348724e-02 -1.092392578721046448e-02 7.638753950595855713e-02 5.892126355320215225e-03 1.246807500720024109e-01 8.667563647031784058e-02 -3.566465899348258972e-02 1.485736202448606491e-02 2.775601483881473541e-02 4.178021103143692017e-02 8.953999727964401245e-02 -3.614693507552146912e-02 -7.185831665992736816e-02 4.553567990660667419e-02 4.993779119104146957e-03 -5.993294343352317810e-02 -3.550384566187858582e-02 -3.087224997580051422e-02 -1.979322880506515503e-01 5.522020533680915833e-02 1.123906970024108887e-01 9.555459767580032349e-02 -1.124132797122001648e-01 -1.383332163095474243e-01 -1.442863494157791138e-01 -1.598959118127822876e-01 -8.149738609790802002e-02 -1.187295243144035339e-01 1.332589834928512573e-01 -1.778986155986785889e-01 -1.393371671438217163e-01 1.510573434643447399e-03 4.050341993570327759e-02 3.902640566229820251e-02 3.309287503361701965e-02 -1.361332088708877563e-02 3.142859041690826416e-02 -1.197192668914794922e-01 8.440360426902770996e-02 -1.476709824055433273e-02 1.524838060140609741e-01 2.639091573655605316e-02 1.252717226743698120e-01 4.527953267097473145e-02 -9.182940237224102020e-03 9.020848572254180908e-02 5.271958187222480774e-02 -8.497720211744308472e-02 1.909320503473281860e-01 1.051599904894828796e-01 7.904516905546188354e-02 -2.056496590375900269e-02 -8.202352374792098999e-02 -8.532162755727767944e-03 8.555168658494949341e-02 4.951360449194908142e-02 2.956032752990722656e-02 2.924710512161254883e-02 9.568456560373306274e-02 -7.068216800689697266e-02 1.150375530123710632e-01 -5.681795999407768250e-02 6.937431544065475464e-02 2.362707396969199181e-03 -1.413148939609527588e-01 -3.687387332320213318e-02 -8.788011036813259125e-03 -1.059105619788169861e-02 -1.506373733282089233e-01 -4.975660145282745361e-02 -1.261722594499588013e-01 8.842772990465164185e-02 1.392223536968231201e-01 -3.967320919036865234e-02 -7.105377316474914551e-02 -1.286612749099731445e-01 -1.554377973079681396e-01 -9.527864307165145874e-02 -7.418890297412872314e-02 3.927101194858551025e-02 -1.590066999197006226e-01 -1.035101041197776794e-01 -3.101416863501071930e-02 6.340625882148742676e-02 -4.776806384325027466e-02 -1.669872850179672241e-01 -1.292537450790405273e-01 -1.569008678197860718e-01 1.776916831731796265e-01 4.617925733327865601e-02 5.832485388964414597e-03 -8.360694348812103271e-02 -9.431894868612289429e-02 -5.591494962573051453e-02 1.677661947906017303e-02 -6.741237826645374298e-03 -6.861390173435211182e-02 8.823182433843612671e-02 9.313663095235824585e-02 -6.801765412092208862e-02 1.097082719206809998e-01 -4.483281821012496948e-02 -2.776659093797206879e-02 -3.299915790557861328e-02 -6.232955679297447205e-02 9.846793860197067261e-02 -1.694853752851486206e-01 4.992255568504333496e-02 3.512402996420860291e-02 -1.044135317206382751e-01 1.384480595588684082e-01 7.564716041088104248e-02 -3.988018259406089783e-02 7.102685421705245972e-02 8.208229392766952515e-02 -6.946645677089691162e-02 -4.975977167487144470e-02 -5.153311043977737427e-02 -6.028493400663137436e-03 1.102673634886741638e-01 1.145508512854576111e-01 -1.185094751417636871e-02 -2.251861989498138428e-02 -5.136374849826097488e-03 9.220267087221145630e-02 -6.020442768931388855e-02 -2.250758698210120201e-03 9.193631261587142944e-02 -1.066716089844703674e-01 8.354565501213073730e-02 9.735681861639022827e-02 6.665805727243423462e-02 -1.863377355039119720e-02 5.954514816403388977e-02 -4.319687432143837214e-04 6.018540263175964355e-02 1.171599049121141434e-02 3.335480019450187683e-02 -1.224947795271873474e-01 7.103896234184503555e-03 2.670742804184556007e-03 1.575178951025009155e-01 6.563916057348251343e-02 -8.775857277214527130e-03 5.919153243303298950e-02 -7.926545105874538422e-03 -1.743274927139282227e-01 -1.288461983203887939e-01 -3.692229464650154114e-02 3.390609845519065857e-02 4.522447288036346436e-02 -2.394858561456203461e-02 7.026867568492889404e-02 3.062307834625244141e-02 -9.750886261463165283e-02 -1.264889538288116455e-01 4.343200474977493286e-02 6.569658219814300537e-02 -1.011324524879455566e-01 -5.397828761488199234e-03 7.886084169149398804e-02 1.033037453889846802e-01 4.532482475042343140e-02 5.563867837190628052e-02 -1.000947281718254089e-01 -7.151524722576141357e-02 -1.792340725660324097e-01 -1.128304377198219299e-01 -1.080679986625909805e-02 -1.487654894590377808e-01 -7.211639732122421265e-02 5.493594333529472351e-02 6.206088885664939880e-02 1.007291004061698914e-01 -2.774002589285373688e-02 -1.917452067136764526e-01 3.713868558406829834e-02 1.036087200045585632e-01 2.646915428340435028e-02 -2.048053964972496033e-02 2.222273312509059906e-02 -2.313520759344100952e-02 8.989863842725753784e-02 -1.423399746417999268e-01 1.017628312110900879e-01 -2.449705032631754875e-03 -5.529284104704856873e-02 2.744410932064056396e-02 6.395848095417022705e-02 1.010197326540946960e-01 -3.774829208850860596e-02 -2.476329542696475983e-02 -4.705719649791717529e-02 -1.084723845124244690e-01
-1.001528725028038025e-01 3.799113258719444275e-02 -1.392831057310104370e-01 -7.778610289096832275e-02 1.077518388628959656e-01 -6.383011490106582642e-02 -1.738355122506618500e-02 -8.040833286941051483e-03 -1.535767614841461182e-01 -4.159571975469589233e-02 8.535035699605941772e-02 -2.941679954528808594e-02 -1.435918956995010376e-01 1.304132938385009766e-01 -1.312783211469650269e-01 -2.356528304517269135e-02 7.821060717105865479e-02 -7.879884541034698486e-02 -2.776895835995674133e-02 -1.684451103210449219e-02 1.700887829065322876e-01 8.906784653663635254e-02 -4.661066830158233643e-02 9.306018799543380737e-02 -7.503847032785415649e-02 -4.449842497706413269e-02 1.905502378940582275e-01 -3.497449681162834167e-02 5.922413617372512817e-02 -8.791717141866683960e-02 -1.902467310428619385e-01 -4.197851195931434631e-02 1.077621430158615112e-02 -9.464342147111892700e-02 1.467796713113784790e-01 1.064657568931579590e-01 9.230389259755611420e-03 7.678143680095672607e-02 -1.109648495912551880e-01 -2.874787151813507080e-02 -8.359386771917343140e-02 1.175955161452293396e-01 -1.070466414093971252e-01 -1.643955707550048828e-01 7.204911857843399048e-02 -7.644703984260559082e-02 1.761536896228790283e-01 5.856966599822044373e-02 9.130508452653884888e-02 -1.211126223206520081e-01 -3.151204064488410950e-02 -9.355693310499191284e-02 7.292553782463073730e-02 -8.407869189977645874e-02 5.051602795720100403e-02 1.855197362601757050e-03 -1.027898676693439484e-02 -1.855274885892868042e-01 -1.263626068830490112e-01 1.086260844022035599e-02 -6.123108416795730591e-02 6.963869929313659668e-02 9.383813291788101196e-02 -4.782304912805557251e-02 1.874483525753021240e-01 4.916433244943618774e-02 3.097906708717346191e-02 -6.700447201728820801e-02 1.029026061296463013e-01 1.745071634650230408e-02 6.501962989568710327e-02 -2.952138893306255341e-02 3.464962914586067200e-02 -1.996250003576278687e-01 -1.194308623671531677e-01 -5.022775009274482727e-02 -3.049888089299201965e-02 5.335896089673042297e-02 -3.830028697848320007e-02 -1.259018033742904663e-01 -9.170786361210048199e-04 8.713486045598983765e-02 1.709614694118499756e-02 1.071441099047660828e-01 -4.087812826037406921e-02 3.992583137005567551e-03 -7.980220019817352295e-02 -5.469084903597831726e-02 1.546657532453536987e-01 -1.707380414009094238e-01 -9.197210893034934998e-03 -4.897927492856979370e-02 -5.496232584118843079e-02 1.858229190111160278e-01 1.661257259547710419e-02 -2.525769732892513275e-02 -6.206315755844116211e-02 -1.053508669137954712e-01 3.141016513109207153e-02 5.044500157237052917e-02 4.519048333168029785e-02 -1.182545647025108337e-01 -3.489861637353897095e-02 -2.902476489543914795e-02 1.679728329181671143e-01 1.979958117008209229e-01 -1.757130473852157593e-01 -7.768543902784585953e-03 1.210003066807985306e-02 -3.612650930881500244e-02 5.043343827128410339e-02 7.377629633992910385e-03 -1.178161874413490295e-01 1.360243111848831177e-01 5.488139390945434570e-02 -6.669920869171619415e-03 -2.052647247910499573e-02 1.498429626226425171e-01 -5.450465157628059387e-02 -1.236232668161392212e-01 -3.166553005576133728e-02 1.475949585437774658e-02 -3.829292580485343933e-02 -7.586610969156026840e-03 1.101185679435729980e-01 7.794963568449020386e-02 3.316389163956046104e-03 2.699460601434111595e-03 2.944570221006870270e-02 9.635300189256668091e-02 -4.129256680607795715e-02 -4.237138107419013977e-02 3.950018808245658875e-02 -3.305272897705435753e-03 1.144635723903775215e-03 -8.233720809221267700e-02 1.658697612583637238e-02 1.907164789736270905e-02 6.263257563114166260e-02 1.024605035781860352e-01 -9.169764071702957153e-02 1.350724548101425171e-01 -7.495912909507751465e-02 -1.132540288381278515e-03 3.258451074361801147e-02 9.196786582469940186e-02 -6.888629496097564697e-02 -5.860411003232002258e-02 1.932357810437679291e-02 4.426641762256622314e-02 1.830092221498489380e-01 2.331733517348766327e-02 2.012055926024913788e-02 -2.202261798083782196e-02 -1.051227841526269913e-02 -1.011074110865592957e-01 -5.099093914031982422e-02 -6.806869059801101685e-02 -1.279353979043662548e-03 -9.504446387290954590e-02 -1.054303199052810669e-01 1.325495690107345581e-01 1.161784119904041290e-02 -1.902381703257560730e-02 9.150785207748413086e-02 5.708624050021171570e-02 2.828510664403438568e-02 -8.909343183040618896e-02 1.023817434906959534e-01 1.325309872627258301e-01 3.109048120677471161e-02 6.172859668731689453e-02 1.648792624473571777e-01 -1.426225900650024414e-01 -5.762065574526786804e-02 7.608535140752792358e-02 5.744000896811485291e-02 1.159341558814048767e-01 1.498490571975708008e-01 -4.645405337214469910e-02 -8.563402295112609863e-02 1.136890202760696411e-01 -6.562172621488571167e-02 3.151284530758857727e-02 9.543196111917495728e-02 8.112419745884835720e-04 -1.274622529745101929e-01 9.522403776645660400e-02 -7.948646694421768188e-02 -7.038655132055282593e-02 -8.339693397283554077e-02 -1.229814253747463226e-02 2.506691217422485352e-02 3.192947059869766235e-02 1.533783525228500366e-01 -1.432960778474807739e-01 -1.000091657042503357e-01 5.092168599367141724e-02 1.605776697397232056e-01 -9.511609561741352081e-03 4.198435693979263306e-02 7.271497696638107300e-02 1.386478841304779053e-01 1.952410675585269928e-02 4.730899631977081299e-02 8.098005317151546478e-03 5.295187979936599731e-02 -1.545207947492599487e-01 -9.681475907564163208e-02 9.318000823259353638e-02 5.745123699307441711e-02 2.683594822883605957e-02 -6.189708039164543152e-02 1.196506619453430176e-01 4.761556908488273621e-02 -2.779552899301052094e-02 -1.178111955523490906e-01 -1.609721630811691284e-01 -2.627590112388134003e-02 9.851664304733276367e-02 6.912177801132202148e-02 5.186465010046958923e-02 6.824790686368942261e-02 -3.546173498034477234e-02 -1.878214478492736816e-01 -1.962352097034454346e-01 6.776925176382064819e-02 -1.100370194762945175e-02 1.107650920748710632e-01 -5.902113392949104309e-03 9.324993938207626343e-02 5.495423078536987305e-02 -1.178179904818534851e-01 1.104732975363731384e-01 -3.544063121080398560e-02 -6.421123445034027100e-02 5.190386250615119934e-02 -1.385190337896347046e-01 1.457796990871429443e-01 -1.889445469714701176e-03 -9.445107728242874146e-02 2.593283914029598236e-02 2.155026048421859741e-02 1.540777366608381271e-02 1.839156635105609894e-02 1.809918694198131561e-02 -1.161736156791448593e-02 -8.898711204528808594e-02 -6.173722818493843079e-02 2.968277037143707275e-02 -1.208283230662345886e-01 -1.220141053199768066e-01 8.666538447141647339e-02 1.953682154417037964e-01 1.277969498187303543e-02 -4.007216170430183411e-02 3.039189614355564117e-02 -1.217389628291130066e-01 9.661807864904403687e-02 -5.599267408251762390e-02 -6.437116116285324097e-02 -9.635732322931289673e-02 3.870107233524322510e-03 1.138202194124460220e-02 6.134800985455513000e-02 3.623444214463233948e-02 -1.083786711096763611e-01 9.640365093946456909e-02 -1.032647415995597839e-01 -8.446147292852401733e-02 7.161381840705871582e-02 -1.307969838380813599e-01 7.988054305315017700e-02 1.205610204488039017e-02 -2.864895761013031006e-02 7.813219726085662842e-02 -1.037657167762517929e-02 7.372830063104629517e-02 -9.115874767303466797e-02 7.688682526350021362e-02 -1.668363362550735474e-01 -1.551814973354339600e-01 4.975344240665435791e-02 -9.074036777019500732e-02 1.540193408727645874e-01 1.116409059613943100e-02 -1.812105625867843628e-01 3.605447337031364441e-02 -1.002433076500892639e-01 1.396745890378952026e-01 7.352662086486816406e-02 -1.305321156978607178e-01 -3.629050776362419128e-02 -2.825278602540493011e-02 -8.805420994758605957e-02 -4.728697240352630615e-02 6.003923714160919189e-03 1.544488817453384399e-01 -2.552999928593635559e-02 -3.261441364884376526e-02 -1.843891851603984833e-02 -1.001705527305603027e-01 1.693783910013735294e-03 -1.582753509283065796e-01 1.630619913339614868e-01 -1.471028327941894531e-01 -5.949015170335769653e-02 9.608858078718185425e-02 -8.028953522443771362e-02 9.642455726861953735e-02 -8.159492164850234985e-02 1.455542594194412231e-01 3.743631392717361450e-02 -9.771003574132919312e-02 2.023463696241378784e-02 -4.950518906116485596e-02 -7.097672671079635620e-02 2.896583406254649162e-03 7.416968583129346371e-04 4.578282590955495834e-03 -2.370379865169525146e-02 -1.942037232220172882e-02 1.534095108509063721e-01 6.572362035512924194e-02 -1.246750280261039734e-01 -6.654535979032516479e-02 1.585632562637329102e-02 1.442723572254180908e-01 5.494203045964241028e-02 -1.496902555227279663e-01 1.950357481837272644e-02 -4.308431968092918396e-02 1.396389901638031006e-01 6.261815875768661499e-02 1.215789001435041428e-02 6.863066554069519043e-02 -7.518870383501052856e-02 -3.037671186029911041e-02 -1.050884127616882324e-01 4.512962326407432556e-02 1.239918470382690430e-01 -3.263658657670021057e-02 1.975785046815872192e-01 -2.022886276245117188e-02 8.221127092838287354e-02 -6.001383066177368164e-02 -4.925757274031639099e-02 4.562368243932723999e-02 -6.321398168802261353e-02 -2.146570570766925812e-02 1.491904854774475098e-01 3.320687264204025269e-02 -2.927000261843204498e-02 -1.199197918176651001e-01 4.666664823889732361e-02 1.266190856695175171e-01 -1.068233177065849304e-01 8.255607634782791138e-02 -4.974188655614852905e-02 1.609735339879989624e-01 8.692178130149841309e-02 -3.488510102033615112e-02 -3.371867164969444275e-02 1.374781429767608643e-01 -4.577727243304252625e-02 -1.394248008728027344e-01 -5.276478081941604614e-02 1.907910406589508057e-02 -3.906483575701713562e-02 -2.585002221167087555e-02 -5.082845315337181091e-02 -2.872149460017681122e-02 -3.757248446345329285e-02 2.688415162265300751e-02 -4.222374781966209412e-02 3.463616594672203064e-02 -1.545871235430240631e-02 9.718977659940719604e-02 4.578605666756629944e-02 -5.233172699809074402e-02 -6.097437813878059387e-02 2.648231200873851776e-02 -3.630824387073516846e-02 -5.589510127902030945e-02 3.400409361347556114e-03 7.044421881437301636e-02 -1.912074685096740723e-01 2.506419084966182709e-02 6.059491541236639023e-03 -9.953165799379348755e-02 -9.936019778251647949e-02 1.752898693084716797e-01 -1.165295252576470375e-03 1.263979673385620117e-01 1.410864293575286865e-01 -1.357625275850296021e-01 1.348798125982284546e-01 -1.090334802865982056e-01 -7.821708172559738159e-02 4.851744696497917175e-02 1.196530740708112717e-02 1.117089670151472092e-02 -6.488683074712753296e-02 4.578371718525886536e-02 -9.037839621305465698e-02 -1.988894306123256683e-02 -4.538273438811302185e-02 1.257279962301254272e-01 -1.069005355238914490e-01 2.625045739114284515e-02 -1.890801638364791870e-02 -1.130281239748001099e-01 1.042751297354698181e-01 3.788892179727554321e-02 3.504915162920951843e-02 -7.696399092674255371e-02 1.237327381968498230e-01 3.517357632517814636e-02 2.398198843002319336e-02 8.133682422339916229e-03 -3.772219270467758179e-02 -2.589259482920169830e-02 3.953053615987300873e-03 -6.469306349754333496e-02 -2.960564009845256805e-02 6.134880334138870239e-02 -6.277494132518768311e-02 -4.890657216310501099e-02 5.832797288894653320e-02 8.024261146783828735e-02 -2.724137715995311737e-02 1.663078516721725464e-01 5.732136964797973633e-02 6.735483650118112564e-03 1.061111316084861755e-01 9.303446114063262939e-02 -5.130180716514587402e-02 4.093418642878532410e-02 1.955954171717166901e-02 -3.179216757416725159e-02 -6.290575861930847168e-02 1.011083945631980896e-01 9.126822650432586670e-02 -4.026705771684646606e-02 1.099278703331947327e-01 -1.773547679185867310e-01 9.447058546356856823e-04 6.292954832315444946e-02 1.332315709441900253e-02 -1.091482192277908325e-01 -6.297108530998229980e-02 1.065970435738563538e-01 6.504525989294052124e-02 9.862194210290908813e-02 -5.641337111592292786e-02 -4.905569180846214294e-02 7.750205229967832565e-03 -8.637559413909912109e-02 1.989026367664337158e-01 -3.680789098143577576e-02 8.152421563863754272e-02 4.827217757701873779e-02 -4.685807973146438599e-02 1.212154850363731384e-01 7.795588672161102295e-02 6.307370960712432861e-02 -7.197987288236618042e-02 1.483295857906341553e-02 1.447001546621322632e-01 -8.748581260442733765e-02 -4.506323859095573425e-02 -3.560965135693550110e-02 4.993669316172599792e-02 1.762491166591644287e-01 -6.391093134880065918e-02 -4.063612222671508789e-02 -8.896497637033462524e-02 -1.300116907805204391e-02 -1.524224728345870972e-01 1.623133197426795959e-03 1.884460262954235077e-02 1.453609317541122437e-01 -1.062625423073768616e-01 8.683404885232448578e-03 6.856486201286315918e-02 7.262390851974487305e-02 1.825717687606811523e-01 -6.712549179792404175e-02 -8.562666922807693481e-02 -1.801721900701522827e-01 9.836772084236145020e-02 -5.784323811531066895e-02 5.047592148184776306e-02 -1.872255951166152954e-01 1.175466459244489670e-02 1.232224628329277039e-01 8.287014812231063843e-02 4.387350752949714661e-02 5.053188279271125793e-02 1.496115624904632568e-01 -1.253697127103805542e-01 6.556653231382369995e-02 -1.009584665298461914e-01 1.485610455274581909e-01 3.401633724570274353e-02 2.545561268925666809e-02 4.770438827108591795e-04 -3.369393572211265564e-02 -1.989564858376979828e-02 -8.541826158761978149e-02 1.594943227246403694e-03 4.632518067955970764e-02
6.784210354089736938e-02 5.048379302024841309e-03 1.304071098566055298e-01 -7.264786399900913239e-03 -1.425068080425262451e-01 1.018315926194190979e-01 -6.272076815366744995e-02 -4.335188493132591248e-02 1.575361341238021851e-01 -3.180288523435592651e-02 4.438802227377891541e-02 2.831497788429260254e-02 -9.420952200889587402e-02 1.680227816104888916e-01 -1.377672553062438965e-01 8.622760325670242310e-02 7.656643539667129517e-02 -1.468571182340383530e-02 -7.509147375822067261e-02 -2.656601928174495697e-02 -1.446473151445388794e-01 1.773556172847747803e-01 -1.082353517413139343e-01 -5.030278116464614868e-02 1.939831227064132690e-01 -1.247244030237197876e-01 -1.199235115200281143e-02 9.416119009256362915e-02 1.586682200431823730e-01 1.413231492042541504e-01 -6.831662356853485107e-02 4.695088416337966919e-02 -6.340076774358749390e-02 -2.151109464466571808e-02 3.875879943370819092e-02 1.468155086040496826e-01 -4.726664349436759949e-02 -1.273187100887298584e-01 -4.314961377531290054e-03 8.738928288221359253e-02 -4.235300421714782715e-02 -4.153187945485115051e-02 1.166527792811393738e-01 1.086714267730712891e-01 7.796131819486618042e-02 1.112810522317886353e-01 -2.895612083375453949e-02 7.582126557826995850e-02 3.022823657374829054e-04 8.935893885791301727e-03 -8.599317818880081177e-02 1.415892224758863449e-02 -6.021946668624877930e-02 3.188759833574295044e-02 2.385690249502658844e-02 1.508207898586988449e-02 7.052467018365859985e-02 1.176259443163871765e-01 -1.513417959213256836e-01 2.702600136399269104e-02 1.618586294353008270e-02 -1.552883684635162354e-01 3.944212570786476135e-02 -7.481888867914676666e-03 -4.179795738309621811e-03 1.382031440734863281e-01 7.293687015771865845e-02 1.393741220235824585e-01 -1.091777458786964417e-01 9.213162958621978760e-02 -5.876902025192975998e-03 -5.093560367822647095e-02 6.318838894367218018e-02 6.145656108856201172e-02 2.114708535373210907e-02 -1.021134629845619202e-01 -8.063564449548721313e-02 1.092875748872756958e-01 4.720495268702507019e-02 4.444792494177818298e-02 1.478309929370880127e-01 -2.031043730676174164e-02 -6.516394019126892090e-02 8.197685331106185913e-02 -5.879443488083779812e-04 -5.253515765070915222e-02 8.096884191036224365e-02 1.182520315051078796e-01 5.069233477115631104e-03 -4.770636931061744690e-02 3.854688629508018494e-02 -5.452871322631835938e-02 -9.804436005651950836e-03 1.289952397346496582e-01 4.597261175513267517e-02 -4.567440133541822433e-03 5.033113434910774231e-02 -3.565518558025360107e-02 9.707421809434890747e-02 -1.652832180261611938e-01 8.783256262540817261e-02 1.584213972091674805e-01 -2.025589160621166229e-02 1.294160187244415283e-01 -9.821775555610656738e-02 1.431665271520614624e-01 -2.948099188506603241e-02 -1.323401629924774170e-01 -9.996318072080612183e-02 -4.955418407917022705e-02 6.922619789838790894e-02 -1.868714243173599243e-01 8.108579367399215698e-02 -1.396448910236358643e-01 -8.782676607370376587e-02 -1.203354224562644958e-01 1.079719588160514832e-01 -1.691253185272216797e-01 5.141137167811393738e-02 -1.267516613006591797e-02 4.626035690307617188e-02 1.011768132448196411e-01 -9.730602055788040161e-02 -4.520944785326719284e-03 -1.776924133300781250e-01 1.130686327815055847e-01 -1.172494664788246155e-01 5.526736006140708923e-02 1.198480054736137390e-01 9.165501594543457031e-02 -2.366982586681842804e-02 5.504847317934036255e-02 3.080618754029273987e-02 7.824632525444030762e-02 -3.591796755790710449e-02 6.596384197473526001e-02 6.439702957868576050e-02 -1.906432211399078369e-01 6.763834506273269653e-02 7.826532423496246338e-02 -1.524270325899124146e-01 -9.001990407705307007e-02 -1.852307841181755066e-02 -4.847960174083709717e-02 -1.365634053945541382e-01 -4.000187292695045471e-02 -1.627681218087673187e-02 -1.148129254579544067e-01 1.168716605752706528e-02 3.425534814596176147e-02 1.097232848405838013e-01 1.351345777511596680e-01 9.285595268011093140e-02 -6.071060523390769958e-02 1.424499303102493286e-01 3.336604684591293335e-02 -5.980113148689270020e-02 2.479808591306209564e-02 7.259779423475265503e-02 1.318834442645311356e-02 -5.617416463792324066e-03 9.158282727003097534e-02 -4.287315532565116882e-02 -9.222061187028884888e-02 9.984251856803894043e-02 5.496120452880859375e-02 -2.300993353128433228e-02 2.772603742778301239e-02 -4.076784476637840271e-02 -6.828666478395462036e-02 -1.951455883681774139e-02 1.515913009643554688e-01 9.718420356512069702e-02 1.284680813550949097e-01 -6.491824239492416382e-02 7.209660112857818604e-02 5.395893007516860962e-02 3.676170110702514648e-02 -1.180240288376808167e-01 1.908724308013916016e-01 -5.175791308283805847e-02 -2.323674410581588745e-02 1.223148852586746216e-01 4.653288424015045166e-02 2.055496536195278168e-02 -2.834939956665039062e-02 -5.633667111396789551e-02 -1.411647186614573002e-03 -1.350927259773015976e-02 1.092843413352966309e-01 -1.355179399251937866e-02 5.447402223944664001e-02 1.152952685952186584e-01 6.664583832025527954e-02 -3.025803528726100922e-02 2.183335646986961365e-02 -1.149228960275650024e-02 2.121149562299251556e-02 -1.050974875688552856e-01 -8.211658149957656860e-02 9.440687298774719238e-02 -3.759227320551872253e-02 -1.770589202642440796e-01 -4.751897975802421570e-02 7.339157164096832275e-02 -6.272696703672409058e-02 1.524067372083663940e-01 -1.760120736435055733e-03 -1.929242908954620361e-02 1.307749003171920776e-01 -4.814581573009490967e-02 3.485238179564476013e-02 2.944302000105381012e-02 1.249048765748739243e-02 3.989298641681671143e-02 -2.830027602612972260e-02 2.087475918233394623e-02 -1.538391262292861938e-01 3.908230736851692200e-02 1.131969839334487915e-01 5.535994097590446472e-02 -1.342167556285858154e-01 7.003223150968551636e-02 4.761429503560066223e-03 9.648730605840682983e-02 -1.625716537237167358e-01 -1.127737686038017273e-01 -9.683275222778320312e-02 -1.548925321549177170e-02 -1.307533960789442062e-02 6.173989921808242798e-02 8.478154987096786499e-02 -9.889689832925796509e-02 -6.082059815526008606e-02 7.089217007160186768e-02 1.077696606516838074e-01 6.181867793202400208e-02 -4.223679006099700928e-02 1.693765819072723389e-02 -1.759010180830955505e-02 -2.785353921353816986e-02 -2.706059254705905914e-02 9.469949454069137573e-02 -1.319518089294433594e-01 -2.702528610825538635e-02 -1.124996691942214966e-01 -1.544148176908493042e-01 5.171414837241172791e-02 -3.414265066385269165e-02 -5.770294740796089172e-02 -1.821121387183666229e-02 6.150078400969505310e-02 -6.356053636409342289e-04 -2.151787467300891876e-02 5.898473411798477173e-02 -1.102417930960655212e-01 8.448298275470733643e-02 -2.018282376229763031e-02 8.970279991626739502e-02 -5.002151802182197571e-02 -7.462762296199798584e-02 -2.891987375915050507e-02 5.121938139200210571e-02 -3.250325843691825867e-02 6.175799295306205750e-02 -1.065246835350990295e-01 1.195588931441307068e-01 1.928744614124298096e-01 -5.506113171577453613e-02 -9.134973585605621338e-02 7.228997349739074707e-02 -1.027517467737197876e-01 1.604434251785278320e-01 -1.544442027807235718e-01 -4.736352339386940002e-02 -6.105083972215652466e-02 -2.654547989368438721e-02 2.119702659547328949e-02 5.534596857614815235e-04 1.306192576885223389e-01 -1.770236194133758545e-01 -6.751033943146467209e-03 -5.948585271835327148e-02 -1.116669774055480957e-01 -1.684814505279064178e-02 9.276092797517776489e-02 6.777437776327133179e-02 -1.302511096000671387e-01 -1.016659289598464966e-01 1.237878426909446716e-01 4.049045965075492859e-02 -2.690898254513740540e-02 -1.201401948928833008e-01 -4.850398283451795578e-03 1.370252519845962524e-01 -9.756861627101898193e-02 1.645831614732742310e-01 1.024960912764072418e-02 -2.927535586059093475e-02 -6.345750391483306885e-02 -7.670113351196050644e-03 -7.895996421575546265e-02 -1.142726689577102661e-01 6.890160590410232544e-02 -1.496161222457885742e-01 -1.536225527524948120e-02 -3.221126273274421692e-02 -5.892123654484748840e-02 6.359152495861053467e-02 -3.433654829859733582e-02 -5.738606676459312439e-02 7.266926765441894531e-02 -2.040124498307704926e-03 -6.959720700979232788e-02 -1.171312555670738220e-01 9.607980400323867798e-02 -4.247152060270309448e-02 -8.123912662267684937e-02 8.971823751926422119e-02 -2.398870699107646942e-02 -2.969280816614627838e-02 -9.604390710592269897e-02 1.381460726261138916e-01 3.387012053281068802e-03 7.534609735012054443e-02 2.031986042857170105e-02 1.625353097915649414e-02 -6.365856528282165527e-02 2.181199751794338226e-02 3.823957964777946472e-02 2.255497314035892487e-02 5.196361616253852844e-02 9.206207841634750366e-02 -5.278384685516357422e-02 1.565803140401840210e-01 9.612505137920379639e-02 -9.327680617570877075e-02 -4.963434115052223206e-02 2.264158986508846283e-02 -5.721975490450859070e-02 7.008298486471176147e-02 -1.326004266738891602e-01 9.250079840421676636e-02 6.555199623107910156e-02 -6.369777768850326538e-02 5.859598517417907715e-02 -1.694699632935225964e-03 -5.680766329169273376e-02 3.168691694736480713e-02 6.800018250942230225e-02 4.376296326518058777e-02 6.848693639039993286e-02 8.360402658581733704e-03 7.760760933160781860e-02 -1.320169027894735336e-02 -3.122332133352756500e-02 -1.028735414147377014e-01 1.883933693170547485e-01 -1.650144229643046856e-03 -5.101137235760688782e-02 -6.969374418258666992e-02 -3.253623470664024353e-02 6.081430241465568542e-02 -9.879992902278900146e-02 1.169443950057029724e-01 -5.534810945391654968e-02 -2.831108681857585907e-02 -4.854500293731689453e-02 4.510020464658737183e-02 1.968573778867721558e-01 5.474731326103210449e-02 7.572995871305465698e-02 3.192248940467834473e-02 7.429274264723062515e-03 -3.678170964121818542e-02 -5.410658940672874451e-02 9.946267120540142059e-03 -2.815203741192817688e-02 1.680629998445510864e-01 -2.602476254105567932e-02 1.151750013232231140e-01 6.984160840511322021e-02 9.332545450888574123e-04 1.662240326404571533e-01 -2.567417104728519917e-04 -4.237962886691093445e-02 -3.068565391004085541e-02 9.270325303077697754e-02 1.248480230569839478e-01 -1.016891840845346451e-02 5.742550641298294067e-02 -7.834782451391220093e-02 -2.601443603634834290e-02 9.812887758016586304e-02 -8.713595569133758545e-02 -8.815983682870864868e-02 -5.061056837439537048e-02 1.609300523996353149e-01 -3.719981387257575989e-02 5.232133436948060989e-03 8.735599368810653687e-02 6.642446666955947876e-02 -1.604772806167602539e-01 5.805787444114685059e-02 8.423747867345809937e-02 -1.480845659971237183e-01 -3.284035716205835342e-03 -9.475331753492355347e-02 3.425806388258934021e-02 1.245520114898681641e-01 -8.443030714988708496e-02 7.646538317203521729e-03 1.995484903454780579e-02 2.537593804299831390e-02 6.939614564180374146e-02 8.724224567413330078e-02 -7.742323726415634155e-02 1.183274984359741211e-01 -9.433340281248092651e-02 1.553372591733932495e-01 -7.927621155977249146e-02 1.603795774281024933e-02 -4.356461018323898315e-02 -6.120933964848518372e-02 1.490977127104997635e-02 -8.190350979566574097e-02 9.806879796087741852e-03 7.928671687841415405e-02 -5.604377016425132751e-02 3.574997931718826294e-02 2.202195115387439728e-02 4.031092673540115356e-02 -3.813487291336059570e-02 -1.008412390947341919e-01 -2.534028608351945877e-04 7.744838297367095947e-02 -7.174409925937652588e-02 4.391687735915184021e-02 8.628022670745849609e-02 -7.912383973598480225e-02 -7.003513723611831665e-02 6.659419834613800049e-02 1.249088197946548462e-01 -1.473634596914052963e-02 5.685235839337110519e-03 -8.764439076185226440e-02 3.533710166811943054e-02 9.269624948501586914e-02 4.775919392704963684e-02 7.885589450597763062e-02 -9.951737523078918457e-02 1.838994771242141724e-01 8.575930446386337280e-02 8.296113461256027222e-02 1.714261062443256378e-02 1.161197349429130554e-01 -1.029925718903541565e-01 1.035826578736305237e-01 7.394369691610336304e-02 5.521471053361892700e-02 2.760179713368415833e-02 9.247782081365585327e-02 3.998542949557304382e-02 -7.052882760763168335e-02 -4.149657487869262695e-02 7.580617815256118774e-02 7.922648452222347260e-03 2.374064549803733826e-02 -6.303982436656951904e-02 3.980912268161773682e-02 -1.527184434235095978e-02 -1.621354185044765472e-02 -1.933542490005493164e-01 5.058427341282367706e-03 -4.856678098440170288e-02 -1.375072598457336426e-01 1.412318348884582520e-01 3.216511756181716919e-02 -2.223220653831958771e-02 -8.779641985893249512e-02 -8.845332078635692596e-03 5.081711336970329285e-02 -1.581122130155563354e-01 -7.244673557579517365e-03 -6.173543259501457214e-02 1.051559927873313427e-03 9.443684667348861694e-02 -3.669859841465950012e-02 -8.204865455627441406e-02 -9.474307298660278320e-02 -3.963298723101615906e-02 -5.885045602917671204e-02 2.514353208243846893e-02 4.140859469771385193e-02 -4.422179237008094788e-02 1.032222434878349304e-01 -1.705546490848064423e-02 -1.150581892579793930e-02 -2.425847109407186508e-03 -4.046653211116790771e-02 -2.486096136271953583e-02 -1.239925175905227661e-01 1.305075734853744507e-01 4.976788163185119629e-02 -8.727966248989105225e-02 -9.423514455556869507e-02 -1.735554449260234833e-02 -7.155393809080123901e-02 2.115905657410621643e-02 1.996721699833869934e-02 6.946730613708496094e-02 -1.582474261522293091e-02
-8.123805373907089233e-02 -6.704870611429214478e-02 4.441921040415763855e-02 8.080163598060607910e-02 8.644127100706100464e-02 -5.521382763981819153e-02 1.971116289496421814e-02 -3.855919837951660156e-02 3.078599832952022552e-02 5.999256297945976257e-02 8.279401063919067383e-02 -3.467763215303421021e-02 5.104166269302368164e-02 2.370986854657530785e-03 6.678193062543869019e-02 4.218631610274314880e-02 7.880486547946929932e-02 -9.112160652875900269e-03 1.692861765623092651e-01 -1.175738945603370667e-01 4.833425581455230713e-02 -1.004141196608543396e-01 1.575000397861003876e-02 7.814775221049785614e-03 1.190535631030797958e-02 -8.297483623027801514e-02 -1.116119772195816040e-01 1.010177060961723328e-01 -8.539261296391487122e-03 6.932200491428375244e-02 -3.085933998227119446e-02 9.351816773414611816e-02 1.386753916740417480e-01 2.562066726386547089e-02 1.133550889790058136e-02 1.005631610751152039e-01 -1.138527765870094299e-01 -1.461347192525863647e-01 -1.189647801220417023e-02 -1.001389995217323303e-01 -6.719756871461868286e-03 -1.129415556788444519e-01 8.925504982471466064e-03 1.141702383756637573e-02 2.668279409408569336e-02 5.793987587094306946e-02 8.749353140592575073e-02 7.752444129437208176e-03 -1.527348347008228302e-02 4.222557693719863892e-02 -6.164744496345520020e-02 -3.144918009638786316e-02 3.160129114985466003e-02 -2.146085910499095917e-02 -3.601479530334472656e-02 -6.196933332830667496e-03 1.118837222456932068e-01 -4.018395766615867615e-02 9.757786244153976440e-02 -8.801729977130889893e-02 1.448200084269046783e-02 -1.843478344380855560e-02 2.852875366806983948e-02 4.275638610124588013e-03 -1.011646017432212830e-01 1.521499902009963989e-01 -1.236075758934020996e-01 7.258385419845581055e-03 4.363121837377548218e-02 -6.073619052767753601e-02 -2.432472258806228638e-02 -6.673981994390487671e-02 -3.116589225828647614e-02 1.653353422880172729e-01 1.546547114849090576e-01 -5.482230335474014282e-02 6.402108818292617798e-02 7.922274619340896606e-02 -9.964388608932495117e-02 4.673836752772331238e-02 7.952207326889038086e-02 8.036170154809951782e-03 5.992164090275764465e-02 -1.197848320007324219e-01 -1.317974328994750977e-01 5.241157021373510361e-03 -1.189739480614662170e-01 -1.852895766496658325e-01 -1.959724873304367065e-01 4.299023747444152832e-02 5.567510053515434265e-02 4.277779161930084229e-02 -9.819013625383377075e-02 2.290815860033035278e-02 -1.037795692682266235e-01 -3.256366774439811707e-02 -1.143756788223981857e-02 -4.929451271891593933e-02 8.743697404861450195e-02 -1.779447644948959351e-01 -1.011063680052757263e-01 -8.211990445852279663e-02 4.856267571449279785e-02 -9.944473952054977417e-02 7.468187808990478516e-02 -5.184383317828178406e-02 1.520329564809799194e-01 1.936862766742706299e-01 -5.382256582379341125e-02 -6.777828931808471680e-02 -1.123666092753410339e-01 -7.275953888893127441e-02 -3.749946877360343933e-02 8.853925392031669617e-03 1.800550073385238647e-01 -1.646051853895187378e-01 -3.293691575527191162e-02 2.532919310033321381e-02 1.988363415002822876e-01 -7.225587218999862671e-02 1.083729490637779236e-01 1.622322760522365570e-02 1.607590727508068085e-02 -1.453599184751510620e-01 -5.313299968838691711e-02 -8.830142766237258911e-02 1.610777974128723145e-01 -1.197711974382400513e-01 -1.432289928197860718e-01 1.649604290723800659e-01 9.181897342205047607e-02 -1.774402707815170288e-01 1.413677483797073364e-01 -1.277947574853897095e-01 -1.125963684171438217e-02 -4.528066515922546387e-02 -4.775337129831314087e-02 1.649078167974948883e-02 -9.043236821889877319e-02 5.344392731785774231e-02 1.065370216965675354e-01 -1.078087612986564636e-01 3.452249511610716581e-04 1.311624348163604736e-01 -5.238217860460281372e-02 -9.207852184772491455e-02 -5.116453766822814941e-02 -2.940880693495273590e-02 -1.694290153682231903e-02 -1.053548231720924377e-01 1.152123324573040009e-02 -7.769787311553955078e-02 1.308670490980148315e-01 -1.980382949113845825e-01 4.601773619651794434e-02 1.542920917272567749e-01 1.462713479995727539e-01 -1.136600524187088013e-01 1.979820877313613892e-01 -1.532400697469711304e-01 -3.861719742417335510e-02 -1.577562093734741211e-01 -8.945357054471969604e-03 -8.206712454557418823e-02 1.194898858666419983e-01 -7.065541297197341919e-02 4.315489158034324646e-02 1.707373559474945068e-01 -3.715085610747337341e-02 -6.590002030134201050e-02 -6.092359498143196106e-02 2.279736474156379700e-02 4.016929864883422852e-02 -9.256781637668609619e-02 4.713353142142295837e-02 1.645447872579097748e-02 -1.937082558870315552e-01 -9.573196619749069214e-02 1.714586168527603149e-01 -5.020290240645408630e-02 -5.113425478339195251e-02 9.154355525970458984e-02 1.361458003520965576e-02 1.592336148023605347e-01 7.461271435022354126e-02 4.655972868204116821e-02 8.065333217382431030e-02 9.865128248929977417e-02 -9.196999669075012207e-02 -6.199001893401145935e-02 -1.113921999931335449e-01 -6.905036512762308121e-03 -8.568143099546432495e-02 2.210076153278350830e-02 5.017486214637756348e-02 -1.157005056738853455e-01 1.104857325553894043e-01 3.741160407662391663e-02 6.290891021490097046e-02 -9.089907258749008179e-02 -4.604632407426834106e-02 1.424397379159927368e-01 1.015006527304649353e-01 -1.608676016330718994e-01 7.371575385332107544e-02 -8.717757463455200195e-02 9.836073033511638641e-03 -6.926673650741577148e-02 -1.276643853634595871e-02 -1.573489010334014893e-01 -7.760512083768844604e-02 3.097936511039733887e-02 -1.210314407944679260e-01 -1.003054529428482056e-01 -4.621146619319915771e-02 -1.000837832689285278e-01 8.987163752317428589e-02 -2.175819687545299530e-02 -2.647974528372287750e-02 1.063964292407035828e-01 1.009362749755382538e-02 1.939139515161514282e-02 -5.624091625213623047e-02 -1.821187436580657959e-01 -5.283313989639282227e-02 7.721646875143051147e-02 5.043646693229675293e-02 -6.358890980482101440e-02 -1.122022513300180435e-02 -6.514242291450500488e-02 -1.447786688804626465e-01 -1.324872225522994995e-01 2.224466577172279358e-02 -7.753799855709075928e-02 8.799605071544647217e-02 -8.611451834440231323e-02 -8.673562854528427124e-02 -3.897991403937339783e-02 -8.322625607252120972e-02 4.991538822650909424e-02 -5.815261602401733398e-02 1.546993553638458252e-01 -1.776276715099811554e-02 6.773558259010314941e-02 1.477600485086441040e-01 -7.367157191038131714e-02 7.256907969713211060e-02 -1.805508742108941078e-03 7.367794867604970932e-03 6.837230920791625977e-02 7.076536864042282104e-02 2.650016546249389648e-02 -1.078193113207817078e-01 5.060130357742309570e-02 1.797158420085906982e-01 -1.463224291801452637e-01 1.367539074271917343e-02 8.435776084661483765e-02 6.767412275075912476e-02 6.963782943785190582e-03 -7.904990762472152710e-02 -3.921125084161758423e-02 7.308894302695989609e-03 -1.055224165320396423e-01 7.071582973003387451e-02 1.308171004056930542e-01 -5.720824748277664185e-02 -1.868712604045867920e-01 5.651509761810302734e-02 -3.065131604671478271e-02 -3.211089223623275757e-02 9.709075093269348145e-02 -2.873862721025943756e-02 6.371493637561798096e-02 -9.945649653673171997e-02 -1.023297198116779327e-02 -1.803406625986099243e-01 -9.163520485162734985e-02 3.284703195095062256e-02 -3.643809258937835693e-02 -7.126522716134786606e-03 -9.363446384668350220e-02 -5.891543254256248474e-02 -1.525484956800937653e-02 -4.274219274520874023e-02 1.714091151952743530e-01 -3.629552200436592102e-02 2.177967224270105362e-03 -2.818793989717960358e-02 1.566963084042072296e-02 -3.724538907408714294e-02 1.639471761882305145e-02 1.942272298038005829e-02 1.923467963933944702e-02 -1.586895994842052460e-02 -2.059405855834484100e-02 -5.293288454413414001e-02 2.533679082989692688e-02 9.708418697118759155e-02 2.972511015832424164e-02 1.223675832152366638e-01 -7.458557933568954468e-02 -1.014153938740491867e-03 5.623463541269302368e-02 -9.918300807476043701e-02 -3.593295812606811523e-02 -6.499056704342365265e-03 9.959204494953155518e-02 -6.832727044820785522e-02 2.399462275207042694e-02 2.519850991666316986e-02 3.938550129532814026e-02 -4.148170724511146545e-02 9.582897275686264038e-02 -1.528524141758680344e-02 1.679726839065551758e-01 -1.346071660518646240e-01 3.922407981008291245e-03 2.624177932739257812e-02 4.514861851930618286e-02 1.695240139961242676e-01 4.674674198031425476e-02 -3.495722264051437378e-02 8.372346311807632446e-02 -6.374812126159667969e-02 1.590322107076644897e-01 7.728227972984313965e-02 8.883631974458694458e-02 5.346378684043884277e-02 7.756382226943969727e-03 -2.762133255600929260e-03 1.077834703028202057e-02 -1.717297546565532684e-02 1.481271684169769287e-01 -1.758362948894500732e-01 -4.628920927643775940e-02 -8.005563914775848389e-02 1.318357046693563461e-02 -2.526719309389591217e-02 -4.082405939698219299e-02 -1.091270372271537781e-01 -3.759582713246345520e-02 -1.062349509447813034e-02 -1.405484415590763092e-02 -8.938840776681900024e-02 -4.200435057282447815e-02 -4.242549464106559753e-02 -8.551894873380661011e-02 -5.869447067379951477e-02 2.982748858630657196e-02 7.086785137653350830e-02 4.366616532206535339e-02 7.859151065349578857e-02 2.020978741347789764e-02 1.036629825830459595e-01 1.497195214033126831e-01 -1.252944674342870712e-02 -5.736894533038139343e-02 1.411949992179870605e-01 -4.953299090266227722e-02 -1.149398311972618103e-01 4.159244708716869354e-03 7.553253322839736938e-02 -1.980832777917385101e-02 -3.651999682188034058e-02 1.406812518835067749e-01 9.132999926805496216e-02 -2.233016490936279297e-02 -9.099864214658737183e-02 -5.760239437222480774e-02 7.908819615840911865e-02 -9.974385611712932587e-03 -1.905500590801239014e-01 4.564566910266876221e-02 7.773783057928085327e-02 -1.347233653068542480e-01 -3.189711598679423332e-03 -4.520659148693084717e-02 -1.614995002746582031e-01 3.479186818003654480e-02 -1.695114932954311371e-02 8.451364934444427490e-02 -1.312669664621353149e-01 3.428893908858299255e-02 -4.695784673094749451e-02 -9.805859625339508057e-02 -2.259949408471584320e-02 -8.842997252941131592e-02 -1.607523486018180847e-02 3.571343049407005310e-02 5.595018342137336731e-02 -4.578814655542373657e-02 6.662073731422424316e-02 -5.509390309453010559e-02 1.026639118790626526e-01 9.129519574344158173e-03 1.036477833986282349e-02 -1.018844619393348694e-01 5.312010645866394043e-02 1.183423772454261780e-01 -9.501288831233978271e-02 -1.247458830475807190e-01 8.681472390890121460e-02 -7.195817679166793823e-02 -1.506197601556777954e-01 1.570589989423751831e-01 -1.730650216341018677e-01 1.132933609187602997e-02 8.245471864938735962e-03 6.458949297666549683e-02 -1.393999755382537842e-01 -1.190650835633277893e-01 1.125492453575134277e-01 4.749650880694389343e-02 1.476923283189535141e-02 7.590887136757373810e-03 -7.073016464710235596e-02 -3.815867379307746887e-02 -1.378482729196548462e-01 -3.023822419345378876e-02 -7.316685467958450317e-02 -5.521132424473762512e-02 8.017785847187042236e-03 -9.569538384675979614e-02 1.573443114757537842e-01 1.797920442186295986e-03 -2.461966872215270996e-02 -2.902215532958507538e-02 -1.035076379776000977e-01 -1.394487917423248291e-01 1.764924228191375732e-01 1.813252083957195282e-02 -2.454283833503723145e-02 1.270694285631179810e-01 5.361489579081535339e-02 6.037072092294692993e-02 -1.264447420835494995e-01 4.213901609182357788e-02 -7.024703919887542725e-02 1.360079944133758545e-01 8.081924170255661011e-02 5.582296475768089294e-02 5.736127030104398727e-03 7.000176608562469482e-02 1.371504068374633789e-01 3.811249509453773499e-02 1.455398201942443848e-01 4.706246778368949890e-03 -1.372696161270141602e-01 -2.681456878781318665e-02 -7.167417556047439575e-02 1.421127468347549438e-02 1.171461772173643112e-02 1.274158209562301636e-01 -7.881353795528411865e-02 1.625819653272628784e-01 -1.604553610086441040e-01 1.558571159839630127e-01 -2.110375650227069855e-02 7.552757114171981812e-02 -9.024026244878768921e-02 3.028635121881961823e-02 -3.693846985697746277e-02 -3.710135444998741150e-02 -5.166340619325637817e-02 1.056935191154479980e-01 5.705368146300315857e-02 9.150420129299163818e-02 -7.195699959993362427e-02 5.292282626032829285e-02 1.677704975008964539e-02 -7.470481842756271362e-02 2.744060568511486053e-02 -9.098452329635620117e-02 6.458901613950729370e-02 -6.378021091222763062e-03 -5.056341364979743958e-02 9.147101640701293945e-02 -1.749398186802864075e-02 6.778985261917114258e-02 -1.750251054763793945e-01 1.045302301645278931e-01 -1.908658258616924286e-02 -5.345044657588005066e-02 1.459413617849349976e-01 5.250193551182746887e-02 5.067927390336990356e-02 8.838693797588348389e-02 2.056062780320644379e-02 -4.445965215563774109e-02 1.436874717473983765e-01 -1.772768497467041016e-01 7.835331559181213379e-02 7.059259712696075439e-02 1.989900916814804077e-01 -1.287067979574203491e-01 -3.186406940221786499e-02 4.672809969633817673e-03 8.688209950923919678e-02 -2.328024432063102722e-02 -7.577139884233474731e-03 2.921444177627563477e-02 -3.965261951088905334e-02 9.814474731683731079e-02 1.316023916006088257e-01 2.593087963759899139e-02 -4.703044518828392029e-02 1.364697068929672241e-01 4.499494656920433044e-02 1.549838185310363770e-01 7.042973488569259644e-02 -5.171929486095905304e-03
-1.218026652932167053e-01 -1.795830726623535156e-01 5.855827406048774719e-02 -6.804899894632399082e-04 -4.909445717930793762e-02 2.086177654564380646e-02 -4.989981278777122498e-02 1.536209732294082642e-01 -2.173075824975967407e-02 8.178903162479400635e-02 -6.018203496932983398e-02 4.631149023771286011e-02 -1.792515516281127930e-01 -5.309575423598289490e-02 4.179811477661132812e-02 -4.177827015519142151e-02 -1.655399054288864136e-01 -4.601071402430534363e-02 6.506071239709854126e-02 7.626722753047943115e-02 -3.761324658989906311e-02 -2.462355606257915497e-02 7.501317560672760010e-02 -1.190786287188529968e-01 -2.664160728454589844e-02 -4.749582335352897644e-02 6.936374586075544357e-03 1.124492883682250977e-01 -1.132818870246410370e-02 -3.800090774893760681e-02 1.126931533217430115e-01 2.233657054603099823e-02 -3.927756473422050476e-02 -2.410569787025451660e-02 9.784603863954544067e-02 -4.730291664600372314e-02 6.716784089803695679e-02 -3.769424930214881897e-02 -6.745260208845138550e-02 -1.412534117698669434e-01 9.182053804397583008e-02 6.379809230566024780e-02 5.712113901972770691e-02 -7.189243286848068237e-02 -1.552222967147827148e-01 9.242957830429077148e-02 2.146956883370876312e-02 3.187990188598632812e-02 1.790281198918819427e-02 -9.015382081270217896e-02 1.485160435549914837e-03 -8.805496990680694580e-02 -3.745969757437705994e-02 -5.398444458842277527e-02 -5.050170235335826874e-03 -4.146114736795425415e-02 1.646437495946884155e-01 7.822560518980026245e-02 1.234936341643333435e-01 1.162142753601074219e-01 7.507757842540740967e-02 1.945718377828598022e-01 1.126034557819366455e-02 -4.105442389845848083e-02 -5.628611519932746887e-02 -1.574943363666534424e-01 -7.196634542196989059e-03 -6.969039142131805420e-02 -1.200744062662124634e-01 1.676110774278640747e-01 4.376008734107017517e-02 1.897162348031997681e-01 2.416743710637092590e-02 9.415337815880775452e-03 -9.535326063632965088e-02 -5.338309332728385925e-02 -2.232147566974163055e-02 1.078928634524345398e-01 3.582888050004839897e-03 2.594040706753730774e-02 5.958976224064826965e-02 -9.925156831741333008e-03 1.109196096658706665e-01 -1.167070679366588593e-02 -4.521356150507926941e-02 -6.432011723518371582e-02 2.093108557164669037e-02 -1.027305126190185547e-01 -3.752023354172706604e-02 8.794233202934265137e-02 -7.292059063911437988e-02 -4.969076067209243774e-02 -2.035059593617916107e-02 3.032489120960235596e-02 5.547882989048957825e-02 -1.554842144250869751e-01 -4.095180332660675049e-02 4.021938890218734741e-02 5.124011263251304626e-02 -4.694628342986106873e-02 3.507714346051216125e-02 -1.763972081243991852e-02 1.201922446489334106e-01 -4.110184311866760254e-02 -1.610953062772750854e-01 1.042222902178764343e-01 -5.456642434000968933e-02 4.351466521620750427e-02 -1.409892141819000244e-01 1.692161113023757935e-01 -5.222433805465698242e-02 -2.344395965337753296e-02 4.068754613399505615e-02 -8.201583474874496460e-02 -5.155081674456596375e-02 -6.316486396826803684e-04 -9.434214979410171509e-02 -2.293422259390354156e-02 -1.464573480188846588e-02 -1.368206739425659180e-02 -3.781273216009140015e-02 -4.842193797230720520e-02 -1.482549309730529785e-01 1.159607917070388794e-01 9.137281216681003571e-03 -1.234776303172111511e-01 5.851039290428161621e-02 5.848410353064537048e-02 1.755985915660858154e-01 1.279405206441879272e-01 -7.888787984848022461e-02 1.945058815181255341e-02 8.426597714424133301e-02 -2.648880146443843842e-02 1.066026277840137482e-02 -7.607565075159072876e-02 5.342920497059822083e-02 -7.359615061432123184e-03 2.763454429805278778e-02 -1.114585548639297485e-01 -1.101083382964134216e-01 2.553470246493816376e-02 -2.786855399608612061e-02 1.070605497807264328e-02 -7.957973331212997437e-02 -3.333396092057228088e-02 1.469170302152633667e-01 7.797209918498992920e-02 -2.882675826549530029e-02 3.038750961422920227e-02 -4.320377111434936523e-02 5.598276853561401367e-02 -1.527283042669296265e-01 1.439554244279861450e-01 -7.602166384458541870e-02 4.036612436175346375e-02 -3.339808434247970581e-02 -1.105812788009643555e-01 5.178755149245262146e-03 1.909661591053009033e-01 1.484432816505432129e-02 -9.174075722694396973e-02 -1.810889691114425659e-02 -1.904683560132980347e-02 1.816098988056182861e-01 1.485114544630050659e-01 -1.613252758979797363e-01 -3.302878141403198242e-02 -1.036363393068313599e-01 -8.346558362245559692e-02 1.505357176065444946e-01 4.058832302689552307e-02 8.678852580487728119e-03 3.953042626380920410e-02 8.187511563301086426e-02 1.060775890946388245e-01 1.796910166740417480e-01 -3.732652589678764343e-02 -1.313568055629730225e-01 -3.824693337082862854e-02 2.186937816441059113e-02 1.162817254662513733e-01 -1.240969672799110413e-01 -1.210817694664001465e-01 -2.133421803591772914e-04 -1.592104323208332062e-02 3.352309809997677803e-03 3.433898091316223145e-02 -3.962445072829723358e-03 -1.589184850454330444e-01 -6.294021010398864746e-02 -1.512937434017658234e-02 4.743145033717155457e-02 2.683763206005096436e-02 1.643681079149246216e-01 -1.971703581511974335e-02 -3.602137044072151184e-02 -1.227172906510531902e-03 -1.053702365607023239e-02 1.546593308448791504e-01 5.533618852496147156e-02 2.816995047032833099e-02 -4.740245640277862549e-03 -1.237878203392028809e-01 1.186688318848609924e-01 5.822003632783889771e-02 -1.434771865606307983e-01 -2.509915269911289215e-02 1.862164819613099098e-03 2.157900854945182800e-02 -1.182101145386695862e-01 -6.054461002349853516e-02 8.393216878175735474e-02 -4.772881045937538147e-02 -6.497433874756097794e-03 1.093754265457391739e-02 4.667751118540763855e-02 -2.458841912448406219e-02 9.188493341207504272e-02 -5.173240322619676590e-03 -4.021016508340835571e-02 4.599362984299659729e-02 -5.373158678412437439e-02 -7.712532579898834229e-02 -1.006537005305290222e-01 -9.723957628011703491e-03 5.648657307028770447e-02 2.372249402105808258e-02 1.115406751632690430e-01 1.157402023673057556e-01 6.870502140372991562e-03 4.684329777956008911e-02 1.706261932849884033e-02 8.302988484501838684e-03 -1.301596909761428833e-01 -3.294065594673156738e-02 -1.125771775841712952e-01 1.021840143948793411e-02 -1.447160542011260986e-01 1.574937552213668823e-01 4.633859917521476746e-02 -3.963499516248703003e-02 -8.279214613139629364e-03 5.478540807962417603e-02 6.237467750906944275e-02 -9.539710730314254761e-02 -7.652365416288375854e-02 1.238225921988487244e-01 1.639763638377189636e-02 -6.531313061714172363e-02 -8.825128525495529175e-02 8.375862985849380493e-02 -2.831504680216312408e-02 -6.184352189302444458e-02 -9.331142157316207886e-02 8.929772675037384033e-02 1.308832913637161255e-01 -1.022220179438591003e-01 1.497237533330917358e-01 1.916999183595180511e-02 -1.808885298669338226e-02 -9.231445193290710449e-02 5.374411493539810181e-02 -1.338070817291736603e-02 8.189287036657333374e-02 -2.279837243258953094e-02 7.959569990634918213e-02 9.045908600091934204e-02 1.678352802991867065e-01 4.586146026849746704e-02 4.526169970631599426e-02 -3.050709143280982971e-02 1.439443081617355347e-01 2.153044007718563080e-02 5.308412946760654449e-03 -6.370773911476135254e-02 -2.560445480048656464e-02 4.671537782996892929e-03 -7.317809760570526123e-02 1.179514639079570770e-02 -1.794688589870929718e-02 -1.783078759908676147e-01 -9.605079144239425659e-02 5.381486564874649048e-02 -3.218951076269149780e-02 -1.301823705434799194e-01 7.236333936452865601e-02 -7.302008103579282761e-03 -3.056125156581401825e-02 -9.489279240369796753e-02 -8.113992959260940552e-02 -5.871898680925369263e-02 5.807843059301376343e-03 6.831996887922286987e-02 -9.218157082796096802e-02 1.036577448248863220e-01 -6.084749847650527954e-02 -1.272347718477249146e-01 -6.112034246325492859e-02 2.128957211971282959e-02 -5.409553647041320801e-02 3.959567472338676453e-02 -1.000751778483390808e-01 1.573712378740310669e-01 7.214370369911193848e-02 -1.152305975556373596e-01 -3.997724503278732300e-02 1.601572036743164062e-01 1.479668021202087402e-01 1.558027137070894241e-02 -4.606803879141807556e-02 1.612727940082550049e-01 -2.295759320259094238e-02 1.007295027375221252e-01 -4.118300974369049072e-02 -1.394106000661849976e-01 -5.239726509898900986e-03 -2.544791810214519501e-02 -7.770787924528121948e-02 1.549058128148317337e-02 4.334942996501922607e-02 1.529824174940586090e-02 -2.802546136081218719e-02 -9.051561355590820312e-02 -3.280137479305267334e-02 -5.749066360294818878e-03 2.363700419664382935e-02 -7.678396254777908325e-02 8.972113579511642456e-02 -5.403139814734458923e-02 1.009855270385742188e-01 -1.401236951351165771e-01 -1.293156594038009644e-01 -2.513326518237590790e-02 2.516827546060085297e-02 -1.679416932165622711e-02 -2.932756021618843079e-02 -3.059941902756690979e-02 -8.057475835084915161e-02 -8.290510624647140503e-02 -7.765828818082809448e-02 -4.049189388751983643e-02 -1.697252690792083740e-01 1.004925519227981567e-01 -1.565840244293212891e-01 1.061425730586051941e-01 -1.604949980974197388e-01 -1.883258484303951263e-02 -1.008994659059680998e-04 5.478161573410034180e-02 -7.350818812847137451e-02 1.707181185483932495e-01 -1.107887402176856995e-01 1.424176394939422607e-01 6.176100578159093857e-03 1.068798303604125977e-01 5.635992437601089478e-02 -3.098172508180141449e-02 -6.879980117082595825e-02 1.461957991123199463e-01 5.766912922263145447e-02 1.373156756162643433e-01 -1.198673620820045471e-01 1.053783576935529709e-02 -1.438824683427810669e-01 -2.216576226055622101e-02 1.801756173372268677e-01 -7.331777364015579224e-03 -2.998990751802921295e-02 -4.464422911405563354e-02 7.610893249511718750e-02 6.808067858219146729e-02 -5.037226155400276184e-02 -1.464787721633911133e-01 -1.608572155237197876e-01 1.764118373394012451e-01 -3.131505474448204041e-02 -7.366927713155746460e-02 1.272366493940353394e-01 8.935590833425521851e-02 1.373830884695053101e-01 -5.432056263089179993e-02 1.170004531741142273e-01 3.219363093376159668e-02 -6.835093349218368530e-02 -4.921879619359970093e-02 -1.252321451902389526e-01 -4.380720201879739761e-04 8.187852054834365845e-02 9.822864085435867310e-02 2.779688499867916107e-02 -1.032635495066642761e-01 5.587692931294441223e-02 1.185862198472023010e-01 -1.060585528612136841e-01 1.450680941343307495e-01 6.469440460205078125e-02 4.288913682103157043e-02 -1.282661557197570801e-01 -1.863861232995986938e-01 8.893688023090362549e-02 -1.360948383808135986e-01 -1.153558045625686646e-01 -1.195779442787170410e-01 7.776402682065963745e-02 1.659092307090759277e-01 -3.352677449584007263e-02 -5.068052932620048523e-02 -1.062177773565053940e-02 6.607376039028167725e-02 3.470969153568148613e-03 -7.538046687841415405e-02 -8.731440454721450806e-02 -1.738616526126861572e-01 1.780573278665542603e-02 -1.185313388705253601e-01 6.927680969238281250e-02 -1.601529121398925781e-01 -1.659612655639648438e-01 1.903910636901855469e-01 1.429132819175720215e-01 1.884878128767013550e-01 9.660486131906509399e-02 -1.530430890852585435e-04 -3.128387406468391418e-02 2.666244283318519592e-02 4.813895747065544128e-02 8.645939826965332031e-02 -9.359361976385116577e-02 -1.189580112695693970e-01 -1.176246628165245056e-01 -9.672239422798156738e-02 7.502517849206924438e-02 3.102648817002773285e-02 1.037758216261863708e-01 1.240947395563125610e-01 -1.635601371526718140e-01 9.249863028526306152e-02 1.383547186851501465e-01 -8.588864654302597046e-02 -8.092591166496276855e-02 -8.089729398488998413e-02 6.294576916843652725e-03 7.664884626865386963e-02 9.474764764308929443e-02 1.495249010622501373e-02 5.406575277447700500e-03 -2.997477911412715912e-02 -1.307817399501800537e-01 -3.258695453405380249e-02 -2.721388079226016998e-02 -8.924843370914459229e-02 7.144158333539962769e-02 -2.545342408120632172e-02 1.751060336828231812e-01 -1.753005236387252808e-01 1.676319725811481476e-02 -5.534439161419868469e-02 -6.024535372853279114e-02 -7.036992162466049194e-02 4.294389113783836365e-02 -1.693658232688903809e-01 -1.066522151231765747e-01 8.835842460393905640e-02 -2.015423774719238281e-02 -2.938744425773620605e-02 4.017291590571403503e-02 -1.343397200107574463e-01 4.899392370134592056e-03 1.518585253506898880e-02 1.119742915034294128e-01 2.661234699189662933e-02 1.672215610742568970e-01 -1.091444715857505798e-01 6.036543846130371094e-02 1.139621883630752563e-01 1.074028108268976212e-02 -3.195665031671524048e-02 1.667656153440475464e-01 2.814087830483913422e-02 1.039532828144729137e-03 -9.218613803386688232e-02 -7.177358865737915039e-02 -1.341624557971954346e-01 -2.661264874041080475e-02 -9.620951861143112183e-02 1.162706613540649414e-01 1.203213259577751160e-01 6.758562475442886353e-02 -1.245518103241920471e-01 2.125044912099838257e-02 -6.579943746328353882e-02 2.385329827666282654e-02 1.165839210152626038e-01 -2.972513809800148010e-02 -3.424902260303497314e-02 1.030632182955741882e-01 -7.750157266855239868e-02 8.228273689746856689e-02 1.644584685564041138e-01 1.586786508560180664e-01 6.748406589031219482e-02 6.008685752749443054e-02 2.484624646604061127e-02 4.949588701128959656e-02 -1.330357044935226440e-01 6.043856218457221985e-02 -3.597636893391609192e-02 3.336982801556587219e-02 -4.490318521857261658e-02 6.451167911291122437e-02 -7.295000553131103516e-02
